9996 32
. -0.004318213 -0.022043977 -0.02055796 0.026171023 0.003525122 0.042624943 0.01769392 -0.020656364 0.003411615 -0.1101467 0.01737958 -0.0056842 0.042841084 -0.012577072 -0.042371072 -0.05150048 0.050736886 0.04708357 -0.008148469 0.007756846 -0.00598013 0.053587876 0.004186575 -0.08050457 -0.099550165 0.01839613 -0.059386365 0.024810925 0.059932224 -0.07015452 0.024808334 -0.042454645
영화 -0.039902985 0.040002428 -0.018191766 0.0033154828 0.026301565 0.047639735 0.0074818702 -0.0052615386 -0.048181426 -0.009991479 -0.07174779 -0.01681339 -0.04276263 -0.042750873 0.061216727 0.05691511 -0.08047714 0.06540478 -0.0155407265 0.036864314 0.051759288 -0.060531452 0.015020313 -0.052281253 0.023409136 0.08617938 -0.04931103 -0.02305379 0.053205475 -0.018037954 -0.040297065 0.07361802
다 0.047145985 0.00047459078 0.024294429 0.01987889 0.08722044 0.10967086 0.056309883 0.02389619 0.032257434 -0.006826389 -0.03682151 -0.008090039 0.013218632 0.041431997 0.08081889 0.010667673 0.028203357 0.017056305 0.02744507 0.028559554 0.045834668 0.035965808 -0.026470114 -0.046771258 -0.007582681 0.058071382 -0.042370763 -0.060345862 0.067289636 -0.023767065 -0.058024056 0.025026008
고 0.036813006 0.06704549 0.011874772 0.05368224 -0.039879348 0.004028959 -9.754462e-05 -0.03183009 0.030626042 -0.004035973 0.06937916 0.004750958 0.0009332488 0.05601306 -0.011818865 -0.011848965 0.076726995 0.004726307 -0.057127956 0.04097172 0.0070762374 0.012937646 -0.0033008698 -0.12374237 0.023250088 0.024840098 -0.045516618 0.03428558 -0.003000327 -0.0039638574 -0.06394428 0.020931609
하 0.057214227 0.0074957195 -0.0028026658 -0.03247877 0.011115143 0.0456223 -0.020871826 -0.062210206 0.001661 0.022838421 0.011699513 -0.007761485 -0.0213716 -0.004418815 -0.022108264 -0.013577602 -0.058201857 -0.039794493 -0.04055169 -0.045335084 -0.045858275 0.015702264 0.019922957 -0.019714547 0.016871942 -0.0020034239 -0.004034564 0.0072701955 -0.007497475 0.046719443 -0.083526805 -0.002062315
을 -0.04697207 -0.025138605 -0.017831214 0.024808506 0.024357509 -0.05152065 0.08466231 -0.07044785 -0.007901568 0.030750044 -0.016701462 0.017682716 0.016447505 0.00056527706 0.0036604593 0.039004833 0.015112269 -0.070732705 -0.053936053 0.038034506 -0.0025906686 -0.0046298336 -0.012407366 -0.024997003 -0.058492415 -0.0019051022 0.041034542 0.01640259 0.002214636 -0.016520938 -0.048622273 -0.051834177
보 0.02429876 0.028565995 0.080317855 0.041791264 0.09646518 -0.039800785 0.050961815 0.011354457 0.013705874 0.05230894 -0.03483817 -0.08215899 0.04138731 -0.030630946 -0.04806042 0.03380188 -0.048491158 0.051180888 0.016756834 0.06996696 0.01260059 -0.0031447036 -0.06540785 -0.05177474 0.08262457 0.006487507 -0.008134362 0.059608117 0.022636546 -0.020589199 0.0062120254 0.03398003
.. -0.061099567 0.030093648 -0.057976916 0.06015172 0.10648476 0.0011199336 0.04414627 -0.028135758 -0.023401938 -0.018859062 0.032568347 0.011893233 0.03503809 0.055265225 -0.020569522 0.089773566 -0.026153576 -0.040892754 -0.018738938 0.036245335 -0.013024351 0.034530878 -0.00695746 -0.015160939 -0.023942322 0.06784712 -0.011731819 -0.058496628 0.046975408 -0.049195446 0.014646206 0.022438293
게 -0.087600075 0.0072730444 0.009132964 0.06327409 0.0688634 0.005746417 -0.0086899875 0.055775262 0.026442543 0.08185751 -0.01549217 0.11315516 0.062754415 0.03807461 -0.02268056 0.012909114 -0.04521436 -0.05779871 0.05973727 0.0790869 -0.037931286 0.032117378 0.05723126 -0.053409476 0.08640613 0.07005751 -0.068537414 0.077052124 0.060084004 -0.023437245 -0.010305061 -0.008688628
, 0.085854664 0.016416863 -0.013496212 0.02945604 0.14666246 -0.017522145 -0.010267562 0.0014512909 0.075687 -0.019719072 0.034895264 -0.045148488 0.064936005 0.08668742 -0.0038192829 0.016308505 -0.00039157193 0.004192094 -0.030120267 0.074676566 0.01831186 0.076986566 0.025752129 -0.047560785 -0.021320282 0.046143454 0.03105175 -0.018438451 -0.003949449 -0.009344301 0.012256013 -0.02449804
! -0.048499066 0.00668548 0.008923425 -0.004114097 -0.011021889 0.027003095 -0.027439423 0.06911472 -0.060913935 0.01602884 0.055163667 -0.09488384 0.0012809793 -0.025750536 0.13014407 -0.06613796 0.10124739 0.093975745 -0.014654499 -0.003940252 -0.033317376 -0.09616528 0.0175857 -0.09929217 0.017462818 -0.04639284 0.054460358 -0.0530218 -0.0039643734 0.0017839205 -0.13128722 -0.04561486
지 0.0027319875 -0.025774073 -0.03522826 -0.07757076 0.08374869 -0.11874108 -0.024292495 0.020946378 0.055958815 -0.04246578 -0.081341356 0.0010047258 -0.069869205 -0.074818924 -0.01579687 -0.019638574 0.050972145 -0.07580938 0.018260282 -0.04073033 0.043098077 0.0032431302 -0.0077331113 -0.0067984485 0.12296922 -0.007043428 0.040103167 0.024260258 0.07550144 0.029890632 0.004970865 -0.06680704
있 -0.025114063 0.075082764 -0.015466685 0.06201954 0.045837216 -0.026355071 -0.0635977 0.07093077 -0.015190137 -0.0039430424 0.0015157436 -0.03689785 -0.017340647 -0.06142981 -0.00421268 0.056256164 0.034031063 0.035405684 0.01838298 -0.0033357497 0.011462393 -0.013329211 -0.03138193 -0.054824997 -0.0017534171 0.0011737058 -0.012097387 0.0030202381 -0.041544966 -0.042772986 0.008502072 -0.048271324
없 0.089125715 -0.13797787 -0.058995765 -0.03183894 -0.09514056 -0.07524477 0.009718182 -0.12593147 0.029000394 -0.2109575 -0.06707854 0.027277451 0.0742727 0.04888123 -0.060336184 0.0703996 0.016480641 -0.11850921 0.01146549 0.019960806 -0.13419765 0.056725744 0.09490091 -0.060074233 -0.082170434 0.019908026 0.021039171 -0.02868211 0.09843849 0.15967448 -0.060411684 -0.036613837
? 0.0669358 -0.069215186 -0.019026827 -0.04058145 0.0062398002 -0.026154952 0.030947745 0.026905065 -0.07975073 0.01774225 -0.038251106 0.021830523 0.027384749 -0.03044772 -0.055327594 -0.00933267 0.04409683 -0.083991714 0.016738787 -0.041671533 -0.03748797 -0.026513021 0.067226216 -0.04277029 0.0026949432 0.044749558 -0.08893976 -0.0048352303 -0.014111251 0.07819004 -0.009100515 -0.02390361
좋 -0.09891158 0.047903944 0.116835274 0.072106175 -0.0010822378 0.015189725 -0.04685437 0.074743226 0.045411438 -0.0014473724 0.14235052 0.056222223 0.03586322 -0.02237374 0.04515784 -0.07372554 -0.001155574 0.03415009 0.026761835 0.120025225 0.024416262 -0.06739906 -0.11334675 -0.011114095 0.004604917 0.03594715 0.043497838 -0.04879537 -0.103837214 -0.07095212 0.04599427 0.05971821
나 -0.02059659 0.027026141 -0.02715127 0.0415881 -0.02422519 -0.049239445 -0.023886664 0.040069457 -0.0045960587 0.009915003 -0.0040740613 0.028625308 0.028895332 0.010121957 0.0073638884 -0.0039926944 0.064323746 -0.07151591 -0.03728714 -0.03260694 -0.0019920494 0.017621534 -0.014484047 -0.044388685 -0.042765412 -0.061460305 0.008182363 0.038086336 0.038189694 0.09806417 0.0023135021 -0.022289282
었 -0.05554176 0.010761552 0.04659247 0.002399506 0.086730495 0.04277103 0.056736358 -0.04859205 0.0786022 0.035374857 0.07042791 -0.051922172 0.0136106955 -0.016466517 0.0108256545 -0.018550994 0.008458138 -0.0189793 -0.049147367 0.05635105 0.05298894 -0.021929456 -0.009771876 -0.025286954 0.07640545 -0.046765532 -0.018164467 0.0017606512 0.025178123 0.04978334 0.06625067 0.12521346
만 -0.00095739134 -0.030475 0.014902666 -0.05956444 0.05105921 0.029953703 0.010908525 0.0016978406 -0.035766073 0.017645344 -0.019837689 -0.106197186 -0.016726196 0.05072702 0.031035122 0.064630724 0.13285267 -0.022209203 0.036890306 -0.03188231 -0.063299365 0.043633815 0.0013610453 0.06447185 -0.06385789 -0.06521391 -0.023418868 -0.04317219 -0.14200012 0.045006864 0.043059174 0.0041523133
는데 -0.06839081 -0.018266158 0.022055136 -0.023683092 -0.0034270987 -0.061348677 -0.07078728 -0.017636113 0.04446531 0.050655283 -0.020727765 0.030854803 0.019488756 0.034272946 0.034206327 0.02715355 -0.053749822 -0.05740176 -0.034302436 0.06826913 0.084231585 0.091808766 -0.019256556 -0.034001127 0.00860496 0.014514873 -0.02901058 0.06581884 0.056873765 -0.025477841 -0.06651988 -0.0124802645
너무 0.05245551 0.005937701 -0.07898722 0.15714279 -0.079625055 -0.08795242 -0.05239765 -0.07319156 0.018311562 0.06537332 -0.044255406 0.038972646 0.07038496 0.005285217 0.013309289 0.037322283 0.025500463 -0.026215266 -0.052836243 0.046178807 0.09315423 0.06829975 -0.04236968 0.06286443 0.15106511 0.045106832 -0.008234062 0.08508823 0.18028603 0.011095585 0.016032975 0.03517967
봤 0.002810093 0.05066118 -0.06198392 0.07945232 0.040061023 -0.07452844 -0.094933584 0.018779505 0.056236148 -0.12875944 0.052999157 0.005987827 -0.04719567 -0.050781783 0.027109005 0.02441758 0.019605732 -0.058474142 0.034395654 -0.03904904 -0.018603528 -0.059446212 -0.023723511 -0.041273333 0.097638614 0.050529707 0.016396407 0.05009088 0.040029302 -0.03472388 -0.031685203 0.06172128
적 -0.065124586 -0.029605346 0.033075992 0.00020364745 0.07777699 0.022048173 0.015175227 0.08379211 -0.036842663 -0.038119484 0.002289203 -0.044699755 0.10727764 0.012138546 0.010701535 0.0071342173 0.04626283 0.015339809 0.04376224 0.03095256 0.025201958 0.004786553 0.049689725 -0.009993787 -0.01502599 -0.0027440316 -0.0028968633 -0.011193701 -0.0009072145 -0.094171986 -0.018192314 0.062969476
안 0.071263425 0.009948549 -0.04416194 -0.17353572 0.039928485 0.06560402 0.041347418 -0.12932344 -0.09266681 -0.012333904 0.0039240983 -0.027487852 -0.009298656 0.06569263 0.04925384 0.04050255 0.103600115 -0.09284568 -0.047755234 -0.15224996 -0.07361082 -0.05062459 0.052038 -0.1569261 -0.014791064 0.03495487 0.0054952335 -0.0454837 -0.18003935 0.10415935 -0.12868415 0.011645264
정말 -0.033741724 0.069072045 0.01980866 0.12665091 0.009816069 0.0018903879 -0.039707992 -9.823659e-05 0.10101159 0.018903926 0.0236558 0.0027935305 0.069940224 -0.04084846 0.09371998 -0.014971669 0.023095934 0.08176119 0.023586428 -0.04338756 0.04074013 -0.032179292 -0.06222654 -0.035871267 0.013401894 -0.035788033 0.05087591 0.03919386 0.041216914 -0.00822597 -0.08230754 -0.013249271
로 -0.035493657 -0.047716442 -0.015925499 0.035412434 0.08520248 -0.0660762 0.0041552545 0.0033626559 -0.019551024 0.117657855 -0.006193828 0.0044602472 -0.052865893 -0.010334513 -0.03835901 -0.064439595 0.06125514 -0.07349174 0.009315999 -0.017316947 0.034329336 0.08081235 -0.023807006 -0.023902452 0.06834555 -0.015194414 -0.0076571074 -0.060317427 0.11962051 -0.018872974 0.052052267 -0.006431997
음 -0.021220125 -0.010737652 -0.033133693 0.0148732355 0.018712021 0.11372013 0.022490744 -0.030580888 0.07071592 0.020770134 -0.047121413 -0.03657844 0.026018117 0.023815941 0.03004991 0.025079438 0.04215971 0.071238205 -2.2282587e-05 0.0122203855 -0.017824048 0.013416233 0.03668926 -0.024369275 -0.03077993 0.06362513 -0.05238082 0.025845503 0.051758587 -0.055489816 -0.06525766 0.054990783
것 0.024622085 0.003261729 0.004353439 -0.034673497 0.08510696 0.018824214 0.006849051 0.002955426 0.023602333 -0.04003583 0.07359375 -0.059964493 -0.048772857 -0.056269694 0.092439376 -0.027344098 0.03960644 -0.010867708 0.0162128 -0.01222122 0.046381857 -0.014720687 -0.008308791 -0.0017359636 0.0076252436 -0.06929988 -0.02253287 -0.068366535 0.06265558 -0.045194224 0.017992647 0.022015836
아 0.009012322 0.050724454 -0.02821592 0.006634434 0.058796067 0.015220008 -0.04370287 0.020812213 0.0005878263 0.015135509 0.02368344 -0.014718249 0.013920439 -0.048799127 -0.0015599378 0.03329755 0.039477736 0.04977414 0.06378387 -0.03333016 -0.037994485 0.031554617 -0.009946052 -0.024888946 -0.042022556 0.00849127 -0.0007958289 0.0064056884 0.05709165 0.055362258 -0.0240108 0.04314852
네요 0.0048708115 0.056594662 -0.03569384 0.075959995 -0.053769454 0.09026058 0.019522944 0.06536576 0.0482777 -0.011104181 0.07066021 -0.0050626765 -0.0076621133 -0.03323782 0.0538079 -0.0042448873 0.11527091 0.07814367 0.050102778 0.07634219 0.0012441849 -0.027983084 -0.033469792 -0.031080054 -0.019150104 -0.00071905577 -0.03467693 -0.06395636 0.022763219 -0.06637144 -0.062901 0.0026185282
재밌 -0.09000534 0.09806043 0.08452572 0.15574607 -0.17409597 0.10209125 -0.117749594 0.07515371 0.17951626 0.0060501713 0.04888838 0.078771695 -0.061422776 -0.064982794 0.05367804 -0.054940697 -0.03945262 0.06197255 0.07204672 0.020401062 0.08112105 -0.058969248 -0.118562974 0.043272607 -0.0121072605 0.13675947 0.10634737 -0.02704785 -0.026409457 -0.12998663 0.15488654 0.11290373
어 -0.00859605 0.035479072 0.08612983 -0.021090925 0.016133478 -0.015223893 -0.004334442 0.010214023 -0.0056362017 0.01934992 -0.009914183 -0.04553674 0.020986555 0.020002678 -0.052228812 0.102210805 -0.009643586 0.074315965 0.059839435 0.047634926 0.04210845 0.029018132 0.045554757 0.0048794947 0.05054088 0.003162105 -0.044936135 0.056145098 -0.0025790806 0.04032228 -0.031113345 -0.030360254
같 0.014687522 0.051498998 -0.055216745 -0.03601594 0.1139647 0.0034894263 0.005351825 -0.050974734 0.014348725 -0.016527282 -0.030843124 -0.039873324 0.08116501 -0.021396002 -0.027727935 -0.012049625 0.028072182 -0.01490759 -0.07490322 -0.0061365967 0.019980283 0.05473138 -0.027350564 -0.006247829 0.057788234 0.0136097325 -0.02628811 -0.051728263 -0.014724675 0.060960386 0.09408017 0.03216712
점 0.04023726 -0.018293358 0.027030315 -0.017508827 -0.15681848 -0.0037568863 -0.02993597 -0.11812408 0.073855035 0.027464041 -0.07683873 -0.03875888 0.008041756 0.02762189 0.06447593 -0.029919887 -0.18519415 0.05180231 0.017659914 0.016831461 -0.07155584 -0.028793098 -0.020728583 -0.046231702 -0.14306255 -0.05633355 0.008778994 -0.100410596 -0.027683688 -0.044128243 0.06264855 0.08276676
지만 0.028390754 0.024229623 0.038964003 0.05956809 0.061139863 -0.12092957 -0.014678227 -0.031206986 0.10936653 -0.045722306 -0.029515842 0.00751184 -0.040688552 -0.012885761 -0.031595964 0.10453743 -0.054816183 -0.11928663 0.052971244 -0.032424327 0.030108267 0.13759564 -0.10902573 -0.12498467 0.021835597 0.04865576 0.019373337 -0.017240124 0.12330935 0.14552626 0.018254079 -0.0999268
진짜 -0.007370082 0.11664399 0.002854099 0.092413455 -1.5996338e-05 0.05925431 -0.10436367 -0.0426951 0.03009195 0.011677322 -0.019501602 0.016527338 0.05514955 -0.06736919 -0.0009414703 0.0028616153 0.04274013 -0.027028292 -0.012749616 -0.026293902 0.07259946 0.082680546 -0.023054723 -0.05866668 0.001603675 -0.007149016 0.06828044 0.03096246 0.07929548 -0.081197076 0.04932604 -0.029357795
했 0.066258796 -0.0105455415 -0.0055925474 -0.014545936 0.038369946 0.029227294 -0.01646572 -0.008732903 -0.04591352 0.018286875 -0.05551038 -0.04685512 -0.07701168 0.061410066 0.09734734 0.05355672 -0.061382897 0.0038496538 0.086139545 -0.015014843 -0.044379912 -0.025003823 0.033094615 0.038698107 0.0040136795 0.025971556 0.047574215 -0.08458885 0.035617042 -0.016940614 0.0007798167 0.04222117
에서 0.012126714 0.041328423 0.00727408 -0.043577533 -0.026605228 -0.009266278 -0.0053057713 -0.055535346 -0.016918395 -0.051741697 -0.026520303 0.047298085 0.046267755 -0.030506084 0.01299788 -0.008458676 -0.059452344 0.008646132 -0.04094906 -0.013718302 -0.005841582 -0.008303532 0.035057805 -0.011854963 -0.09064844 0.021696242 0.03341934 0.003515713 -0.0077508492 0.0052058734 0.020294 0.0017620643
기 0.046585303 0.014294756 -0.01928722 -0.03754512 -0.027412746 -0.013224309 -0.035919536 -0.076036155 0.024941636 0.036111213 -0.09261297 -0.08127244 -0.018369902 0.014491781 -0.050533228 -0.0150383115 0.041397385 -0.031209143 -0.0030513536 0.019582948 0.021614227 0.028531969 0.04483197 -0.04545283 -0.17022598 0.010022068 -0.028495712 -0.03969365 0.013617943 0.0050931764 0.04256351 -0.0013499242
네 0.07770029 -0.008837392 -0.05617942 0.026216289 -0.052699827 0.045544602 0.0344022 0.0044274195 0.07997287 -0.05477374 -0.0101632755 -0.049702473 0.06395496 -0.025249505 0.03354807 -0.0071589104 -0.014528186 0.021302437 0.113623045 0.08447543 -0.02196452 -0.0069515617 0.09662063 0.04051744 -0.0675489 -0.00018268745 -0.044821292 -0.031214241 -0.022090746 -0.055057768 -0.05679947 0.049219105
않 -0.0060841087 -0.07756532 0.019659903 -0.052710846 -0.08029333 -0.051211175 0.0044593345 -0.043563053 0.060640607 0.085756026 0.027851367 0.004238032 0.018370127 0.0043639652 0.020227926 0.03384485 -0.091332816 -0.09291528 0.02092999 0.01671126 0.046491828 0.11103954 -0.06095645 0.0779218 -0.011667967 -0.08156867 0.08549775 -0.023383182 0.0036769009 0.05629788 0.09627877 -0.07557323
거 0.006474746 -0.014646294 0.010125524 -0.016102111 0.073031336 -0.024375996 -0.048086204 0.022510089 -0.016263535 0.041250918 0.03551944 -0.10716863 -0.016450562 0.05611693 0.0022843233 0.008104561 -0.048236422 -0.017339032 -0.07564657 0.01735273 0.0039763767 0.017569881 -0.027983615 0.020704728 0.035359733 0.07539576 -0.05406864 -0.071849816 -0.0055890153 0.045316257 -0.0365729 -0.062588446
았 0.03864114 -0.09529751 0.0346832 0.008678178 0.005081403 -0.009849128 0.04412204 0.031555712 -0.01298052 0.009121661 -0.036871694 0.013411104 -0.021987047 -0.026924303 -0.08651218 0.047814813 -0.02216722 0.0025943487 0.060340475 -0.0017516296 0.048410174 0.04103905 -0.0083475225 -0.086017795 -0.028198982 0.060261186 -0.057062954 0.079243414 -0.018929288 0.0028924947 -0.05336002 0.076230295
수 -0.06867648 0.02722287 -0.008269017 -0.005435064 0.04805368 0.0787515 0.00014574506 0.013629013 0.029901046 0.03883217 0.059648473 -0.07151706 -0.03579962 -0.026342291 0.025886973 -0.041868635 0.033293482 -0.057384796 3.7736652e-05 0.06854689 0.016608842 -0.03960773 -0.04193097 0.0052086837 -0.058240116 -0.006624884 0.07090926 -0.02316698 -0.029549887 -0.007019634 0.029400356 -0.0027636525
되 0.06357611 0.012174096 0.03237079 0.01438635 -0.00010218554 0.014203874 -0.00028054463 0.002463333 0.036746826 0.007873241 0.027336922 0.061370812 -0.02707737 0.061533485 0.027950052 -0.06598288 0.06908092 0.021357 -0.040012985 0.06932912 0.0013913218 -0.028365912 0.03291303 0.005367322 0.01793824 0.04593507 0.006700968 -0.007887098 -0.035208948 -0.044628363 0.01781882 -0.0021242744
면 0.020674886 0.040623445 0.049031336 -0.07203122 0.010482253 -0.099144176 -0.01639386 0.050719228 -0.025262708 0.033002686 -0.036326427 0.06256235 0.03506909 -0.008532231 0.00889672 -0.05294841 0.04304131 0.028620593 -0.004606626 -0.011550883 -0.03005533 -0.094843924 0.00994491 0.02212507 -0.048379373 -0.03259547 -0.052818306 -0.05517214 -0.014484314 0.029869443 0.10702188 -0.10902781
ㅋㅋ -0.033734668 -0.05200885 0.030123865 -0.05530545 0.015175207 -0.013038655 0.045049794 -0.010774242 0.00591378 -0.019888064 -0.0010324765 -0.026437188 0.031090874 -0.030292604 0.07953654 0.024171695 -0.019288002 0.03435491 -0.030251388 0.06534437 0.008732226 0.026339307 0.0038767091 0.0021631601 0.053469546 0.10893122 -0.051276907 0.01820009 0.0051171137 -0.07916963 -0.019798482 -0.045172896
말 0.024318958 0.027556224 0.055142898 0.04986428 -0.015336044 0.07789428 0.1222677 -0.04057988 0.049525913 -0.078965776 0.07253523 -0.047217965 -0.112226 -0.015548766 -0.01678586 0.050834205 0.07187661 -0.03407586 -0.048165817 -0.05542181 0.052836113 0.035714105 0.006376353 0.07818007 -0.041802842 0.025547078 0.0041026985 0.058138087 -0.008064952 0.13808472 0.048212327 0.007761635
연기 -0.03466827 -0.04216428 0.043178428 0.07630261 0.07423988 0.013772369 0.009643869 0.08006066 0.025320373 0.0216495 0.035311576 0.021151623 0.03252114 0.032193452 0.03770983 -0.055863004 0.052997008 0.11153798 0.075292766 -0.03521787 0.09878213 -0.025604539 -0.069387116 -0.1677732 -0.06521603 0.08775612 -0.011852149 -0.01378277 0.029646894 0.007858534 0.03333254 -0.01691646
인 -0.013113868 -0.022430751 -0.011656152 -0.015799165 0.08721487 0.087083414 0.014300671 0.0016289136 -0.037943218 0.028276175 0.0106249675 -0.039217547 0.016409166 0.036865197 -0.014411514 0.07337486 0.037093602 0.024961254 -0.014182273 -0.006011369 0.042741627 0.01818697 -0.018687658 -0.076162644 -0.024438493 0.014101251 -0.011582563 -0.04621109 -0.0028082235 0.024963824 -0.028955495 -0.05531105
주 0.03480675 -0.056671232 0.002446617 0.10608574 0.06254993 0.048264317 -0.028934697 0.046989996 0.023593005 -0.012971299 0.028902074 -0.004082175 -0.030111792 -0.046094812 0.09688271 -0.06675825 0.08191846 0.012668798 0.01978145 0.05767919 0.019219752 0.0031230203 0.060327157 0.024114303 0.046804 -0.004987137 -0.07392726 0.05767112 0.06379491 -0.046408042 0.07236324 0.02429608
내 0.071933486 0.05859615 -0.032577217 -0.024419473 0.029750977 -0.030876977 0.00057695044 0.0071587306 -0.031138323 0.022033941 0.0046296865 0.0074542253 0.03334015 -0.0025796455 0.012581151 0.05140936 -0.0024260322 -0.008458998 0.027999409 0.019841278 0.01854035 0.03217006 -0.01748571 0.09248502 -0.023042675 -0.026502552 0.036425937 0.0018374582 -0.038188595 0.00060025696 0.067424715 -0.052803267
최고 -0.063965544 0.09174614 0.13010396 0.010834332 -0.023530852 0.0125741605 -0.04895272 0.06439993 0.030337315 0.08363195 0.14757262 0.07833065 -0.0896403 -0.023801245 0.09994837 -0.11887544 -0.037062567 0.039593123 0.034774724 0.02752098 0.04379212 -0.104662925 -0.051869042 0.05354212 0.011741211 0.045274556 0.057862 -0.044622254 -0.070073836 -0.10612386 0.08083825 0.01953568
~ -0.091331676 0.03240322 0.012218597 0.05946331 0.032208305 0.029213028 -0.015905974 0.011721115 -0.047101274 -0.1437377 -0.0328921 0.022169324 0.017343285 -0.050433956 -0.036936563 0.019177258 0.07107069 0.03187834 -0.021897605 0.0072563314 -0.013171716 0.00028689523 -0.025167905 0.017181411 -0.08684373 0.17095973 -0.0538617 -0.0070008114 0.0048550395 -0.071827754 0.017038055 0.05798938
평점 -0.05098784 -0.024855357 0.04734756 0.0012816375 0.106826186 -0.042760212 0.013587288 -0.08130388 -0.03768627 0.0045144088 0.07241358 -0.013629136 -0.03577352 0.019101283 0.052300368 -0.002394187 -0.029519692 0.0314436 0.07921774 -0.110002935 -0.052253455 -0.010821503 0.0585023 -0.0036266095 0.08934192 0.030741462 -0.01338761 -0.012342391 -0.03026196 0.013091271 0.14381301 0.055760257
이런 0.06662843 0.018489558 -0.05508213 0.04606748 0.010075436 -0.07010257 0.10049812 -0.012273714 0.046991374 0.0029177126 0.014871069 -0.011461216 0.0068212664 0.025628466 0.02986399 0.060945094 -0.010257884 -0.059458055 -0.058557987 -0.026438057 0.025916386 0.067758396 -0.014503172 0.034850977 -0.10494239 0.0102454135 0.016838644 0.016298952 0.047491513 0.043229543 0.012911678 -0.021164535
던 -0.016273431 0.09026255 0.03585872 0.0068071666 -0.0067953644 -0.012759221 0.0008533818 0.057847705 0.018940294 -0.015929194 0.080207795 0.040776532 0.033589337 -0.0015795872 0.04580788 0.057152182 -0.016891927 -0.0013650793 0.0505411 -0.0020268469 -0.012357229 -0.010069746 0.009374858 -0.024526756 -0.014924751 0.022593785 0.006541494 0.023452131 0.04679322 -0.0088653695 -0.087205656 -0.024303988
어요 -0.111638196 0.091988824 0.09562856 0.084824435 -0.03915154 0.062840454 0.025760405 0.08988087 0.012840632 -0.028105205 0.09600372 0.03999114 -0.021737687 -0.03376326 0.013990112 -0.09202013 0.16869776 0.02622135 -0.018628685 0.049874492 0.070833236 -0.017747335 -0.016095037 -0.0070577306 -0.07314306 0.07857741 -0.0042026406 -0.03617002 -0.0056036743 -0.100427106 -0.05071179 0.035491947
할 -0.015311565 -0.055292238 0.024442503 -0.0512835 0.07339569 -0.067177184 -0.0031545395 0.0060784374 0.089244604 0.06944306 -0.061383024 -0.08630977 -0.065019734 -0.078142904 -0.015875138 0.047142867 0.0509306 -0.060665425 0.015890835 -0.010878923 0.0051446306 0.07236998 -0.014232879 -0.001810705 0.026802005 0.014933427 -0.031530127 0.039395466 0.02078007 0.050769087 0.01602157 -0.0514181
왜 0.049956664 0.004917646 -0.012288145 -0.074299194 0.032059625 0.051977817 0.0016881053 0.011317252 -0.08818937 0.062940694 -0.038851205 0.063959524 0.00543817 -0.01538169 0.06940849 0.04083899 0.21019045 -0.054350577 -0.042600725 -0.022088647 -0.0025982107 0.008917129 0.013480231 0.045707133 -0.007879105 0.02852636 0.092652805 0.06777359 -0.13325368 0.046443302 0.0690009 -0.03902286
겠 0.11176807 -0.14536321 -0.06832051 -0.033369135 0.04380896 0.02023319 -0.03816484 0.050161727 0.05094754 -0.051021393 -0.002144962 -0.039033893 0.015886491 0.0064794035 -0.03729268 -0.0017073988 0.10807395 -0.06298814 -0.104936406 -0.0011237544 -0.05826758 0.018085565 0.040120654 -0.0063003246 -0.0071248054 0.0032496813 0.052979544 -0.046840772 0.04401841 0.10539446 0.031600997 -0.1115753
1 -0.020466518 0.0014030976 -0.030586785 -0.10653141 0.016294813 -0.050574727 0.10550768 -0.11436651 -0.026184905 -0.018460162 -0.0045658937 -0.04950546 -0.06493262 -0.00082264264 -0.07034035 0.016780099 0.06323597 -0.031770963 0.06727204 0.005629016 -0.0129906135 0.010441265 0.052620605 0.09669391 0.028627824 -0.11077292 -0.04506093 0.042668607 -0.033676762 0.083928056 -0.0657818 0.009910285
스토리 0.012443998 -0.033087227 -0.035278138 0.0019329325 -0.05591749 -0.035438016 0.019649804 0.01358487 0.050358385 -0.10922511 0.018252656 0.00087565894 0.050130457 0.0061770747 -0.0428968 -0.008646356 0.044025317 -0.07280847 0.0066321907 0.030589202 -0.096620455 0.053075682 0.017684527 0.010001887 -0.028021652 -0.052796725 -0.08156934 0.0077428273 0.0606232 0.04262724 -0.08199938 -0.012607967
해 -0.015882589 0.029338948 0.052289896 -0.001671289 0.025226021 -0.05682617 -0.123161435 -0.031773586 0.050963137 0.00729632 0.045609806 -0.011157038 0.0049723387 -0.050336786 -0.0093702115 0.05474368 0.04608931 -0.06642812 -0.03496203 0.009375602 0.00033953186 -0.018606467 -0.10213653 -0.07693688 0.052312333 0.08493058 0.024357382 -0.027712133 0.033249583 0.056601074 -0.018651277 -0.012067615
습니다 -0.0571654 0.058593 -0.004915876 0.02819759 -0.006592331 0.059016004 0.07718879 0.029342815 0.10386039 -0.0827178 0.012012938 0.054972228 -0.039430354 -0.052878276 0.04650092 0.04204888 0.056193464 0.008988457 0.008645128 0.020270562 0.07100816 -0.013534539 -0.1083644 -0.04615213 -0.014975658 0.02088785 -0.0073752315 -0.022926882 -0.022949118 -0.041974727 0.017697603 0.0071917744
ㅋㅋㅋ -0.04213678 0.042592514 -0.023744022 0.051910866 0.006312088 -0.0032961098 0.043428883 0.051927935 -0.105948314 -0.015569431 -0.039546743 0.007901366 0.0037551895 -0.008198319 -0.017395271 -0.004224834 0.0062524816 -0.0003669471 -0.045274924 -0.014793522 -0.011195167 -0.01735838 0.07526896 -0.012191054 0.053817436 0.04063458 0.017254582 -0.0410824 -0.016132947 0.028277311 -0.034712993 0.010486794
... -0.035538513 0.030707594 0.030714396 0.07255107 0.011742582 -0.056423686 0.0553146 -0.09407772 -0.0036009294 -0.029399365 -0.036966708 -0.004189369 -0.00044904894 0.0020481232 -0.086492606 -0.021595584 0.0703483 0.0195759 0.015725814 -0.0050397944 -0.014160379 0.018293444 -0.01900565 -0.05568008 0.04309285 0.020667769 -0.056437276 0.029041799 0.11818863 0.09054586 0.053279668 0.040295366
드라마 -0.075344674 -0.06313946 0.023080563 0.06436207 0.05141702 0.037859634 -0.048824612 0.008898016 0.03264022 -0.0046349345 0.09034303 0.0047363457 -0.0430597 -0.059598874 0.020378212 0.09380307 -0.032076165 0.00451447 0.077020586 0.0071812198 -0.038336087 -0.0012068034 -0.07259586 -0.07633986 -0.06058783 0.042769987 -0.03851997 0.061748736 -0.074162684 -0.0121194925 -0.005273047 0.07617287
생각 -0.05500307 0.07909449 0.05145184 -0.017982114 0.0114947315 0.035151474 0.016690943 0.057170704 0.012189851 -0.035700258 0.0207189 0.047034107 -0.07578606 -0.03031262 0.060872115 0.0013118124 0.048994664 0.080247484 0.05276967 -0.019143317 0.03108878 0.029479213 -0.078594506 -0.13776366 0.048333988 -0.007915333 0.12211506 -0.020600367 0.033484034 -0.0054226853 -0.021198057 0.001422629
아니 0.05693713 -0.101219624 -0.09739795 -0.10571462 -0.07545505 -0.09023445 0.0042956606 -0.060329467 -0.018367626 -0.07715532 -0.033667956 0.07557819 -0.02563422 0.04386477 0.03934172 -0.0034024026 -0.047642324 -0.063309245 -0.0018041742 -0.00494418 -0.013637848 0.042906914 0.017647412 -0.076859325 -0.10094633 -0.053269986 0.03976625 -0.072030336 -0.028845305 0.15493038 0.051871903 -0.03948957
더 -0.068759516 0.056862656 -0.04415088 -0.022157034 0.116340116 -0.095409065 0.048163224 0.04359283 0.02309842 0.038305324 0.02842179 0.021727405 0.033278365 0.054912794 0.008214957 0.028579764 0.14387442 -0.01204093 -0.031456597 -0.006884028 -0.057353783 -0.03391612 0.019204982 -0.055624224 0.03468688 -0.049988274 0.0676473 -0.09972662 -0.059241444 0.0357384 -0.051422257 0.022282189
그 -0.044727337 -0.0296823 -0.01741867 -0.033795275 -0.044085052 0.06524132 -0.057029717 -0.032272484 0.053486116 0.0059806723 0.024839861 0.055833206 -0.035242114 -0.050508868 0.021430569 0.025690608 -0.05312097 -0.009035576 -0.020426484 0.10430368 -0.019506324 0.006988842 -0.0024096856 -0.10086939 -0.008827373 0.08071125 0.029108897 0.07224042 -0.03575155 -0.05132989 -0.015927387 -0.013619191
싶 -0.020127695 -0.008572269 0.01261018 0.083841875 0.1339709 -0.04278479 -0.05354952 0.082051516 -0.039897062 -0.057717517 0.05250875 0.039551456 -0.09326705 -0.009983372 -0.019757831 0.06956856 0.0660624 -0.055566132 -0.040804807 -0.04708752 -0.010445323 -0.08510401 -0.04018877 0.12907717 0.009072145 -0.021004923 -0.009150528 -0.0066253715 0.03461754 -0.06510614 -0.004501505 -0.015208085
사람 -0.019148692 -0.054583013 0.030021468 -0.06262364 0.08460057 0.0043896697 -0.0139163695 0.039119147 -0.01296962 0.03740493 -0.035729617 -0.038064897 -0.07257153 -0.039183553 -0.021503607 0.07075216 -0.055841196 -0.0038848352 0.10708596 0.056119695 -0.04720832 -0.039640665 0.015609993 0.02954183 0.044976097 -0.0412485 0.0532266 -0.025266632 -0.011277244 0.030936962 -0.010468365 -0.016895209
듯 0.0151423095 -0.020354547 -0.014136923 0.039052427 0.01460695 0.059214376 0.0078658275 -0.030779079 0.050570462 0.03444622 0.06888137 -0.11008559 -0.02492785 -0.07715092 -0.033467904 -0.08932484 -0.067799546 0.01556579 -0.021152085 0.004261691 0.0013760288 0.08159563 -0.017568823 -0.07910995 -0.04396814 0.00838013 -0.011091756 0.01975689 0.11299112 0.0074462234 -0.024919296 0.026784861
때 -0.055209048 0.020784646 0.0853867 -0.0011915914 0.069216415 -0.025993519 -0.06780105 0.025642816 -0.068102136 0.038648907 0.045555055 0.08120201 -0.03607575 -0.012673316 0.0112952 0.014016587 0.012534798 0.0042665126 -0.01134784 0.06042497 -0.032951728 0.08085641 0.019069772 0.053400252 0.007843054 0.06687372 0.094392754 0.030726902 -0.033552896 -0.030082704 -0.04251631 0.04857859
감동 -0.016111093 0.07089606 0.08477828 0.0900361 -0.031822868 0.023772733 -0.046973325 -0.00071101915 0.133995 -0.089344405 0.03210435 0.022029497 -0.03522515 -0.12598121 0.10992791 -0.096651964 -0.057701398 0.006580191 0.027815454 0.12826696 0.06334402 -0.010891806 -0.0392915 0.01294437 0.18248223 -0.018693779 0.047599137 0.07305177 0.018289987 -0.10117729 0.021116516 0.11378732
함 -0.058117334 0.055491555 -0.07678633 0.08014344 -0.017313976 0.024097499 0.047696393 0.032271747 0.011709287 -0.027210694 0.007982136 0.095727816 0.014604608 -0.03596709 0.107456714 0.039492708 0.0127704665 0.12741475 0.031816807 0.037865695 0.13831425 -0.039222118 -0.031898715 0.03938055 -0.02511785 0.017754763 0.023861332 -0.03411639 0.16095398 -0.0037544426 -0.0013241916 -0.009467001
배우 0.020601057 0.009779024 -0.054565813 0.032171052 0.14779712 -0.053703155 0.030316226 -0.045094207 -0.03111743 -0.04550592 -0.028473996 0.025763042 0.08569116 0.0034758523 -0.012011846 0.033644322 -0.037604854 -0.0031677077 -0.0427388 -0.036809266 0.031074334 0.017070387 -0.05770722 -0.018793788 0.03333995 0.03437889 0.00079122925 0.05713956 0.117504746 -0.057751745 -0.015023733 -0.017141702
본 -0.002989144 -0.015164019 0.049769074 0.034864124 0.012650541 -0.021122795 -0.038216617 -0.0036310032 0.039554596 -0.018116249 0.034016185 0.12336672 -0.045119103 0.01150829 -0.0040720524 -0.01231005 0.05568739 0.01385651 0.03294981 0.06695491 -0.05326661 -0.029617503 0.054995537 -0.007841052 -0.0509822 0.017472876 0.05037318 0.03159442 0.07178883 0.06306283 -0.078791775 -0.026631463
까지 0.008385498 -0.03545975 -0.024444476 -0.005054956 0.052173655 0.0041166996 -0.026352383 0.054746523 -0.036400497 0.029767638 0.032526724 0.018971281 -0.05187187 0.018031746 -0.0013530371 0.014914308 -0.03750351 -0.063000426 -0.02025231 0.01806662 0.037953366 -0.023364061 0.028208494 -0.004797553 -0.0067270994 -0.009333633 -0.0015155381 0.0028033592 0.055092793 -0.10083041 0.032479666 -0.01743016
뭐 0.031767532 -0.069405854 -0.0048052543 -0.060471978 -0.016512116 0.07276597 0.08543352 -0.03792499 -0.11343153 -0.023997325 -0.08826831 0.013139142 0.04318574 -0.023408554 0.057209123 0.015044865 0.16527213 -0.056424454 -0.012179379 0.039681092 -0.020056887 0.0015895518 0.06772031 0.06132764 -0.0021197859 0.0030932524 -0.060563855 -0.049819663 -0.07024253 -0.02890741 -0.04044937 -0.053415716
알 -0.0042748693 -0.04872767 0.028501978 -0.02326644 0.04846083 -0.10091637 0.07736021 -0.017660504 0.027735 0.008790956 -0.0029181603 -0.0054191207 -0.041550104 0.048697527 -0.014598874 -0.010173002 0.034389574 0.003635174 -0.036555625 -0.02089185 0.04060984 0.061433397 -0.026538696 -0.035225075 -0.019292353 0.0093181515 -0.048216917 -0.056487855 0.014524276 0.04085843 -0.06376685 0.08743932
만들 0.035513617 0.0013958255 -0.030428272 0.107185416 -0.002377786 -0.0039975853 0.031763636 -0.020505985 -0.0072994735 0.03818217 0.028669085 0.04969408 0.029435515 0.03746737 0.037035413 -0.07537057 -0.036559053 0.07428448 -0.0043567587 0.056201767 -0.02987681 0.057283938 0.0030508763 -0.016237099 0.03866136 0.04327473 -0.010838639 -0.07473354 0.06263944 -0.005561098 0.0728033 -0.009147202
내용 0.029077657 -0.006746031 0.0020926248 0.06922114 0.011911097 -0.06724246 0.060341172 -0.019901168 0.019759707 0.024238072 -0.035415333 -0.00522498 0.044083398 0.069035426 -0.041394822 0.024754113 0.070869 -0.059866615 -0.06576366 0.043688748 -0.00826208 0.054611668 0.028536292 -0.015239712 0.029953212 -0.041794837 -0.0076068183 0.061209187 0.075413875 0.040240902 -0.041761905 0.068663366
볼 -0.033487648 -0.057586577 0.063909285 0.021894723 0.10616952 0.065884195 -0.042487405 0.016820608 0.04405903 0.061996534 0.11979269 0.09750556 0.12355377 -0.057440445 -0.06430278 -0.08867469 0.04851244 -0.061189897 -0.020114979 0.12379227 0.0700772 0.015960108 -0.086325966 -0.009686389 0.07869505 -0.06122474 0.06945086 0.02668384 -0.044278655 0.040942337 -0.03402978 0.061678857
감독 0.02731931 -0.021712484 -0.04642404 0.0045547374 0.057625342 -0.050674498 0.03246408 -0.01388211 -0.030746661 -0.030176923 -0.12047915 -0.10901571 0.03954882 0.059247073 -0.029289762 0.03944922 -0.014809026 0.006150658 0.009894649 -0.04531888 0.0041334266 0.03099194 0.046907444 0.059167016 -0.023287097 -0.032016028 -0.034660723 -0.01013512 0.05995535 -0.006915031 -0.015928563 -0.10262811
보다 0.0053322352 0.0045660734 0.07170393 0.017981194 0.10743415 -0.0757314 0.05704682 -0.067577675 0.003287648 -0.025083674 0.0062222783 0.09907771 -0.04077039 -0.008960854 -0.04148085 0.12538798 -0.030316541 0.059939668 0.09774178 0.01303551 -0.010515924 0.09406721 -0.031389754 0.0527601 0.033337887 0.094532974 -0.086483724 -0.010415716 0.042759042 0.12930378 0.071355626 0.080372885
라 0.062727265 0.006605105 0.019515984 0.089076914 0.09867117 0.106238626 -0.06071469 0.07196515 0.027402585 -0.04638483 -0.08371775 0.0018804822 0.04185985 0.0018808782 -0.010323639 0.09129287 0.022904595 0.016659886 -0.013777364 -0.038105607 -0.057367705 0.02304504 0.061772887 -0.035669737 -0.08969408 0.0015139454 0.07109414 0.06451509 0.019574994 -0.04575971 0.028142268 0.04531662
그냥 0.12540813 -0.006461343 -0.05884775 0.07644626 0.0009576519 -0.08609723 0.062109545 -0.07078908 -0.0040031625 -0.09069462 0.035486333 0.039738484 0.102161564 0.022558702 -0.038848177 0.029300291 -0.09272274 0.07452764 -0.063887455 -0.039241035 -0.011748862 0.06377238 0.07247901 -0.009334279 0.016530566 0.0016912969 -0.06524685 -0.0045707687 0.081365615 -0.029914092 0.042767275 0.06757019
재미 0.016595522 -0.043502003 -0.05306244 0.16070531 0.008351509 0.046336938 -0.026943382 0.018526152 0.04989806 0.004677122 -0.050837845 0.012209561 0.0038622015 0.047912456 0.047233593 -0.011504958 -0.062100768 0.08436689 0.001082749 0.025522579 0.15290123 0.15228127 -0.0006765874 0.17969376 0.029026648 0.030918904 -0.06754471 0.075531505 0.09016477 0.0033633562 0.081821606 0.013998822
시간 0.14105055 -0.013986423 -0.12151186 0.006381335 -0.065167844 -0.06387528 0.06492499 -0.09527495 -0.07737774 0.05260394 -0.13036823 0.065194085 0.0932875 -0.010179574 -0.030427229 0.070248686 -0.031030377 -0.021553375 0.06245389 -0.044126503 0.037013087 -0.007687114 0.1009873 -0.011943868 -0.055508625 -0.030819086 -0.032535635 -0.00911858 0.06636091 0.08745611 -0.040910058 0.02151448
지루 0.07450595 0.015276084 -0.047440417 -0.25620604 0.04320564 -0.04795662 0.14553721 0.0067652245 -0.1454399 -0.08129633 -0.1253276 -0.113985606 0.016196541 0.0861224 -0.041197896 -0.016834874 0.047399327 -0.20847923 -0.043145597 -0.20210224 -0.114531875 0.075337194 0.054753892 -0.04563842 0.036603328 0.00031388662 -0.050777983 -0.058029007 -0.05360525 0.077287026 -0.15684997 -0.09967661
중 -0.03396763 0.013984041 0.08983261 -0.03145386 0.12682332 -0.04541324 -0.016663678 0.022823006 0.02418981 0.015440762 0.06794873 -0.017583424 0.003542285 -0.06165249 0.0032642167 -0.062288765 0.0878761 0.03103861 -0.05000721 0.023552252 0.06333675 0.06207945 -0.17139998 -0.046279617 -0.068431094 0.048928417 0.051870655 -0.020816859 -0.0015487297 -0.040865526 -0.006531286 0.015317558
재미있 -0.086863905 0.059493195 0.11010132 0.14723109 -0.010616219 0.0640235 -0.05404221 0.14064436 0.077847295 0.028989626 0.022351386 0.12934913 -0.0028690093 -0.087750584 0.11408935 -0.09301435 -0.009820293 -0.011071133 0.12287301 0.122799665 0.07904084 0.02116684 -0.0398079 0.05421367 -0.010061357 -0.01934195 0.1093414 -0.038724896 0.029324815 -0.046341192 0.08940878 0.015604338
년 0.004539535 0.027221559 -0.045758322 -0.027176417 0.061051782 0.0025907636 0.09352363 0.047995143 0.04798806 0.059798162 -0.006270905 -0.0062549035 0.0076364954 0.0037558132 0.012765017 -0.071705736 0.014235002 -0.024248717 0.055515356 0.033381876 -0.034129605 -0.07093917 -0.037202705 -0.083639175 0.051663224 0.04693251 0.06629231 0.04382162 -0.009834466 -0.017695772 0.013577635 -0.009756912
10 -0.11580245 0.04022886 0.055843234 0.13753754 0.029629452 0.11064442 -0.07182954 0.038467824 0.14738327 0.09391517 0.13602555 0.012841125 0.010666316 -0.009736951 -0.03769581 -0.040897496 -0.05301243 0.10441999 0.028053274 0.06548413 0.020739926 -0.15539697 -0.090651534 -0.09579867 0.004241237 0.17405564 0.10612776 -0.017256372 -0.03415396 -0.10503146 -0.082390144 0.058202643
였 -0.04021947 0.03799263 0.009507389 0.027554927 0.092574924 0.009493095 0.04484528 0.018673403 0.06506083 0.056009237 -0.0127783315 0.047949992 -0.010794265 0.07489511 -0.052672837 -0.07884814 0.11293641 0.031035352 0.03472334 0.052388664 0.015756773 -0.009874939 -0.006888845 -0.061383322 0.01920063 0.020509273 0.048414376 -0.051838413 -0.015880138 -0.0483188 -0.0560947 0.010799141
잼 -0.07418432 0.09050534 -0.0043372833 0.15859742 -0.11530118 0.053806327 -0.06503164 0.03675374 0.13746345 0.074915834 -0.010781726 0.14186074 -0.007936618 0.005902442 0.1267555 -0.07297038 -0.00012225664 0.081961185 -0.008199838 0.12807825 0.12599172 -0.05885295 -0.030923799 0.14659296 0.06918219 0.11215159 0.036817268 0.06684384 0.049809836 0.007209497 0.01681878 0.039090984
사랑 -0.061259963 0.064462885 0.06829989 0.09405368 -0.0748364 0.039450556 -0.086466864 0.092441514 0.0077311513 -0.0042931624 0.038550526 0.06689623 -0.1235972 -0.016493496 0.039036572 -0.12312885 0.007817852 0.034185514 -0.044604562 0.10525009 0.0036075837 -0.012641086 -0.108910725 0.01952309 -0.04367942 0.032891124 0.021040384 0.022518573 -0.0771859 -0.08710673 -0.017891224 0.06975741
못 0.10368373 -0.0877485 -0.061804134 -0.10346507 0.08545731 -0.08973761 0.023458641 0.021021537 -0.065973066 0.0011951597 -0.08366674 -0.0108197415 0.018610286 0.03252339 0.055766862 0.034613654 -0.008399278 -0.002150764 -0.07855003 -0.07904287 -0.06632222 0.025387885 -0.014877183 -0.062433753 -0.0168437 -0.07861463 -0.021219635 -0.024230177 0.036063198 0.0826367 0.0010944457 -0.03686921
냐 -0.00026442588 0.0018129734 0.012785811 -0.06082296 -0.07777956 -0.06275647 0.075068705 0.041207537 -0.07482263 -0.12251607 -0.03361139 0.00037325572 0.09837362 -0.031588074 -0.036244795 0.058064513 0.112399414 -0.105152965 0.046962127 0.035230976 -0.016896212 0.07749213 0.08732483 -0.013895562 0.05586267 -0.049803074 -0.078908645 -0.054793954 -0.10457381 0.035511095 0.031701725 4.5429002e-05
재미없 0.074323766 -0.14594801 -0.10112091 -0.12683499 -0.02710126 -0.14724827 0.14293735 -0.08174607 -0.14740716 -0.17442553 -0.023706898 -0.16986422 -0.022810154 0.12801333 -0.00018401233 0.037596133 0.11249419 -0.09696103 -0.035901677 0.004852215 -0.06597805 0.007254243 0.097969286 -0.08889159 -0.06659898 -0.113590404 -0.1166402 -0.094775334 -0.11669208 0.11501471 -0.10171002 -0.08831833
쓰레기 0.11415402 -0.14926672 -0.020589482 0.010828225 -0.060528375 -0.13399532 0.110482246 -0.082815364 -0.16200103 -0.038500853 -0.11085504 -0.022332748 0.05568891 0.075264044 -0.11424783 0.10764502 0.0325615 -0.110601805 0.00864802 -0.065691605 -0.13244084 0.121996455 0.11941569 0.039594352 -0.13602483 -0.07743012 -0.10701155 -0.029614346 0.03945176 0.15579917 -0.03081866 -0.122997835
서 -0.031405333 0.028085949 0.040285647 0.024798002 0.08319988 -0.024228625 -0.029323509 -0.022541566 -0.028291317 -0.07116055 -0.0038209294 -0.063260496 -0.07330283 -0.05610115 0.052745573 -0.04919479 -0.03286016 -0.035111178 -0.011762773 0.026305137 -0.073966704 0.016330091 0.004955151 0.027103009 0.07214876 -0.037330274 -0.03676152 -0.03626618 -0.020529334 -0.028907822 -0.009798023 0.04888908
2 0.059321526 0.0047137174 0.03341228 -0.062441885 -0.05195323 0.010532337 0.032555316 -0.02575424 -0.023054838 -0.063644744 -0.033968803 -0.07407279 -0.11229814 0.040037178 -0.06578001 0.043501757 0.044737604 -0.008904532 -0.03922469 -0.0856488 -0.009121619 0.061522096 0.010533921 0.090426385 0.02758404 -0.06039775 0.013691884 0.04811117 0.020071406 0.04400536 -0.013140795 0.047576472
라고 0.006318825 0.04404138 0.016760103 0.010766187 -0.04658097 -0.0834376 0.029139232 -0.020237487 -0.038848 -0.08069955 0.018218089 0.044395886 0.058302347 0.01892452 0.01363648 0.033313148 -0.0471306 -0.054086633 -0.0063213413 0.029563438 0.013583658 0.025575923 0.13026753 -0.018532597 -0.02742439 -0.034715313 -0.075980835 -0.034221537 -0.0021435264 0.07971042 -0.012056146 0.011273787
야 0.03137747 0.029239686 -0.062622376 0.0025015473 -0.045282014 0.061824225 0.028607182 -0.041346326 -0.021729972 0.09504315 -0.011238447 -0.006069585 -0.03980545 -0.04218333 -0.05925281 -0.013122183 -0.027023222 0.014662483 0.07223858 -0.04054231 -0.018695561 -0.00039687328 0.034326978 -0.09072194 -0.0058781863 -0.054768432 0.008915794 -0.06428773 -0.015479055 0.0326102 -0.02973982 -0.09534164
니 -0.023762671 0.05151219 0.051968448 0.05702982 -0.045758557 0.008604373 0.019814778 0.074771725 -0.033545174 0.051061973 -0.12850405 0.00489585 0.09043657 0.01287317 0.040007934 0.11874717 -0.025198245 0.07763418 -0.03424652 -0.049007103 -0.11335001 0.025342738 0.01931102 -0.028547449 -0.06277722 0.10151254 0.030913472 0.041511115 0.042152457 0.032392755 -0.0062255384 -0.085234635
면서 0.08213161 0.041205887 0.021056313 0.027952496 0.04077781 -0.020235384 0.009436141 0.076616116 0.030181048 -0.05538474 0.0050985767 -0.00071690814 -0.0037626247 0.013001627 -0.00996649 -0.042993143 0.04113564 0.044638548 0.009746303 -0.063907355 -0.044291776 -0.026881766 0.019049784 0.10668357 -0.039673515 0.06650908 0.035376895 0.10077871 -0.040011503 -0.0428082 0.03405663 -0.005661658
번 -0.092204794 0.01915107 0.028438414 0.015978433 -0.012561463 0.05970257 -0.11168273 0.03441064 -0.027169187 -0.06250942 0.10374641 -0.036785435 0.006686034 -0.047820415 -0.016517092 -0.09213292 0.026699718 -0.0035955731 0.07265777 0.08425807 -0.09168313 -0.020571178 -0.0437214 -0.11892236 0.01792837 0.03085681 0.1009253 0.07191113 -0.049796052 0.08856733 -0.034828752 -0.014239702
다시 -0.054084424 0.11010003 0.079642765 -0.02133065 0.047405314 0.0070062666 -0.0495092 -0.06862736 0.058107585 -0.06476742 0.054778475 0.08071013 -0.08158501 -0.025993548 0.08070793 0.010187885 0.034879107 0.012621053 0.033858214 0.051582 0.035519972 -0.001332312 -0.080876276 -0.06690691 0.047290698 -0.010740154 0.082323544 -0.06379695 0.07957652 0.061681658 0.067640334 0.08646119
나오 0.074717335 -0.056729563 -0.024065312 0.012498305 0.01691648 0.102418035 0.0070556025 -0.028394105 0.02096313 -0.079308264 0.019762224 -0.08001813 0.034380596 -0.0112912115 0.13107367 -0.024222245 0.060646627 0.009243016 -0.006406405 -0.020676078 -0.016878132 -0.08149947 -0.04282586 0.050166786 0.0475202 -0.03935864 0.014390293 -0.04203147 0.07191846 0.10361166 0.019116081 -0.032737028
작품 -0.08244633 0.042774655 -0.013466297 0.1410366 0.11519964 -0.0077043045 -0.032556463 0.006978588 0.041438524 0.0071363878 0.040261995 0.07140642 0.018418755 -0.11263238 0.0901641 -0.04708602 -0.069691055 0.030192425 -0.049367644 0.038670264 -0.068974294 -0.02085911 -0.049797 -0.056877453 -0.029071104 -0.09624551 0.074910715 0.018118404 0.011231888 -0.018086981 0.11561077 -0.04484288
이거 -0.0054164594 -0.05408382 -0.056659237 0.020113003 -0.06550444 0.047039215 -0.012421938 0.013941738 -0.019681396 -0.0032270262 0.01996705 0.03147418 0.07843947 -0.017940352 0.031668033 0.045998085 -0.008692428 -0.014125404 0.008425995 -0.065568864 0.01129949 -0.036045372 0.0030111186 0.016244523 -0.02565925 -0.022642165 -0.0679961 0.0729488 0.0114201 -0.05253306 -0.0022898929 0.0056969067
하나 0.08285834 -0.013299861 -0.057563458 -0.019965442 0.05193709 0.0545237 0.020257812 0.0398226 -0.041125618 -0.006747353 -0.006551447 0.06687716 -0.03515738 -0.00948309 0.021527879 0.07991243 0.03466155 -0.023853047 0.004477648 -0.07547875 0.04125868 0.038997598 0.022622747 -0.0243182 0.0026954156 -0.03855663 -0.035476778 0.034603655 0.10537912 0.028598724 0.027272226 -0.034889653
줄 0.0115885455 0.025398137 0.014669233 -0.00039059235 0.019162163 -0.071727574 0.005569033 0.13275105 -0.061041508 0.073822625 0.06661384 -0.02418629 -0.067918934 -0.016063344 0.018645981 0.04820884 -0.0054911394 0.071250916 0.03977099 -0.014737283 -0.044463847 0.067152016 -0.008635789 -0.015277674 0.131942 0.015586009 -0.002518673 -0.016410574 0.024789233 0.010102294 0.006487267 -0.0798235
해서 0.0012361009 0.007231348 0.04837841 0.10717816 0.078613676 0.0034223632 -0.025392435 0.01203109 0.0032813728 0.06232786 0.023616653 -0.009966775 -0.08303873 0.021517014 -0.008024522 -0.06628416 -0.14380056 -0.03129895 0.056827504 -0.00211164 -0.010890831 0.056694295 0.038296822 0.02296413 0.053286 -0.0053412304 -0.0046328963 -0.04273061 0.02695658 0.015789773 0.00031337404 0.0038648306
개 0.041931543 -0.040484883 0.007996185 0.042355224 -0.020172814 -0.06593212 -0.07997404 -0.0015181911 0.02770647 -0.06197401 -0.013843335 -0.030696955 -0.03305516 0.026246145 0.016598662 0.066917896 -0.11952406 -0.009294012 -0.020060778 -0.052138645 0.0056605833 0.04957739 0.063734286 -0.02919707 0.012614006 0.011803303 0.00090097834 -0.060742978 0.14620626 -0.12876488 0.000949678 0.009570023
남 0.012186909 0.100922816 0.0081770765 0.11283904 0.046038978 0.068904385 0.02240642 0.041073028 -0.060048394 -0.0902459 -0.03931048 0.018454606 0.009895208 -0.011485105 0.014233538 -0.05154264 -0.06493018 -0.006676336 -0.085926816 -0.045192216 0.013962242 0.016641736 -0.045591276 -0.11072536 0.021190388 0.012968691 -0.0014285743 0.047034834 0.024445722 0.04602496 -0.13093564 0.08918628
정도 0.013895635 -0.09331388 0.060484707 0.037961464 -0.03437475 -0.066411234 -0.012881846 -0.021233642 -0.0029533864 0.01193223 0.028439 -0.03756771 0.008729989 -0.016510561 0.05774926 0.10862082 -0.05618135 -0.00993374 -0.0392301 0.1170134 0.04485415 0.14473236 0.030910635 -0.09370185 -0.20272528 0.0026296119 0.041517008 -0.056229968 -0.020510327 0.007828963 0.038510907 -0.069332816
마지막 0.0048372457 0.07529781 0.025192024 -0.033566657 -0.11484969 0.02010018 -0.0013674526 0.046313953 -0.02131261 0.09920402 0.083530486 -0.043449234 -0.108624555 0.0027716623 0.115863666 -0.10005232 -0.04510946 0.08577523 0.062324148 0.010906123 -0.034688585 -0.03746091 -0.050217737 0.016198719 0.012055225 -0.01776229 0.022271726 -0.1475807 -0.022949427 -0.04905862 -0.082341835 -0.042605832
끝 -0.008003956 -0.05335484 0.033352714 -0.044579625 0.10298409 -0.03504721 0.11035519 -0.06014176 -0.014393592 -0.03822587 -0.014745624 -0.017854363 0.063267976 0.014257984 -0.099529594 -0.0635997 0.007945905 -0.05352213 -0.036993492 -0.09615189 -0.015629852 0.0663107 0.039313015 0.0040084897 -0.064725466 0.050508775 -0.016361754 -0.008719679 0.093570344 0.12195337 0.09024226 -0.05680795
이건 0.07433118 0.013335033 -0.029640406 0.12545745 -0.01484096 0.0738482 -0.02313873 -0.06967716 0.06282918 0.008387981 -0.039906897 -0.072414905 0.11471145 0.03223157 -0.04708527 0.036132693 0.016580213 0.033031315 -0.03756961 0.021916267 -0.057008017 0.029692754 -0.0024102102 -0.057979446 0.04593136 0.016736086 -0.031621885 -0.036013186 0.16373338 0.035939895 0.01384633 0.0037452995
액션 -0.04080738 -0.023100426 0.048105143 0.0010610488 0.062977836 -0.08254468 -0.019773837 0.07485035 -0.045565713 -0.044131827 0.07472531 0.016701002 -0.030341621 -0.08385285 0.0806648 -0.051869832 -0.110125326 0.0489577 -0.0088784015 -0.011087472 0.064629 -0.05965049 -0.022690186 0.006350349 -0.04388773 0.049645487 -0.01325078 0.031926434 -0.052701954 -0.026910715 0.115464404 0.09099112
임 0.04411006 0.014486315 0.031893432 0.09709274 -0.0054660505 0.013102939 0.024107164 -0.08599518 0.024072008 -0.03386233 0.05255906 -0.010721896 -0.03611836 -0.045887202 0.050417062 -0.072205074 0.016932765 0.12369606 -0.009039824 0.12391381 0.005556456 0.017431978 -0.03712202 -0.044390235 -0.011412824 0.075748466 -0.019442016 0.07319205 0.12757131 0.099516205 0.029487345 0.07124761
ㅋ -0.008608488 0.02542759 -0.08226205 -0.01939344 -0.0051954663 0.041422345 -0.002955819 -0.014466487 -0.0056944885 0.04694602 -0.005544353 -0.023282696 -0.025570828 0.013848968 0.012200651 0.05299603 0.07488744 0.024816392 -0.011316701 0.11310592 0.048839755 -0.06827087 -0.04168966 0.016163174 -0.085093156 0.0036945797 0.04977441 -0.022750499 -0.014893384 -0.09530177 -0.10079148 0.015692538
3 0.12277412 0.007420518 -0.102335334 -0.06120973 -0.001578444 -0.0017850697 0.012358369 -0.045935426 0.071664006 0.028625473 -0.012373812 0.050442003 0.09065628 0.037838686 -0.00746632 0.09005574 0.0502723 -0.078333706 -0.063077934 -0.08133094 0.08338943 0.005389206 0.074636765 0.011920291 0.0056370874 -0.067728445 0.018714558 0.063157044 0.028517399 0.0068534464 0.0748537 0.007243328
기대 -0.020842034 0.027416436 -0.039996047 0.033478726 0.020168992 -0.008438654 0.0051804297 0.0016772919 -0.0022779861 0.0778137 0.092331186 0.060287446 0.0080263475 0.05936552 -0.101586916 -0.033390265 -0.2459889 -0.091853075 0.14309405 -0.003555725 -0.048915762 0.11013356 -0.028824754 0.09554083 0.08103729 0.07961331 0.01375512 -0.00445364 -0.020250496 0.063301876 -0.048831824 -0.02420064
입니다 -0.066483945 -0.01623211 0.0024058486 0.16917308 -0.038895648 0.09371583 0.023796061 0.041739568 -0.11057327 -0.04543964 0.05862068 0.08437397 0.057299275 0.08134846 0.077699244 -0.027176412 -0.1961912 -0.023228 0.11687182 -0.0037804046 0.0357085 0.039736886 -0.0657758 -0.023831839 -0.12626694 0.01927049 -0.0026296796 -0.2211842 -0.086647905 -0.005901755 0.08916185 0.0440597
건 0.025793813 -0.06489175 0.034322213 -0.005581941 0.043319494 -0.034974664 -0.087183654 -0.020293701 -0.08876916 -0.049414482 -0.057574373 -0.062032104 0.04456207 0.036320213 -0.057767726 0.03309076 0.044361293 -0.07003188 -0.009686138 -0.008883847 0.035462115 -0.043493032 0.04366796 0.017616145 -0.053171404 -0.0027605977 -0.03025922 -0.007615556 0.09257168 -0.066461995 -0.017218215 -0.09926991
라는 -0.05275915 -0.017068291 -0.010598418 -0.09072033 0.095940396 -0.017295271 0.051740162 -0.039943922 0.04157117 -0.057021327 0.029719943 -0.014723126 -0.038268346 -0.0022114092 -0.06254686 0.0087877195 0.0014484215 -0.03841741 -0.024030434 0.10082463 -0.06495455 0.01306772 0.050150793 -0.030482253 -0.024049813 0.09518354 -0.07033875 0.0008197257 -0.10978243 0.035999388 -0.012118484 -0.06368246
분 0.031688526 -0.06217533 0.0021811698 0.0061544264 0.065149374 -0.013947811 0.024853036 -0.07291315 -0.021066193 -0.074048184 0.026012463 0.010536329 0.02349452 0.06415673 -0.03727893 0.049105488 0.018783411 -0.13207261 -0.023237387 -0.076149315 -0.046075556 -0.037627816 0.084708795 0.042592935 -0.0002310622 -0.009716492 0.03741492 0.040609986 0.044785876 0.07676515 -0.03379708 -0.00647604
완전 0.02623416 0.042870462 0.004453924 0.13128288 -0.050525058 -0.050772265 0.0008473007 -0.07507848 0.10136857 -0.077747524 0.030400619 0.013687316 0.06420887 -0.026394367 0.016088728 0.075251296 0.009621517 0.082891926 -0.03265752 0.06970144 0.054685205 0.10987879 -0.014916638 0.03162469 0.08531514 0.013910159 0.051390983 0.10369229 0.1617524 -0.06541232 0.018347163 0.066454515
다는 -0.035879545 -0.104007564 -0.07556998 -0.031456213 0.15968429 -0.14469108 -0.027509766 -0.018479224 -0.038814753 -0.11395573 0.03432135 -0.03757796 -0.009766224 0.07555658 -0.028556371 0.122186154 -0.019349065 -0.10861464 -0.018214831 -0.1018421 0.012347207 0.016126864 -0.029887764 -0.11812765 0.016565572 -0.040006977 0.018843599 -0.0013840628 0.06026012 0.023526123 0.040858332 -0.0074083237
참 0.024581902 0.059203763 -0.0015638378 0.048004854 -0.056509174 -0.00068243826 0.03558974 -0.024087185 0.028242223 -0.119572595 0.072780065 0.010746263 0.09472088 0.077851735 -0.04201787 -0.01387259 -0.112467006 0.08475708 -0.081075266 -0.043463226 0.035273004 0.07471578 -0.0061466685 -0.028752299 -0.049363777 0.062780365 -0.060141515 0.008813692 0.05844699 0.103256315 -0.09631456 0.016723985
많 -0.037725024 -0.043485194 0.059656452 -0.03906577 -0.05138053 -0.0017609736 0.025827724 0.018661425 0.10810251 0.062898755 -0.05263488 0.014856733 -0.039572146 -0.06480484 -0.043419152 0.061355937 -0.039402235 0.086949006 -0.009392226 0.052116554 -0.041720737 0.047128133 -0.01772183 -0.1057941 -0.027220648 0.124690354 0.051241495 0.017919099 0.03970748 0.08112279 0.07010864 0.029987156
처음 0.025540747 -0.009219121 0.00750511 -0.083815 0.12382037 0.07082154 0.06428755 0.047717057 0.006651995 -0.014751245 0.021021068 -0.024704881 -0.07162668 0.04546056 -0.009280249 -0.078489 0.17068863 -0.12376374 -0.011533128 -0.045303047 0.021550272 -0.034875393 -0.03536382 0.027010562 -0.04439844 -0.04639802 0.013846936 -0.027491277 -0.031412534 0.054187868 -0.04777282 -0.007081822
장면 0.038739134 -0.0369698 -0.051007353 0.05461092 0.1080425 -0.037534613 0.021290915 0.058183305 0.033986274 0.037772246 0.006141305 -0.01878177 -0.07431247 -0.02087913 -0.0669146 0.05115228 -0.005740598 0.03495823 -0.044581387 0.06837572 0.009235642 0.0068192612 -0.029228749 -0.1652846 0.05794968 0.004090853 0.0010417943 0.029028293 0.032280654 -0.09314585 -0.0538591 0.0099720685
대 0.012693854 0.03286831 -0.00097038934 0.01622265 0.019935945 -0.079722755 -0.08808599 0.12356931 -0.10566782 -0.0406748 0.07127214 0.034649108 -0.07305014 0.043506417 0.033383492 -0.03617917 0.033290844 0.091770254 0.004825299 -0.008806981 0.07669724 -0.03254376 -0.009079877 0.06630349 0.06588194 0.16708605 -0.025391433 -0.011294469 -0.026090406 -0.04111666 -0.05589804 0.017588198
아깝 0.110170074 -0.20470016 -0.18529281 -0.060407486 -0.0059935963 -0.120507255 0.05162773 -0.123360395 -0.06809554 -0.092623256 0.060588982 -0.13438791 -0.048142295 0.06788982 -0.21483597 -0.019932754 -0.08439127 -0.11103266 -0.10858063 -0.06802667 -0.06359273 -0.045329873 0.082695365 -0.03124807 -0.14538513 0.012674969 -0.07090008 0.00608909 -0.18957515 0.112305626 -0.18752123 -0.051242225
다가 0.13622521 0.0022621094 -0.063069105 -0.009650692 -0.0101992395 -0.03916439 -0.050229218 -0.05104031 0.036180016 -0.055908572 -0.018137565 0.027820807 0.07052082 0.019397166 -0.032727595 0.10945584 0.015144176 0.02290758 -0.07031433 -0.058606673 -0.053579655 0.012476035 0.031178443 0.062533304 -0.027361244 -0.06532278 -0.03386541 -0.03539339 0.112452105 0.009925183 0.028943473 -0.0043181553
으면 0.023000088 0.02090538 -0.014583384 -0.017898899 0.030976443 -0.010093197 0.04477886 -0.06270842 0.013896373 -0.04524328 -0.006551929 0.018701274 -0.037606053 0.019063946 0.027520638 0.06159214 -0.038888507 0.015189431 0.047157302 0.025501128 -0.053105403 -0.050714567 0.056198854 -0.04882361 0.056311082 -0.07125431 -0.023753848 0.026537798 -0.12476758 -0.015318525 -0.057620585 0.025944114
지금 -0.08554721 -0.03147656 -0.035502076 -0.057919085 0.11247398 -0.03096767 0.0061321044 0.0699413 0.033618025 0.04265365 0.022499 -0.031730354 0.006016195 -0.09559818 0.016757019 0.10154629 -0.12374083 -0.11398481 0.04911675 -0.07540964 -0.07118472 0.013484269 -0.050829142 -0.1160543 0.003448534 0.11376523 -0.026784645 0.07298014 0.020477418 -0.062690735 0.017711744 0.05609017
모르 -0.04181308 0.05829205 -0.048709083 0.013457338 -0.02163177 -0.057070587 -0.020040896 0.039996415 0.10017336 0.08536146 -0.062323075 0.04646977 -0.06572009 -0.032768924 0.010496283 -0.0678572 -0.1689272 0.045819484 -0.047833327 -0.027032634 0.10916167 -0.0922033 -0.02627197 0.11277929 -0.00035907968 0.021646133 0.050658092 0.05545457 0.060149457 -0.09032491 0.077749096 -0.055140536
이렇게 0.06167892 -0.06838598 -0.015562675 0.09930623 0.039405614 -0.023937453 -0.07915779 -0.040207796 0.029524352 0.0020034104 0.019040365 0.037695903 0.14139846 -0.0892721 -0.0041185985 0.14719835 0.013987404 0.048608307 -0.008377356 -0.048763502 0.060277604 0.078788795 -0.02969435 -0.06143641 0.08577676 0.013801942 -0.009702946 -0.02460741 0.15254262 0.01647838 0.08126026 -0.08066689
' 0.07160864 -0.00863588 0.027559342 -0.027885927 -0.074789934 0.06370104 -0.06997241 9.6850534e-05 -0.0005082036 0.040624015 -0.029705988 -0.06375254 -0.072250396 0.02035836 0.028775971 -0.012374233 -0.045358453 0.024021836 -0.033529013 0.13292494 -0.060204543 -0.01715321 -0.015397814 0.036615543 0.12801448 0.08602934 0.061657894 -0.066762514 0.009245358 0.010427359 -0.055211402 0.01835452
편 -0.12383501 0.0120614115 0.016910134 0.11436934 0.0862056 0.0023215942 -0.0761906 0.03859872 0.025367362 -0.03606173 -0.07897495 -0.04115678 -0.021025361 -0.0077957325 0.13911486 -0.053441048 0.031283904 0.040278874 0.081906095 0.04607411 -0.05113709 -0.10186401 -0.024664955 -0.053429216 0.029875893 0.07399623 -0.011349655 0.052339774 -0.0022406082 -0.10046597 0.049113493 0.05970447
일 0.01473703 0.021278068 0.0051733176 -0.063279144 -0.04439351 0.031896044 -0.035454977 -0.026105538 -0.019738808 -0.08045067 -0.029086452 -0.006705133 -0.02923562 0.030950177 -0.03591554 -0.006200416 0.014378674 -0.06283402 0.03757972 -0.112901114 -0.013237362 0.08256781 -0.009854093 0.12577936 0.05323792 -0.042939134 0.008405925 0.06077741 -0.03629218 0.0192192 -0.005990797 -0.071052305
돈 -0.008294617 -0.11525561 -0.03687977 -0.029481594 -0.025239933 -0.027228566 0.09703834 -0.12579851 -0.05356106 -0.034541428 -0.01088561 -0.06612049 -0.03309954 0.052255336 -0.09236955 0.009527664 -0.0744149 -0.057620596 0.031714227 -0.039598454 -0.12948427 0.07143407 0.09929589 -0.040099427 -0.046383157 -0.042317748 -0.11699029 -0.14722213 0.13045093 0.073879674 -0.09182087 -0.03726781
이게 0.06418617 -0.0660712 -0.017176613 -0.10843671 0.094525784 -0.010111925 0.06843156 -0.054767143 -0.052143723 0.056778617 -0.040432543 -0.014917025 0.07393438 0.009544901 -0.046426307 0.01986326 -0.06819383 -0.019683983 -0.11308169 -0.113432415 0.020820307 -0.10859532 0.03396893 0.0672972 0.0023910047 -0.070519716 0.018607104 -0.058969736 -0.07162358 0.015985034 -0.004977571 -0.029758582
성 0.09511678 -0.013534963 0.027981365 0.045063563 0.021343695 -0.03576305 0.023553362 0.05186303 -0.039680693 -0.024942283 -0.07111884 0.007037295 0.04267612 -0.02509783 -0.023644922 0.09356851 0.0009225524 0.077775955 0.07470121 0.055792928 -0.03689977 0.028385298 0.04836532 0.07024342 0.122249335 -0.021317765 -0.070470944 0.0603395 -0.051449567 0.060185302 -0.08973063 0.00047031138
느낌 -0.03056494 0.0023269893 -0.052371766 -0.013527709 -0.07397688 -0.009860148 0.07416162 -0.06762704 0.03521039 -0.04133865 -0.021081753 0.08937202 -0.055012103 0.042678267 -0.09511778 -0.06630775 0.005078705 0.00038625326 -0.0509681 0.009943185 0.032719795 0.03901411 -0.007370371 0.07658838 0.07434107 -0.041631497 0.030807028 -0.03864028 0.0011410904 0.013530616 0.0032302467 0.003697286
시 -0.011292419 0.05134688 0.015719531 -0.07316939 0.03937891 0.07673172 -0.017111726 -0.0882607 0.0052235792 -0.00094222726 -0.029154623 -0.0077583995 -0.06816864 0.03089682 -0.03616024 0.00999988 -0.06235595 -0.041187387 -0.0626364 0.054673467 0.009883477 -0.010597797 0.04328115 0.13461347 -0.01843462 -0.007847596 0.051376756 -0.0155032175 -0.025351958 0.01083508 0.08099314 0.040152594
이야기 -0.038235568 0.024446486 0.018365681 0.0064988527 0.032948516 -0.012290328 0.09915245 -0.022521323 0.05255443 -0.011476321 0.071294785 0.032500394 -0.016761284 0.09285454 -0.053318623 0.025834523 -0.040644325 0.069118805 0.013207548 0.04883766 0.11624691 -0.025585223 0.0057205292 0.0114345625 0.035480656 0.08043026 -0.05374011 0.043390475 0.10512785 0.00609698 -0.045724027 0.04481207
최악 0.16898036 -0.19552185 -0.24405804 -0.04174987 -0.09611855 -0.29380503 0.15435877 -0.20846023 -0.1479707 -0.0056271493 -0.22536267 -0.18149976 0.23726778 0.15488252 -0.19068637 0.055592787 0.008641683 -0.19013655 -0.15422614 -0.20084424 -0.1517498 0.10594019 0.15044753 0.20281564 -0.053224545 -0.1262453 -0.22728811 -0.19517268 0.15726748 0.15286179 -0.08672532 -0.19163355
된 -0.063075684 -0.05089465 -0.0046013677 0.037953008 -0.039892692 -0.02718069 -0.04019912 0.08343847 -0.023955958 0.0063138753 0.017721986 0.0750335 -0.029647496 -0.042639695 -0.05034878 -0.016903456 0.01993492 0.021868397 -0.01700094 0.06884652 -0.006495898 0.008825025 -0.08608709 -0.05648208 -0.042490453 0.03253717 0.0022435891 0.015624041 0.042533025 -0.0794821 -0.032582585 -0.0015855236
봐도 -0.07915859 0.050002363 0.06519423 0.056965705 0.0382976 0.045331713 -0.030422056 0.12382857 0.12313397 0.079409644 -0.010235298 0.03696228 -0.03949908 -0.074474216 0.08518627 -0.10247195 0.10237989 0.04451634 -0.06863958 0.074860334 0.061447475 -0.040333185 -0.040630586 -0.010006717 -0.087218165 -0.0014021139 0.2006128 -0.032215245 -0.009104914 -0.029452102 0.036151554 0.026135717
님 -0.042184427 -0.02728479 -0.028948162 0.1120565 0.04647412 0.048223674 0.017223999 0.09598645 0.017001491 -0.03250504 0.04394742 0.035623882 0.018888803 -0.035581324 -0.015637182 -0.08276606 -0.00034943453 0.027708452 0.05826993 0.025916776 0.05963211 -0.012728404 -0.030082062 -0.1279094 0.009141397 -0.021121582 -0.0099789575 -0.032993473 -0.13172117 -0.009099313 0.022933826 0.09305455
어서 0.005523888 0.0033378787 -0.09643882 0.07300007 0.0006153078 0.05433982 -0.040020965 -0.006397442 0.080768965 0.11369009 0.054370098 0.10127421 0.022530785 -0.014379542 0.0063713887 -0.007082089 -0.09584782 -0.016642844 -0.14617136 -0.027055949 -0.038926497 0.027931174 0.091517456 0.06841337 -0.032576866 -0.013915475 0.02174416 -0.008740854 -0.013427585 -0.003608366 -0.046726268 -0.0007918435
애 0.08160421 -0.010077157 -0.054101963 -0.009397921 0.038397625 -0.0028154314 0.017720962 0.0208493 -0.0029583669 -0.02435021 0.05544665 0.033510655 0.021386638 0.03414453 -0.022641158 0.028017502 0.12553446 -0.054478396 -0.06521142 -0.038815092 -0.08273621 -0.052815758 0.009622051 0.013637395 0.058531195 -0.0372138 -0.09703022 0.04613303 0.112571485 0.07305171 -0.037254993 -0.030793995
전 0.093011454 0.010213785 0.0846565 0.13460223 0.110833056 0.07681325 -0.041272976 -0.0030835771 -0.0019582512 0.1259995 0.021720264 -0.042624824 -0.051888112 -0.063611284 0.077049986 0.0887102 -0.0052072112 0.026663767 -0.119716555 0.04101747 0.056799952 0.05129096 -0.017108256 0.011999026 0.050971985 0.1035891 0.07096374 -0.02550342 0.021605618 0.051785693 0.0012869886 0.042124614
넘 -0.053695843 -0.0021961113 -0.0022002424 0.14216198 -0.061802354 -0.023014614 0.05720564 0.0037084 0.034202177 0.020882798 0.037870374 0.07907787 0.14227556 0.010815455 0.03430193 0.06445929 0.056393333 -0.01660044 0.12528408 0.067644134 -0.00300787 0.06531888 -0.04188254 0.0007029789 0.079205014 0.060517497 0.011352461 0.08386683 0.114552826 -0.0146866925 0.027597181 0.0062949844
ㅠㅠ -0.06336051 0.033721123 -0.0006679564 0.0036435432 0.046976857 0.06452477 0.015580563 -0.041566875 -0.04195223 0.06415862 -0.08428561 0.057049867 0.021455599 -0.062804885 0.0324838 -0.08274792 0.17180695 0.011249313 -0.019001879 0.020943418 0.015384609 -0.026338741 0.019809041 -0.064819574 -0.091286935 0.003953217 -0.02754797 0.058931973 -0.0038421531 -0.09110965 0.020638635 -0.02684592
인데 0.022358796 0.01758511 -0.014978291 -0.1121349 -0.00231734 -0.087529294 -0.044726968 -0.01479136 0.04680249 -0.029223371 0.0030427692 0.05298955 -0.030265372 0.07588312 -0.059464913 0.057310063 0.10364158 -0.035281744 -0.042528067 -0.021499893 0.028911922 0.046873264 0.034013707 0.08097106 0.048376366 -0.02985279 0.04716973 0.04542025 -0.005043837 0.015118093 0.0110468 -0.028422987
다고 0.06729357 -0.0279813 0.014197394 -0.14057152 0.15450683 -0.10540385 -0.00024525775 0.014769753 -0.010092227 -0.14759327 0.0012383413 -0.0046153176 -0.09871793 0.022664052 -0.05464771 0.08262647 0.11791211 0.018514886 0.09712285 -0.1618043 -0.03924031 0.04396668 -0.050109882 0.0099246185 0.1139485 0.06433712 0.06772953 -0.032830983 0.055897724 0.07556498 0.040002286 0.015092351
이해 -0.0037911655 -0.029514901 -0.011185122 -0.10727638 0.016802218 -0.005183334 0.04385757 -0.012022149 -0.07075151 0.004191763 -0.070750356 0.038628917 0.005683523 0.051984493 -0.027016506 -0.028347809 -0.04407892 -0.044469748 0.08557959 0.06980177 0.005818236 -0.013496705 0.0095256725 0.003911626 0.00060761557 -0.03147454 -0.0014530427 -0.021055648 -0.05009207 0.05841364 -0.006384643 -0.0412824
별로 0.11243142 -0.13044782 -0.123410605 -0.21131934 0.0021350393 0.025665056 0.103098296 -0.07588502 -0.14334555 -0.13385656 -0.07542546 -0.041036803 0.14424562 0.15253587 -0.014768596 0.07029974 0.0071876626 -0.02138786 -0.080934644 -0.08077956 -0.044833295 0.05352413 0.11901962 -0.10163807 -0.19774187 -0.15716338 -0.070433 -0.104220815 -0.0551865 0.09668607 -0.09142181 -0.045806818
그리고 -0.045258798 0.0031331605 0.0106538385 0.010429579 0.038273122 -0.014726691 -0.06408724 0.071305186 0.049722318 0.023091337 0.015484577 0.03834861 -0.04598391 -0.06129337 0.0711454 -0.015378154 0.019330552 0.08272372 0.1236308 0.006130097 0.13975786 0.0023480337 -0.07120472 -0.1062065 -0.05989263 -0.00428699 0.06489078 -0.08692941 -0.04725417 -0.023308177 0.00782011 0.08590245
명작 -0.08071864 0.0771041 0.097433604 0.20983148 -0.083860785 0.05072166 -0.17080857 0.12152216 0.09372645 0.10878686 0.0912144 0.08415286 -0.032798417 -0.06959648 0.010712343 -0.09149307 -0.07142368 0.077544466 0.057792775 -0.05421344 -0.028512478 -0.122565985 -0.1341996 0.018500729 0.02893852 0.07050688 0.054005552 0.09417209 -0.08252299 -0.050840087 0.07953434 0.058330633
여자 -0.017974433 -0.016114833 -0.073387906 0.013660138 0.15637554 -0.057790905 0.059545055 -0.016975988 -0.029995123 -0.05647948 0.0559739 -0.105331525 -0.08288388 0.011653585 -0.0315138 0.07014751 0.041270398 -0.013962894 -0.017563384 -0.022313133 0.039654613 -0.063307576 0.025779307 0.053841766 -0.03438368 -0.049187556 0.04194633 -0.09585327 -0.026030041 0.08727136 0.021771563 -0.08449195
^^ -0.038629193 0.123005964 0.0126479035 0.053916637 0.020582147 -0.03187516 -0.024884112 -0.026398323 0.078592815 0.032330398 0.18741916 0.21226889 -0.024137896 -0.006560993 0.0763577 -0.06425298 -0.043127142 0.050537445 0.040542357 0.018313998 0.10378321 -0.030939424 -0.08474847 0.04649651 -0.04085461 0.1651906 0.00071316777 0.080312215 -0.008359247 -0.07173137 0.081229284 -0.03141451
역시 -0.103531756 0.017276227 -0.03480209 0.102668904 -0.10060101 0.015560564 -0.058190588 0.056825843 0.050085768 -0.007954449 0.07522213 0.042954095 -0.053459182 -0.00546581 -0.02711684 0.00744897 -0.059060033 0.038424026 0.069546446 0.068015724 0.031873997 -0.00631719 -0.028738556 -0.021481482 -0.06799641 0.121302605 0.03577318 0.018407388 -0.05071776 -0.13205034 0.01798941 0.042913187
난 0.051105104 0.02265623 -0.0022425768 0.04093575 0.007476681 -0.016588533 -0.037465844 0.04449495 0.09557908 -0.031416513 0.038475495 0.03937931 0.017997427 -0.06976905 0.016537808 0.13909268 -0.12802471 0.01061827 0.037333116 -0.006075746 -0.020869683 0.060343836 -0.033445336 -0.05897605 0.010587507 0.08568146 0.055763513 0.0055279755 0.032583542 0.034717962 0.090658575 -0.0066263936
이상 0.043460336 -0.008877528 -0.06432939 0.01841673 -0.020050835 -0.057556696 0.067371465 -0.01608965 0.06849736 -0.017967619 -0.0015783077 0.011999278 -0.041928966 -0.08474476 -0.030964928 0.017953197 0.044128865 -0.04738444 -0.119486056 -0.06016365 -0.026351279 -0.015311029 0.082140066 0.003959893 -0.05833331 -0.0057676877 0.025170034 0.042381883 0.047133915 0.0654827 0.026489416 -0.00897608
또 0.0011201208 0.02225151 0.023578402 -0.11021171 0.10342369 0.0025761307 -0.08267204 0.009612128 0.07199316 -0.0022398327 0.038232982 0.011498714 0.006021762 -0.031311817 0.09205725 -0.028486788 0.03558105 0.034234334 -0.033965293 -0.024294537 -0.010524725 0.0037406788 0.021158017 0.0821046 -0.008018616 0.1987119 0.04640348 -0.035033356 -0.011569008 -0.08884017 -0.07990529 0.07199926
걸 -0.09131163 0.02511962 -0.13332278 -0.033543613 0.07617731 -0.0425769 -0.027683977 -0.07258596 -0.032200802 0.065765 -0.07236981 -0.00045619186 0.03594866 0.054803543 0.046431985 -0.1047005 0.03878628 0.039707776 -0.016273152 0.029589314 -0.028723562 -0.02254108 -0.00083343114 -0.005788368 -0.059939332 -0.07333625 -0.06442103 0.008873316 0.11111764 -0.069065586 -0.05791134 -0.006395152
한국 0.022698957 0.055890363 0.003756253 -0.039680075 0.036767785 -0.013902084 -0.055172022 0.037220433 0.0025154108 0.06499601 0.010351794 -0.04277703 0.0130235925 0.042831562 -0.06182706 -0.05315255 0.08652523 -0.0042597353 0.0757165 0.019844659 0.008281412 -0.060160834 -0.04983607 -0.013536174 0.01486658 -0.08621084 -0.0153092705 0.06367937 0.022325847 0.0506742 -0.11887987 0.074713625
는지 0.057188686 -0.109918416 -0.10694824 -0.017392328 0.012289463 -0.061374962 0.0517119 -0.02772806 -0.058677807 -0.039074216 -0.0015755355 0.037647445 0.038562536 0.048918277 -0.0090617845 0.1294477 0.022994485 -0.02834204 0.034970634 0.0875245 -0.0152855655 -0.04125887 -0.0059191985 -0.050433476 -0.057982255 -0.11268727 -0.0047054975 -0.08848353 0.06525411 0.0631859 0.03896346 -0.09784003
많이 0.0396506 -0.033424884 -0.02284438 0.006805286 0.056122355 -0.09329127 0.022911401 0.014723149 0.018459119 0.0163828 -0.11646468 -0.048302118 -0.027354877 -0.024120199 0.0046234867 -0.018755592 -0.00162847 0.040364638 -0.062301278 -0.06557173 0.04378387 -0.04512639 -0.04425386 -0.049963538 0.03719384 0.044943888 0.061352845 0.014810187 0.16269651 0.044376317 -0.0059649916 0.017597737
에게 -0.011569882 -0.011754556 0.015857922 0.056231312 0.030484365 0.0038117552 0.029259698 0.1116497 0.04582395 -0.037253663 -0.045220178 0.059689816 0.039277337 -0.044663284 0.0035125935 0.06670988 -0.004552875 0.08117715 -0.0077211503 0.024279615 -0.07152595 -0.055261713 -0.019626673 -0.018786352 0.02531873 0.05861818 -0.016839795 0.032310132 0.013832717 0.025827646 0.048337504 -0.14105254
부터 0.022736311 -0.00784141 0.027450126 0.032599997 0.108709276 -0.036113746 0.061120857 -0.0023707026 -0.045917615 -0.07853998 -0.07177843 0.0038787436 -0.035730943 -0.061536945 -0.06109265 0.078693576 0.027294343 0.0058126147 -0.06457739 -0.0022736914 0.059921402 -0.021021457 -0.002428106 -0.10600746 0.10756433 -0.014241627 0.008182407 -0.038239688 0.08365095 0.042051993 0.012187119 -0.0006449756
만든 0.013296395 0.0014484705 0.029979287 0.16995743 -0.031999044 -0.05966123 -0.07541079 0.007130039 0.06482093 0.06067551 -0.040661644 -0.06967901 -0.004908073 0.10507646 0.046847995 -0.04225144 -0.06690564 0.048963606 0.08059701 0.06391587 0.05731122 0.027140182 0.0024292453 0.032157116 0.09044709 -0.123504266 -0.016517997 0.029236145 0.11760245 -0.14599663 0.013947412 0.03371434
주인공 0.060320612 0.04266204 0.053859744 0.04503876 0.019623876 -0.006759054 -0.004475274 0.026449107 -0.045270428 -0.053321596 0.008639649 -0.03541895 0.021247368 0.020300172 -0.02016606 -0.029410854 -0.031595696 -0.070868716 -0.024626466 0.045680717 -0.02873599 0.026262203 -0.013279875 -0.03353522 0.104219384 0.018679587 -0.03304588 -0.10245747 0.0940228 -0.029463943 -0.007644982 -0.08078027
받 -0.089745216 -0.014591629 -0.058472436 0.023710517 0.06940933 0.070659526 -0.01754923 0.03697497 0.09215374 0.026718512 0.05864471 0.018016797 -0.04595009 0.028536342 -0.04669934 0.0001512795 0.039614886 0.043735497 0.010962862 0.07795668 0.092034556 -0.08409567 0.0029883638 -0.0524392 0.038698774 -0.0148445815 -0.023495004 -0.038248993 -0.06740299 0.03585707 0.028100016 -0.032000083
합니다 0.04710558 0.075872414 -0.0039354577 0.12843244 0.03305561 0.09072433 0.036040895 0.0036209873 0.04725674 -0.020467933 -0.041573517 0.04345058 -0.005746861 0.0920666 0.012867721 0.05951634 0.10429844 -0.02073251 0.10286072 -0.029936578 -0.06370086 0.045380402 -0.09915421 0.0048861913 0.12801707 -0.003767514 -0.013398884 0.033105854 -0.07886519 0.025915248 -0.07397942 -0.023164073
우리 -0.09510824 0.07748032 -0.014018939 -0.036139447 -0.046506986 0.009532343 0.025638161 0.017817896 0.08348118 -0.13473023 -0.027737897 0.03885535 -0.061162792 -0.13285987 0.031913426 -0.05195278 -0.041435037 -0.061690643 0.17939177 -0.0065387976 0.091314286 0.0069440985 -0.07302522 -0.052791823 -0.046732 -0.03414173 0.04144786 0.093912385 -0.030358939 -0.057155225 0.030451713 -0.003656142
두 -0.0541428 0.023895908 0.0039468124 -0.09220679 -0.008750908 -0.056272637 0.043282792 -0.03950397 -0.051761396 -0.069794714 0.008525426 -0.022545274 -0.079996295 -0.054949645 0.0520569 -0.07691496 -0.003760906 -0.044372123 -0.031505674 0.058660228 0.017689627 -0.116627 0.007989768 -0.013833873 0.040338684 -0.031479143 0.017486261 -0.066034906 -0.00283085 0.0095572835 -0.010652902 0.06395026
살 -0.029997865 -0.018743942 0.04554959 0.013409876 0.06955871 0.06986316 0.02316347 0.0749788 -0.027068261 0.025002554 0.095165595 0.102788426 0.06749795 0.009813662 -0.09400108 -0.0034310096 0.14090896 -0.018780755 0.040918678 0.03906136 -0.05230021 -0.056215685 -0.01474507 0.16226716 0.21908648 0.010005429 0.048691332 0.01563398 -0.055450402 0.02012999 0.08019303 0.07639441
!! 0.002032043 -0.032443613 -0.0065867356 -0.047011655 0.052344453 0.096962295 -0.008673229 -0.003025296 0.026315814 0.05777145 0.006779491 -0.030730901 0.07577957 0.08496754 -0.13673206 0.03708964 0.030461734 -0.012113946 -0.04913107 -0.01171625 -0.049920756 0.03925846 0.08903351 0.12563667 -0.040546954 0.05130701 0.03460206 -0.021206845 0.12381937 -0.098673336 -0.08643762 -0.06359485
길 -0.01484187 0.003961123 -0.048582185 -0.02768706 0.07673932 0.013967544 0.028237205 -0.011423759 -0.019122077 0.0982506 0.00037025486 -0.036195025 0.012541941 0.058245197 -0.058621988 0.016943866 -0.08964037 0.030432293 -0.055720568 -0.035380565 -0.1059873 -0.043945566 0.054259233 -0.037125316 0.001578779 -0.012002505 -0.033145893 -0.028442342 -0.06921728 0.013966997 -0.15047517 0.01575075
엔 0.038268626 0.031747613 0.10972555 -0.11735057 0.0468044 0.05654557 0.05501044 0.021234503 0.019496016 -0.07609477 0.03577892 -0.05835389 0.0032217563 0.037623618 -0.04961194 -0.03735224 -0.009793855 -0.023078479 -0.03990285 0.04996113 -0.057059433 -0.049418285 0.006856599 -0.023018738 -0.084706075 -0.041084994 -0.092932984 0.023344537 0.06310192 0.057921212 -0.0043807914 -0.0581744
괜찮 -0.06425581 -0.024977894 0.1276907 0.09507612 -0.1588859 0.027766068 0.018114476 0.10413457 0.08404956 -0.032570045 0.06181997 0.032610346 -0.06528617 -0.16057634 0.087828234 -0.021157937 0.048476126 0.11644945 0.08087621 0.043668527 0.027226377 -0.08851939 -0.14618605 0.11819848 0.14854795 0.056819793 0.062029526 -0.014754601 -0.06809097 -0.11701617 0.07327848 0.14227289
기억 -0.094552174 0.028514236 -0.0047957855 0.06844303 0.049897946 -0.016477847 -0.12754744 0.06796235 0.021439392 0.13785982 0.065229855 -0.054621574 0.019393982 -0.001573578 0.0867873 -0.069107056 -0.015886003 0.059806537 0.07861258 0.0379204 0.09191263 -0.05737978 0.005962263 -0.06540161 -0.040387925 0.13225704 0.056427166 -0.037262104 -0.028966254 -0.08732202 0.08679731 0.034589224
연출 0.013122 -0.07030627 -0.016999334 0.013923824 -0.010603477 0.07408947 -0.0107081 -0.007701011 0.051272526 -0.054560974 -0.06401138 -0.042649135 0.09341188 0.07377091 0.030994048 0.04329707 -0.07586697 -0.030445518 -0.040687628 0.035901815 -0.052973967 0.06317841 0.018781558 -0.11615297 0.09227931 -0.046733513 -0.06333407 -0.101185076 0.0013459863 -0.0012737218 0.031932157 -0.03304934
한다 0.008431034 -0.017262794 0.031437635 -0.041402623 -0.01602043 0.028727477 0.014853973 -0.0044570477 0.0031616073 -0.08286093 -0.017573783 -0.0069274567 -0.028142959 -0.04461371 -0.010517363 -0.099313065 -0.18016829 -0.07053681 -0.01826181 -0.06591804 0.03993845 0.0067846985 0.0051095174 0.054903746 0.003004849 0.06315569 0.06727853 -0.021010775 -0.022471905 -0.0619745 0.027861759 0.032217164
때문 -0.010146549 0.08315739 0.01984042 0.13246375 0.057235893 0.040124226 -0.04802794 -0.03343345 -0.06346729 -0.019682478 -0.08184727 0.089191906 0.013189883 0.031084657 0.069210745 -0.011633232 0.057423227 0.056505416 -0.005176901 0.011760814 0.026601478 0.04403342 -0.015927773 -0.012008342 0.14810324 0.04615645 -0.03888434 0.00970055 -0.040786546 0.031584166 0.04492565 0.09748658
이나 0.05920063 0.00791104 -0.12359283 -0.07316545 -0.034597926 -0.04466358 0.021443963 -0.06618815 -0.048250828 -0.10258175 -0.034375597 0.0010518844 0.021713406 -0.017832426 -0.06779227 0.016840277 0.065890364 -0.077164 -0.0005581336 -0.018516803 0.0026423964 -0.070234 0.0090218745 0.041725457 0.053131107 -0.06935266 0.037131976 -0.054962628 0.0386571 0.018015346 -0.07933337 -0.03360796
ㅎㅎ -0.059725963 -0.084381334 0.1287789 0.010734023 -0.025448427 0.111527465 -0.05802084 0.050768267 -0.031640112 0.06993061 0.14154571 -0.043137193 0.12895067 -0.013120412 0.19148818 -0.059969522 0.013601994 0.14945948 -0.108343996 0.077966414 0.11474059 -0.09790779 -0.028551368 -0.07713257 -0.13908605 0.102104604 -0.017222783 0.029428285 -0.11571369 -0.023082292 0.079177916 0.10913
요 0.044743706 -0.02428479 -0.05823259 0.04093966 0.12494353 0.0053114155 0.028281938 0.04990393 -0.025375038 -0.040710036 -0.0066354997 0.0015950858 0.03622775 -0.007921572 0.06730707 -0.08171809 0.02871826 0.10818609 0.048217744 -0.029923208 -0.06841083 -0.065189175 -0.028022394 -0.13578226 0.11418831 0.16597961 0.026392497 0.011515515 -0.106202155 -0.05067203 0.0636949 0.00037541764
저 -0.025111383 0.00048551665 0.06999773 0.04246063 -0.051637705 0.049605746 -0.046151925 -0.067319825 0.009201283 0.03290238 -0.0505835 0.07204661 0.024379188 -0.058612227 0.12040034 -0.045621213 0.06815322 0.057352982 -0.02902064 -0.056960545 0.040107105 0.04289388 -0.03434628 -0.046760254 -0.039583873 -0.11320426 -0.0022902146 -0.04491771 0.11337346 -0.038380828 0.08532045 -0.01721216
재 -0.028277153 0.031693324 0.1600428 -0.02642775 0.10917099 0.089848675 -0.18353596 -0.017057553 0.04072187 0.046678845 0.13735743 0.036353555 0.020318277 -0.055421755 0.08931599 -0.06497561 -0.019879462 -0.07167494 0.07284308 0.15957274 0.035458315 0.0052200737 -0.09004667 -0.11164503 -0.060935292 -0.061839513 0.100502886 -0.056990314 -0.02595565 -0.00047468184 0.058229752 0.1200668
꼭 0.05911141 0.12766221 0.02435985 0.19514258 -0.12500323 0.08320032 -0.043262966 -0.049659453 0.06430217 0.18972997 -0.0008790963 0.12503691 -0.070144765 0.057747386 0.11294533 -0.012514065 0.050086636 0.16282126 0.014491832 -0.048616324 0.06868264 -0.0037885 -0.04600992 0.04069246 0.030974023 -0.11847341 0.116365016 0.13917373 -0.065916136 -0.014440702 0.017161341 0.16723152
랑 -0.06819065 0.00890302 -0.12733725 0.0038119354 0.045855958 -0.09101631 -0.017668774 0.06798134 0.051939335 -0.059572015 0.0025099812 0.010302949 0.09219672 -0.00312756 -0.107333526 -0.00898946 0.07264276 -0.086888574 -0.04363938 -0.05404481 0.021848425 -0.013595928 -0.059121486 -0.07778438 0.007177363 0.00049023237 -0.08187902 -0.10142896 0.014152884 -0.032730177 -0.03799585 -0.043599173
며 -0.03546805 -0.05250911 0.08266806 0.030901391 0.06884105 -0.025487991 0.048317663 0.045399096 0.08661293 0.094615765 -0.02773646 -0.06347948 -0.05592685 -0.059130315 0.07250625 -0.033327322 0.011402111 -0.08375227 0.019078018 0.05109038 0.080137216 0.0022197377 -0.029142357 0.025582958 -0.17899294 0.052901365 0.0726159 0.02928331 -0.059805512 -0.06814125 0.01464761 0.02244518
현실 -0.03188871 0.017794933 0.024312206 -0.07939369 -0.11102336 -0.058971066 0.01933342 0.09132133 0.09332136 0.046732474 0.042652436 0.045007225 -0.06712059 -0.061299488 0.047804415 -0.023632405 0.08366346 0.087535866 0.0067677847 -0.07434902 0.025940968 -0.05618079 -0.09289589 0.01030835 -0.028813628 0.16977721 0.111734964 0.03851904 -0.009564108 0.013664628 0.083610065 -0.031093573
긴 0.027919302 -0.03166568 -0.01803808 -0.20096011 0.019710207 -0.014098245 0.03205172 0.022994904 -0.049748037 -0.041879606 -0.0011127054 -0.0050957585 -0.11769253 -0.035476185 -0.0708612 0.03617655 -0.054074693 -0.0724896 -0.049419038 -0.067636706 -0.027861258 0.06846436 -0.004144414 -0.0017052451 0.049511325 -0.068957165 0.07503249 0.00083489757 0.10113807 0.013142013 -0.057873044 -0.1081825
ㅡㅡ 0.006784746 -0.043691643 -0.049144786 0.0024555686 -0.06601656 0.0892361 0.042806584 -0.03171174 -0.045019586 -0.07222702 -0.15457952 -0.05692903 0.08035004 0.06268977 -0.05168025 -0.06810719 0.029261395 0.018218445 -0.017777523 -0.0014284968 -0.06887408 -0.04178218 0.056434996 -0.0033609525 0.05906673 -0.03455369 -0.03990962 -0.10614183 -0.04395571 0.14099884 0.023401769 -0.08639503
무슨 0.11367452 -0.1800838 -0.08605472 -0.05571692 0.034615345 0.013103443 0.010045355 -0.12273283 -0.039124187 -0.024502063 0.030833922 -0.104833245 0.10270661 0.04093776 -0.021904763 0.077225454 -0.06776691 -0.105692945 0.02003671 -0.05850169 -0.072943114 0.16123883 0.11302544 0.015753083 -0.09062991 -0.04685144 -0.12707525 -0.12651892 -0.099649526 0.06831545 0.04193358 -0.066082604
내내 0.059920616 -0.077597566 -0.08205578 0.08148157 -0.034064267 -0.0051554446 0.07675414 -0.024666594 0.055560064 -0.07126258 0.088625394 0.02219867 -0.04337803 -0.019303676 0.030597918 -0.019523328 0.019621616 0.015855847 -0.06022507 -0.12722667 0.050745394 0.1059401 0.018636603 0.047001034 -0.0561525 -0.003806623 0.0289628 0.062204737 0.05398438 0.085727245 0.040808167 0.03268767
결말 -0.008060006 0.12330562 -0.06130141 -0.06722583 0.1070881 0.061809815 0.019149285 -0.024456209 0.053079724 0.07013319 -0.047876425 -0.025978306 -0.091433264 0.04263302 -0.05802728 0.009023026 -0.102619365 -0.0070276107 0.038248453 -0.013478447 -0.010763985 0.025243808 0.04307603 -0.050869536 0.043312863 -0.050859492 0.032567672 -0.021239677 0.0009870084 0.026924027 -0.024875965 -0.044475816
죽 0.016507253 -0.029083231 0.011926576 -0.06187238 0.011224205 0.047275532 -0.030857924 -0.01514435 -0.026648553 -0.0074619637 -0.048972532 -0.14084819 -0.039981525 -0.014551174 -0.051514123 -0.018406361 0.07820271 -0.09766119 0.04155864 -0.0053243493 -0.0871517 -0.019720476 -0.00047927615 -0.11894845 -0.03927519 0.03717391 -0.10677229 -0.037192844 -0.16819352 -0.012558499 -0.054648988 -0.042858813
남자 -0.0426682 -0.018580182 0.038519543 0.06089414 -0.0579099 -0.03493205 0.10042705 0.056961134 -0.037805166 0.087201566 -0.09544433 -0.004085175 -0.01648486 0.025515422 0.050131496 0.028264575 0.054616492 -0.05499475 0.00811894 -0.028492978 -0.017164096 -0.050530598 -0.041760564 -0.067106344 0.08157647 0.02076287 0.016337387 0.022398297 0.05870328 -0.005446576 0.02661825 -0.007821792
세요 0.002023935 -0.0033788413 0.01885876 -0.013174923 0.06346844 -0.06717085 -0.01109668 0.08531888 -0.09284355 -0.016698677 -0.013962738 0.039746627 0.054226246 0.0564454 0.061684143 0.067277804 0.037721563 0.00014585484 -0.081479825 -0.075313136 0.0051487004 -0.0245778 0.00090875686 -0.12495581 -0.029317198 0.029114738 0.030842101 0.0014730704 -0.026843578 -0.01046606 -0.013781516 0.02565166
전개 0.061409134 0.017904593 -0.03341139 0.007769935 -0.09276175 -0.011455216 0.046771165 0.030386776 0.0030221879 -0.06241108 0.015466126 -0.062465765 0.013857673 0.10812865 -0.014233724 0.09114149 0.001552515 -0.07439245 -0.00023791916 -0.016584983 -0.08052262 0.05724054 -0.0069349892 0.08137172 0.08303089 0.014940659 -0.015379687 -0.06425517 0.12611492 -0.02880316 -0.08013977 -0.011409188
마음 -0.08233937 0.090326965 0.041605525 0.07220088 -0.18877402 -0.019817647 -0.0955044 0.13615602 0.08054101 -0.037696272 0.05801297 0.03811675 -0.11504268 -0.09973171 -0.018136619 0.0012972369 -0.062677585 0.094805814 -0.010115784 -0.015412949 0.09890529 -0.03284379 -0.10430281 0.049367655 -0.0781631 0.042842228 0.07818046 0.04560027 0.008906706 -0.06360499 0.027679786 -0.015070673
소재 0.06396578 -0.10265615 -0.09945557 -0.074937396 0.24834742 -0.08954346 0.053324856 -0.046115775 -0.10236073 -0.008779573 -0.09566847 0.001143269 0.011528729 0.07469031 -0.11296301 0.090354815 0.031043977 -0.056756906 -0.026912306 -0.05110261 -0.03784098 0.048488475 0.05621122 -0.026708586 0.089946635 0.0847948 0.018027341 -0.09990184 0.009959547 -0.012941921 -0.09940441 -0.05868571
속 0.033015165 -0.00903254 -0.0092687635 0.016545227 -0.023708351 0.07511435 -0.050668646 -0.08877366 0.025667122 0.025206642 -0.079977855 -0.07790736 0.020106418 0.017301694 -0.0047865836 0.07043198 -0.07536909 0.07520183 -0.045284208 0.07654066 0.03962687 -0.044075593 0.03188543 -0.046583954 0.06618165 0.0130809685 -0.02159404 -0.048431862 0.11517582 -0.016568739 0.03374251 -0.02062565
공포 0.001168656 0.026622413 -0.09808306 0.025776392 -0.023509124 0.009427829 -0.045067865 -0.011910203 -0.029298067 0.00641856 -0.030385166 0.01308177 0.03134778 -0.014534001 -0.07885383 -0.014535534 0.061823275 0.021288268 -0.12333828 -0.042634945 0.064262494 0.0036102606 0.072416626 0.035805963 0.0015003541 -0.0012642577 -0.11663632 0.029579578 0.024453852 0.06827581 0.071564995 -0.051777415
아서 -0.04000573 -0.013125042 -0.0012704683 0.006968458 0.053834353 0.05229234 -0.063758485 0.010728373 0.05955724 0.011287751 0.012072996 0.066801414 0.0435043 0.023871066 0.04890289 0.053075492 -0.076534905 -0.06578419 -0.009250982 -0.010100052 -0.003855078 0.063974254 -0.04863284 0.0012156429 0.08373842 0.015739838 -0.056830823 -0.007207068 0.053321585 -0.049359642 0.04324845 -0.019236516
다른 0.008065323 -0.049411133 0.054517977 -0.06847816 -0.005767833 -0.041734166 0.029280793 0.04017106 -0.061741795 -0.016478779 0.049745623 0.011141251 -0.052779194 0.005473742 0.09622114 -0.044458613 0.10848231 0.01604759 -0.028844306 -0.06108591 -0.057328995 0.004449661 0.0063326545 -0.05595123 -0.06512625 -0.025084384 0.06005465 -0.020502431 -0.017865926 -0.045348503 -0.0036821126 -0.0026178902
씨 0.042750154 -0.056014482 -0.034363914 -0.058796655 0.052754402 -0.08051209 0.023762152 -0.026394278 -0.07080315 0.08432166 -0.023650372 -0.035334215 -0.08949749 -0.01901871 0.034774616 -0.054719497 0.09296508 0.09750039 -0.051378533 0.03899257 -0.073298186 -0.07882011 -0.018596333 -0.023216581 -0.020490801 -0.047916763 -0.047017097 -0.0063704546 0.071557954 0.007593362 -0.0051616086 -0.020044694
인생 -0.087094806 0.018811608 0.074222215 -0.048147794 0.008607264 0.10177892 -0.061455052 0.13977738 0.019922536 0.0043833484 0.043852217 0.030802708 -0.010642939 -0.08142137 0.071772106 0.030413121 -0.016075399 0.078498356 0.00018588899 -0.019404141 -0.05060236 -0.050000973 -0.030296804 -0.19781078 -0.031515397 -0.03702496 0.08873756 0.0061293785 -0.052242484 -0.037958883 -0.05595947 0.026770981
~~ -0.06318821 -0.06407616 0.023003427 0.07951408 -0.004263997 0.01568659 -0.03823315 0.054524053 0.12513864 0.013253742 0.044537082 -0.08533146 0.005490981 -0.055136517 0.04708901 -0.07547348 0.057569284 -0.0021597699 0.03457365 0.11708707 0.018860966 -0.023292808 -0.07189034 -0.14843528 -0.015427771 -0.012738293 0.020003874 0.063732825 0.020081235 0.005299832 0.05578039 0.026783582
짜증 0.05700832 -0.114442274 -0.077985965 -0.015966373 -0.06684855 -0.10050322 0.080038525 -0.016535154 -0.09327691 -0.04565387 -0.116609745 -0.17104271 0.09166692 0.13864085 -0.12985253 0.068023115 -0.020204904 -0.08784422 -0.111693345 -0.1560996 -0.05814945 0.03446859 0.10160089 0.012876252 -0.10280856 -0.059975203 -0.14671932 -0.079656355 -0.01890434 0.043468516 -0.13866295 -0.12120521
짱 -0.08747651 0.10387348 0.05268288 0.095809646 -0.049954314 0.070286386 -0.021006323 0.1067606 0.10436555 0.007964716 0.008098933 0.13633974 -0.11471818 -0.028667267 -0.042546455 0.017571524 0.06602267 0.06170342 0.18218756 0.1168557 0.055578876 -0.040092677 -0.053515628 -0.020763434 0.1799087 0.096706025 -0.039037377 0.026818385 0.007234295 -0.2413634 0.017184287 0.027042873
뿐 0.03613547 -0.06815812 -0.014172882 -0.11026363 -0.004374207 0.0026790577 0.020124078 -0.07044864 -0.013329947 -0.046240658 -0.015103359 -0.029696355 -0.059441704 0.014039479 0.033605468 0.07373588 -0.057370067 -0.06953253 -0.041119423 0.019713119 -0.05445577 0.06460415 0.064731054 -0.05860931 -0.02721075 -0.00065423356 -0.028517932 -0.106561005 -0.013920378 0.0921092 -0.024331978 -0.020196207
은데 0.01756281 0.09448773 -0.0029404662 -0.029595027 0.049583904 0.06881746 0.0025202713 0.021652656 0.055715874 -0.021795724 0.001628785 -0.029767573 -0.0006272863 0.06828184 0.0006380826 -0.024474071 0.02198118 0.09192691 0.018741202 0.07053397 -0.0027541358 -0.039433192 0.09349952 0.08619434 0.06891958 -0.008831392 -0.032072198 0.03581718 -0.0588674 -0.06355105 -0.055613466 0.024877205
별 0.049717598 0.024312282 -0.07225663 0.016414704 -0.17338485 0.15147354 0.09547062 -0.03984441 -0.02965695 0.015839878 -0.0628176 -0.0415086 0.06027064 0.06766695 0.07000896 0.05794442 -0.103571765 0.069022395 -0.057347275 -0.0010091948 -0.05664398 0.05259273 0.11186665 0.09692236 0.056614928 -0.0005612467 -0.0331289 0.0121935215 0.062188942 0.0066745277 0.02330516 -0.031101467
아요 -0.13027768 0.13312243 0.044257376 -0.04486022 -0.047813363 0.16000839 0.013663249 0.016084468 0.10254863 -0.012362537 0.038374085 0.005905622 -0.04538907 -0.034417406 0.07891739 -0.11998294 0.038589388 0.10726364 -0.04220023 0.023698993 -0.10111071 0.0027861765 -0.06584421 -0.043229062 0.005224332 -0.01718733 0.09652162 -0.049892932 0.04411264 0.045030136 -0.035810106 -0.0045763487
유치 0.05015296 -0.071966 -0.11411395 -0.11252203 -0.04056281 -0.054769367 0.18920399 -0.09215289 -0.09546315 -0.1519078 -0.034869265 -0.001889584 0.052671395 0.026870599 -0.143129 -0.026499545 0.020573977 -0.10968959 -0.056884393 -0.015582905 -0.14048055 0.07882489 0.13746668 -0.031808045 0.032140754 -0.079425275 -0.03821913 -0.02982914 0.084839344 0.061943676 -0.03049341 -0.05701624
가장 -0.051637154 0.0064882836 0.024972899 0.05209301 0.034152333 -0.06389712 -0.039619587 0.050125767 0.064318284 -0.092544444 0.13865864 -0.031215955 0.019548664 0.03187287 0.11868673 0.0048459545 -0.111979045 0.06171092 -0.08142547 -0.024805803 0.020567771 0.00813379 -0.034390364 -0.0033916612 -0.017682042 -0.09265024 0.058778647 -0.06165689 0.0624497 -0.09982786 0.055140596 0.13218696
필요 -0.07626025 0.029322518 0.023744581 -0.059348233 0.13464561 -0.009419259 -0.021421911 0.06649765 0.0044008344 9.719165e-05 0.16545111 0.03899206 -0.0019474851 -0.05191787 0.063195184 -0.044084676 0.07771939 0.019528562 0.036853403 0.117012136 -0.05977336 -0.037928212 -0.09274267 -0.114268996 0.014612913 0.087464675 0.019962667 -0.03370294 -0.044830475 0.011307841 0.032461118 0.010432505
음악 0.04453718 0.070783205 0.0028861484 -0.13429318 0.045448326 0.031092737 -0.046657734 0.071200915 0.027562639 0.084872246 0.096820176 -0.037950218 -0.14671615 -0.023604112 0.05278458 -0.015390299 0.032413654 0.0742309 -0.033713136 0.082129255 -0.04041398 -0.041385587 0.026399015 0.059305344 0.04834617 -0.0023162835 0.03637554 -0.08521911 -0.029525846 -0.039632563 -0.031092683 0.103825025
) -0.0046909167 -0.015970211 -0.043742817 -0.044277288 0.080782264 -0.038447734 0.008159864 -0.04192266 -0.09891577 -0.080509834 0.10291968 0.034509383 0.061758373 0.016620556 0.034908693 0.022064527 0.082106344 0.00046198716 0.021879546 -0.035686817 0.018429449 -0.03573254 -0.013448352 -0.060145073 -0.0024097648 0.02021484 -0.0026283867 0.06462434 -0.040633965 0.02882934 -0.010923468 0.06358379
일본 0.07402768 -0.0661228 -0.008943773 -0.059395473 0.07279234 -0.064129785 -0.0057107955 -0.019830337 -0.022395846 -0.043226365 -0.050669648 -0.033307057 0.058019657 0.107257865 0.04020701 -0.07628505 0.03870803 -0.06500181 -0.003491775 -0.0024014674 -0.0861447 0.07958086 0.014068077 -0.01171258 -0.052611414 -0.015089918 -0.076413676 -0.031804994 -0.055683605 -0.02291151 0.06937138 0.023404278
낮 -0.08489121 0.05978322 0.047646943 -0.024460113 0.07009017 0.014572358 -0.020816255 0.16860862 -0.015031836 -0.000542197 0.12824042 0.08444949 -0.07493498 -0.16145588 0.26522592 -0.05158024 0.04444995 0.052781664 0.0049738344 -0.0647523 0.11564485 -0.046138413 -0.036429636 -0.16623832 -0.083239086 0.13861121 0.024025645 0.014233469 -0.08120767 0.01687815 0.13138148 0.03766331
아이 -0.046396483 -0.01056948 0.02850106 0.06370483 -0.022681108 0.009964643 0.028031241 -0.094434895 0.050054424 -0.0010407825 -0.02604749 0.02102981 -0.067051485 0.023875527 0.05284764 -0.019854605 -0.0777084 0.054886904 -0.007081545 0.069987506 0.06314951 0.059197478 0.057920106 -0.10713986 -0.078796014 -0.019122673 0.060704637 0.08543546 0.024906695 0.053941555 0.018148623 0.03741318
;; -0.0457618 -0.08176355 -0.005103557 -0.024002034 0.08701259 0.08892543 0.061930325 -0.013043485 -0.117307425 -0.06604019 0.055995412 0.04144458 0.05864488 0.015532367 0.044505686 -0.08282649 0.08602543 0.04891571 -0.022692071 0.0071637165 0.03943681 -0.059809618 0.08689592 -0.008248174 0.01717129 0.00964253 -0.029914226 -0.025494339 0.13621102 -0.017744578 -0.016783249 -0.058295332
오 -0.0021283834 0.03788812 -0.0054115504 -0.023478447 0.022963565 0.020763982 0.046896663 -0.02437983 0.0061308364 0.003920831 -0.072812065 -0.029147314 -0.02837726 -0.038190022 -0.014154837 -0.073372394 0.009241375 0.01555859 0.051540453 0.02366066 0.068475984 -0.043924697 -0.022058303 0.045264788 0.035955198 -0.00530938 0.04466165 -0.06512734 0.08842774 -0.057664804 -0.07234657 0.06384743
반전 0.021817377 0.031351577 0.033893634 0.10319588 0.058507387 -0.025822047 -0.07912705 0.102036364 0.0551259 0.01632836 0.07939835 0.008140552 -0.082279265 0.0031448137 0.031145547 0.06307706 0.048904873 0.078312665 0.064741395 -0.05992969 0.0654861 0.068451166 -0.08272931 0.019405585 0.105105855 -0.017145762 0.013235614 0.015920525 -0.0013422609 -0.026321877 0.06990353 0.020295275
수준 0.07602001 -0.10947983 -0.0013984785 -0.025315318 -0.070077494 -0.048109688 0.041513547 -0.046737168 -0.04115647 -0.068814516 -0.057717357 -0.117571115 0.07314325 0.13181573 0.018838292 0.023688009 -0.007395913 -0.0058401083 -0.10494937 -0.06606153 -0.11488734 0.0073265946 0.0200652 -0.001994839 -0.085330874 0.01087593 -0.07931701 -0.019910473 0.060353734 0.08727388 -0.052998703 -0.10002221
다니 -0.037260752 -0.10634611 -0.054807704 -0.035688948 0.04135027 0.0015497607 -0.03937416 0.021129921 0.03850439 -0.06180243 0.107390516 0.0022098748 -0.04802104 -0.026345715 -0.015100906 0.059145916 0.0032282055 0.018199159 -0.013204087 0.03579186 -0.059542876 0.046954624 -0.025437292 -0.023624232 0.037345115 -0.02598056 0.05383662 0.00027985196 -0.0017745665 0.081594676 0.06460488 0.011386197
웃 -0.056268953 0.00344543 0.019635249 0.032578874 -0.012503167 0.045094825 -0.0076657403 0.0627621 0.0058779055 0.011693306 0.05298331 0.08749384 -0.0136045385 -0.040473502 0.029177556 -0.037083898 -0.008718846 0.11531158 -0.06961042 0.094566554 0.02826427 0.03811488 -0.07671227 -0.012009077 -0.009191085 0.009283511 0.032918695 0.0780385 0.032457538 -0.031133411 -0.07915773 -0.013043122
매력 -0.05378422 0.014056196 -0.031898104 0.14448053 -0.060844444 0.067362025 -0.091208205 0.09457701 0.08962607 0.06455265 0.055543985 0.04765568 -0.063139334 -0.0068882173 0.070269614 0.0400382 -0.02448204 0.029007033 0.09102742 0.024035137 0.02932554 0.029028237 -0.10820165 -0.0072238045 0.16408978 -0.049248137 0.047020357 0.084979884 0.0012959802 -0.012612792 0.030523766 0.104409255
맞 0.07617659 -0.078762025 -0.04431418 0.06869961 0.02426808 0.044173192 0.02106639 -0.015230476 -0.056944773 0.024516027 -0.0022142846 -0.09939786 0.10290573 -0.014327578 0.07292889 -0.02589865 0.057641752 -0.0756487 0.00046117805 0.07243793 -0.040729538 0.03922525 0.03972348 -0.038042113 -0.011972408 -0.032652095 0.018289927 0.052305594 0.1662676 0.020058416 0.13621819 0.025192585
인지 0.07283504 -0.02509762 -0.010841497 -0.06569058 -0.02465681 0.0045283576 0.0035754957 -0.064158745 -0.011296082 -0.07004736 -0.061318256 -0.06432965 -0.014960694 0.010797583 -0.060867306 0.057391185 0.14822884 -0.062330663 -0.08361858 0.021820933 -0.0066944235 0.0062097707 -0.013477606 -0.048809193 0.030105421 -0.045034926 -0.058689944 -0.05648446 -0.04873541 0.054693405 -0.019271944 -0.034856964
가슴 -0.09902233 -0.027979137 0.03264139 0.048864223 -0.023713576 0.05781021 -0.052863963 0.10803794 0.20190622 0.14508535 0.1435602 -0.019298792 0.059028745 -0.044111907 0.11740965 -0.009888048 -0.04803318 0.1008291 -0.0040526604 0.04704676 0.047403406 -0.10461613 -0.040229466 -0.053151794 -0.1468377 0.065203324 0.12933291 0.13570754 -0.006487003 -0.086183965 -0.00046571193 0.012673121
없이 0.018464088 -0.036632594 0.04557393 -0.036310926 0.009627557 -0.03729929 0.015003096 0.016154347 -0.040610816 -0.12627752 0.029414555 -0.02127411 0.040415704 -0.026174372 0.016526083 0.16315158 0.03923726 -0.051191974 0.03182145 -0.11945262 0.02164292 0.041110635 -0.06311131 -0.076696 0.08971791 -0.06017263 0.003913942 -0.07144292 0.023411794 0.022611123 0.039339256 -0.087927826
원작 0.024714803 0.02588723 -0.06613357 -0.047727212 0.13319148 0.0059272675 0.04210685 -0.08706066 -0.07375996 -0.064993374 0.062210158 -0.07131926 0.012356551 0.07459462 0.011339594 -0.045997992 -0.02462939 -0.0651724 -0.06651739 -0.073996164 -0.050855238 -0.031909123 0.08982449 0.019011125 0.06301091 -0.032643314 -0.00087941467 -0.016061377 -0.05861902 0.09300001 0.053233735 -0.06381889
ㄷ -0.021997672 -0.057639774 -0.0407401 -0.01132828 0.07050573 0.038683757 -0.029276825 0.044998445 0.03669983 -0.025838533 0.012905063 0.07276872 0.04010415 -0.010950078 0.03841736 -0.025966765 0.026091509 -0.015037252 0.038461585 -0.05744444 0.05860495 0.011728521 0.015550732 -0.057619862 -0.037044246 -0.015217776 0.09871074 0.07419947 -0.03529361 -0.04362536 0.011282078 0.009406785
인간 -0.0075506032 0.05640909 0.10680958 0.014109746 -0.025841178 -0.0716969 -0.011703905 0.0661998 0.059558593 0.06754696 0.087734126 0.010237723 -0.04991419 0.03603369 0.09876333 0.02533023 -0.010600657 0.03891206 0.042186733 0.022984443 0.05991294 -0.026511954 -0.07001654 -0.0064047547 -0.19410561 0.059460495 0.009271354 -0.011348243 -0.007635395 -0.020889228 0.031919647 0.039388075
데 -0.031240853 -0.06015823 -0.02389045 -0.028137192 0.043594807 -0.03512416 -0.05976091 0.0280264 0.019806769 -0.024437131 -0.011774192 0.03190032 0.010516462 -0.026414532 -0.07518478 0.1022952 0.036498044 0.017787436 -0.027558124 -0.015819531 -0.069273606 0.042076796 -0.015400341 0.036598552 0.028930875 0.094477646 -0.049108822 0.085746884 0.057808388 0.00900717 -0.01650719 0.06455355
굿 -0.11346314 0.12464933 0.001896621 0.06946239 -0.104709044 0.12420307 -0.107884444 0.123894125 0.10449904 0.015480899 0.06687849 0.051672358 -0.13351586 -0.11782323 -0.01753333 -0.10735531 -0.07076822 0.060567707 0.04844866 0.052808836 -0.060434997 -0.07047518 -0.089068696 -0.024236053 0.015396463 0.10239826 0.07920961 -0.02187261 -0.03983241 0.034249827 -0.09750849 -0.0009242845
ㅠ -0.07860447 -0.07457239 0.012362439 -0.120639786 -0.011877035 -0.02501973 -0.056891873 0.047881898 -0.014732108 -0.018564811 0.06134935 0.08172284 -0.016016334 0.00961363 -0.026800435 -0.014733445 0.020512586 0.001447597 -0.03117367 -0.049289256 -0.009036695 -0.07015523 -0.032936867 0.052375898 -0.09993231 0.006600901 0.005573599 -0.013898306 -0.04419151 -0.114343524 -0.0081593795 0.06251133
