9996 16
. -0.11394436 -0.14897622 -0.17039561 -0.14298216 -0.16337022 -0.12603618 -0.14611907 -0.0639656 -0.10615638 -0.13082702 -0.19479246 -0.14624357 -0.18922788 -0.20993842 -0.17535542 0.6651054
영화 -0.12672082 -0.14793068 -0.16237777 -0.14954796 -0.10449389 -0.1145292 -0.14532071 -0.0755226 -0.12192931 -0.13111287 -0.16501518 -0.1346141 -0.17387946 -0.16551074 -0.17102419 -0.044560313
다 -0.078186765 -0.14809652 -0.1717837 -0.15223975 -0.097643256 -0.008654944 -0.16868305 -0.056685384 -0.10752393 -0.06434731 -0.21600345 -0.085974574 -0.18490209 -0.18796197 -0.1872226 -0.0016421792
고 -0.14531562 -0.09055661 -0.1542869 -0.11760054 -0.13624303 -0.11747725 -0.12032443 -0.049512945 -0.13274516 -0.12901174 -0.15489565 -0.14857325 -0.14991502 -0.17400384 -0.17524657 0.43012553
하 -0.07635408 -0.15220569 -0.16100311 -0.14695923 -0.096744776 -0.09972412 -0.14682552 -0.06492842 -0.11110601 -0.10910561 -0.16223878 -0.051900316 -0.14984545 -0.1697953 -0.13910475 -0.0068265907
을 -0.1304611 -0.13166599 -0.14955787 -0.13749768 -0.12086843 -0.13218953 -0.13065621 -0.050137945 -0.10791364 -0.12005385 -0.14667597 -0.09818833 -0.14346135 -0.11226703 -0.17348701 -0.0037133237
보 -0.11039467 -0.11456116 -0.1678645 -0.04739318 -0.14207554 -0.11076211 -0.095714144 -0.049867623 -0.11015886 -0.106222875 -0.13834903 -0.14233714 -0.118748814 -0.12528831 -0.15990484 -0.03455428
.. -0.11737767 -0.101697214 -0.12734729 -0.08570513 -0.15109435 0.100266114 -0.088658 -0.071557626 -0.09836485 -0.038150076 -0.15015203 -0.15584984 -0.15957193 -0.1856637 -0.1873298 0.038818587
게 -0.08797099 -0.15104088 -0.15273626 -0.10922724 -0.098710105 -0.11490878 -0.13414964 -0.049643625 -0.11596347 -0.14200392 -0.082831435 -0.116980195 -0.049987417 -0.1167063 -0.14607094 0.27503002
, -0.1380999 -0.14848477 -0.12152814 -0.0844292 -0.14651506 -0.13381006 -0.08077748 -0.052367255 -0.13158828 -0.13363986 -0.14204459 -0.090229146 -0.12903208 -0.09809547 -0.12388305 -0.015176404
! -0.061767068 0.19255692 -0.15955745 -0.1458068 -0.09917656 -0.13755183 0.056453906 -0.065110505 -0.05962019 -0.14092346 -0.15882295 -0.14532258 -0.16513617 -0.17726423 -0.10794168 -0.01887915
지 -0.106724635 -0.11262032 -0.16629308 -0.14528674 -0.042891696 -0.11815631 -0.09012421 -0.04881055 -0.12235142 -0.15308957 -0.15800281 -0.13772121 -0.15376222 -0.18120088 -0.15557872 0.0056311376
있 -0.11851687 -0.10876027 -0.16711475 0.16717602 -0.12991321 -0.11648257 -0.13961042 -0.07286648 -0.113259554 -0.12858611 -0.1657771 -0.15253115 -0.14455737 -0.15351066 -0.15765516 0.0021004789
없 0.1483759 -0.1467658 -0.16660355 -0.13986748 0.08883318 -0.045300793 -0.13849282 -0.050991923 -0.1178595 -0.061479997 -0.043370638 0.16291551 -0.17072536 -0.15499154 -0.04277121 -0.012945235
? -0.092763364 -0.11290294 -0.17321683 -0.10145912 -0.12591182 -0.12291991 -0.09706627 -0.06962124 0.08798188 -0.11104636 -0.105808854 -0.149406 -0.10739005 -0.17979595 0.09917554 0.009937059
좋 -0.079657875 -0.10965876 -0.018933523 -0.13377148 -0.104631834 -0.093852855 0.13824148 -0.05054076 -0.12093155 -0.12750693 -0.086290136 -0.13745546 0.1703866 -0.078332305 -0.17184773 -0.03608761
나 -0.1285415 -0.11504289 -0.16897333 -0.108840354 -0.07465058 -0.121381655 -0.11225308 -0.054042615 -0.14137799 -0.11802698 -0.18508995 -0.12767065 -0.13201249 -0.21314327 -0.17678632 -0.02646867
었 -0.09843953 -0.12461194 -0.10500359 -0.07335074 -0.09442191 -0.07945008 -0.12896705 -0.0648754 -0.06366403 -0.07371791 -0.15546419 -0.12347671 -0.116169736 0.057381693 -0.18433528 -0.04434495
만 0.09231393 -0.03268503 -0.1258808 -0.100389 0.1271944 -0.11708036 -0.13619533 -0.048864603 -0.11648398 -0.13932009 -0.0662874 -0.14203148 -0.0848072 -0.14713639 -0.15110286 0.017453264
는데 -0.11604981 -0.10651553 -0.094508685 -0.084484376 -0.12272566 -0.11137432 -0.10463315 -0.05939645 -0.11136165 -0.11544228 -0.118962966 -0.141409 -0.07658743 -0.103931196 -0.17305863 0.12002272
너무 -0.13017248 -0.16022417 -0.16464902 -0.14395443 -0.13393831 -0.11657362 -0.1408296 -0.054260194 -0.11966501 -0.134338 -0.16688643 -0.13375674 -0.15601294 -0.17274432 -0.16163108 0.01346669
봤 -0.064332694 -0.046503644 -0.08091208 -0.07879213 -0.04176459 -0.08619648 0.07233721 -0.056894198 -0.100224055 -0.1302265 -0.11909775 -0.09963213 -0.15362841 -0.100073904 -0.12926106 -0.03398639
적 -0.1359742 -0.14920627 -0.16337845 -0.13667409 -0.08347007 -0.11811721 -0.15127914 -0.037235893 -0.05021919 -0.13252552 -0.15379743 -0.13901696 -0.13064402 -0.15050727 -0.11125441 0.0071652643
안 0.03457426 -0.1383733 -0.13493288 -0.12892437 0.1249452 -0.035120144 -0.12002011 -0.046486493 -0.119052805 -0.05383501 -0.08252534 0.122126356 -0.15121013 -0.14707892 -0.06766639 -0.006092809
정말 -0.04403909 -0.11473118 -0.13988389 -0.11371955 -0.082099505 -0.092573404 -0.14184897 -0.0058221673 -0.06154 -0.073597044 0.12064938 -0.1133484 -0.0862731 -0.1303467 -0.11764543 0.0014182106
로 -0.1261679 -0.13852462 -0.15517633 -0.13319196 -0.021371406 -0.018957425 -0.14766426 -0.055036735 -0.055546805 -0.10204637 -0.15767469 -0.081714116 -0.10758366 -0.16653939 -0.061739486 -0.032850325
음 -0.09554663 -0.15889485 -0.1432867 -0.14382137 -0.10124105 -0.13609666 -0.14723115 -0.061919603 -0.118903756 -0.13402721 -0.15418297 -0.118270315 -0.1514643 -0.11639163 -0.1502173 -0.039576612
것 -0.109562635 0.021853335 -0.16242453 -0.06880331 -0.11769735 -0.08717351 -0.11871505 -0.04847321 -0.10952959 -0.12644309 -0.11180947 -0.13056512 -0.119653426 -0.12828714 -0.16180651 -0.0005091056
아 -0.10305144 -0.09997191 -0.13334537 -0.11016721 -0.119589694 -0.013855865 -0.12581243 -0.05014036 -0.123723805 -0.12620902 -0.08813364 -0.14353168 -0.102619946 -0.14978002 -0.1598137 -0.042453326
네요 -0.13913375 -0.06533334 -0.15855707 -0.14255142 -0.09273097 -0.07750453 0.053697497 -0.027504334 -0.104643896 -0.1282032 -0.16269405 -0.06783299 -0.055746272 -0.1791781 -0.12602562 0.014806319
재밌 -0.1465492 -0.1191993 -0.14925142 0.22932433 -0.146779 -0.048333734 0.036473524 -0.050658222 -0.11688504 -0.12887314 0.076432824 -0.14555992 -0.10781068 0.19706486 -0.17212242 0.349362
어 -0.014639818 -0.16196947 -0.15982693 -0.11676859 -0.058137212 -0.124283046 -0.13992256 -0.024353886 -0.117762305 -0.08213646 -0.14666453 -0.07138325 -0.13936894 -0.15258348 -0.12822016 -0.02651285
같 -0.08529024 -0.15051731 -0.16255297 -0.1518284 -0.1319323 -0.08872921 -0.14221628 -0.050321758 -0.07134001 -0.06769326 -0.16189444 -0.052700017 -0.15754038 -0.16189611 -0.14277613 0.3304829
점 0.10781183 -0.086730376 -0.12914868 -0.1104439 0.09725949 -0.12271383 -0.12519583 -0.051248938 0.09443098 0.021533513 -0.113422476 -0.14651908 -0.1233437 -0.15559785 -0.17261358 0.008583248
지만 -0.084294215 0.15435018 -0.12386986 -0.084858574 0.030318761 -0.046878565 0.033168208 0.05590643 -0.11592584 -0.10609548 -0.14722218 -0.059016418 -0.04147949 -0.06481432 -0.15523006 -0.007770577
진짜 -0.14298637 -0.116207145 -0.14534643 0.06901308 -0.15091375 -0.12530275 -0.114029735 -0.074980974 -0.096712254 -0.1264029 -0.12354626 -0.14209053 -0.107291356 -0.16552688 -0.17996229 -0.030183375
했 -0.09222878 -0.11687449 -0.15608807 -0.12982866 -0.06327272 -0.012926465 -0.13038594 -0.028513396 -0.055362802 -0.039803352 -0.14565381 -0.13626613 -0.08547557 -0.14674026 -0.08344246 -0.047304105
에서 -0.08382699 -0.1047104 -0.15809472 -0.1309136 -0.0579285 -0.10936312 -0.13692746 -0.055439882 -0.12176789 -0.12612213 -0.022822667 -0.13532406 -0.15431598 -0.13816932 -0.16418484 0.007023681
기 -0.058023565 -0.15818547 -0.080602184 -0.1459077 -0.05395031 -0.02318713 -0.07750597 -0.06281379 -0.06439296 0.081871524 -0.08063991 -0.11243051 -0.06674762 -0.10685007 -0.10480188 -0.004327666
네 -0.14510353 -0.15286407 -0.15004566 -0.14675885 0.14287663 0.045186486 -0.12586296 -0.05106661 -0.107582666 -0.111138366 -0.09798688 -0.1475042 -0.07768058 -0.17557141 -0.16168064 -0.014412306
않 -0.109658904 0.091372184 -0.037185643 -0.10715499 0.083757594 -0.1132282 -0.10275374 -0.066360384 0.03078764 -0.054845482 -0.16856425 0.09588996 -0.012613619 -0.18394488 -0.049960244 0.03511191
거 0.0075944653 -0.15129213 -0.110542834 -0.14696354 -0.082371555 -0.11291992 -0.12839793 -0.067630075 -0.124412194 -0.011888526 -0.09165682 -0.15430303 -0.10658243 -0.02654577 -0.13759077 0.013400856
았 -0.123814866 -0.12277762 -0.12378726 -0.13403699 -0.02155634 -0.026008941 -0.04755261 -0.052359518 -0.11512685 -0.0077950386 -0.05201161 -0.11919571 -0.085486434 -0.13132045 -0.17690861 -0.046765495
수 -0.05074531 -0.15065813 -0.1580573 -0.06819208 0.08934995 -0.10681429 0.17783694 -0.06599893 -0.105709076 -0.105636865 -0.13487689 -0.081365876 -0.15906432 -0.1373173 -0.12469391 0.009075545
되 -0.093417786 -0.1336504 -0.11654545 0.049889047 -0.10704623 -0.08234686 -0.12528795 -0.06624582 -0.07861052 -0.09954237 -0.14395472 -0.1310148 -0.026672758 -0.15768516 -0.15437753 0.017606143
면 0.018673437 -0.039609924 -0.15422218 -0.055651058 -0.14492947 -0.11419564 -0.128477 -0.054523658 -0.08057831 -0.11145016 -0.111654416 -0.036072697 -0.152532 -0.15144503 -0.060303316 -0.011270333
ㅋㅋ -0.13966434 -0.15246165 -0.17912722 -0.12998521 -0.12249149 -0.12990198 -0.14546694 0.00976927 -0.054754663 -0.11022726 0.16533892 -0.14658599 -0.15916005 -0.17693365 -0.08677099 0.041873682
말 -0.03314632 -0.15227674 -0.1468541 0.1320354 0.10554353 -0.12070935 -0.15762188 -0.053687926 -0.09995325 -0.0668589 -0.1608894 0.094538644 0.01824484 -0.14786085 -0.040740225 -0.018981982
연기 -0.11588198 -0.005618186 -0.07739938 0.00971276 -0.12133834 -0.098515846 0.043471266 -0.06735534 -0.11197368 -0.104636945 -0.15469994 -0.11898093 -0.021843249 -0.06744754 -0.15853538 0.005544625
인 -0.07600858 -0.14811406 -0.11287581 -0.12439452 -0.10230025 -0.07717324 -0.12997496 -0.06046865 -0.07029709 -0.07956382 -0.06871604 -0.120075464 -0.1689789 -0.15358698 -0.16156703 -0.011815846
주 -0.12660263 -0.017687827 -0.15942419 -0.119576715 -0.10719822 -0.113222994 -0.13090326 -0.051271945 -0.106311515 -0.12482917 -0.14135706 -0.14018646 -0.13383794 -0.12048256 -0.15282048 0.2612117
내 -0.13314702 -0.08238 -0.16592641 -0.1084251 -0.14506823 -0.12237423 -0.12950154 -0.022445096 -0.12283875 -0.13385612 -0.093784176 -0.07090535 -0.073947564 -0.14419474 -0.1461106 -0.032300435
최고 -0.14716214 0.12294617 -0.09230278 0.22262236 0.05380382 0.02056884 -0.14725573 -0.050947793 -0.055865645 -0.0863928 0.17113791 0.0015359106 0.13104665 0.050770886 -0.0676541 -0.0013432615
~ -0.08867978 0.05097612 -0.09709183 -0.09713817 -0.09164553 -0.13110566 -0.0380876 -0.050914634 -0.063195154 -0.09090062 0.014873437 -0.09818002 -0.07614835 -0.09573202 -0.07948391 0.076054275
평점 -0.12733321 -0.13517797 -0.1275763 -0.047994852 -0.14615634 -0.11474233 -0.0057896185 0.08045079 -0.12440961 -0.026695669 -0.073198155 -0.14648868 -0.10847718 -0.11464368 -0.17294113 0.016310822
이런 -0.08584892 -0.14993092 -0.10765668 -0.122439146 0.008277329 -0.020164436 -0.14033487 -0.05307335 -0.12874606 -0.14344983 -0.15371346 -0.13233006 -0.15566324 -0.14719717 -0.16383365 0.014329854
던 -0.109622926 -0.11814518 -0.12936091 0.049322005 -0.11446221 -0.09958803 -0.11748125 -0.06587548 -0.10499908 -0.13225861 -0.14059348 -0.12503268 -0.10794348 -0.14324652 -0.15130368 0.01711769
어요 -0.121152565 -0.123709105 -0.0879096 -0.13450189 -0.1190206 -0.11983809 0.2232951 -0.007435733 -0.13074987 -0.130903 -0.010434435 -0.13550195 -0.15601371 -0.15239991 -0.13755521 -0.020990718
할 -0.10984478 -0.14624159 -0.11303818 -0.13382417 -0.0021717977 -0.10662613 0.0024449476 -0.050861765 -0.111671776 -0.119011745 -0.13058598 -0.089049526 -0.122543514 -0.093177326 -0.04257254 0.019076148
왜 -0.115381464 -0.08131987 -0.16825986 -0.08689755 -0.13312137 -0.0035301666 -0.09827061 0.07332326 -0.061437543 -0.03228066 -0.16655587 -0.11281661 -0.16791643 0.06126188 -0.047533475 -0.0005180463
겠 -0.11330366 -0.13096718 -0.16751592 -0.119919084 -0.106421806 -0.09969207 -0.11905728 0.022034805 -0.00386914 -0.107117705 -0.12473314 0.17742147 -0.14589804 -0.16486698 -0.09553833 -0.03725382
1 -0.142302 -0.11254349 -0.1653989 -0.12400941 -0.1361299 0.17291187 -0.122155 -0.10029197 -0.14544763 -0.08030877 -0.14703238 0.012801507 -0.16551529 -0.1501191 0.082141265 -0.09052091
스토리 -0.119057186 -0.14056635 -0.17992724 -0.13080348 -0.10459302 -0.05917953 -0.13503529 0.15618278 -0.10134831 -0.06935683 -0.1468112 -0.058004204 -0.15828992 -0.15423007 -0.12975189 0.024097692
해 -0.08232837 -0.13039961 -0.16803282 -0.0940764 -0.122641 -0.12238481 -0.13817513 -0.049053106 -0.106573455 -0.07458387 -0.15707277 -0.12771896 -0.17236577 -0.16306518 -0.11950763 -0.0009118803
습니다 -0.0049097575 -0.13341533 -0.16811489 -0.102082744 -0.12560974 -0.11260553 -0.11744824 0.014858613 0.020894654 -0.12856469 0.1917893 -0.15069464 -0.12231822 -0.09171446 -0.16167651 -0.04771291
ㅋㅋㅋ -0.090963684 -0.14897738 -0.16832496 -0.03316473 -0.03292936 -0.078806214 -0.12988272 -0.14047748 -0.0913612 -0.061217885 0.0129141 -0.123961315 -0.123189114 -0.15141228 -0.09862482 0.22720996
... -0.05177392 -0.14802891 -0.16465683 -0.13139139 -0.08934629 -0.12252427 -0.1458806 -0.04730679 0.004234881 -0.13715681 -0.16760354 -0.12670147 -0.16053738 -0.16649584 -0.15104538 -0.009898283
드라마 -0.14184844 -0.15166323 -0.18491451 -0.11781825 -0.12712191 -0.1156434 -0.0057070013 -0.028767014 -0.10619839 -0.11584989 0.025871089 -0.1379273 -0.08730883 -0.12990503 -0.16500103 0.06937843
생각 0.0008766997 -0.15487644 -0.16464493 -0.123742096 -0.07656508 -0.10370251 0.1699146 -0.04943907 -0.08779843 -0.12909754 -0.1351636 -0.10185756 0.057803646 -0.06561877 -0.13834235 0.1427745
아니 0.052932158 -0.08538557 -0.11026514 -0.1471059 0.12358945 -0.04977937 -0.123302646 -0.060100075 -0.02932367 -0.0010777598 -0.10362342 0.0144483745 -0.16112511 -0.10122444 -0.026842738 0.006777303
더 0.041385155 -0.09999744 -0.14941698 -0.117657945 0.003789018 -0.11976057 -0.13061635 -0.05310874 -0.13037223 -0.069177106 -0.12865673 -0.041771967 -0.12194459 -0.13019483 -0.06301995 -0.018526994
그 -0.09747135 -0.06442678 -0.067910716 -0.13400242 -0.005601429 -0.11259743 0.011859511 -0.059327304 -0.08787269 -0.06746244 -0.10476464 -0.15664841 -0.16121036 -0.02752756 -0.13459997 0.14618783
싶 -0.103429705 0.0694758 -0.1336421 -0.105869524 -0.11213247 -0.11917989 -0.11945277 -0.00013662274 -0.11183653 -0.08332408 -0.10654392 -0.12174664 -0.06672509 -0.11402758 -0.17986007 -0.013315581
사람 -0.06974046 0.0049145333 -0.030874223 -0.11451096 -0.10875759 -0.10478561 0.033782333 -0.059219994 -0.10996062 -0.12920295 -0.085113116 -0.12185652 -0.05782839 -0.016095258 -0.01865834 -0.046171427
듯 -0.071956046 -0.12256675 -0.09783117 -0.12561229 -0.111363955 -0.05876092 -0.13573605 -0.05117137 -0.10510568 -0.039586056 -0.116177134 -0.1416465 -0.107584685 -0.14682762 -0.14353916 -0.031307258
때 -0.067536846 -0.107593425 -0.018532285 0.0051468452 -0.07575587 -0.11145579 -0.09664337 -0.072519206 -0.06500953 -0.08723012 -0.1409156 -0.06904076 -0.15516178 -0.07131557 -0.06609876 -0.0034046173
감동 -0.13594487 -0.15581311 -0.16698729 0.11463363 -0.08729284 -0.12095406 -0.1484875 -0.054753758 -0.11919292 -0.13331817 0.102590054 -0.11233105 -0.15254201 0.20136514 -0.07834042 -0.039121293
함 -0.105162166 -0.119799055 -0.115922846 -0.09570016 -0.06574885 -0.014214819 -0.13861558 -0.057062652 -0.016540533 -0.046893924 -0.0793236 -0.042861823 -0.16812383 -0.17086062 -0.05083707 0.01871239
배우 -0.11981982 -0.115016386 -0.15031143 -0.13292763 -0.13163237 -0.07960031 -0.14015606 0.041918654 -0.1181796 -0.07236118 -0.14448 -0.14469974 -0.16487059 -0.13893813 -0.18154855 0.1851226
본 -0.09534092 -0.10912436 -0.12727326 -0.12525314 -0.09983432 -0.12238438 -0.01294519 -0.06985533 -0.10902273 -0.1329421 -0.10817096 -0.12366243 -0.1607678 -0.15129663 -0.13685025 0.046926875
까지 -0.099087834 -0.11034386 -0.12578535 -0.1289894 -0.113506116 -0.12621027 -0.025728613 -0.041054197 -0.08643074 -0.13284373 -0.10952871 -0.114479624 -0.0052060504 -0.10631035 -0.16626616 -0.015719283
뭐 0.033300366 -0.14959306 -0.17709585 -0.06982586 -0.060698092 -0.08845844 -0.13986848 0.10107289 0.086395204 -0.10800699 -0.16538313 0.113962755 -0.16611944 -0.17596464 -0.137073 -0.026709175
알 -0.11563765 -0.123037405 -0.17021571 -0.11979031 -0.07520985 -0.10742538 -0.052016478 -0.053340655 -0.11383195 -0.13791434 -0.13243411 -0.03374797 -0.14282216 -0.1402213 -0.12368833 0.009703983
만들 -0.11583651 -0.12088754 -0.14407091 -0.121470295 -0.10306381 -0.078236654 -0.053551063 0.0026050005 0.110970914 -0.106865205 -0.14009467 -0.12025855 -0.14608636 -0.15089501 -0.17424853 0.011732839
내용 -0.010950515 -0.11225372 -0.15863012 -0.114979014 -0.108476035 -0.08911212 -0.13843137 -0.051461693 0.16507399 -0.14457802 -0.1380955 -0.124949805 -0.13968876 -0.14553857 -0.16206297 -0.0200565
볼 -0.07990905 -0.14843366 -0.022186311 0.008305318 0.14427547 -0.12249568 0.09185401 0.029591115 -0.11913552 -0.10477058 0.042310663 -0.12308498 0.055885628 0.015086898 -0.13272613 -0.0032022
감독 -0.14939049 -0.08739315 -0.12589549 -0.01985147 -0.03844601 -0.008534235 -0.041051175 -0.06570445 0.22595008 -0.06792706 0.0051692696 -0.1547024 -0.07071258 -0.10040032 -0.18330516 0.04244957
보다 -0.028355576 -0.08987064 -0.1764897 -0.09462234 0.026270641 -0.07845879 -0.09669248 -0.04957717 -0.0682841 -0.13437347 -0.12289217 -0.1470325 -0.07490148 -0.1029 -0.081256025 0.20144446
라 -0.06277195 -0.15560758 -0.08866579 -0.12923586 0.029343272 -0.06786517 -0.06619927 -0.056204133 -0.0383532 -0.10033272 -0.075658314 -0.07080781 -0.13598661 -0.050801136 -0.032100838 0.013693277
그냥 -0.12615097 -0.068751745 -0.17058918 -0.12158643 0.1067949 -0.025714751 -0.049367316 -0.07144519 -0.11861126 0.13843141 -0.16248022 -0.1009012 -0.16920763 -0.18352407 -0.16944836 0.049893882
재미 -0.111800164 -0.049304657 -0.14933744 -0.081025556 -0.10701052 -0.12655464 -0.112605624 -0.05738359 0.117638305 -0.13659365 0.06995767 -0.1327227 -0.12809375 0.015922189 -0.15254213 -0.029621674
시간 -0.0466526 -0.08130893 -0.10816192 -0.11695889 0.16868816 -0.106644414 -0.10069024 -0.06258916 -0.04497416 -0.07303035 -0.13821533 -0.14158353 -0.05954248 -0.14672706 -0.040137403 -0.009763218
지루 -0.028615424 -0.12532257 -0.1657198 -0.14412591 0.17935716 -0.08853172 -0.13032086 -0.051571373 0.15194105 -0.051612567 -0.17314272 0.13742769 -0.14858118 -0.16442902 0.023075555 -0.0073374026
중 -0.09298453 -0.11152128 -0.12763451 -0.07535612 -0.10025449 -0.10098885 0.07862935 -0.050599176 -0.040525846 -0.11346711 -0.12421004 -0.10502049 -0.07570202 -0.13348542 -0.15844557 -0.029258788
재미있 -0.116942644 0.01497764 -0.1343822 0.18064134 -0.024419295 -0.12982564 0.0026273625 -0.05027891 -0.12321464 -0.13970897 -0.0957325 -0.14481503 -0.12725215 0.25685114 -0.040341847 0.061418336
년 -0.09346594 -0.11440502 -0.14135985 -0.090759136 -0.08370106 -0.09960705 -0.023618242 -0.05070946 -0.10333077 -0.12298382 -0.00058255845 -0.13453887 -0.104496576 -0.09576676 -0.15396504 -0.04647888
10 0.1197641 -0.11389099 0.16772358 0.15597536 0.10631972 -0.119273655 0.07932303 -0.057147384 0.12744568 0.020972492 0.19646715 -0.1440644 -0.045801368 -0.038767744 -0.189104 0.017982583
였 -0.097547546 -0.12310539 -0.1625351 -0.11160332 -0.09907189 -0.11906724 -0.14193465 -0.054350693 -0.10862755 -0.08999818 -0.097951844 -0.12781626 -0.12950116 0.13087903 -0.14901333 0.006270051
잼 -0.1463721 -0.14443672 -0.13745001 -0.14279014 -0.12012269 -0.12872833 0.090635754 -0.05425281 0.031864475 -0.07294079 0.25501183 -0.14281766 -0.1567117 -0.14631128 -0.15464795 0.081241734
사랑 -0.0035671885 -0.15916383 -0.103651986 0.122841224 -0.05037478 -0.11515065 0.11874984 -0.06502656 -0.077679336 -0.12768629 0.017595252 -0.14747679 0.06335376 0.13343814 -0.17257805 -0.035849594
못 0.15455164 -0.14529032 -0.17832881 -0.15221283 0.01552567 -0.0038500004 -0.118921705 -0.058054533 0.024701258 0.039101508 -0.14493409 -0.03836008 0.028067708 -0.13459682 -0.03099482 0.023756292
냐 0.10803914 -0.13704185 -0.1603411 -0.08961584 0.059069093 0.10826218 -0.1502857 -0.066293865 0.07811585 -0.053048808 -0.15989028 -0.13005432 -0.075520374 -0.16332243 -0.014075609 0.033623043
재미없 0.09233335 -0.13670877 -0.1568738 -0.123504 0.17646025 -0.03354107 -0.121328086 0.15407313 0.071294844 -0.099443085 -0.14333954 0.046772547 -0.15370595 -0.17492855 0.20510587 -0.027910603
쓰레기 0.12081111 -0.13179691 -0.15342987 -0.022508001 0.1181146 0.27998152 -0.15495929 -0.05538083 0.08076656 0.11567535 -0.16013345 0.008773341 -0.13034531 -0.14313254 0.13559197 0.018861923
서 -0.010890009 -0.111937046 -0.13385852 -0.11206537 -0.12837675 -0.1252225 -0.053470243 -0.029445311 -0.016665557 -0.10755225 -0.120357744 -0.042575773 -0.085017465 -0.11323023 -0.16148914 0.0209173
2 -0.04324028 -0.1414013 -0.15548256 -0.13472347 -0.04943167 -0.014422401 -0.13845287 0.0060665933 -0.1025135 -0.07391334 -0.14660609 0.07866104 -0.14665602 -0.14964332 0.03174713 0.011468876
라고 0.08495706 -0.12482901 -0.15802212 -0.10688566 0.092090555 0.030802855 -0.11966111 -0.054131784 -0.012517842 -0.123395495 -0.14418787 -0.06903114 -0.05740442 -0.14062473 -0.06540808 0.022619952
야 -0.13181698 -0.08257609 -0.07799383 -0.104618646 0.06202073 0.045442097 0.0017920244 -0.060005657 -0.12926587 -0.12915814 -0.06852882 -0.15861386 -0.054289665 -0.0997206 -0.17393783 0.0005986175
니 0.0049865763 -0.13757133 -0.17060629 -0.08080705 -0.0302585 -0.12460942 -0.12390797 -0.011189313 -0.02870248 -0.08949193 -0.1505944 -0.086924076 -0.15377428 -0.15809435 -0.16673745 -0.033485793
면서 -0.102156736 0.03461884 -0.14661911 -0.045885615 -0.10603394 -0.049553722 -0.106069356 -0.032081205 -0.10644517 -0.054058414 -0.093519084 -0.06682813 -0.12512888 -0.122902535 -0.15753691 0.023988727
번 -0.107313804 0.045928795 0.095728725 0.021600137 -0.028656866 -0.11716876 -0.06498814 -0.05723919 -0.13048875 -0.12280581 -0.14698362 -0.074975386 -0.0027728803 -0.12461183 -0.050919484 -0.030055035
다시 -0.12329897 0.029982353 0.16087459 -0.09063091 -0.115608 -0.04594377 -0.10156461 -0.06680153 -0.11845421 -0.12603925 -0.058076777 -0.07737888 -0.018149806 0.09348654 -0.16532645 -0.02964797
나오 -0.014634018 -0.0047237896 -0.090745874 -0.11994328 -0.027294978 -0.110666044 -0.024245644 -0.05950818 -0.10513514 -0.09346497 -0.1299049 0.049213443 -0.090716556 -0.06416013 -0.061723527 -0.039590478
작품 -0.07404673 -0.082598254 -0.029214941 -0.016002858 0.02307702 -0.1138157 -0.05529493 -0.07136681 -0.013685181 -0.10376051 0.13081196 -0.14283612 -0.09554347 -0.09537322 -0.14345817 -0.003487099
이거 -0.11634211 -0.1315325 -0.1661942 -0.075079896 -0.08879974 0.024035504 -0.1033549 -0.07170841 -0.12679036 -0.123264395 -0.15395218 -0.14124414 -0.10671869 -0.09198348 -0.14807206 0.022426434
하나 0.01734845 -0.15657017 -0.14385614 -0.13595538 -0.06447199 -0.06273592 -0.10682362 -0.06258734 -0.09591457 -0.11575746 -0.14322588 0.058887344 -0.15265703 -0.136473 -0.15321442 -0.012137484
줄 -0.09780129 -0.12505493 -0.093875594 -0.13493918 0.12928697 -0.10784781 -0.07362603 -0.06474966 -0.032095797 -0.07836804 0.019612448 -0.12882587 -0.07502736 -0.06888563 -0.040983763 0.00859046
해서 -0.02458665 -0.045698464 -0.055442315 -0.05999996 -0.108922094 -0.1295584 -0.09425974 -0.032769743 -0.11352506 -0.11615588 -0.10370838 -0.12580481 -0.14893879 -0.07328309 -0.14179522 0.047789827
개 0.056427643 -0.106270485 -0.15771957 -0.13967858 -0.06941575 -0.037290547 -0.1546183 -0.057889532 -0.12736219 0.073828734 -0.16820943 -0.14154908 -0.14877144 -0.15364444 -0.07382455 -0.03729267
남 -0.12782595 -0.045323007 -0.08833472 -0.06913802 -0.1287332 -0.1089587 -0.14184278 0.078232475 -0.0027178687 -0.13181111 -0.023113409 -0.09542906 -0.09594248 -0.09115979 -0.16000864 -0.024449218
정도 0.03984845 -0.13103488 -0.119370475 -0.07603761 -0.04978875 -0.12193863 -0.07723012 -0.04810038 -0.04451598 -0.12509795 -0.13761026 -0.10822473 -0.06548342 -0.08974342 -0.034176365 -0.045228194
마지막 -0.021084193 0.099104404 -0.12916327 -0.10096016 -0.13830826 -0.1368931 0.1326063 -0.07056887 -0.11916892 -0.1285576 -0.06327851 -0.12739159 -0.05779176 -0.031576548 -0.17243913 0.052364465
끝 -0.083182566 -0.051762644 -0.1221546 -0.06663394 -0.1264844 -0.12072929 -0.096059665 0.18811439 -0.12637453 -0.11995167 -0.08736818 -0.001674934 -0.02233936 -0.06293575 -0.1561274 0.006203044
이건 -0.1298781 -0.13745598 -0.17106485 -0.14167377 0.28020784 -0.12217582 -0.1455141 -0.06305618 -0.026164962 -0.12847157 -0.1444598 -0.04326681 -0.16320941 -0.18745455 -0.17141196 -0.034050547
액션 -0.06892362 0.08025925 0.040933937 -0.024351062 -0.060272615 -0.064686336 -0.13927764 -0.03319009 -0.11361729 -0.12220567 -0.13560084 -0.06620716 -0.1407714 -0.07479778 -0.050871227 -0.04522846
임 -0.0682224 -0.06156478 -0.097980246 -0.14899081 -0.14762837 -0.11881821 -0.10643132 -0.053069364 -0.11967656 -0.13253127 -0.15373911 -0.1471763 -0.15588503 -0.1533511 -0.11996598 0.10693624
ㅋ -0.1288435 -0.16443196 -0.075118974 -0.054756906 -0.11826303 -0.041509848 -0.093055874 -0.113612175 -0.12560384 -0.01309187 -0.015166046 -0.08723734 0.10753724 -0.0017624691 -0.10771104 -0.0800538
3 -0.11586044 -0.08164061 -0.15672089 -0.124330245 -0.1495655 -0.11742478 -0.13074765 -0.056636136 -0.12348169 -0.1087401 -0.14265685 0.07525101 -0.08807971 -0.14850086 0.043830525 0.02958238
기대 0.021680556 -0.13862073 0.009367144 -0.10592535 -0.09200609 -0.11217481 -0.11776868 -0.048250873 -0.113656715 -0.118139595 -0.10137065 -0.08109789 -0.12465326 -0.13229376 -0.15248966 -0.035349928
입니다 0.040906567 -0.1327511 0.07144287 -0.12086995 -0.06060337 -0.12060712 -0.14813878 0.014557736 -0.11796873 -0.12903516 0.1569648 -0.13438773 -0.08081561 -0.09677147 -0.15423396 0.052325454
건 0.19510129 -0.09306399 -0.13096981 -0.096971475 -0.058429677 0.013134295 -0.041300904 -0.061063748 -0.12355479 -0.12159769 -0.147795 0.0011143839 -0.14551681 -0.14292686 -0.02094476 -0.03805257
라는 -0.07764031 -0.12523255 -0.16091424 -0.106128536 -0.08651658 -0.050312974 -0.0734651 -0.047284223 -0.11913561 -0.117605396 -0.104175285 -0.09892715 -0.13184622 -0.022112515 -0.07116847 0.08866978
분 -0.09059561 -0.12890658 -0.10050947 0.00082996127 -0.1376417 -0.118251726 0.019042801 0.13711007 0.023300089 -0.13109025 -0.13455172 -0.08003908 -0.12555903 -0.11027422 0.08533939 0.014393296
완전 -0.12047677 -0.079800256 -0.11006058 -0.07564738 -0.13754238 -0.12659231 -0.050515514 -0.07189395 -0.11837294 -0.13294719 -0.09694434 -0.13240336 -0.058082104 -0.08054386 -0.17379433 0.01069206
다는 -0.084139265 -0.11409662 -0.14951853 -0.038535897 0.11593862 -0.088061504 -0.050128296 -0.051080894 -0.10910598 -0.08129883 -0.13068748 -0.14128104 -0.12325682 -0.15508223 -0.071319364 -0.03772205
참 -0.05047245 -0.15535326 -0.11926291 -0.046025023 -0.06503543 -0.12183117 -0.13726905 -0.06376133 0.029864406 -0.06675825 -0.14717837 -0.048915006 -0.105296396 -0.13015807 -0.0747428 0.09316479
많 -0.013732502 -0.14229453 0.14514339 -0.14773498 -0.04139231 -0.02704738 0.09138244 -0.057698663 -0.0051317173 0.019812828 -0.15260917 -0.041386362 -0.15743636 0.047901757 -0.087821856 0.014928687
처음 -0.02635984 -0.1402592 -0.14629482 -0.1252043 -0.08041734 -0.11329943 -0.12479971 -0.05997612 -0.006058737 -0.14110169 -0.14006528 -0.008713911 -0.13706332 -0.11728729 -0.009343218 -0.005785562
장면 -0.088390775 -0.096543126 -0.100954115 -0.052776676 -0.097472996 -0.08932214 -0.10751309 0.011314248 -0.06473513 -0.11924758 -0.038262237 -0.066284 -0.04774274 -0.10699511 -0.15598749 -0.037133075
대 -0.03895442 -0.022626825 -0.14945428 -0.13855565 -0.057999913 -0.08767176 -0.011500325 -0.056915145 0.022526795 -0.040601917 0.08812051 -0.103797905 -0.14272739 -0.13883092 -0.0863619 0.01900481
아깝 0.12935124 -0.12859538 -0.15857698 -0.1187514 0.08103691 -0.11376874 -0.13096981 -0.05410633 0.023297692 -0.047191545 -0.13732214 0.22336204 -0.14576203 -0.17640832 -0.06451167 0.053172223
다가 0.0033064138 -0.12674193 -0.1476185 -0.11856384 -0.074171476 0.06509464 -0.1057469 -0.060939446 -0.1031987 0.15256846 -0.14102077 -0.09836015 -0.12539852 -0.11852825 -0.09788828 -0.044324648
으면 -0.09141938 -0.12133688 -0.13459271 -0.10462949 -0.053848807 -0.08923822 -0.0042045526 -0.01932 -0.10872755 -0.041695777 -0.09034122 0.092836455 -0.076269336 -0.080492534 -0.13415898 -0.0008007288
지금 -0.09302141 0.17478245 -0.16120468 0.08271991 -0.12077884 -0.102309935 -0.10622721 0.004087072 0.013355275 -0.114122815 -0.14702821 -0.041770622 -0.06345831 -0.12910584 -0.050971508 -0.043490004
모르 -0.03327727 -0.13171336 -0.16773744 0.107245065 0.069116995 -0.1154579 -0.114986986 -0.050872117 -0.1148473 -0.119076654 -0.121343784 -0.13423827 -0.14261056 -0.15399213 -0.14493273 0.03812828
이렇게 -0.090872236 -0.13567649 -0.101308495 -0.06253124 -0.069844306 0.015422066 -0.13253851 -0.05706349 -0.13195816 -0.12817208 -0.11696469 -0.13618769 -0.11838651 -0.09935943 -0.10138857 -0.005792238
' -0.104520656 -0.0560099 0.00031280363 0.034300957 0.019969288 -0.10169991 -0.071123056 -0.06674182 -0.0047280896 -0.13768551 -0.018013429 -0.07764496 -0.13613896 -0.014136332 0.032525953 0.046390492
편 -0.044887014 -0.10753542 0.1357692 -0.11299471 -0.03534648 -0.023490798 -0.11717075 0.029542107 -0.013002356 -0.10618978 -0.08873981 0.003275483 -0.1465874 -0.081036516 -0.10204944 -0.015707351
일 -0.078883335 -0.13660899 -0.0766654 -0.11764481 -0.07585386 -0.007657766 -0.02202631 -0.036607523 0.0077163307 -0.087183855 -0.05701167 0.01310166 -0.0849139 -0.13089208 -0.16434927 0.00028105825
돈 0.06531946 -0.12215127 -0.17971952 0.025394974 0.0045402725 0.17541884 -0.13493642 -0.050052922 0.06890902 -0.066079535 0.06474812 0.15878865 -0.14857948 -0.16889343 0.082509875 0.020205203
이게 -0.10454334 -0.13340706 -0.15702188 -0.06731729 0.0048869196 -0.045858435 -0.0841853 0.013226949 -0.005295649 0.018604789 -0.16324878 0.024056267 -0.1647583 -0.17519306 -0.048689216 -0.048095442
성 -0.07626612 -0.13374382 -0.14742057 -0.123246 -0.11431676 -0.13208763 -0.14045063 0.120340034 0.05487348 -0.105982214 -0.13710423 -0.119320154 -0.12919727 -0.10983481 -0.07328101 0.0318712
느낌 -0.0750829 -0.14588758 -0.12504426 -0.12743072 0.02620402 -0.07412494 -0.12774768 -0.05901341 -0.062659755 -0.12564571 -0.14388815 -0.037631944 -0.13245584 -0.1582717 -0.12012307 -0.022919511
시 -0.048788622 -0.040460393 -0.043850634 0.069083214 -0.04147404 -7.502807e-05 -0.073794544 0.047203757 -0.076363966 -0.11820821 0.031811424 -0.12389929 -0.01120019 -0.06866212 -0.16576746 0.027837612
이야기 -0.044806678 -0.08809496 -0.07505801 0.02975051 -0.027910724 -0.06981794 -0.045659 -0.019274278 -0.033584397 -0.07059818 -0.15369834 -0.058229074 -0.10183139 -0.04566371 -0.07452782 -0.027741207
최악 0.06965071 -0.12240243 -0.13214637 -0.10864621 0.1525905 -0.050906673 -0.08546624 -0.031258836 0.20835201 0.1726593 -0.1010102 0.21811156 -0.14222868 -0.111968584 0.26938993 0.0063222423
된 -0.06503862 -0.10906406 0.023294738 0.04550104 -0.09564952 -0.018667603 0.012650969 -0.041362442 -0.099361405 -0.06777782 0.002108057 -0.05517559 -0.106100604 -0.12810463 -0.1262928 0.033504046
봐도 -0.12828305 -0.076229766 -0.14029425 -0.039210204 -0.13703617 -0.11514531 0.22313626 -0.04701692 -0.07315955 -0.13453478 -0.0705578 -0.11420869 -0.15653881 -0.15772308 -0.16346441 0.044541523
님 0.006783456 -0.11505219 -0.1316427 0.16814743 -0.14011033 -0.120009035 -0.0097126765 -0.016066981 -0.11940404 -0.11937603 -0.12161653 -0.06628736 -0.051592108 -0.11344005 -0.16607736 0.02002567
어서 -0.06531891 -0.132587 -0.14956394 -0.116794534 -0.022912653 -0.057662267 -0.12515086 -0.053745575 -0.013016473 0.00216554 -0.14509471 -0.07654652 -0.13236006 -0.14854613 -0.10879925 0.018647281
애 0.13920969 -0.10316933 -0.12771444 -0.1043467 -0.11149766 -0.12833232 -0.01596561 -0.071872845 -0.027796559 -0.020099804 -0.09830094 -0.060895663 -0.10305291 -0.08683699 -0.16533875 0.016930018
전 -0.04804072 -0.116731614 -0.09197261 -0.10907323 -0.118701525 -0.13591398 -0.11785554 0.021574099 -0.10505596 -0.12762807 -0.12973729 -0.124153666 -0.09918139 -0.13164078 -0.08916806 -0.029458666
넘 -0.07279412 -0.13365759 -0.08023077 -0.12610641 -0.12256228 -0.12588787 -0.01588338 -0.07209636 -0.034006495 -0.13917801 -0.1123847 -0.1382189 -0.14089336 -0.14323248 -0.105383314 -0.013772361
ㅠㅠ -0.1394559 -0.08067145 0.08177258 -0.05878089 -0.16289148 0.028591746 -0.13885674 -0.054710727 -0.1280196 -0.01602491 -0.09476043 -0.079654396 0.13748896 0.013216171 -0.17846961 0.04039248
인데 -0.061689362 -0.12553531 -0.15955953 -0.10471495 0.026874792 -0.06064187 -0.11791666 -0.023712821 -0.0001713095 -0.027097749 -0.1460653 -0.04840537 -0.11428806 -0.12578326 -0.14798562 -0.018465303
다고 -0.14157502 -0.10770526 -0.064423695 0.03849455 -0.11539235 -0.07540593 -0.029744629 0.0032610516 0.092032954 -0.08167567 -0.087184496 -0.015475056 -0.0712676 -0.0353992 -0.12794538 0.01345152
이해 -0.14316323 -0.12939171 -0.11985012 -0.10183585 -0.12644906 -0.10593331 -0.090261236 -0.06500326 -0.09882011 -0.04956417 0.07400453 -0.12805834 -0.110515624 -0.078329936 0.0030534775 0.022869656
별로 0.022774128 -0.103665434 -0.16572487 -0.10771952 0.13133277 0.1440848 -0.12926194 -0.05421383 -0.107000545 0.14397742 -0.1591548 0.122429736 -0.12819178 -0.089297354 0.11651368 -0.030612707
그리고 -0.11841324 0.10181275 0.03496274 -0.09305302 -0.13543773 -0.10704939 0.015783543 -0.071133584 -0.025803238 -0.10693681 -0.11269499 -0.1433699 0.027947996 -0.10430119 -0.0779779 -0.0155496225
명작 0.0021592667 -0.06284208 0.04083113 0.08299966 -0.14649361 -0.11389659 0.23123968 -0.05696161 -0.12877204 -0.12898931 -0.13038681 -0.12930965 0.22343476 0.018439457 -0.16038373 -0.04060923
여자 -0.09646136 -0.12334492 -0.1462113 -0.11701762 -0.13408458 0.07757364 -0.11730605 -0.07331871 -0.010125025 -0.08090315 0.017002542 -0.13997643 -0.1253587 -0.054546155 0.13030413 0.028254332
^^ -0.12273129 -0.12420693 0.09595809 0.12476141 -0.04671078 -0.109752834 -0.0484711 0.13822179 0.034655876 -0.13497481 -0.13984327 -0.153298 -0.09066596 0.26368037 -0.036760762 -0.02076223
역시 -0.069278024 0.12067148 -0.15837865 -0.10437369 -0.07186883 -0.13422345 0.015491785 -0.04938109 -0.081863366 -0.08974197 0.05107237 -0.029254967 -0.1454459 0.100940056 -0.093356155 -0.008732021
난 -0.086165935 -0.12063093 -0.16161638 0.12171695 -0.09414945 -0.076791316 -0.11838613 -0.044269364 -0.09892965 -0.13302752 -0.11715399 -0.11967513 -0.13729024 0.021140486 -0.1337665 0.016849443
이상 -0.0057806736 -0.14117032 -0.16999406 -0.12169322 -0.012470748 -0.048561167 -0.14202198 -0.03411325 0.00838599 -0.057321545 -0.16621421 -0.084514 -0.15604334 -0.16403317 -0.09610153 0.051513012
또 -0.104391456 -0.13063155 0.09856511 -0.026257584 -0.113652736 -0.038475353 -0.086482875 -0.010590184 -0.11259429 -0.12950085 0.09201764 -0.12717889 -0.13176706 -0.019970292 -0.1675918 -0.046058238
걸 0.053672995 -0.12583414 -0.14763492 -0.08058964 -0.12155016 0.002471247 -0.10567535 -0.057703346 -0.11196019 0.04385536 -0.14405109 -0.12017578 -0.13594294 -0.13098559 -0.13509478 0.049497057
한국 -0.09059068 -0.0059753195 -0.16174743 -0.14199227 -0.08479293 -0.03243673 -0.09907749 -0.011497927 -0.028306102 -0.05706346 -0.1580962 -0.06498122 -0.16482353 -0.12640628 -0.063292675 -0.0038040392
는지 0.07761897 -0.11321529 -0.16756755 -0.10261997 -0.09277542 0.039344363 -0.10852903 0.14446634 -0.08477876 -0.049453 -0.14640142 -0.022170238 -0.14195967 -0.14131656 -0.011008777 -0.013839196
많이 -0.114287995 -0.14249565 -0.16685382 -0.12279172 -0.104994535 -0.08276898 -0.1402994 0.079441145 -0.04780725 -0.03580281 -0.16011663 -0.12038229 -0.16446288 -0.16574351 -0.1575532 -0.035926066
에게 -0.12572287 0.033559203 -0.15124674 -0.10971383 -0.04795275 -0.11745397 -0.098283954 -0.050046735 -0.05690227 -0.12800062 -0.16693528 -0.113876365 -0.04825051 -0.04161647 -0.1662311 -0.042832743
부터 -0.07599693 -0.11821089 -0.13966078 -0.11994491 -0.062478732 -0.06663007 -0.13918595 0.00015009315 -0.0483264 -0.115567006 -0.14162795 -0.072200015 -0.13523531 -0.12611224 -0.034563825 -0.013970863
만든 -0.015129065 -0.09823242 -0.022472786 -0.042255536 -0.11718492 -0.110878035 -0.08996714 -0.061247617 -0.120747656 -0.14054021 -0.1084756 -0.031268034 -0.07164408 0.07054319 -0.14743839 0.0075381286
주인공 -0.030810146 -0.11949848 -0.1480136 -0.1146962 -0.108551845 -0.11867649 -0.116986096 -0.06346897 -0.076717116 -0.1124832 -0.039115775 0.010886603 -0.12214552 -0.117399 -0.06981335 0.023442332
받 -0.084824905 -0.12535903 0.032577284 -0.14403605 -0.09459003 -0.042751033 -0.0987543 -0.048389286 -0.07119966 -0.029577335 -0.06715768 -0.13526185 -0.112337545 -0.11260992 -0.1539803 0.018116128
합니다 -0.10227466 -0.134358 -0.12713732 -0.13822833 -0.032472644 -0.08242788 -0.07270852 -0.066362485 -0.0097626485 -0.12733881 -0.16580774 -0.035066415 0.093118556 0.0843504 -0.1770598 -0.031634845
우리 -0.058554936 -0.0035373124 -0.014629512 -0.124952875 -0.077524796 0.019437049 -0.10229939 0.06038148 -0.098966815 -0.10179281 0.25830272 -0.06986514 -0.042449493 -0.0991439 -0.15839882 -0.013689578
두 -0.0967154 -0.112867855 -0.11137569 0.008284903 -0.10209955 -0.106106736 -0.09813133 -0.055919357 -0.10526463 -0.10042542 -0.09250514 -0.08430177 -0.11782986 -0.12798844 -0.15211265 -0.010791253
살 -0.096837275 -0.13065134 0.1405835 -0.08048837 -0.08772565 -0.11341441 -0.13558073 -0.0077031055 -0.08409155 -0.059032362 -0.10236343 -0.11374955 -0.09560636 -0.034591243 -0.03409072 0.03501745
!! -0.10085087 0.07420965 -0.15864065 -0.09950646 -0.02199857 -0.055868134 0.035160217 -0.056435607 -0.11560784 -0.048229374 -0.15425737 -0.14266461 -0.15865183 -0.14783269 -0.14421403 -0.03901006
길 -0.097391784 -0.14223494 -0.15890446 -0.10484139 -0.1295768 -0.017488556 -0.13346109 0.05618739 -0.071499765 -0.044626337 -0.15706076 -0.06748023 -0.041264635 -0.15089285 -0.05633711 0.043234296
엔 -0.094781324 0.055408526 -0.054505877 -0.055918034 -0.09302289 -0.054773834 -0.0841965 -0.06619221 0.0025966312 -0.09482718 -0.038160916 -0.013296998 -0.11931865 -0.11856376 -0.15225524 0.010455478
괜찮 -0.11418229 -0.035282142 -0.099820904 0.16202067 -0.12742984 -0.13017546 -0.049179565 -0.061446115 -0.11651164 -0.14025435 0.001408615 -0.14271887 0.19094653 -0.098232344 -0.16933186 0.042377554
기억 -0.12592928 0.0642228 -0.004487983 -0.08549881 -0.11533891 -0.1072065 0.07790363 -0.055943377 -0.11728763 -0.119347215 -0.13673238 -0.123728044 -0.106443726 0.12087022 -0.16297176 0.053896535
연출 -0.11854018 -0.12766136 -0.12853861 -0.11871223 -0.026491879 -0.12542157 -0.11112032 -0.051588226 0.042806685 -0.045267027 -0.13913366 -0.12714334 -0.14012332 -0.13891107 -0.15580581 0.010718893
한다 -0.1343838 -0.03777011 -0.10650724 -0.11158623 -0.029244117 -0.10319831 5.560668e-05 -0.048640884 -0.065460525 -0.009389229 -0.036918394 -0.04266757 -0.0771901 -0.107033275 -0.09021531 -0.035294652
때문 0.09281676 -0.0040337597 -0.1110878 -0.0842037 -0.13703682 -0.12056715 -0.06978233 -0.022233231 -0.09180812 0.025933728 -0.11939061 -0.14671266 -0.12843901 -0.09664691 -0.12361222 -0.018650126
이나 0.0011593783 -0.12578823 -0.14821993 -0.102417365 0.09504598 -0.107982725 -0.12237864 -0.060282554 -0.092316575 -0.09397704 -0.09938103 0.13103817 -0.051689483 -0.109250955 -0.14808501 0.19174404
ㅎㅎ -0.060564913 -0.14630404 0.06338684 0.07034351 -0.08440922 0.055704545 -0.15969527 -0.024656389 -0.010911437 -0.097013615 -0.18299773 0.027738558 -0.15221357 0.31790447 -0.070865005 0.044112515
요 -0.1283259 -0.1000287 0.046371806 -0.05356478 -0.08686496 -0.10504151 0.09083371 -0.055072706 -0.09729215 -0.11164711 -0.16041534 -0.14389667 -0.006969797 -0.10621794 -0.16071345 -0.027883483
저 -0.10989235 -0.14752507 -0.1432103 -0.124898925 -0.10761791 -0.027525796 -0.11918022 -0.046792928 -0.10276847 -0.13682014 -0.152518 -0.049505375 0.08674024 -0.12707405 -0.04310275 -0.00090735033
재 -0.030681428 -0.061464615 0.030798124 0.121420436 -0.10106916 0.06991614 -0.13034756 -0.06319186 -0.11956773 0.037604287 0.061166648 -0.06790753 0.03000718 -0.13943428 -0.09515534 -0.009473167
꼭 -0.110645406 0.1515288 -0.12556769 0.2143876 -0.105856426 0.067025274 -0.09952885 -0.049246993 -0.033612043 -0.09859519 0.14245033 -0.1344632 -0.15015632 -0.113888614 -0.13630922 0.044623982
랑 -0.120682225 -0.14207348 -0.15599987 0.00040623412 -0.14088488 -0.10906275 -0.045058243 0.02362898 -0.052623395 -0.06344886 -0.15022215 -0.069226876 -0.06969801 -0.13351634 -0.15133895 -0.044734456
며 -0.080446444 -0.039964613 -0.047043685 -0.08745015 -0.093665384 -0.10120337 -0.028781872 -0.040606264 -0.106496684 -0.10225509 0.017329289 -0.11364278 -0.124803625 -0.032206737 -0.06343131 -0.04916916
현실 0.035137333 -0.026269319 -0.15401196 0.1986193 -0.069549106 -0.03116461 -0.14940178 -0.051791668 -0.07666195 -0.02875878 -0.16716667 -0.065241866 -0.16029827 0.112622164 -0.05506575 0.027436925
긴 -0.07170777 -0.14480269 -0.1495444 -0.13234532 0.07540601 -0.032840837 -0.12803042 0.038060643 0.054809436 -0.023485437 -0.16491365 -0.12600413 -0.15031916 -0.14310452 0.061842464 0.02080072
ㅡㅡ -0.047701444 -0.13646711 -0.16597405 -0.12149745 -0.089599974 0.18370429 -0.04401104 0.07746917 -0.10732744 0.13336837 -0.14292346 0.09302337 -0.12462483 -0.15766603 -0.038940877 0.02132387
무슨 0.061397485 -0.1245542 -0.17036879 -0.13878688 -0.11770806 -0.1241599 -0.1084427 -0.051889434 0.0056360904 0.117226794 -0.13903831 0.00025078421 -0.12317622 -0.1513628 0.1619532 -0.011100281
내내 -0.0844049 -0.090999834 -0.12555483 -0.0827378 -0.097469784 -0.12900488 -0.045795564 -0.027707068 -0.10782113 -0.096819945 -0.08239793 -0.06948493 -0.08266036 -0.10861063 -0.14566076 0.10684107
결말 -0.054491613 -0.13966168 -0.18048044 -0.084283076 0.012189311 -0.096355 -0.03791393 -0.052104108 -0.10991766 -0.077550836 -0.15994029 0.0060200607 -0.15821053 -0.14901613 -0.080110185 -0.04904858
죽 -0.04946525 -0.0864309 0.00080071745 0.026581807 -0.06270662 -0.052603524 -0.040154327 0.08569121 -0.12502782 0.013179319 -0.027718553 -0.13872698 -0.14340904 -0.019366756 -0.0062761847 0.0014032014
남자 -0.12319338 0.00982248 -0.09892117 -0.0610181 -0.11902943 -0.116938636 -0.13101965 -0.060969826 -0.114531696 -0.121641405 -0.12614697 -0.09741636 -0.063829884 -0.115248755 -0.15794487 -0.005422972
세요 -0.10618504 -0.08404402 -0.089701876 -0.053938262 0.0301244 0.0091522755 0.045772042 0.1320392 -0.090219386 -0.069339134 0.016820697 -0.13557127 -0.06375048 -0.012771521 -0.10928033 0.0037396662
전개 -0.04708298 -0.086370505 -0.12726612 -0.12528421 0.15167601 -0.04642949 -0.10311336 -0.049269576 0.14227025 -0.07753382 -0.12650882 -0.11097017 -0.11720877 -0.10674414 -0.10832592 0.035068583
마음 -0.014621626 -0.01783925 -0.15131682 -0.11937489 -0.08291707 -0.11528854 -0.12939933 -0.0473182 -0.096807726 -0.11902849 0.12807366 -0.050907828 0.08845813 0.194401 -0.13806017 -0.011149146
소재 0.03956595 -0.13680483 -0.13425377 -0.1193773 0.19964255 -0.118693285 -0.11306523 -0.048627935 -0.023693994 -0.09689277 -0.13673595 0.038229186 -0.11469351 -0.15061451 -0.010957256 0.052446947
속 0.007455679 -0.09969422 -0.10939947 -0.0526259 -0.13695969 -0.122776225 -0.0929585 -0.050836466 -0.12474735 -0.11670236 -0.062383115 0.016731994 -0.10062387 -0.12611414 -0.018586308 0.018730788
공포 0.095785744 -0.14439528 -0.17440079 -0.0763142 -0.13972867 -0.13513403 -0.1258153 0.03631065 0.029320959 -0.09628253 -0.15010573 -0.13092972 -0.14277774 -0.1599824 -0.0058662146 -0.033110857
아서 0.037118874 -0.1323737 -0.13066866 -0.1305349 -0.07881978 -0.03879503 -0.11191888 0.052636877 -0.02767127 -0.048192374 -0.09814473 -0.05285712 -0.12337094 -0.09897082 -0.071980014 -0.009678066
다른 -0.002294196 -0.13268763 0.087743394 -0.050568733 -0.1146422 -0.115306295 -0.1507808 -0.03432935 -0.02457036 -0.07117118 -0.0948271 -0.13771035 0.008793417 -0.09025361 -0.0019146426 -0.044933975
씨 -0.09978248 -0.03739888 -0.083055496 -0.078874566 -0.10766713 -0.031058596 -0.1268274 -0.0014046108 -0.11447248 -0.08169194 -0.14052342 -0.088903375 -0.14538753 0.03176095 -0.07693609 0.14108706
인생 0.013143525 -0.094866455 -0.0977563 0.12436294 -0.11408203 -0.12314955 0.060647514 -0.05124158 -0.09154811 0.064719036 -0.05228421 -0.1141698 0.14546713 0.043966506 -0.17128521 -0.04555887
~~ -0.089059226 -0.09610795 -0.09437928 -0.0392376 -0.0972988 -0.06326706 0.037759736 -0.014841747 -0.09125228 -0.07230342 0.057164565 -0.07512478 -0.13125814 -0.149768 -0.13708116 0.08301843
짜증 -0.11651861 -0.1145596 -0.16472945 -0.11052581 -0.084145956 0.16383258 -0.12655334 0.10429056 -0.10028204 0.08479027 -0.030973323 0.09474667 -0.12692782 -0.14916639 0.22254844 -0.041103613
짱 -0.13480806 -0.008394732 0.17131433 -0.051279113 -0.10030476 -0.121991344 -0.14918944 -0.058890786 -0.104343645 -0.13167201 0.050116707 -0.14577001 0.21184306 -0.11144758 0.07787192 0.0029107928
뿐 -0.07936631 -0.113132104 -0.06981062 -0.023301076 -0.065260544 0.18537761 -0.034471784 0.077297635 -0.1005547 -0.040629726 -0.12957692 0.074129656 -0.13158008 -0.12692459 0.016595228 -0.040467203
은데 -0.10386134 -0.14555296 -0.06483964 -0.12993127 -0.12137073 -0.10246683 -0.14014001 0.10515534 -0.059591252 -0.12705667 -0.1388167 -0.14213541 0.051198598 0.07494032 -0.047942735 -0.028489603
별 0.1212687 -0.1341915 -0.14689203 -0.10225348 -0.07291183 -0.0433366 -0.11295349 0.08198987 -0.035452746 0.005185315 -0.12130494 -0.10858949 -0.13662018 -0.1352348 0.020195495 0.034569338
아요 -0.10600649 0.10410305 -0.12015425 0.033985108 -0.10760275 -0.11561957 -0.086968675 -0.060665715 -0.051377676 -0.06924642 -0.12236279 -0.059106417 -0.1317346 -0.13120829 -0.08254517 0.009945191
유치 -0.023647815 -0.14272733 -0.14977342 -0.13862415 0.0730632 0.03880962 -0.12235508 0.2101956 0.07809218 -0.066778846 -0.17696655 0.045022853 -0.14735197 -0.15382917 0.124715894 -0.020949269
가장 -0.10124469 -0.1092512 -0.11387841 -0.045352906 -0.102083854 -0.111036606 0.03937878 0.052940995 -0.05290618 -0.11616826 0.15831186 -0.030796327 -0.12841566 -0.14257452 -0.1580837 -0.024153769
필요 0.11636029 -0.0060362555 0.22537175 -0.15061922 0.11575309 -0.12186589 0.13946985 -0.05363974 -0.10189251 -0.10048961 0.09210676 0.1615094 -0.16265416 0.032846794 -0.0403845 -0.044946637
음악 -0.119171105 0.07010723 0.010473176 -0.13855655 -0.11057256 -0.107247375 0.017784452 -0.050224546 -0.019799024 -0.008685791 0.07330451 -0.041150838 -0.12417712 0.07986494 -0.06030388 0.03483012
) -0.035821214 -0.11128127 -0.08568204 -0.019008031 -0.11330789 -0.1081557 0.0037017902 -0.038266107 -0.07568732 -0.07953953 -0.059509087 -0.13657679 0.009260821 -0.04576517 -0.08541607 -0.012253117
일본 0.13103016 -0.14649929 -0.024010034 -0.10558168 -0.10394493 -0.09596951 -0.10913213 -0.0432925 -0.10787761 -0.10474113 -0.09460561 -0.03472129 -0.09176096 -0.09614152 -0.05294924 0.033204228
낮 -0.11284577 0.24658534 0.09269406 0.15816198 0.1297285 0.085228264 0.0984076 0.12952007 0.1275307 0.009847735 -0.009955713 -0.13772094 0.17500336 -0.16128564 -0.09212479 -0.036887
아이 -0.123198465 -0.013225736 -0.10719723 0.005058609 -0.13023737 0.024425797 -0.09386861 -0.022415143 -0.12429074 -0.14999886 -0.09763851 -0.1182697 -0.07012353 -0.08179156 -0.16469437 0.034633134
;; 0.10758545 0.009644453 -0.06800472 -0.13940327 -0.12088341 0.12002644 -0.13711354 -0.07432962 -0.109780565 0.044422 -0.08178619 -0.12468616 -0.06865647 -0.09023639 -0.030969547 -0.041784048
오 -0.11590054 -0.13486803 -0.12823465 0.0062797726 -0.12737474 -0.0600091 -0.059867132 -0.07267345 -0.09254083 -0.06464524 -0.102052525 -0.008764545 -0.063245185 -0.0006696832 -0.17583238 -0.04336996
반전 -0.119879186 -0.14217319 0.011242552 0.052867122 -0.1290262 -0.06449625 -0.028507188 -0.020651642 -0.09832882 -0.11674278 -0.041704535 -0.11074294 -0.04896244 -0.13742366 -0.1516633 -0.01362877
수준 -0.06331922 -0.11999836 0.020766068 -0.11515219 -0.10662619 0.193684 -0.11133329 -0.046628963 -0.07132508 0.13087264 -0.15679476 0.024073604 -0.13330106 -0.16214816 0.11993158 0.010695446
다니 -0.09918477 -0.15060477 0.047793873 -0.119685546 -0.10922106 -0.11614347 -0.12366771 -0.050330486 0.07781281 -0.11492977 -0.16690196 -0.073651776 -0.13414578 -0.009804826 -0.038269963 -0.006486904
웃 -0.12791674 -0.13879701 0.10833393 -0.108279884 0.03272988 -0.09062191 -0.14719635 -0.049172066 -0.11463558 -0.107893966 0.09841035 -0.15005271 -0.11171656 -0.11514667 -0.069460966 0.020032119
매력 -0.13728361 0.063500315 -0.1732543 0.11518766 -0.14594184 -0.12577778 -0.15505281 0.10404898 -0.124960355 -0.12889919 0.17667235 -0.14912874 -0.15688087 0.07187733 0.0440316 0.033359103
맞 0.12279338 -0.1321731 -0.092266224 -0.012140155 -0.08802383 -0.09963053 -0.011976549 0.019630073 0.08923911 0.11855968 -0.14080384 -0.04387054 0.09060773 -0.15586516 -0.12753643 -0.048506953
인지 -0.044540916 -0.11779831 -0.15180086 -0.101025335 0.0727095 -0.020641182 -0.10993209 -0.0051353527 -0.07504266 0.005386037 -0.13929518 0.0004215564 -0.065172605 -0.14489703 -0.011306184 -0.046579756
가슴 -0.030936284 0.05035123 0.014129955 -0.1278207 -0.14734556 -0.04036451 0.13469987 0.04635291 -0.11136925 -0.13227926 0.18483481 -0.07095046 -0.12762026 -0.123214915 -0.1681901 0.01168561
없이 -0.10344692 -0.05575529 -0.037958995 -0.13481474 0.037845936 -0.023338815 -0.07701847 -0.06701731 -0.104326755 0.021793516 -0.112671554 -0.10447679 -0.08821638 -0.082847945 -0.14388333 0.05411314
원작 0.02552931 -0.14111386 -0.16631745 -0.03960579 0.03880479 -0.10133793 -0.13447347 0.1611375 -0.056055952 0.024518639 -0.02211747 -0.031584356 -0.14574604 -0.1262229 0.025118621 -0.005501296
ㄷ -0.056749914 0.13123843 0.120069385 -0.11423587 -0.071691446 0.044526048 0.026790116 0.062751204 -0.07585253 -0.014653018 -0.19734511 -0.0030492644 -0.17191179 -0.20827128 -0.09271651 0.05181671
인간 -0.09114155 -0.12503698 0.051292058 0.18288407 0.011253052 0.012844187 -0.12570688 -0.06673626 -0.096417725 -0.09005381 -0.15937842 -0.09975141 -0.14655198 0.066192985 -0.14070977 0.02469546
데 -0.061470702 -0.13500847 -0.15586805 0.020435449 -0.08277453 -0.11779373 -0.04634692 -0.051227152 -0.085500814 -0.08594264 -0.13286047 0.030297603 -0.14159343 -0.13737668 -0.1492181 -0.014242768
굿 -0.124875434 -0.10077279 0.013967976 0.0061691785 -0.11741961 -0.0075099436 0.18574286 -0.051810935 -0.12449083 -0.12995502 -0.15694787 -0.14064088 0.08553895 0.2614082 -0.16782163 0.016956817
ㅠ -0.13613014 -0.061071135 -0.04419801 -0.11486812 -0.122806385 -0.118600346 0.01594215 -0.07026286 -0.09524254 -0.13733025 -0.04862101 -0.12652577 0.008466351 0.14241321 -0.10118114 -0.045721628
높 -0.08839853 -0.14024581 -0.14587176 -0.13426709 0.15715094 -0.11383324 -0.064319246 -0.04800015 -0.0313659 -0.1110784 -0.14115514 0.047185503 -0.11529947 -0.11857478 0.1327801 0.0022781864
밋 -0.111865744 0.051027186 0.13661733 0.12969601 -0.08688662 -0.048008766 -0.1428264 -0.006455766 -0.090790585 -0.119715646 0.05944549 0.07378239 0.035206452 0.19059083 -0.106412046 0.0074412934
( -0.05428147 -0.09771841 -0.07496395 -0.10266617 -0.072262555 -0.03998792 -0.056058165 0.060276877 0.038035817 -0.034650758 -0.06447723 -0.086022615 0.034061827 -0.07152591 0.011443424 0.027622178
만드 -1.1479977e-05 -0.04725968 -0.11326221 -0.065288685 -0.10496234 -0.08022582 -0.10681394 -0.051962055 -0.08257508 0.06602892 -0.13293225 -0.022896111 -0.12289806 -0.11897175 -0.13742395 -0.036871254
급 0.099331014 -0.015569669 -0.06292882 -0.10709967 -0.10203555 -0.11701735 -0.122061454 -0.018009666 -0.09058712 -0.061240505 -0.05235588 -0.04297965 0.015577595 -0.059719037 -0.15090099 0.009679735
눈물 -0.14095129 0.21878207 -0.14260226 -0.075467795 -0.14501032 -0.007048009 -0.061095662 -0.05556339 -0.11247574 -0.12956253 -0.07413113 -0.13115953 0.13579626 0.1968415 -0.16926508 -0.039549757
보여 -0.051451094 -0.12889747 -0.11170724 0.073755436 -0.11348699 0.029863426 0.03832555 -0.06471914 0.026108848 -0.12996918 -0.14588365 -0.14318532 -0.042840615 -0.020481454 -0.08531667 0.030990476
준 -0.092002414 -0.094080694 -0.112648115 0.15185247 -0.07139063 -0.1021579 -0.12207881 -0.05115519 -0.10061299 -0.07395828 0.07932637 -0.09724507 -0.12141243 -0.10986995 -0.055296145 0.008114658
찍 0.13073127 -0.014991494 0.014447711 0.0045828307 -0.092702866 -0.08521834 0.024873685 -0.055408802 0.16759554 -0.08935973 -0.052901562 -0.09466541 -0.04441823 -0.12071675 -0.08597056 0.0005415082
인가 -0.081425615 -0.12282752 -0.16478136 -0.116120644 -0.06331536 -0.04660769 -0.1264248 -0.04800011 -0.08018892 0.035912666 -0.15029119 -0.07629008 -0.14341061 -0.13821338 -0.0557386 0.0150084235
노 -0.019928709 -0.08233259 -0.07616276 -0.07340176 0.12519866 -0.058479108 0.11237068 0.094906494 -0.11951392 -0.1194594 0.2680533 0.3361888 -0.084771946 -0.09173506 0.24834372 -0.02493508
을까 -0.05724364 -0.1413768 -0.15225232 -0.08970774 0.054693703 -0.024742879 -0.12419257 -0.072678216 -0.10104894 -0.047727056 -0.1367314 -0.03463442 -0.14886007 -0.12819396 -0.12093397 -0.003410995
용 -0.081171006 -0.11492195 -0.14500207 -0.15619798 -0.13788825 -0.10214521 -0.09726226 -0.053134345 -0.11311753 -0.14317924 -0.13737643 -0.014542147 -0.14720438 -0.14195734 0.10426642 -0.02547667
코미디 0.047273688 -0.13976614 -0.14678216 -0.13199836 -0.1382046 -0.11693203 -0.1106085 -0.016887747 -0.099638954 -0.009914529 -0.14910625 -0.009301053 -0.13564174 -0.13945174 -0.028838579 0.025976542
마 0.09579588 -0.11122295 -0.11347564 -0.0737343 -0.13584043 -0.11937467 0.018376378 -0.051006045 0.032392804 -0.10437791 -0.1477347 0.08298913 -0.1413625 -0.06088628 -0.0738038 0.14637412
화 -0.05585205 -0.10849796 -0.15004359 -0.11892979 -0.09166224 0.17602035 -0.09322756 -0.04875323 -0.10521606 -0.05537878 -0.14215094 -0.11736478 -0.07034334 -0.15786523 0.007595952 0.035478137
신 -0.038008437 -0.04542898 -0.11622994 0.033373494 -0.11533234 0.05411695 0.045115575 -0.04799921 -0.107828565 -0.0327262 -0.016923422 -0.13267821 0.03230614 -0.067687854 -0.035232764 -0.02000456
모든 -0.0869952 -0.08660764 -0.16196185 0.14278454 -0.12174258 -0.1110837 -0.045742914 -0.025394484 -0.09306036 -0.12281298 -0.08595418 -0.06983371 -0.0191687 -0.12888485 -0.14727576 -0.028352892
쓰 0.15837 -0.118612945 -0.1500086 -0.0613626 -0.085265055 -0.07363568 -0.108074374 -0.049276926 0.042539246 -0.0338933 -0.0393822 -0.07654839 -0.1399404 -0.1441683 -0.06730262 -0.025068784
여 -0.10858909 -0.137784 -0.16058192 0.08061987 -0.1333222 -0.060486384 -0.105998136 -0.045899276 -0.115746304 -0.03594376 -0.14982072 -0.1400367 -0.14801235 -0.1587614 -0.04836735 0.072624624
5 -0.061750628 -0.05074751 -0.15647678 -0.11948733 -0.13446862 -0.11330728 0.07452897 -0.042086426 -0.10663352 -0.1265174 -0.13468269 0.026031878 0.0390752 0.09953151 -0.08543586 -0.009591054
아직 -0.06027436 -0.10794598 -0.15286191 -0.1116745 -0.057456467 -0.109391674 0.123566575 -0.07250301 -0.11678239 -0.022285389 -0.14777695 -0.04795621 0.120688476 -0.095450915 -0.07536738 0.08600161
추천 -0.109559394 -0.07714442 -0.12245503 -0.09995602 -0.105308 -0.122568354 0.029778076 -0.05534051 -0.11164256 -0.12716697 0.22027464 -0.12669449 -0.07706069 0.099399224 -0.14980209 0.018837992
처럼 -0.06893898 -0.05422285 -0.048152294 -0.0670459 -0.10483529 -0.114734545 -0.092595674 -0.04002916 -0.06677837 -0.10330597 -0.10925718 -0.13922913 -0.08609802 -0.117666386 -0.09815049 -0.011262346
눈 -0.012414939 -0.14718857 -0.17018847 -0.0031237504 -0.052500837 -0.027095485 -0.13530795 -0.049233016 -0.014806732 -0.081970185 -0.013701238 0.018066408 -0.060633242 -0.07887409 0.021171875 -0.010534622
아닌 0.121848 -0.115789294 -0.14083135 -0.1071652 0.011208014 -0.019170139 -0.11359462 0.095230326 -0.043234173 0.030885868 -0.11308176 0.009097458 -0.12742075 -0.123551615 0.03457003 0.026508564
자체 -0.10367964 -0.11689565 -0.15615591 -0.10586555 0.005456338 -0.11806175 -0.1019699 -0.040024083 -0.024506396 -0.09883658 -0.152863 -0.14589924 -0.10895277 -0.13846944 -0.1380564 0.020260219
울 -0.10810362 0.2106691 0.1754452 -0.0023061505 -0.10768208 -0.08540904 0.09017763 -0.049601126 -0.061401926 -0.050566662 -0.03530423 -0.10819881 -0.08604867 -0.12255951 -0.007738036 -0.033579268
몰입 -0.11042488 -0.109999985 0.12427452 -0.085689 -0.08340206 -0.111482605 -0.104840636 -0.05115134 -0.10148379 -0.11676632 0.1136325 -0.11967356 -0.045889955 -0.036239356 -0.13706642 -0.017248176
4 -0.10613898 -0.1258764 -0.14522438 -0.1030104 -0.14609401 -0.034973666 -0.05136625 -0.06014925 0.023572769 -0.12041609 -0.14265385 0.07903311 -0.073574 -0.14818746 -0.011623894 0.014776457
대박 -0.10287515 -0.13488168 -0.05001121 -0.09908124 -0.035410315 -0.030551886 -0.018578118 -0.059562724 -0.08885863 -0.088162854 0.16609965 -0.14134632 -0.010030704 0.28979218 -0.16663465 -0.006990563
몇 -0.096803695 -0.07323561 -0.121889375 -0.055107597 -0.07428597 -0.112989336 -0.06536897 -0.027072577 -0.09487289 -0.117093295 -0.05256545 -0.09020563 -0.12038502 0.045481008 -0.10988986 -0.045453813
스럽 -0.08083146 -0.108387776 -0.1535721 -0.12775254 -0.07714939 -0.043581042 -0.108853206 -0.06455876 -0.083619036 -0.10679426 -0.110629424 -0.0044902097 -0.067875594 -0.12992275 -0.16808386 -0.049114324
실망 0.1151722 -0.13335598 -0.15285781 -0.09879401 0.032885965 -0.05241229 -0.1423869 -0.054237854 0.012068414 0.23600468 -0.15331276 0.1823252 -0.13066137 -0.12650664 -0.07417674 0.019874966
는다 -0.094359025 -0.14410308 -0.1144663 -0.118164785 -0.0667254 0.11316501 -0.098634146 -0.027751097 -0.08620493 -0.019029686 -0.13288583 -0.087361366 -0.120640665 -0.11292871 -0.10869786 0.04041981
대한 -0.078746065 0.039304342 -0.055661548 -0.07751251 -0.07940849 -0.095483266 -0.044338852 -0.059370406 -0.091999695 -0.09460022 0.1371038 -0.12048445 -0.002665779 -0.09410795 -0.14455424 0.023130182
죠 -0.09753457 0.06779774 -0.12258362 -0.11553238 -0.11610081 -0.077394545 -0.0007694346 -0.056865316 -0.0839914 -0.12280385 0.110590614 -0.12095838 0.024042208 0.096854255 -0.13920349 -0.038139094
란 -0.094455026 -0.11154925 -0.16460903 -0.026991744 -0.09487694 -0.08402711 -0.061981402 -0.066844076 -0.08702869 -0.108965114 -0.06936688 -0.117346756 -0.02930471 -0.11731658 -0.14242296 0.03313241
그런 -0.010887598 -0.12844065 -0.16932975 -0.1182101 -0.007879211 -0.058581203 -0.127613 -0.046988133 0.027996674 -0.014420465 -0.04436062 -0.023144824 -0.15226927 -0.06507064 -0.014449981 -0.00784912
솔직히 -0.07933927 -0.0890769 -0.15049072 -0.13642219 0.047295064 -0.009054453 -0.1154554 0.09101282 0.12245396 -0.0077226944 -0.1695653 -0.10106312 -0.13832779 -0.16212781 -0.09254531 -0.029997243
캐릭터 -0.1062683 -0.1202685 -0.12477548 -0.10872752 0.016266577 -0.087261416 -0.12916638 -0.062772766 -0.0049376274 -0.11006935 -0.11433937 -0.12731038 -0.13071759 -0.1345075 -0.15689948 -0.010060571
ㅎ -0.13199612 0.25032067 0.07520973 -0.14118762 -0.039342977 0.058823545 -0.15806814 -0.0069799703 -0.027943945 -0.035729766 -0.057251524 -0.09964732 -0.14570247 -0.1475066 -0.07127674 -0.040590275
모두 -0.09600488 0.05857856 -0.14446095 0.042581312 -0.09562955 -0.11217464 -0.014938223 -0.06445754 -0.077311546 -0.09791618 -0.14720494 -0.11891644 0.04926592 0.107198924 -0.15137182 -0.024781978
아주 -0.11598804 -0.11152826 -0.10752799 -0.11010202 -0.11615026 -0.11227884 0.08340459 0.015503392 -0.0763971 -0.13510655 0.023882458 -0.13029552 -0.093891606 0.01596501 -0.16935293 0.04402626
- -0.14673969 -0.05760824 -0.08536135 -0.061475176 -0.075794145 -0.050088957 -0.027762145 -0.049630262 -0.021621134 -0.045694333 -0.054374803 -0.077285245 -0.09632088 -0.08096266 0.0027148498 -0.001670897
가족 -0.11073647 0.052229002 -0.026152655 -0.07636588 -0.12543325 -0.020126896 0.044531066 -0.047830686 -0.080774024 -0.1021758 0.017584702 -0.11920104 -0.11790448 -0.09499611 -0.15925732 -0.029028952
여운 -0.11127713 -0.073379666 0.1657806 0.15948042 -0.10310562 -0.08880948 0.19403559 -0.040720936 -0.06580714 -0.12859112 -0.03276722 -0.12291989 -0.12127277 0.24942836 -0.13739307 -0.028116941
건지 0.15854712 -0.122364305 -0.16231863 -0.09744002 0.014056644 -0.01947052 -0.1041118 0.025658568 0.0783661 -0.061385766 -0.121003196 0.11277659 -0.11752541 -0.14081113 -0.022239652 0.016588423
전혀 -0.0294305 0.01309458 0.06791586 -0.023662942 -0.098343566 -0.10256995 -0.1514351 -0.055266123 0.039384212 0.02976227 0.044531904 -0.059519168 -0.028662669 0.07119988 0.15863843 -0.009144474
연기력 -0.0499517 -0.10456652 -0.16637875 -0.036141604 -0.037889168 0.036676142 -0.09710791 -0.042573176 -0.10315383 -0.10273483 -0.13231076 -0.14523907 -0.13315105 -0.14932112 -0.09181504 -0.039771784
나라 0.10877943 0.029717281 -0.009176116 -0.105841324 -0.14491072 0.07986801 -0.039959107 -0.003879313 -0.096112326 -0.08323951 -0.042128287 -0.14530565 -0.088005476 -0.09482804 -0.1473159 0.039213654
후 -0.02500958 -0.13989422 -0.15274902 -0.11865164 -0.023659406 -0.05915859 -0.12237125 -0.049004894 -0.014640542 -0.080262415 -0.13773622 0.009433655 -0.13963903 -0.14038256 -0.11968767 0.039347608
될 0.10533991 -0.10783079 -0.14555025 -0.07292109 -0.07842721 -0.09096913 -0.108656615 -0.05456942 -0.11963124 -0.075990275 -0.12947673 -0.10029562 -0.12275103 -0.118454054 -0.046928663 0.14691062
다면 0.06356169 -0.06938639 -0.15416273 0.013199783 -0.08962581 0.043405566 0.033918433 -0.0046119005 -0.092718296 -0.061005913 -0.022473779 -0.08175529 -0.11892795 -0.13814148 -0.0301764 -0.049936343
뭔가 -0.08156607 0.027162801 -0.16517028 -0.0024162862 -0.10866133 -0.03115497 -0.054596856 -0.053479996 -0.015145277 -0.028631186 -0.16079992 -0.056320295 -0.16933116 -0.054245144 -0.144997 -0.041032933
그래도 -0.015620794 -0.09890449 0.013943211 0.08297977 0.025176425 -0.059913315 -0.0731829 -0.02548491 0.018027198 -0.0026945085 0.0039276285 -0.08416447 0.09338395 -0.12921771 -0.04725777 -0.032892168
; 0.0893237 0.0040610693 -0.033243764 -0.026632603 -0.15569171 -0.00050578633 -0.054837227 0.0790691 0.043541007 -0.02265257 -0.03697647 -0.14158864 -0.07419105 -0.061882958 0.038008474 -0.03429203
시리즈 -0.06188944 -0.10969439 -0.11761747 -0.02195308 -0.06885454 -0.0883863 -0.10251854 -0.057146512 -0.05594824 -0.07517528 0.032966092 -0.07747019 -0.11335745 -0.14066891 -0.10383833 -0.028013086
근데 -0.077783294 -0.010277703 -0.12888041 0.048939236 -0.06380229 -0.084915146 -0.11160814 -0.041683972 -0.09378214 -0.023577556 -0.10743053 -0.10401961 0.08668239 0.10510028 -0.13011615 0.057031102
작 -0.018068317 -0.13804716 -0.15358369 -0.13545242 -0.060102265 -0.0817196 -0.1216239 -0.010678702 -0.088693336 0.02964916 -0.1400996 -0.013827194 -0.14218073 -0.12639579 -0.12546715 -0.009973246
표현 -0.0770282 -0.11922202 0.16716519 -0.03586546 -0.089002065 -0.09514641 -0.11312152 -0.036361933 -0.0969885 -0.09400626 0.003981461 -0.097849675 0.13591437 -0.13764367 -0.13686006 0.20398523
모습 0.0425799 0.17360125 -0.07552801 0.10083556 -0.10581101 -0.0049536563 -0.07865386 0.0380994 -0.08288353 0.010465372 -0.11003004 0.0033438576 -0.119929805 -0.080324866 0.022366049 0.006435193
공감 -0.12780581 0.005439093 -0.0101947775 -0.03870042 -0.11370329 -0.120523416 -0.12302536 0.05203025 -0.11323799 -0.10612992 -0.059879392 -0.12800741 0.017086586 -0.004852063 -0.15562025 0.010328282
계속 -0.1083918 0.11780597 0.02268476 -0.08949439 -0.08973611 -0.09150278 -0.09767985 -0.04453681 -0.06540317 -0.1106763 -0.13994302 -0.1178369 -0.035560943 -0.07129457 -0.15265939 -0.04928465
먹 -0.104267076 -0.14147542 -0.15346067 -0.06473536 0.06920804 0.07991797 -0.023107069 -0.054618966 -0.054478064 -0.038522992 -0.15054713 0.0012285803 0.09998501 -0.1480059 0.030931793 -0.027696824
"" -0.024618587 0.0357145 -0.039459974 -0.06209919 0.111746155 -0.08442014 0.06756532 0.06309372 -0.050582584 -0.0781096 -0.06424377 -0.089382835 -0.020783853 -0.06388069 -0.103954464 0.013715852
제목 0.056509223 -5.1825136e-06 -0.16886204 -0.12506467 -0.09846726 -0.071099855 -0.13729098 0.022214854 0.050431136 -0.06058809 -0.15456913 0.011128002 -0.14749801 -0.14267454 -0.06558349 -0.019426513
7 -0.05188982 0.104866706 0.043025654 -0.13143216 -0.043604247 -0.014371603 0.122531615 0.025067654 0.06531779 -0.011672173 -0.14897186 -0.11292003 -0.13105467 0.06251461 -0.13855642 0.09309677
이랑 -0.087369025 -0.093218565 -0.1232923 -0.10679247 -0.06182431 0.030544993 -0.050041784 0.06913648 -0.10987807 -0.08602004 -0.1314899 -0.11917009 -0.09362068 -0.13195068 -0.10319103 -0.03722298
극장 -0.09211852 -0.11177951 -0.034721278 -0.07080683 0.07655288 -0.11616634 -0.1269289 -0.037215065 0.0294012 0.025892694 -0.018572945 -0.0021096384 -0.10162192 -0.0029485999 -0.016996954 -0.02171706
치 -0.01669343 -0.12815547 -0.13393511 -0.11067372 0.15336491 -0.09693443 -0.11918999 -0.015343576 0.089750424 0.0077547533 -0.0439641 -0.054468736 -0.12656993 -0.13081735 -0.0767142 0.027535472
비 -0.08358785 -0.069264814 -0.05153592 -0.077791415 -0.07521865 0.08387718 -0.059823267 -0.058555815 0.04203971 -0.10200938 -0.024957709 0.10916428 -0.045753323 -0.062009584 -0.1320097 0.11389754
이걸 0.0038947277 -0.12771553 -0.16109027 -0.107117675 -0.0997069 -0.01571337 -0.11032832 -0.030212369 0.0017497453 -0.10819687 -0.10018436 -0.006180929 -0.15211684 -0.12085137 0.1947459 0.012546826
진 -0.028539803 0.09212898 -0.023463188 0.06715179 -0.06755722 0.06462474 -0.11303148 -0.058393687 0.12984593 -0.011787857 0.04068569 -0.058905605 0.015623978 -0.20136082 -0.11686557 0.0077173933
바 0.22378653 -0.118143715 -0.14091146 -0.11991845 -0.08425272 -0.013504543 -0.08107339 -0.05740818 0.17924093 -0.060027927 -0.11633323 -0.016670514 -0.11695506 -0.12582971 -0.11557046 0.20156035
대사 -0.028751438 -0.101845525 -0.08798 -0.102602266 -0.10131539 -0.11110449 0.0007194309 -0.06003031 -0.072726145 -0.07889731 -0.12341571 -0.102635816 -0.12457861 -0.08448927 -0.15388097 0.0002790913
부분 -0.088408634 -0.13031943 -0.15049839 -0.08174423 -0.09475187 -0.0737645 -0.13388726 -0.05615091 -0.102085836 -0.09137646 -0.082818605 0.0034424833 -0.10031832 -0.11171348 -0.118210144 0.044831768
그렇 -0.0409734 -0.13279736 -0.14918482 -0.101828784 0.028416343 0.06515898 -0.14184307 0.05928249 -0.020234905 -0.009028917 -0.1602806 0.04279345 -0.12686796 -0.108132295 0.13256235 -0.045052063
개봉 -0.014544162 -0.11629171 -0.14928274 -0.12216216 -0.112911746 0.0101088695 -0.12217571 -0.047641326 0.017567117 0.020786716 -0.11306037 0.051868126 -0.10522536 -0.12707695 -0.090852775 0.031420745
0 -0.08340812 -0.12698263 -0.14847882 -0.10707208 -0.048711732 0.04009211 -0.112058416 0.026591852 -0.07664492 -0.055098258 -0.12495355 -0.067358546 -0.1312687 -0.14288257 0.2680337 -0.023646533
OO 0.09270136 -0.1504763 -0.16759409 -0.12029325 -0.12013489 -0.027218042 -0.14178844 -0.057719033 -0.07155686 0.08598198 -0.14312115 0.02922825 -0.15958421 -0.15179686 -0.07049333 -0.041433595
대단 -0.14246508 -0.08886412 0.109036684 -0.14594418 0.039700087 -0.13088971 0.20952767 -0.07589971 -0.13083972 -0.07172241 -0.165094 -0.029176557 -0.03421477 -0.10881613 0.025155865 -0.016463839
어디 -0.013930746 0.029692365 -0.15661825 -0.12831067 -0.028938746 -0.028842228 -0.11862224 0.018850444 -0.095970005 -0.10318819 -0.056645595 0.11862026 0.021957882 -0.14410803 -0.13761748 -0.005629562
작가 -0.111474924 -0.142137 -0.13351022 -0.09290742 -0.08178459 0.2810508 -0.084174275 -0.041087575 0.06314036 -0.08832721 -0.09081768 -0.056556884 -0.095116474 -0.120255 -0.040353816 0.029491354
된다 -0.11509351 -0.14989208 -0.14044675 -0.12110403 -0.04060132 -0.08322974 -0.12386648 -0.047891814 -0.02055434 -0.06672331 -0.10922419 -0.07900611 -0.12170748 -0.1448469 -0.1444112 0.011092246
아쉽 -0.036072936 0.031706847 -0.1676237 0.19621494 0.112342216 -0.08265807 0.06518334 -0.051605307 0.023181068 -0.13319075 -0.15786482 0.033490356 -0.16173746 -0.080658995 -0.07313988 0.024761563
기분 -0.050899297 -0.11320534 -0.16062559 -0.1053167 -0.081595525 -0.08482371 -0.101611964 -0.03515432 0.053465802 0.025267748 -0.10985354 0.011463415 -0.110688776 -0.15087692 -0.15241367 0.052438907
제 -0.1068427 -0.08509911 -0.04777941 -0.070747845 -0.13404287 0.034378774 -0.04053962 -0.03382554 0.04800536 -0.1170014 -0.10759258 -0.052201506 -0.057122715 -0.11812739 -0.18350562 0.011019312
진심 -0.11321216 -0.14629045 -0.16281638 -0.1347677 -0.016729923 -0.03106023 -0.11763352 0.02632073 -0.08802154 -0.0056636077 -0.099514894 -0.032613512 -0.12331513 -0.15437025 -0.09959892 -0.00396508
타임 -0.08582673 -0.11590327 -0.13460948 -0.06341881 -0.04564921 -0.115124434 -0.1015325 -0.022402238 0.03980682 -0.14631341 -0.09974825 -0.05415944 -0.10350005 -0.11154363 -0.049078077 0.037219442
/ -0.0071386686 -0.13611391 -0.16473217 -0.12996817 -0.094038695 -0.035722602 -0.13555804 -0.047780275 0.0014451009 -0.056041002 -0.16964287 -0.11696284 -0.16645704 -0.15450834 -0.06185647 -0.026690746
웃기 -0.098916866 0.11218407 -0.07783373 -0.1356262 -0.106213555 0.12536396 0.029485501 -0.056273233 -0.08135867 -0.13079377 -0.18071882 -0.14265475 -0.050313752 0.03681283 -0.11898599 0.024415705
보이 -0.09112617 -0.09103642 -0.031908892 -0.11506014 -0.093393005 0.040936723 -0.024753485 0.024090948 -0.12080825 0.043809883 -0.045409445 -0.11099642 -0.113424525 -0.10546719 -0.14633486 0.03676947
놓 0.122197576 -0.111415185 -0.10495715 -0.005023692 -0.09382199 0.08295472 -0.08367361 -0.056759976 -0.10177549 -0.1113067 -0.10294771 -0.08252504 -0.13858575 -0.10794559 -0.09605811 -0.010188125
해도 0.07691213 -0.045949537 -0.1483592 -0.059599616 -0.011790551 0.07029152 0.047320437 -0.057454053 0.103032954 -0.01992197 -0.043083787 -0.10087826 -0.012678787 -0.10823024 -0.090151496 -0.020752514
이제 -0.10618032 0.10331494 -0.038787678 -0.12134915 0.012290008 -0.033811495 -0.12707168 0.077699415 -0.0665692 -0.12221399 -0.14623967 -0.021250121 -0.147058 -0.13791299 0.13988866 0.0028962977
물 -0.06265543 -0.1356982 -0.13332753 -0.11176723 0.089690834 -0.053179864 -0.09661872 -0.015743539 -0.08653029 0.062799186 -0.10653176 -0.0995534 -0.1567015 -0.1180669 -0.10174738 0.013387095
봐야 -0.12463903 -0.14266445 -0.00251655 -0.13747036 -0.10087765 -0.09504607 -0.096519604 0.091234274 -0.110738076 -0.07570451 -0.121434934 -0.086313866 0.12592518 0.17274027 -0.10806094 0.0022039525
막장 -0.14896405 -0.021999562 -0.008430925 -0.009684655 0.058336433 0.20979764 0.07481442 -0.045674987 0.15204792 0.189182 0.044039495 -0.12769082 -0.0312625 0.042598434 0.013685126 -0.023558998
삶 -0.10049445 0.19499364 -0.10428468 0.02844265 -0.10450475 -0.12294022 0.124048166 -0.050995927 0.011047713 -0.108635195 -0.050079584 0.10173321 -0.11346436 0.16153923 -0.13910201 0.014545966
친구 -0.12602451 -0.051848434 -0.038670503 -0.11607014 -0.11658512 -0.03392286 -0.08724843 -0.049473096 -0.087628156 -0.07924045 -0.090305366 -0.086027816 0.0024864445 -0.020253845 -0.099063784 -0.038998246
잔잔 -0.13915469 -0.0769475 0.05812344 -0.085954785 -0.0056230817 -0.044045825 0.11915462 -0.0635551 0.021582494 -0.13690425 0.17553216 -0.027041884 -0.15334526 -0.11561227 -0.049887586 -0.029473841
조금 -0.009065125 -0.08390417 -0.16533262 0.06250895 0.07648304 -0.09636578 0.061837383 -0.05753843 -0.013028764 0.005193386 0.18955046 -0.005387007 -0.15276402 -0.088509746 -0.11054265 -0.036265947
씬 -0.0017666763 0.0029104908 -0.044860207 -0.09978855 -0.09928479 -0.115229 -0.018437503 0.047826856 -0.09429338 -0.10260656 -0.023087583 -0.11694042 0.013517666 -0.08172893 -0.077636324 -0.01992674
딱 -0.12125348 -0.1552958 0.05312306 -0.033495225 -0.093366 -0.07849154 0.051557284 -0.054049477 0.04585738 0.20134287 -0.04473523 -0.05996307 0.042811517 -0.09882739 -0.16484144 0.0107452385
영상 -0.122300774 -0.100874946 -0.068793245 -0.0932907 -0.04062461 -0.122703455 -0.012252452 -0.055000596 -0.11616526 -0.09282796 -0.107989356 -0.116396725 -0.10244154 -0.0708055 -0.12005111 -0.032016814
억지 0.17632554 -0.1280815 -0.1748153 -0.0897765 0.025837507 -0.049476407 -0.11585798 -0.0152806975 0.07454572 -0.045021538 -0.114153184 0.0658218 -0.13618849 -0.12614189 0.15037978 -0.0390993
찾 -0.08328925 -0.116731636 -0.123516865 -0.018988386 -0.045229092 0.10939332 -0.10930656 0.031032803 -0.096825205 -0.100995585 0.094759785 0.006064229 -0.12650225 -0.11350398 -0.08512914 -0.014749836
요즘 -0.12860146 -0.13630265 0.24643724 -0.12433438 -0.07936765 -0.06794387 0.009333375 -0.05074175 0.013007701 -0.018878728 0.003848194 0.0014119487 -0.00579941 -0.0014895236 -0.03255141 -0.00057639927
같이 -0.114754 0.051784232 -0.07242881 -0.13829876 -0.06815386 -0.11980865 -0.03023434 -0.06345206 -0.03703226 0.04168446 -0.08209552 -0.038764987 -0.15607178 -0.14874017 -0.09871324 -0.016568698
중간 -0.060886964 -0.11196473 -0.1419681 -0.09206668 -0.086178005 -0.06474415 -0.09639279 0.107629925 0.020514227 -0.093305945 -0.11499324 -0.050556626 -0.13756073 -0.113447346 0.06738911 0.00031507015
" -0.04078731 -0.032733615 -0.06874911 -0.057524215 -0.0059258128 -0.09647454 -0.099922925 -0.052919045 0.095998205 -0.08687172 -0.06544895 -0.09579027 -0.093547665 -0.039325483 -0.118580796 0.036729727
구 -0.10742989 -0.02688894 0.019683512 -0.08906761 -0.09438691 -0.10214565 -0.0036419746 -0.05125805 -0.11627926 -0.111367695 -0.0009526399 -0.14477733 -0.052990675 -0.09277882 -0.14696626 0.024737563
라도 -0.08474446 -0.056376662 -0.112538524 -0.09213931 0.013905888 0.048744503 -0.09419907 0.04031567 -0.07506469 -0.017959608 -0.09335646 0.08300432 0.010490888 -0.11051044 -0.07990245 -0.035028566
스릴러 -0.08675884 -0.14716494 -0.1559552 -0.12971328 -0.12222531 -0.034986783 -0.12177612 -0.07432818 0.03541656 -0.1345215 -0.14332645 -0.080037385 -0.14439118 -0.1070423 -0.12166732 -0.04597918
가지 -0.07712598 -0.111419916 -0.11452268 -0.10090575 -0.10446997 -0.059908755 -0.11193038 -0.04107591 -0.0659602 -0.08034655 -0.123485506 -0.03350075 -0.12804423 -0.09992159 -0.06491555 0.036482215
8 0.103747904 0.14364542 0.08161322 -0.14089195 -0.114788435 0.07344978 0.011366095 -0.04995751 -0.0011204378 -0.11377228 0.116767295 -0.11839382 -0.09266468 0.12112282 -0.13561568 -0.01838405
믿 -0.08006494 0.002581192 -0.079639964 -0.10571254 -0.096230276 -0.0182136 -0.10338892 -0.020181902 -0.010120646 -0.09467315 0.13354458 -0.13435267 -0.036417015 -0.12662776 -0.092401855 -0.030957043
싫 0.105108194 -0.06928204 -0.07919066 -0.093423754 0.13127336 0.18764617 -0.071175374 0.075141475 0.010995206 0.066472925 0.001899238 -0.011584532 0.07605317 -0.076798685 0.028334616 -0.019391907
.... -0.075050384 -0.028454399 -0.11461518 -0.14168602 -0.12738246 0.054417316 -0.046860542 -0.022503823 0.058400113 0.005995329 -0.15921661 -0.09848418 -0.15340967 -0.1623529 0.07874926 0.014668789
나왔 -0.08800481 -0.13119094 -0.08468893 -0.10696126 -0.10246316 -0.08874461 -0.041485965 0.033055533 -0.019404406 -0.031529788 -0.11628324 0.0877497 -0.13969015 -0.11709495 -0.15477574 0.02144723
아까운 0.06603264 -0.12808341 -0.16216636 -0.09367995 0.11469579 -0.07958788 -0.11500567 -0.046137493 0.08777335 0.08013962 -0.14201923 0.2182733 -0.13180014 -0.13614717 -0.075865604 -0.019247795
긴장감 -0.0777095 -0.10530745 -0.041733228 -0.12557022 -0.092298925 -0.1093522 -0.120706834 -0.048897855 -0.08238518 -0.13012053 0.04922842 -0.091364756 -0.15085548 -0.116675735 -0.113572605 0.045812424
점수 -0.1083249 -0.12736906 -0.056102682 -0.1230878 0.15590951 -0.10645642 -0.077853985 -0.011507442 -0.037350424 0.045819968 -0.08481679 -0.09733437 0.04898102 -0.10710342 0.019178076 0.021086765
개인 -0.10994717 0.0057227504 0.034017976 -0.10920191 -0.07837107 -0.019333778 -0.047526393 -0.05633484 0.02575816 -0.06543447 -0.08593566 -0.10515941 -0.003930832 -0.12983754 -0.11639014 -0.004052423
제대로 -0.042051822 -0.14289418 -0.16208321 0.11382836 -0.078168765 -0.06458057 -0.09160009 -0.06654934 -0.06310976 -0.053443484 -0.054281 -0.065391585 0.01755505 -0.1369497 -0.067254126 0.03126936
부족 -0.030755142 -0.11780249 -0.14593212 -0.1307064 -0.028027242 -0.104632735 -0.13114533 -0.054454003 0.01171212 0.026357437 -0.13681597 0.12826979 -0.14485532 -0.12740226 0.16372187 -0.04214233
이유 -0.079918034 -0.027851617 -0.16085456 -0.055113494 -0.07250611 0.007912148 -0.10731058 0.0017133137 0.00551809 0.10150345 -0.010177604 0.016374076 -0.13264312 -0.13417806 -0.13813627 0.039651528
노래 -0.12504889 -0.12653458 -0.12562843 -0.11326472 -0.03427477 -0.1257922 -0.044678006 -0.051741898 -0.1251234 -0.13574561 -0.0053037377 -0.14578292 0.105970144 -0.098308675 0.020640755 -0.018043768
만큼 -0.11824773 -0.007042507 -0.066391684 0.012304176 -0.0960679 -0.03743759 -0.037850667 0.058640685 -0.087491 -0.10219645 0.05459085 -0.10802057 -0.10099659 0.045664344 -0.047201578 -0.03360646
라면 -0.11345227 0.095129244 -0.115207046 0.028191144 -0.104333 0.09282126 -0.08769714 -0.011355404 -0.11864611 -0.020135574 -0.11639884 -0.09510381 -0.07639945 0.010613051 -0.11767848 0.021341886
시작 -0.12641108 -0.065458395 -0.02462596 -0.09290088 -0.13408141 -0.11961187 0.043185133 -0.06351011 -0.11870756 -0.13588464 -0.09344709 -0.105139695 0.026962336 -0.10974825 -0.07895271 0.025636878
구나 0.065396965 -0.07253099 -0.059508838 -0.0679859 -0.109267935 -0.12559478 -0.037958972 0.13688715 -0.08078939 0.034972593 -0.04455313 -0.058371197 -0.050520707 -0.03905586 0.0041690464 -0.015135549
잇 0.06037504 0.040508375 0.017467188 0.0764089 -0.088899404 -0.04824665 -0.11225959 -0.058468822 -0.07640939 -0.12637748 -0.11753715 -0.10167073 0.07283806 0.07164856 -0.08676582 0.050818402
특히 -0.10915365 0.046995524 -0.04652627 -0.023074508 -0.10055752 -0.088450335 -0.042575117 -0.036191225 -0.0878954 -0.095031515 -0.012738723 -0.102347806 0.136182 -0.057604373 -0.1369574 -0.03153496
한테 -0.102512136 -0.12508366 -0.14426488 -0.002933769 0.03318372 -0.090282016 -0.04129171 -0.06594041 -0.01570805 -0.10205896 -0.12714374 -0.08373363 -0.12116817 -0.13472407 -0.014591013 -0.0016852432
날 -0.08017281 -0.10453427 0.07397938 -0.09510103 -0.07933877 -0.019062439 -0.11036142 -0.042127155 -0.06326317 -0.10499541 -0.13434139 -0.108592354 -0.13413155 -0.15566656 -0.046128705 -0.0038592108
려고 0.003385024 -0.1095342 -0.106831826 -0.08326016 -0.053429026 -0.015876831 -0.09750979 -0.06224075 0.005322679 0.0060543614 -0.01473422 -0.035993982 -0.046769913 -0.12618601 0.16910501 -0.047603965
제일 -0.03212703 0.045603953 -0.07369513 0.014928262 -0.108453624 -0.08776848 -0.019129684 0.0028760727 -0.107993856 -0.13969718 -0.006633523 0.033665363 -0.11863512 -0.10759354 -0.16860902 0.03677502
아름다운 -0.116664596 -0.09389584 0.14284785 -0.09448973 -0.11074878 0.020898588 -0.0836697 0.120594494 -0.122145295 -0.1261733 0.033690874 -0.1404349 0.00032500637 0.21602327 -0.15157084 0.042159464
시대 -0.07411468 -0.080713905 -0.08392876 -0.09024456 -0.056051075 -0.105692506 -0.12563509 -0.050741628 -0.05723971 -0.13866179 0.02928393 -0.039000697 0.040555637 -0.052074537 -0.06465934 0.022662107
ㅜㅜ -0.082016945 -0.051163767 -0.07356447 -0.13233729 0.039974134 -0.03635662 0.0044550337 -0.019777501 -0.09469722 -0.13593902 -0.0222667 -0.099265516 0.007307115 -0.03584928 -0.13121404 -0.009677649
어떻게 -0.07710835 -0.10810799 -0.13243394 -0.11207108 -0.08876214 -0.089461505 -0.07359692 -0.03846185 -0.05202081 -0.0010244835 -0.1174675 0.012550888 -0.10710409 -0.08955078 -0.12691489 -0.017302286
엔딩 -0.109297775 -0.11302183 -0.044851623 0.044407066 -0.058228694 -0.09078653 -0.13139386 -0.04800397 -0.05286064 -0.068834476 -0.06494108 0.038511805 0.076457776 -0.14099006 -0.11521391 0.020301905
당시 -0.11995292 -0.108428754 -0.09664346 -0.11107558 0.0339031 -0.10778667 0.069464795 -0.05432911 0.018984964 -0.11292589 -0.11356169 -0.03752032 -0.021393517 -0.100458354 -0.14555122 0.028594185
하지만 -0.07363214 0.11011078 -0.00021232749 -0.0018274777 -0.094805196 -0.06077605 -0.099515036 -0.06915017 0.024349986 -0.06575184 -0.10098336 0.002768532 -0.1410817 0.005357002 -0.13178842 -0.029192591
나름 -0.0012229437 -0.07369672 0.07598886 0.053765465 -0.14516848 -0.11839383 -0.10756319 0.033831246 -0.02835358 -0.12040203 0.07391554 -0.14245234 -0.12917107 0.0726414 -0.007931114 0.027309151
봐 -0.024836324 0.02092518 -0.017521609 -0.1463931 -0.06125799 -0.1065579 0.11314361 -0.062582985 0.19081333 -0.10991296 0.012243186 -0.061627217 0.021056945 -0.06645027 -0.09585666 -0.032363154
무섭 -0.12155735 -0.11306502 -0.14045824 -0.06892352 -0.09938858 -0.0053497665 -0.077648856 -0.041754883 -0.049600594 -0.035130516 -0.15123051 -0.099120505 -0.14689873 -0.16157898 0.0608614 -0.016480662
나온 -0.11239816 -0.115777984 -0.11118546 -0.08786944 -0.03530116 -0.08445341 -0.0966968 -0.054294724 -0.10625175 -0.104888245 -0.10736728 -0.13721465 -0.10436341 -0.11512694 -0.114563145 0.09892384
명 0.043861616 -0.094980456 -0.13409445 -0.08459301 -0.094675854 -0.064615056 -0.1027929 -0.019432366 -0.06069928 -0.1254479 -0.13602553 0.046188086 -0.117044754 -0.09803201 -0.023059698 0.024951924
사 -0.030182114 -0.026307255 -0.055406358 0.043044727 -0.047251005 -0.110730685 0.014125698 -0.06427621 -0.07572324 -0.09058385 0.117309324 -0.11580262 0.076815955 0.03541403 -0.09226424 -0.031394377
니까 0.049136482 0.037632663 -0.061247833 0.13438731 -0.020294383 -0.11578546 -0.12318828 -0.0709648 -0.10406267 -0.0556773 0.010048382 0.028001709 -0.04816227 -0.09875447 -0.099693045 0.17752439
오랜만 -0.10074731 0.08242249 -0.13022406 0.13673015 -0.09798452 -0.11099388 -0.013310126 -0.05767939 -0.11151817 -0.121017694 0.023188889 -0.10835805 0.018660845 0.087835565 -0.137314 0.0133608915
이것 -0.11184772 -0.06999231 -0.15677992 -0.10734264 -0.085451186 -0.06280413 -0.11909388 -0.04879546 -0.1269677 0.11936901 -0.12839602 -0.12607084 -0.14313667 -0.16067266 -0.15829998 -0.04328219
해요 -0.0845862 0.025486033 -0.101875156 -0.048938952 -0.13656692 -0.086270675 -0.026051566 -0.049640585 -0.112500444 -0.071804084 -0.0031296124 -0.12504363 -0.048714645 0.0553015 -0.11385178 0.09610804
9 -0.10139416 -0.057579212 0.17186986 0.021040093 -0.10920075 -0.11382896 -0.0103654545 -0.0076930546 0.1460471 -0.006516734 0.10778282 -0.1365074 0.06775612 0.17998561 -0.15404807 0.009758629
팬 -0.07697335 -0.04123243 -0.044027746 -0.077637054 -0.11562487 -0.10485394 0.011576854 0.025889955 -0.11891776 -0.1118786 0.00038751238 -0.05877764 -0.0012849395 -0.06365713 -0.1680901 -0.027527083
차라리 0.22375996 -0.10581519 -0.12432337 -0.090793654 0.21492316 0.007950209 -0.11017215 0.034847338 0.06269027 -0.07379568 -0.09075214 0.22528116 -0.10482097 0.013774876 0.05956969 0.0048658736
절대 -0.08464355 0.018319817 -0.034901123 0.0007293264 -0.1107434 -0.10244276 0.037051577 0.05880412 -0.03544619 0.052132748 -0.0021312681 0.029281044 -0.09115303 -0.11386143 -0.16121784 -0.039894544
세상 0.0075943405 -0.13703933 0.16084169 -0.10838719 -0.019606782 0.056835257 -0.12872016 -0.05986395 -0.11182803 -0.117203966 -0.103707604 -0.012393544 -0.012869572 -0.14830665 -0.06890939 0.052397076
세 -0.07911494 -0.05557289 -0.13741288 -0.08498558 0.06883784 -0.07118031 -0.114517994 -0.04801318 -0.109005205 -0.11204303 -0.12092041 -0.019438013 -0.12572353 -0.079871215 -0.1205229 -0.01342833
못하 -0.013219299 0.02226968 -0.001992165 -0.10019958 0.11841943 -0.108364575 0.020421913 0.017733758 -0.05880092 -0.00012227369 -0.11146874 0.18456014 0.008512743 -0.087144695 -0.13756575 0.009409595
의미 -0.10025397 -0.11809942 -0.13323244 -0.11700719 -0.10611995 -0.10480297 -0.050330784 -0.03915363 -0.084272794 -0.11698648 -0.055729236 -0.13080914 -0.14249235 -0.12726672 -0.14867501 -0.033829786
던데 -0.08953307 0.035213463 -0.16197534 -0.13969499 -0.12540667 -0.08827759 -0.052047163 -0.052145038 -0.11674586 -0.12853627 -0.025005436 -0.13384312 -0.15727769 0.1445463 -0.14609788 -0.04059881
봄 -0.067491405 -0.106837906 -0.16007254 -0.107653774 -0.05863411 -0.08993122 -0.05341588 -0.049379483 -0.13325675 -0.08310546 -0.10323191 -0.06867604 0.079792745 -0.11191804 -0.123204716 -0.026128698
욕 -0.092088774 0.085577406 0.015633643 -0.03420892 -0.05382735 -0.09611453 -0.09638991 -0.043692872 0.13458046 0.030628193 -0.047666535 0.11390408 -0.13823579 -0.08288567 0.13802153 -0.017197587
훌륭 -0.11703317 -0.08369837 0.22638202 -0.0319832 -0.119355276 -0.11314055 0.021881487 -0.04989009 -0.073205456 -0.0891658 -0.04332749 -0.097230904 0.017032202 0.17786299 -0.13903636 0.01595508
너무나 -0.123640515 -0.13577498 -0.1470419 -0.13191023 -0.12328759 -0.1143168 -0.12414365 -0.010303491 -0.095327035 -0.029665966 -0.13355897 -0.044641502 -0.15095592 -0.14972097 -0.12064171 0.02865507
강추 -0.017614864 0.06442848 0.13209233 0.16673532 -0.1205943 -0.04396906 -0.05028443 -0.060862336 -0.029443711 -0.004012369 0.20827836 -0.028678242 -0.06538061 -0.08113604 -0.15798232 0.082316376
감 -0.056406222 -0.09990724 -0.10986215 -0.023537317 -0.10563594 -0.09312676 -0.10490721 -0.04364159 -0.07222292 -0.08065677 -0.11757302 -0.09676892 -0.1289281 -0.10124102 -0.049674075 -0.025493061
됨 -0.10333 0.029156027 -0.011164075 -0.118505545 0.040112056 -0.10704164 0.023945028 -0.04438265 -0.099694215 -0.08887389 -0.04004001 -0.05315962 -0.119440734 -0.12629077 -0.151907 -0.012311079
ㅡ -0.08996332 -0.113579415 -0.15829416 -0.10652769 -0.022025177 -0.072686836 -0.122366965 0.16171424 -0.08284756 -0.001334327 -0.1471571 -0.0044005513 -0.14745353 -0.14349365 -0.0582762 -0.004813157
따뜻 -0.07557567 0.013485796 0.06962735 0.21051547 -0.097703695 -0.1145258 -0.04708183 -0.07458463 -0.10068906 -0.09465089 -0.15932406 -0.12580909 0.18434177 -0.030345256 -0.14233199 -0.03284465
빼 -0.025454184 -0.1158341 -0.14857025 -0.12139732 -0.060807463 -0.062611625 -0.11823289 -0.05984964 -0.08863367 -0.083868146 -0.12076955 -0.08312418 -0.11302603 -0.1321894 0.17833334 0.029937934
느끼 -0.08551759 0.061520778 0.10269295 0.042534664 -0.11356316 -0.1009823 -0.12959808 -0.029818293 -0.11751579 0.02233633 -0.12273009 -0.12482331 0.0016220497 -0.10805949 -0.12042416 -0.026149154
해야 0.01911252 -0.0118272025 -0.06984132 -0.13894336 -0.0786927 -0.07299585 -0.010782597 -0.016473316 -0.098458394 -0.083882965 -0.12322461 0.049061652 0.05506783 -0.10913812 -0.10023553 -0.03967793
드 0.0152490605 -0.07878247 -0.11160895 -0.10184829 -0.064751774 -0.004326023 -0.09341522 -0.053013068 -0.09712832 -0.09039029 -0.09515393 -0.04834083 -0.12638324 -0.112637624 -0.049370762 0.016206216
도대체 0.10757869 -0.10980009 -0.14788306 -0.09527312 0.17459995 0.099335685 -0.10435109 -0.036583614 -0.023353973 -0.08610721 -0.1097329 0.1390998 -0.12257896 -0.11761346 -0.03709748 -0.03365307
어야 -0.10346244 -0.121652864 -0.1457692 -0.11861419 -0.07290677 0.038302097 -0.100256726 -0.046876 0.10626462 0.08010705 0.010293592 -0.0707179 -0.11672749 -0.12070886 -0.10127805 -0.025407707
답답 0.08368384 -0.11760684 -0.15226975 -0.11589554 0.16439421 -0.010007549 -0.10181256 0.24129109 -0.014234845 0.054431695 -0.14720444 -0.0012302478 -0.1388924 -0.1541141 -0.011309631 -0.025715554
마다 -0.101603046 0.007714116 -0.035602205 0.17070429 -0.09632823 -0.102577224 -0.054224826 -0.06115113 -0.024405727 -0.09020972 -0.06053294 -0.01668111 0.01875861 -0.09366456 -0.075273626 0.0263126
준다 -0.09810086 -0.116847195 -0.16164324 -0.07715925 -0.10614114 -0.0989302 -0.11089185 -0.0748969 0.010640229 -0.11419466 -0.116417244 -0.113467626 -0.11798594 -0.12543355 -0.14050597 -0.014226437
글 0.088888146 -0.1108647 -0.14990519 0.00850403 -0.061550274 -0.042309113 -0.093982406 0.09941565 -0.09943597 0.0392648 -0.13362011 -0.046202164 -0.13248055 -0.12966166 -0.075923584 -0.046765793
전쟁 -0.076161526 -0.13899131 0.018782474 0.12250483 0.00440704 -0.042004596 0.1354946 0.11414132 -0.022301821 -0.0051400117 -0.12096402 0.1162817 0.051211458 -0.092423 -0.055068675 0.020472188
놈 -0.049086645 0.052785106 0.02030998 0.126994 0.12259579 0.19992779 0.03758684 0.09906514 -0.0942919 -0.09725883 0.20716596 0.15450755 -0.01923387 0.053075295 -0.10331715 0.0497804
설정 -0.0013595708 -0.11585314 -0.13169612 -0.08961568 -0.093559064 -0.021325188 -0.09479904 -0.045274816 0.16094458 -0.06733709 -0.13793553 0.16845234 -0.120391 -0.1043655 -0.052133646 -0.009961605
무엇 -0.0646285 0.0887418 -0.15549634 0.059432637 -0.081233695 -0.07884904 -0.10594269 -0.048654642 -0.07258681 -0.08337076 -0.019533122 -0.10353498 -0.058090217 -0.13974585 -0.12369032 0.02124535
수작 -0.097967744 0.14650492 -0.016258286 0.033421908 -0.122683465 -0.109198146 0.022584356 -0.0488132 -0.09793662 -0.10777839 0.24301833 -0.09190626 0.13077201 0.25233915 -0.11629867 -0.04144783
만화 0.1268113 -0.10597063 -0.06799367 -0.14654997 -0.123366416 -0.114650294 -0.1571625 -0.039129563 -0.09726419 -0.09599462 -0.1683742 -0.13971259 -0.18374737 -0.07283081 -0.07839767 0.053448252
흥미 -0.0826078 -0.11663873 -0.1528165 -0.11618347 -0.086312145 -0.10766584 -0.053316515 -0.045837328 -0.0859431 -0.096815385 -0.14978035 -0.08483898 0.029690158 -0.12891978 -0.13721783 -0.011242639
그저 0.012853175 -0.14534983 -0.15524851 -0.11801653 -0.06098466 0.0068712877 -0.13019156 0.07715137 -0.10370986 -0.100143015 -0.14578255 0.0017183202 -0.15262184 -0.13778734 0.06286163 -0.0053437836
감정 -0.07517546 0.009036576 0.118355386 -0.101885974 -0.08409646 -0.04321495 -0.09979478 -0.04607232 -0.08625051 -0.0954488 -0.008529168 -0.11393368 -0.10625055 0.06543626 -0.11696153 -0.03207107
미국 0.028391747 0.054562934 0.06709642 -0.02216607 -0.0010044029 -0.071440764 -0.14837717 -0.01497855 0.018493345 -0.12018242 0.026016261 0.04782289 0.01101163 -0.1596411 0.0153428605 -0.022367358
신선 -0.093113616 -0.036638413 -0.040239606 0.06195795 -0.10352157 -0.11544106 -0.0383982 0.013969198 -0.08825632 -0.10025053 0.19861227 -0.13849707 -0.14061137 -0.047021694 -0.13542931 -0.03467401
행복 0.04156715 0.030553343 0.05560011 -0.10060859 -0.10043496 0.002510341 0.06859373 -0.047682982 -0.11444856 0.041081294 -0.017230218 -0.12698734 -0.063660055 0.28566003 -0.15632285 0.17932247
뻔 0.04169353 -0.12149933 -0.14256462 -0.07665747 -0.08706331 -0.10012549 -0.11493816 -0.056543276 0.09484381 -0.02309576 -0.1254228 0.105805926 -0.14097954 -0.12409983 0.029480638 0.032820962
형 -0.11519821 -0.11696894 0.059409056 -0.056920875 -0.13869338 -0.14321125 0.006196671 0.030015415 -0.057968955 -0.10422035 -0.10430149 -0.04412771 -0.05102408 0.039334215 -0.15009123 0.0614597
앞 -0.055387817 -0.05418721 -0.12820502 0.034636315 -0.077881426 -0.10343743 0.06280593 -0.051125173 -0.116232075 -0.09886074 -0.035217166 -0.08441328 -0.001013338 -0.019086745 -0.119684115 -0.0021103844
허접 -0.0027551854 -0.11031775 -0.07882332 -0.103475444 0.19365722 0.1879877 -0.08664846 0.2148926 -0.042522192 0.030046148 0.00044603756 0.04563358 -0.127703 -0.15908863 0.15425658 -0.04605707
어도 -0.07464601 -0.10553229 -0.13904046 -0.108773515 0.066879615 -0.019250194 -0.092206284 0.003661208 -0.024606593 -0.0918144 -0.12273112 -0.11124767 -0.11581278 -0.1168594 0.0150706 0.047770355
군 0.08648255 0.019506088 -0.07784431 -0.045954812 0.09196132 0.065614514 0.019257423 0.09549734 0.06588319 -0.12733185 -0.04926276 -0.012128244 0.07435779 -0.027692193 -0.06474817 -0.0145299435
시절 -0.1124056 -0.0911268 -0.11492612 0.0101946965 -0.09896493 -0.102014154 0.0064977664 -0.027647749 -0.09364272 -0.11149258 -0.112142496 -0.1038735 -0.10112416 0.012461446 -0.07075023 0.012933943
관객 -0.0063056997 -0.10721708 -0.067450576 -0.023543704 -0.09933056 0.2253491 -0.019519787 -0.044060707 -0.0009925043 -0.07860626 -0.045371093 -0.08985456 -0.048371967 -0.016889516 0.154699 -0.019050801
배경 -0.09722228 0.027645443 -0.1381975 -0.10387502 -0.096416265 -0.08652376 0.025518473 -0.04691908 -0.0726297 -0.098204345 0.039613213 -0.100383446 -0.0023606028 0.04409408 -0.12751624 -0.0048225746
6 -0.055239864 -0.13056146 0.084901534 -0.078708135 0.055241115 0.012460466 0.12862004 -0.036060758 -0.045428474 -0.11551337 -0.096584894 0.033228647 0.055855922 -0.037208404 -0.006455264 0.030855976
초반 -0.08176533 -0.058868553 -0.14877367 0.11766493 -0.07086941 -0.06069459 -0.11390988 -0.060559433 0.012127926 -0.049187407 -0.08163288 0.15108518 0.0958161 -0.10077228 0.0114096 0.016790856
사실 -0.097822316 -0.108440526 0.06790753 -0.088713795 -0.07245463 -0.10014109 0.11871726 -0.0130860405 -0.02298397 -0.07752914 -0.11110529 -0.039803907 0.15082948 -0.11535168 0.037291095 0.023549508
웃음 -0.122802086 -0.041038953 -0.075579986 -0.12002371 -0.10902199 -0.08811855 -0.025963528 0.04289174 -0.03263278 -0.12797423 -0.12454769 -0.13022569 -0.10481546 -0.09248892 -0.11037784 -0.012904741
답 -0.08237762 -0.14675339 -0.16646923 -0.10209246 -0.06552658 -0.081687555 -0.14613536 -0.048967183 -0.028063187 0.083083145 -0.09856563 -0.095258914 -0.14357442 -0.15968536 -0.15386309 -0.0496279
엄청 -0.06435447 -0.13905066 -0.0992411 0.02341914 -0.07771927 -0.12963721 -0.086247645 -0.053648047 -0.11325313 0.012338848 -0.061417855 -0.08833081 -0.060970716 -0.0058997483 -0.13482854 -0.008969329
더라 -0.10525388 -0.047029845 -0.06345734 -0.07173751 -0.110078126 -0.030562298 -0.04060696 -0.056686535 -0.10389944 0.076262176 -0.04399413 -0.03895354 -0.06401259 -0.13170972 0.0065927994 0.003569521
라니 -0.018958256 -0.14747925 -0.072308786 -0.12664598 -0.080518275 -0.10594698 -0.09649433 -0.049817957 -0.075381115 -0.09701266 -0.16546205 0.020366475 0.006526227 -0.10455173 -0.06447776 -0.0063667074
질 0.1352902 -0.12613136 -0.148875 -0.06214858 -0.06936911 -0.097816 -0.08063799 0.11263361 -0.050009377 0.015640805 -0.13400282 -0.04130628 -0.13263398 -0.17737053 0.05010004 -0.040910542
자신 -0.09059392 -0.05057412 -0.13955906 -0.06667271 0.07550401 -0.033734743 -0.09920059 -0.053079482 0.010723015 -0.048538793 0.0914263 -0.058504183 -0.10110355 -0.10472079 -0.036118392 0.014075432
추억 -0.12273419 0.07061874 -0.07179407 0.06596752 -0.1294234 -0.113136955 -0.113512374 -0.052488197 -0.09874786 -0.12944461 -0.07857753 -0.12745139 0.00501635 0.13973443 -0.1591417 -0.04646467
캐스팅 -0.078248434 -0.064187616 -0.04003078 -0.028778471 -0.12377822 0.058386635 -0.14103113 -0.051915925 -0.0974725 -0.0025579548 -0.120424986 -0.08454219 -0.1256401 -0.11192741 0.12789984 -0.023425424
첨 -0.07330744 -0.11995318 -0.081704564 -0.103343576 -0.081745476 0.049635783 -0.13278824 -0.04785619 -0.0043786797 0.02021477 -0.055133767 -0.0007029938 -0.047836028 0.05591916 -0.096803695 -0.01026696
멋있 -0.12544122 0.099641606 0.21460253 -0.06345228 -0.114276394 -0.030608062 -0.11334568 -0.056457516 -0.049272053 -0.1284799 -0.12219168 -0.04295922 0.025663419 0.1592629 -0.16176254 0.030826608
류 0.17786142 -0.048556823 -0.13429146 -0.11210093 -0.01779763 -0.031444456 -0.096116155 0.09132794 -0.095052145 0.05829549 -0.12012708 -0.11236737 -0.09712218 -0.13703972 -0.13560045 0.029905267
어색 -0.0134025775 -0.1226517 0.025565194 -0.079988 0.22117168 0.18040001 -0.08803288 -0.0737861 -0.07642219 0.027231425 -0.15542331 -0.112670235 -0.024141017 -0.08948462 0.13663647 -0.0027951002
시나리오 0.015990444 -0.07962455 -0.11207125 -0.06766479 0.17507651 -0.095572285 -0.09406359 -0.049819626 -0.08954991 -0.09184356 -0.11277777 0.19380775 -0.016145011 -0.11221484 -0.06290401 0.009081446
머 0.016826723 -0.12728895 -0.15964101 -0.14037381 0.10533455 -0.092577405 -0.10711038 -0.03255324 -0.09757333 0.12436217 -0.14260072 -0.050810322 -0.1601292 -0.15659653 -0.11079721 0.095683746
밖에 -0.039002605 0.08056759 -0.05611109 0.020772444 0.10116657 0.033620026 0.07362862 -0.06801713 -0.10986873 -0.06440369 0.06264752 0.118682355 -0.15488216 -0.06892307 -0.04506804 -0.014223386
OOO 0.11499281 -0.13375354 -0.17221259 -0.12223622 -0.05201931 0.15310511 -0.12985662 -0.07478997 -0.011610934 -0.021737006 -0.1486076 0.115705304 -0.15612403 -0.1587125 0.04608932 -0.002612832
슬프 -0.13208589 0.21979979 -0.18168215 -0.15263101 -0.14105299 0.067118846 0.18318367 -0.057970345 -0.11977585 -0.129934 -0.2064997 0.0888628 -0.18450612 0.24210022 0.003357708 0.008627284
정신 0.052674957 -0.12989599 -0.14901246 -0.10726736 -0.055385776 -0.009464476 -0.04118394 -0.045586165 -0.06919708 -0.052970305 -0.116083905 0.058777343 -0.13542724 -0.124822706 0.106473476 0.050510164
분위기 -0.10518243 -0.021931011 0.0025017734 0.049031798 -0.10973759 -0.0982844 -0.09044674 -0.06450581 -0.102021106 -0.12053134 -0.04015833 -0.121133715 -0.020302601 0.081393406 -0.15678331 0.027502049
소름 0.03634323 -0.10891262 0.096185744 0.09061187 -0.11286125 -0.13290334 0.13887584 0.019254947 -0.11111251 -0.100004956 0.05519653 -0.12450328 -0.015144614 0.21938993 -0.114099875 0.0054922104
멋진 -0.10217879 0.14730562 0.096875906 0.09263983 -0.120654866 -0.11483248 0.09723056 -0.0539849 -0.10988594 -0.12596212 -0.12913169 -0.12315184 -0.10992015 -0.035613157 -0.14319478 0.035826705
힘들 0.015986307 -0.08269274 -0.1321631 -0.1040765 0.059602406 0.13712326 -0.13353749 -0.054343954 -0.015506552 -0.035594564 -0.10442942 0.09744623 -0.10503634 -0.11930087 -0.07179984 0.0030145645
오늘 0.06588613 -0.09290352 0.024187094 -0.13062191 -0.07551427 -0.0875014 -0.10132248 -0.050063714 -0.091878355 -0.061733384 -0.1119985 -0.090513766 0.09374816 -0.13199563 -0.1416628 -0.018958164
어이없 -0.021521598 -0.1296891 -0.16180253 -0.09094876 0.02155066 0.056131773 -0.100887634 -0.02241492 0.07580332 0.1685038 -0.14944166 0.0038120535 -0.13916552 -0.13868763 0.20900007 0.00034962967
봐서 -0.021718081 -0.11813012 0.10317649 -0.10396815 -0.073219456 0.026498634 -0.13138357 0.03215559 -0.06903474 -0.09916761 -0.10780374 -0.07770026 -0.14217848 -0.12196024 -0.11285532 0.025741432
잡 0.004712594 -0.14718634 -0.071588635 -0.06639822 -0.11993941 0.00014348683 -0.057448138 -0.0051022912 -0.040160447 -0.08588234 -0.028545976 0.008076284 -0.07000709 -0.062832296 -0.17004411 -0.032258414
구성 -0.070728324 -0.14786847 -0.119481444 -0.11989916 -0.06342278 -0.09664406 -0.06829877 -0.045730945 -0.08882812 -0.089420594 -0.12324227 -0.0463863 -0.088253126 -0.1382262 -0.12191688 0.024184275
엄마 -0.08659998 -0.008372507 0.08375804 -0.01948481 -0.08883998 -0.09049701 0.030987985 -0.047255818 -0.07071796 -0.09718084 0.0402769 -0.093484774 -0.10368419 0.010561213 -0.098267086 0.027203161
함께 -0.08047623 -0.05159176 -0.078956686 -0.11062467 -0.10413993 -0.10332637 -0.10279496 -0.059574414 -0.09536595 -0.09577292 0.19209409 -0.109831706 -0.029913578 -0.012983606 -0.13032696 0.007862352
문제 0.10186918 -0.12540486 -0.08908548 -0.10303003 -0.077455975 0.14277948 -0.09351175 0.053150594 -0.107965395 -0.06452955 -0.11350444 -0.044818744 -0.118954696 -0.1071399 0.07011199 0.010541152
위해 0.01433944 -0.02613033 -0.02721108 -0.08398095 -0.0036251375 -0.069368176 -0.08528982 -0.053676475 -0.047102604 0.034664474 0.046489242 -0.10714808 -0.033313055 -0.14673398 -0.04485988 -0.00991229
졸작 0.21121757 -0.13251214 0.051880606 -0.13956738 0.082354106 0.03356922 -0.115014456 0.12236502 0.10935128 0.14809239 -0.108079776 0.18427296 0.049448423 -0.027413744 0.061452262 0.01877835
잊 0.16810317 0.2493752 -0.056454197 -0.10405746 0.10458424 -0.10352194 -0.0057923174 -0.031066533 -0.105246216 -0.118108675 -0.02449408 0.00047246742 0.20407458 -0.103748836 -0.1522948 0.022794534
이딴 0.119727306 -0.12504382 -0.03647449 0.03327993 0.1835413 0.16291502 -0.009600631 0.17892136 0.14683205 0.11288521 -0.12031162 0.17287263 -0.1271092 -0.09967376 0.0027072064 -0.032789767
등 -0.07466029 0.025128463 -0.010863703 -0.046055462 -0.0412234 -0.07540607 0.03592578 -0.047464255 -0.063500285 -0.06578263 -0.056160823 -0.069233194 0.038360983 -0.048642002 -0.007254375 -0.018954206
집 0.036999952 -0.12703706 -0.1317222 -0.11703987 -0.09049783 -0.037638888 -0.11165308 -0.07488899 0.008644016 -0.09405936 -0.12518246 -0.040146723 -0.12842897 -0.12168045 0.019967154 -0.010068238
유쾌 -0.08488867 0.12841451 -0.108206846 -0.0694225 -0.10703845 -0.12161117 0.14743607 -0.064391196 -0.11626222 -0.12034285 -0.09966886 -0.13685188 0.16444874 0.19105703 -0.14771762 0.01962528
뻔한 -0.05943201 -0.13914014 -0.15891802 -0.1197774 0.03180542 -0.00585889 -0.062459264 0.06623279 0.039598197 0.043151893 -0.16422723 -0.0085649295 -0.13936591 -0.13739182 0.14391907 0.05857621
킬링 0.008158394 0.11785436 -0.12026433 -0.078998886 -0.056623522 -0.08874158 -0.06207954 -0.048755832 0.04903069 -0.13337882 -0.0994028 -0.032798976 -0.009403327 -0.107382275 -0.06641103 -0.029775584
스러운 -0.12071767 -0.056490157 -0.100575924 -0.054651465 -0.11041705 -0.10999808 -0.06528562 -0.056875937 -0.10989209 -0.13048922 -0.052691747 -0.14411317 -0.06302857 -0.082315855 -0.15717722 0.033869572
결국 -0.09438083 -0.12844875 -0.12557311 -0.10171665 -0.09626169 -0.10491577 -0.06505086 -0.057006713 -0.006312198 -0.01501767 0.03948617 0.0747066 -0.09343119 -0.12081296 -0.14579487 0.025060441
낫 -0.004763216 -0.119751595 -0.06205122 0.0790989 0.03880885 -0.026859134 0.034326006 -0.0512979 0.1164805 0.04846883 -0.03043995 0.012825602 0.114327915 -0.1473764 -0.05128267 0.0137094
한데 0.016429741 -0.11174443 -0.16700232 -0.111503065 0.053242795 0.07623874 -0.0057342816 0.13382748 0.079064175 -0.11677659 -0.14404781 -0.14098683 0.11191468 -0.12945138 -0.03228986 0.004006397
나요 -0.09000874 0.13725585 -0.13715047 -0.09869538 -0.097187385 -0.10726499 -0.136111 -0.05245142 -0.10885718 -0.110727414 -0.110690795 -0.11261986 0.078423 -0.036760215 -0.118725404 -0.012509596
뭘 0.104511656 -0.11268067 -0.1316031 -0.103388 0.017896043 0.001952374 -0.107745126 -0.04066014 -0.08754177 0.1197319 -0.111673824 -0.09052039 -0.05680957 -0.097286046 -0.09742988 -0.03508986
