9996 16
. -0.0146809565 0.018385239 0.087162696 -0.008873616 0.013675876 -0.018182747 0.050335653 -0.059710342 0.04115716 -0.028590376 0.032350022 0.076015435 0.002379504 0.040795602 0.024870235 0.04443163
영화 0.06825977 0.04175541 0.044797365 0.018734328 0.07963441 0.040828366 0.0629713 -0.0733531 0.038128585 -0.005034676 -0.03972618 0.014926097 -0.05286245 0.07132063 0.08774495 -0.022828426
다 0.054916386 -0.003275434 0.061043877 -0.015413958 0.016877862 -0.032676917 0.08368876 -0.05922742 0.025226539 0.0028552385 0.038254865 -0.019561026 4.959367e-05 0.072124995 -0.01112506 0.0067523336
고 0.0013353826 0.06025471 0.056077857 -0.047679406 0.014608647 0.040444877 -0.044052932 -0.003898912 -0.024342975 -0.016636036 0.019290568 -0.027090603 -0.016955981 0.0448479 -0.033223305 -6.13366e-05
하 -0.009344028 0.03575189 -0.0013800617 0.024329158 0.008870059 -0.03420753 -0.004351721 0.032786872 -0.0010657217 -0.0017731659 -0.0075268126 0.02993023 -0.059272066 0.029727234 0.026175978 0.026613945
을 -0.024325239 -0.08200959 0.0051081376 0.050214294 -0.053829484 0.035317194 -0.034860313 0.0033090168 0.024910398 0.029469468 -0.009563628 -0.050947286 0.0065171416 0.05641533 -0.08372186 0.041416064
보 -0.0031328802 0.046551153 -0.003328775 -0.026594575 0.059019294 0.011642738 -0.0051344414 0.049220696 0.0005345976 -0.014211794 0.00466616 0.018412156 -0.022155631 0.04060802 0.04247528 -0.004283211
.. -0.0043327594 0.022411427 0.056892637 -0.06452357 -0.020193245 -0.021893581 0.010781982 -0.04699076 -0.010752026 -0.021828422 -0.0072339326 0.08450877 -0.009628502 0.08373092 -0.00035439047 0.014324199
게 0.015701981 -0.011963563 0.040026642 0.046096023 0.02209743 0.043677457 -0.012257418 -0.0016625198 -0.014682229 0.053236745 0.012729526 0.011697262 0.013606125 0.057327896 -0.0035273205 -0.010909792
, -0.012662962 -0.036186766 0.050384734 0.005542217 0.017076634 -0.012058955 0.04090228 -0.020750724 -0.029656837 0.02272963 0.0054778554 0.038129833 0.006970986 -0.011061303 -0.027186591 0.023861762
! 0.04718251 0.0018839241 -0.03356808 0.04463899 0.10527153 0.04652845 0.091675945 -0.08364437 0.09338196 0.054919396 0.051023465 0.024211908 0.027427271 0.005905215 0.10574758 0.040195026
지 -4.5687135e-05 -0.037070103 -0.06134271 -0.048113793 -0.01584386 -0.0065896087 -0.08401714 0.08526925 -0.061961427 0.06709386 -0.018922659 0.011561843 -0.024150688 -0.05135331 0.033313766 -0.049693596
있 -0.0130712 0.023101136 0.006691592 0.06319613 -0.0068045133 -0.012660093 -0.006833452 0.012472779 -0.04786491 0.0045341044 0.026580626 -0.023885848 0.003578815 -0.038780626 0.019015137 0.038530655
없 -0.07022198 -0.059900902 0.014672998 -0.055252492 -0.11877021 -0.07726792 -0.032790624 -0.061433833 0.0893642 -0.09916466 -0.09137386 0.055013318 -0.08594276 0.12808785 -0.13915944 -0.09966952
? -0.046630636 -0.08469753 0.03696251 -0.020531915 -0.054756355 -0.04194354 -0.08544059 0.015401797 0.010146078 -0.052372582 -0.016703343 -0.03064089 -0.0016154302 -0.0017477127 -0.020330016 -0.02565639
좋 0.0804016 0.14840294 0.02606169 0.045989197 0.082044736 0.06054103 0.055075828 0.00072116114 -0.02640332 0.029995307 0.021981927 -0.04783837 0.16152385 -0.19708504 0.14968857 0.11895155
나 -0.025422724 -0.058847286 0.009582009 -0.010292673 0.026732322 0.0029684622 -0.009682525 0.01672905 -0.011628529 0.032176383 -0.028686747 -0.030223416 -0.04519997 0.0041428134 -0.064241014 0.051939804
었 0.03156995 -0.0073787994 0.03177175 0.043452434 0.01897349 0.038356822 -0.009808538 -0.035117686 -0.0018916181 0.019748982 0.016827844 -0.068598256 -0.053738922 0.062737316 0.013851107 -0.010782068
만 -0.05913705 -0.0788523 0.050326966 -0.029978035 -0.060842294 -0.0480153 0.017555065 -0.020164695 0.08415705 -0.07630522 0.00078707054 0.0076921415 -0.016064418 0.054713283 -0.092736855 0.005207282
는데 -0.048538286 -0.079125404 -0.030602416 0.034690548 0.018183595 -0.00206093 -0.18986315 0.118805155 -0.06337406 0.02796377 0.020748928 -0.016962292 -0.094371505 -0.020382611 0.0022434627 -0.0096222
너무 -0.023093525 0.088977076 0.0077743568 -0.03701103 0.03400292 -0.02429721 -0.048002213 -0.026110938 -0.051012203 -0.03893695 -0.038107745 0.020620367 0.083530545 -0.10199034 -0.03381345 0.036871526
봤 -0.0012427664 0.045123093 -0.011503061 0.034878705 0.015261672 0.021070221 -0.050144456 -0.023089504 -0.014913261 0.011575792 0.05615994 0.02220086 0.028657649 -0.020872183 0.10642432 0.0063488297
적 0.04114637 0.008178762 0.06473422 0.034226697 0.0149443885 -8.3936524e-05 -0.030650211 -0.0055694403 0.03845867 0.041458372 -0.00736724 -0.0044574714 0.012431404 0.029234773 -0.018700102 0.08127912
안 -0.034238715 -0.14061965 0.019191524 0.015246857 -0.011918454 -0.010015927 0.016027788 0.0017083946 0.14495589 -0.0872633 -0.089469045 0.021274371 -0.15288702 0.20304625 -0.10434868 -0.029299093
정말 0.039394107 0.075201795 -0.0135731995 0.04853216 0.050406437 -0.008842265 -0.025768947 -0.015245845 -0.040263373 0.012874455 0.051208805 -0.050641436 -0.03795284 -0.026585681 0.01902793 0.057083357
로 0.003494413 0.02530602 0.030532828 0.0170289 -0.05448935 -0.06607206 -0.035070255 0.04033685 0.015288883 -0.021764437 0.014312229 0.042833783 -0.06584492 0.07786829 -0.04907721 -0.047255166
음 0.011341852 0.041613154 0.07854031 -0.021172257 0.026792005 0.0014816502 0.03620339 -0.05318228 0.049147807 -0.035889503 0.0056391954 0.023292406 -0.015948502 0.027673261 -0.04804818 0.050454758
것 0.0018418573 0.012800179 -0.0022068815 0.013668627 0.009617396 0.0097257495 0.017998673 -0.0018785206 -0.04147827 -0.008809895 -0.0029701502 -0.0107485065 0.05151401 -0.022660807 -0.06467941 -0.027523194
아 0.01832615 -0.0487697 -0.0036036212 -0.044128597 0.037664104 0.019521305 0.023642378 0.031682152 -0.043475904 -0.03750143 -0.030548897 0.016272226 0.0025811787 0.009254497 0.010118935 -0.0128136715
네요 -0.017339591 0.093155354 0.031441383 -0.014075809 0.04327074 0.05722211 0.10256508 -0.10292647 0.0062381956 0.013169311 -0.021925101 0.010882662 0.011998145 0.0056639034 0.012575825 0.004033399
재밌 0.110830195 0.14493762 0.14519274 0.14433482 0.13139202 0.070376985 0.17863254 0.12515284 -0.12670638 0.11593856 0.05905532 -0.12690327 0.039593235 -0.04700632 0.098246604 0.13237
어 -0.0027184696 -0.008983176 0.029726632 0.022587555 -0.063125655 0.030152712 0.025838092 0.014781127 -0.009170556 -0.024763575 0.033273175 -0.008744574 -0.09716724 0.106764756 -0.02153295 0.012128693
같 0.03935236 -0.0058079795 -0.012247168 -0.01165361 -0.025256738 -0.0023922017 0.048767578 -0.04296159 -0.001957569 -0.030609371 -0.027804244 -0.039237306 -0.015657907 0.022917641 -0.037261296 -0.009563979
점 0.047200006 0.0036497768 0.067635834 0.014174813 0.052046083 -0.04885176 0.08880634 -0.046231154 0.06831621 -0.024739102 -0.012626015 -0.030198721 -0.0681697 0.086887546 -0.02516479 -0.020065952
지만 0.037711624 -0.15527426 -0.116314754 0.0073291017 0.056142572 0.05295339 -0.30776894 0.21009488 -0.101401955 0.10879061 -0.016153825 -0.047779493 -0.07876363 -0.06259351 0.06756247 0.0067086928
진짜 0.014060412 -0.004176666 0.00089959445 -0.03536693 -0.022610765 0.041621327 -0.0053074574 0.05833416 -0.017958647 0.024211608 0.0019000581 -0.037309133 -0.001592708 -0.004582059 0.011194966 0.047916405
했 -0.023784973 -0.031055681 0.019511813 -0.035285186 0.061616566 0.04712151 -0.029255528 -0.02994728 -0.03382748 0.022286268 0.003754607 -0.01312848 -0.016106458 0.008344296 0.052745204 -0.0006232227
에서 0.053060073 -0.023180373 -0.0017516154 0.03949191 0.0056516896 0.003497382 0.053334385 0.037300996 0.038098417 -0.01381935 0.010719129 -0.016158551 -0.010813683 0.09356041 0.023732938 0.020055579
기 -0.048444852 -0.021136416 -0.00018728632 0.026014298 -0.026756793 0.015318295 0.057729278 -0.02830658 0.08774116 0.015776338 -0.013902985 -0.01077408 -0.057962414 0.025337305 0.030699514 -0.029815368
네 -0.0149810165 -0.03462758 0.11672787 -0.0462222 -0.052292794 -0.036142543 -0.05046306 0.023797423 0.022365155 -0.07868896 -0.01934452 -0.0037870384 -0.039711047 0.03140443 -0.024941549 -0.016286034
않 -0.02606181 -0.16487284 -0.021168413 0.05317755 -0.08498644 -0.024946498 -0.16192605 0.14669791 -0.004486241 -0.021588495 0.0041230996 -0.03573403 -0.0605342 0.02712031 -0.049359035 0.019803232
거 -0.07243581 0.026890462 0.0022861927 -0.064634375 0.009214234 -0.015520185 -0.010559635 0.0128240725 -0.03889056 0.0023043964 0.0122051835 0.09035447 0.025739105 -0.10429131 0.054505933 -0.056961555
았 -0.021426724 0.016871816 -0.013625184 0.032128297 0.011645273 0.005605251 -0.061685387 -0.0054804683 -0.013122241 0.024439683 -0.009247928 -0.05755298 -0.046558164 -0.0076467707 -0.021347271 -0.01862942
수 -0.027492462 -0.005049334 0.03283341 0.03152477 -0.057197426 0.0028351932 0.04732501 0.02143671 -0.04418368 0.06364358 -0.0074445154 -0.02249102 0.073957294 0.016620988 0.044295885 0.011071068
되 0.018986924 0.08923145 -0.040838104 -0.004334021 0.026694058 0.029894756 -0.035626166 0.015535897 0.0016808129 -0.017916664 0.015214995 0.0030263583 0.07176968 -0.057122435 0.059681933 0.036533743
면 -0.025457283 -0.0737993 0.07963175 0.018068962 0.0095920125 0.028451547 -0.022264743 0.043365285 0.031389702 -0.039522156 -0.057317737 0.012222951 -0.08449389 0.057125963 -0.057321016 -0.018757662
ㅋㅋ 0.08863311 0.056055486 -0.09799073 0.0814354 0.0894557 0.055037677 0.04952923 -0.04603675 0.06869226 0.0072629387 0.018387785 0.0021373131 0.0056461846 -0.0001096233 0.04111929 0.0025318486
말 -0.025360903 -0.0054801144 0.019009294 0.027205499 -0.004989876 -0.04632188 -0.039541576 -0.009153898 -0.049037788 0.022715965 -0.015737448 0.012955141 -0.003970431 -0.029088536 0.0019221208 -0.0076925294
연기 0.06942424 0.09520659 8.5202235e-05 0.02736844 0.024124106 0.018434206 0.057357065 -0.021148164 0.036510795 2.0901061e-06 0.030303776 0.02593196 0.08131974 -0.034238525 0.07272449 0.05438233
인 0.005962207 -0.023161754 -0.0078030284 0.004502895 0.09103905 0.0125122145 -0.0025057527 0.02696118 0.047746457 0.010491221 0.011056921 -0.022154246 -0.035387676 0.022948407 0.034723394 0.0008399317
주 -0.027090697 0.066376485 -0.01786675 -0.021798862 0.02719202 0.05461611 0.06766669 -0.044051077 -0.02634281 0.016759936 -0.032895852 0.02674982 0.073934086 -0.08106174 0.06725212 0.0017815093
내 0.030600466 -0.05334024 -0.018949404 -0.058641564 -0.036419936 -0.037602276 0.03551941 0.024413856 -0.012602745 -0.017883433 -0.021256872 -0.03807325 0.015245675 0.06299314 -0.017016754 -0.018189827
최고 0.13842691 0.10460003 0.1883077 0.15235642 0.07897081 0.11728924 0.19615299 0.19424374 -0.16823258 0.17096207 0.1160127 -0.12578881 0.092290774 -0.07296047 0.08449938 0.12371187
~ -0.012950602 0.050138455 -0.06729574 0.026540045 0.020720143 0.028655298 0.09385402 -0.06917659 -0.006846565 0.06912699 0.08393191 0.03487421 0.06362154 -0.025828073 0.014972295 0.028463261
평점 -0.027553605 0.024182798 -0.018016024 0.0053891353 0.017758457 0.015826665 0.021015605 0.042007785 0.039741788 -0.039007287 -0.024134612 0.019361755 0.03316232 -0.02602811 0.08973524 0.0069524534
이런 0.0027958553 0.008311177 -0.03206406 -0.061882354 -0.016166374 -0.029252408 -0.070432656 -0.010762001 0.017062245 0.003255469 0.017107125 0.0060792807 0.021670183 -0.0004456739 -0.009248894 -0.008803732
던 0.040516272 -0.02939831 -0.0051033096 0.039834946 0.06324344 0.022102633 -0.03171316 0.04814157 -0.026006011 -0.027822832 0.01577214 0.0021989914 -0.08168913 0.07637373 0.0026622578 0.030721929
어요 0.05819625 0.10993711 0.06789231 0.09735516 0.012124927 0.050268665 0.15614906 -0.09392984 -0.012476241 0.05189062 0.055898547 0.026994001 0.076460786 0.03756545 0.046117067 0.03605649
할 0.005656085 -0.0121770715 0.02838502 -0.014858041 -0.014031215 -0.027844967 0.0071018795 0.030384693 -0.048622664 -0.005346469 -0.017353397 -0.018162847 -0.0034779636 -0.0026538933 -0.025882004 0.035233434
왜 -0.017575355 -0.0073325625 0.09127417 -0.025606185 0.013338497 -0.0025214232 0.019216955 -0.0059123165 0.0042398274 0.031716675 0.038841665 -0.017554995 -0.06730234 0.07769226 -0.047638744 -0.02840295
겠 -0.06698993 -0.027225297 -0.041833054 -0.038230762 -0.017893435 -0.0031111857 -0.08600722 -0.049354035 0.05483682 -0.015971096 -0.052048028 0.08016056 -0.052762326 -0.04720061 -0.02296881 -0.044449933
1 -0.00020253888 -0.11426508 -0.0064712027 -0.040864117 -0.03360426 -0.057764437 0.006606172 -0.054877277 0.10999136 -0.098790914 -0.090755835 0.045780357 -0.20544575 0.20327616 -0.022012834 -0.07434394
스토리 -0.039837044 -0.02967344 0.06234657 -0.008467933 -0.007478901 -0.02338045 -0.025929663 -0.04260482 0.004719604 -0.049942415 -0.018399606 0.009891335 -0.07353842 0.09213236 -0.03822032 -0.023223901
해 0.002078989 -0.067217514 -0.00054869783 -0.0019101059 0.027143303 0.030075666 0.03358618 0.0019074287 -0.040507536 0.048885845 0.008737823 -0.03468533 -0.04703884 -0.010464148 -0.046238367 -0.021285476
습니다 0.0083047375 0.0734438 0.08048315 0.014189857 0.10335426 0.0017072414 0.048557002 -0.013242863 -0.03795482 0.038944647 0.008915642 0.0005593666 0.01474048 0.05860023 0.007235754 0.09263557
ㅋㅋㅋ 0.04389211 -0.0076913517 -0.010598144 0.008209426 0.028480567 0.040333375 0.010006876 -0.06674714 -0.0203662 0.014303424 -0.025040707 -0.053197168 -0.016934369 -0.07269678 -0.0040537016 0.034779854
... -0.003404826 -0.0021132 0.045134336 0.00036603812 0.05527553 -0.01459289 -0.006508583 -0.041637093 0.014349531 -0.011169489 -0.0075144563 -0.0038530496 -0.05451917 -0.0075406074 -0.012656084 -0.027676992
드라마 0.06608811 0.11950204 -0.0147951525 -0.0077558197 0.04384879 -0.0027754751 0.08135136 -0.06435544 0.006048278 -0.025578994 0.032614443 -0.030186193 0.08288685 0.008278311 0.0523055 0.06268197
생각 0.114575975 0.011062506 0.037277315 0.1311526 0.061029725 0.03412057 0.057126675 0.07330873 0.011527801 0.05479217 -0.0070552807 -0.087541744 -0.033803668 0.09162434 -0.0071892925 0.013553445
아니 -0.006034614 -0.11233411 -0.05856173 0.026787063 -0.07755662 -0.048771657 -0.084738195 0.06465813 0.022458676 -0.046062782 -0.018286763 -0.034389637 -0.055853114 0.0665113 -0.12689096 -0.062917
더 0.024389807 -0.06817406 0.02799178 0.06612156 -0.07281256 -0.03284837 -0.00077767664 0.014953645 0.026507428 0.009548529 -0.018935714 0.015254718 -0.028886713 0.1654142 -0.040473655 -0.057303205
그 0.018724024 -0.016429385 0.07721551 0.050319526 -0.02835932 -0.02266713 0.014170446 0.031047767 -0.05811449 0.0050131725 0.019797431 -0.06595702 -0.036799002 -0.018147323 -0.030737069 0.007364462
싶 -0.0014135545 0.099547975 -0.017801192 -0.04456606 -0.030555608 0.037878506 0.10864734 -0.040067844 0.01037045 0.047507685 0.0122474525 -0.0067630517 0.03427308 -0.024822159 0.021797128 0.028788961
사람 0.025954267 -0.074401535 0.012410087 0.083075985 0.051468626 0.04038694 0.022139661 0.035661165 -0.0081975255 0.008639649 -0.047025166 -0.02620813 0.0111497035 0.039375868 0.0003292979 -0.020606443
듯 -0.02276214 -0.079292305 0.055190653 -0.008498727 -0.069440946 -0.003413758 -0.05057937 -0.018918894 -0.027341126 0.025168544 -0.030499633 -0.004869224 0.023197537 0.0016690788 -0.009381558 0.016049422
때 0.029209206 0.019529972 0.07158081 0.039428223 0.0035115539 -0.03293119 0.00061819406 0.005592256 0.046123076 0.022543436 -0.02668229 -0.019151065 0.02052654 0.04271324 -0.044805966 -0.011909257
감동 0.054677688 0.1819169 -0.018535987 0.038306028 0.1439626 0.07518634 -0.0003327048 0.07485716 -0.08705021 0.14965355 0.06618097 -0.08614079 0.118026935 -0.19781214 0.1390707 0.048445154
함 0.020604545 -0.012723955 0.016667265 -0.017863767 -0.023121407 -0.0025199305 0.008776254 -0.004099072 0.041656625 0.0061122132 0.0052633155 -0.029901933 0.021478675 -0.041990496 -0.05959004 0.019644726
배우 0.018064454 -0.015321658 -0.020405883 -0.021995584 0.06541292 -0.022687819 -0.032433555 0.0028618807 -0.017966665 -0.01698936 -0.031720307 -0.01679895 -0.0073302286 -0.029240552 0.05983707 -0.030404447
본 0.04119886 -0.0058951825 -0.031400394 0.0066666305 0.0073777386 0.06441049 -0.026382387 0.0056636375 -0.012306314 -0.013819738 -0.0064110276 -0.049386024 -0.0005304224 0.0076324213 0.0270599 0.048915062
까지 -0.042369135 0.0029061001 -0.025172845 -0.08597018 -0.009706556 -0.007976545 -0.022267053 -0.01582583 -0.03661636 0.051213235 0.039964568 -0.023112085 -0.00022833608 -0.060891017 0.025240477 0.044173013
뭐 -0.05638767 -0.13717817 -0.039565638 -0.022768896 -0.065724194 -0.08600433 -0.028290471 -0.02867606 0.09535827 -0.025263045 -0.045871783 0.054163203 -0.04274785 0.0443811 -0.048864115 -0.025967436
알 -0.013780786 -0.048094828 -0.0016863467 -0.018657401 0.028815202 -0.031656813 -0.021967499 0.039054606 -0.024477506 0.049529996 -0.029925171 -0.009749445 -0.008240606 -0.05305047 0.050446436 -0.04322935
만들 -0.03059871 -0.010648798 -0.013567303 -0.061678812 0.022035891 0.021849148 0.00022465596 -0.05738718 0.06283051 -0.0069650128 -0.03092904 -0.025445584 0.019456144 -0.027812222 -0.024335165 -0.040768888
내용 -0.030105937 0.023356488 -0.025519216 -0.05572756 -0.09034862 -0.060638256 -0.09213798 -0.04901755 -0.028991835 -0.036596145 -0.04246924 0.03912665 0.020647893 0.042417254 -0.030046463 0.008019934
볼 -0.008982339 0.12292756 0.026701104 -0.0077899843 -0.024209421 0.0626978 -0.009357583 0.057931945 -0.052293934 0.049066633 0.019074904 -0.049504373 0.06578291 -0.07234066 -0.0009993191 0.05005836
감독 -0.025176559 -0.025132708 -0.077284075 -0.06776422 -0.010431818 -0.058917753 -0.021461736 -0.06710147 0.08943377 -0.0651957 -0.074690536 0.10872608 0.041407276 -0.06007813 0.04392854 -0.0024547698
보다 0.01383877 -0.013152774 0.0030304904 0.015185656 -0.00930691 0.044118382 -0.032055542 0.019940069 -0.056671385 0.0042363913 -0.0028068253 0.008400424 -0.040517665 -0.011301479 0.03944439 0.03620844
라 -0.033601806 -0.06769526 0.060593918 0.06510245 -0.003047949 -0.007939784 0.0072350255 0.060246438 0.05268018 0.023449497 -0.018416034 0.0100951325 -0.031500895 0.06831401 0.012334592 0.0027900508
그냥 -0.069368966 0.05028314 -0.0812021 -0.058729265 -0.079991646 -0.0013321952 -0.06706727 -0.07116473 0.006810488 -0.0678639 0.02088442 0.07467335 0.053816948 -0.043661207 -0.059181612 -0.00455018
재미 -0.018006966 0.071690775 -0.078925975 -0.06842606 -0.050075464 -0.040038247 -0.009946469 0.013997543 -0.047316484 0.0027392583 0.0038337328 0.02928273 0.09371664 -0.10303262 0.0019360421 0.017802177
시간 -0.007991537 -0.05991162 0.06450479 0.00073909806 -0.008047508 -0.049987417 -0.01749057 -0.03454799 0.039188065 -0.014246361 0.006470829 0.048149887 -0.04690691 0.18641686 -0.08117479 -0.06557653
지루 -0.09543845 -0.3211492 -0.11739932 -0.11647668 -0.13780512 -0.16120882 -0.13021745 -0.050743453 0.2107553 -0.13094626 -0.17205481 0.116766624 -0.2232221 0.28045088 -0.10904086 -0.11152921
중 0.026819225 0.094286315 0.06841113 -0.016664956 0.060479943 -0.024220359 0.0491833 0.030766154 -0.036659647 0.06335215 -0.028995667 -0.024413906 0.036693387 -0.031096 0.012175536 -0.0022455193
재미있 0.07999159 0.11177017 0.0843885 0.0431395 0.08364495 0.13503322 0.12764579 0.11375404 -0.07633406 0.10920118 0.14106129 -0.09786399 0.09492163 -0.09855865 0.16658497 0.13558914
년 -0.008861446 0.022976954 0.040126987 -0.019817017 0.05895774 0.06058409 -0.026879024 0.003968799 -0.028701434 -0.017053246 0.035854977 -0.059015345 -0.038577896 -0.026055694 0.049486708 0.008024452
10 0.09440429 0.08066963 0.014523706 -0.00069009035 0.12712207 0.086799674 0.013835859 0.06964225 -0.16464935 0.120382346 0.12776268 -0.08193288 0.20883603 -0.28145653 0.12634663 0.044112332
였 0.01954227 0.025194772 0.009711208 0.034473684 0.03181447 0.055411026 0.025284115 0.047954757 0.032934137 0.06748783 0.040803034 -0.054778043 -0.011645912 0.02476497 0.062348597 0.01121895
잼 0.09218451 0.09652883 0.0668658 0.09289393 0.0498955 0.085662894 0.06581955 0.008021485 -0.025244793 0.027488874 0.051916312 -0.07894757 0.057741676 -0.05688745 0.07925602 0.04143708
사랑 0.051749025 0.048829015 0.068735175 0.0052905986 0.094746865 0.08631353 0.06642255 0.04007217 -0.041488327 0.11628377 0.08886884 -0.07135153 0.07744691 -0.15389869 0.09798344 0.07168985
못 -0.042063043 -0.13706593 0.03374763 -0.05967117 -0.08431859 -0.052586548 -0.09021509 0.011442935 0.0027309575 -0.09325757 -0.085158534 0.036891125 -0.038263153 0.061385166 -0.096602716 -0.0859116
냐 0.017635623 -0.12298972 -0.004962696 -0.019301118 -0.057841714 -0.091941364 -0.030078212 -0.03917044 -0.0040003904 -0.04248318 -0.082448855 -0.009914413 -0.020205753 0.07498767 -0.07299441 -0.06527571
재미없 -0.158342 -0.28089413 -0.16760066 -0.23290873 -0.23717561 -0.2643178 -0.1680268 -0.1923973 0.24114425 -0.2731763 -0.21855582 0.19494562 -0.24367201 0.24747549 -0.21958706 -0.23693158
쓰레기 -0.15005128 -0.3009719 -0.16549139 -0.11845422 -0.20427728 -0.24741554 -0.22759244 -0.1844208 0.23806748 -0.19142523 -0.18887213 0.1376498 -0.24885681 0.23393168 -0.18181305 -0.18215401
서 -0.040395953 -0.056963287 -0.022412661 0.016819336 -0.004356109 -0.028901715 0.005284888 0.049351532 -0.026372394 -0.009449525 -0.019323837 0.035606965 0.03406871 0.015431822 0.0050821793 0.028524833
2 0.021998215 -0.11354758 0.000967354 -0.02840002 -0.044876963 -0.0061006937 -0.053622227 0.05051124 0.04674702 -0.037753012 -0.008341467 0.00898472 -0.1632898 0.20369712 -0.08799411 -0.021111976
라고 -0.057522934 -0.075015955 -0.02522419 0.01155843 -0.045411356 0.019495236 -0.06902695 0.018655451 0.035982206 0.0010781516 -0.044918004 0.034200292 -0.14549729 0.046162184 0.024306325 -0.023557195
야 -0.014931149 -0.07278184 0.10745172 0.04743031 -0.022101384 -0.035641696 -0.008013032 -0.013115296 0.041545272 0.0062971683 -0.016315795 -0.006021236 -0.04977965 0.0035877796 -0.004197907 0.03253219
니 0.05236153 -0.057325967 0.07327135 0.04349842 -0.01051846 -0.045912433 0.029501032 0.00018832044 0.027221575 0.02181791 -0.037575636 0.020556599 -0.014881944 0.0384424 -0.055092514 0.020070028
면서 -0.012320979 0.11092716 0.0041942145 -0.020037437 0.077378884 0.05351658 0.038353942 -0.015882643 -0.072678514 0.040298756 0.002474027 0.021639924 0.056465227 -0.08590252 0.057810023 0.073456004
번 -0.046852037 0.040224135 0.009582121 0.022159008 -0.03833593 0.065668315 -0.040841505 0.050868426 -0.09370044 0.054305494 0.041638043 0.020366052 0.035606373 -0.089899644 0.019671127 0.010840067
다시 0.08086338 0.0009575039 0.11799273 0.06486191 0.08537895 0.061250478 0.031621017 0.06066442 -0.025539204 0.11135421 0.0022443621 -0.065214165 0.03764035 0.027090902 0.0063721025 0.09720538
나오 -0.004367193 -0.0006109301 -0.018438436 -0.038502473 0.0125605725 -0.006490817 -0.005005029 -0.049419183 -0.043960087 -0.054657735 0.027367132 -0.015324525 0.06883907 -0.077480555 0.047121126 0.040846415
작품 0.03877189 -0.023673402 0.048255365 0.04715046 0.068024494 0.021264918 -0.007273587 0.027644819 0.019165043 0.059935268 0.058521394 -0.017438402 -0.017741764 -0.035814103 0.02487184 0.07637756
이거 0.0074636466 -0.0029896803 0.024628349 0.023846254 0.010565593 -0.00617011 0.017832587 -0.009907276 -0.047177438 -0.005942212 -0.0007326672 0.028899841 0.009944473 -0.055521294 -0.005319203 -0.00933394
하나 0.018760383 -0.038534947 -0.058347754 0.01752208 -0.026103524 0.016431794 0.016212674 0.015329856 0.033826742 -0.04175254 -0.032675687 -0.01833135 -0.048590522 -0.0013670304 -0.016917838 -0.04025683
줄 -0.030714069 -0.04418709 -0.003506304 -0.032520074 -0.060352366 -0.0013951389 -0.048497207 0.04971208 -0.041230146 -0.060605995 -0.036822468 0.037483077 0.009330801 -0.036116384 -0.023802139 0.019122418
해서 0.015629595 -0.022757435 -0.013113416 0.015724935 -0.022640573 -0.050630823 -0.04275712 0.045428194 -0.055121567 -0.009210991 0.038980406 0.029765315 0.025912572 -0.007334944 0.071485944 -0.0051131053
개 -0.037832525 -0.024883134 0.0053894334 0.026786046 0.007119614 -0.03397348 0.025585644 0.0030126858 0.041518565 -0.0628733 0.009324113 0.049352035 -0.01279063 0.04976059 -0.014756423 0.007971446
남 0.021755446 0.035240177 0.015051404 -0.05029892 -0.024547813 -0.044815022 0.032463863 0.004145446 0.008493001 -0.02920669 0.0017921933 0.04940937 0.06132144 0.005511151 -0.013712611 0.006220113
정도 -0.006882329 -0.036486484 0.03329807 0.058601037 -0.0489448 0.011663931 -0.0100329295 0.0050332835 -0.061488677 -0.03183652 0.01911379 0.03011321 0.0036732494 0.07107123 -0.13599688 0.0065996237
마지막 0.06334707 0.024008939 0.043823652 0.032276597 0.07736043 0.07987811 0.06818901 0.04775481 0.004110838 0.057029974 0.010919961 -0.056570347 -0.019121608 0.0015967572 0.025800271 0.021922978
끝 -0.005341193 -0.008402202 0.033372723 -0.001997694 -0.013246781 -0.05330312 -0.014260539 -0.011968173 0.011622521 -0.062900655 -0.041229237 0.0714092 0.004822935 0.07734245 0.010714403 -0.07488491
이건 -0.120693125 -0.0046062786 -0.116409376 -0.03941952 -0.09091492 -0.12385898 -0.21476099 0.015473957 0.011252818 -0.0151086375 -0.0026182064 0.021357697 -0.10312447 0.053350113 -0.13997781 -0.008322602
액션 0.03617394 -0.027039364 -0.018707309 0.03477729 0.040063314 -0.013910647 -0.017805606 0.03842888 -0.04760866 0.03895823 0.013376929 -0.03412267 -0.025248088 -0.031459983 -0.0024509511 0.063555464
임 0.017721917 0.047608156 0.012337079 -0.06077914 -0.011016339 0.024190344 -0.0036733965 -0.024195239 -0.0151589755 -0.0007837361 0.049718533 0.05114901 -0.019235807 -0.024532676 0.014899607 -0.010460577
ㅋ -0.023083441 0.0706665 -0.046996575 -0.02427788 0.04158841 0.01168062 0.010987777 -0.040649172 0.0075343703 0.048800383 0.004687936 0.00048312137 0.07789472 -0.08510254 0.045775637 0.0328783
3 0.014757657 -0.044153173 0.009989862 0.021226786 -0.07641972 0.004853208 -0.007785068 -0.021760117 0.06728596 0.006500096 -0.040169742 0.055086516 -0.06579282 0.07365903 -0.04189004 0.023030551
기대 -0.0021441418 0.060023617 -0.051247343 -0.07269047 0.009458602 0.046709016 -0.04055652 -0.050023146 -0.04367737 0.07672029 -0.020980246 0.03890002 0.06996437 -0.13600105 0.08004022 0.01476361
입니다 0.014757693 0.08035722 0.049806617 0.028086096 0.05131098 0.017782785 0.11830432 -0.030058432 -0.005846183 0.013748264 -0.010110195 -0.060421795 0.04524277 0.026967345 0.002401628 0.09781693
건 -0.044417698 -0.044682365 -0.036025196 -0.03625044 0.0010729791 -0.015336191 -0.05720544 -0.019750286 0.0033015239 -0.04911244 -0.045377064 -0.018558677 0.01785872 0.015635537 -0.05197778 -0.037024084
라는 -0.011169114 -0.066953175 0.06351126 -0.03549278 0.025318058 0.020674815 0.046607465 -0.02105923 0.047060896 -0.03653624 0.0137468055 0.035069514 -0.045214333 0.037702914 -0.047914445 -0.02404222
분 -0.045716982 -0.09433066 -0.023836397 -0.02601635 -0.041673906 -0.013748162 -0.04236006 -0.043481156 0.09682271 -0.0094948085 -0.032091394 0.008273247 -0.012211339 0.02742009 -0.043095835 -0.1077945
완전 0.013238607 0.059989274 0.00871344 -0.0023681363 -0.013080865 0.0389308 -0.05941759 0.022988405 -0.024468603 0.03479368 0.035131734 -0.020638281 0.04203059 -0.021784114 -0.07358345 0.05185247
다는 -0.006989433 -0.032593638 -0.030636856 0.02403096 -0.063362874 -0.014096945 -0.041867573 -0.0010319018 -0.025651343 -0.00084334187 -0.018226137 0.035082832 -0.022570275 0.026779993 -0.05189096 -0.026189944
참 -0.03056814 -0.011140044 0.061713606 -0.018283319 -0.041397125 -0.032795224 0.011546947 -0.01980905 0.04465994 -0.026156828 0.015928121 0.059066556 -0.064611845 0.045065545 -0.01718624 0.007923992
많 0.090555586 -0.07979161 0.056473583 0.081206106 0.0054889503 0.054407906 0.071205266 0.050972734 -0.0016893005 0.029889673 -0.0057350816 -0.016195498 -0.007782797 0.07747222 -0.04235282 0.05516586
처음 0.004053595 -0.06418216 0.08207942 -0.020786483 0.0064973393 -0.051487125 0.061735768 -0.021200316 0.009356002 0.017576743 -0.047068194 -0.034093544 -0.082201414 0.2016934 -0.082770444 0.010838645
장면 0.01975512 -0.050511964 -0.008176593 -0.007975083 -0.0064199246 0.04250597 -0.078466825 -0.022620816 -0.010475897 -0.02968499 0.024372188 -0.00080049166 -0.0102405185 -0.006006118 -0.027384426 0.05127485
대 -0.057382602 -0.040578272 -0.032319263 -0.042608544 0.014330304 0.04939659 -0.060056083 0.027680775 -0.07373966 0.060792245 -0.01497145 0.022727955 0.074453495 -0.061023373 -0.0231543 0.024061583
아깝 -0.05509984 -0.04331353 0.0005446381 -0.07131128 -0.10632842 -0.091027595 -0.065907426 -0.17791183 0.112295456 -0.16012146 -0.02066565 0.074049786 -0.04456269 0.12229276 -0.15247233 -0.0264831
다가 -0.0041633327 -0.06638803 -0.048575435 0.0059006587 -0.029436603 -0.06495567 -0.068291076 -0.050443895 0.04342026 -0.016729316 -0.06352919 0.0065535884 -0.01618457 0.068991505 0.018023044 -0.014878956
으면 -0.038124453 -0.03610352 -0.027873838 0.007994283 -0.025557412 -0.010126699 -0.031322118 0.009223759 -0.009084636 0.036542267 -0.07464912 0.00360422 -0.017294303 -0.007962638 0.024138108 0.018417342
지금 0.04060924 0.03307351 0.06605106 0.012355573 0.0067217685 -0.0118571315 -0.011373519 0.04295079 -0.091288075 0.019636247 0.03238365 -0.04991574 0.0133298915 -0.07990304 0.044523373 0.068380006
모르 0.018195385 -0.06379507 0.05494377 0.052583426 0.01461621 -0.005750241 0.0015501373 0.09610029 -0.04299396 0.055800796 -0.008339375 -0.011078987 0.010022849 0.037919555 -0.04085936 0.002143536
이렇게 -0.04014328 0.09522176 -0.04542443 -0.042386506 0.003198074 -0.008111126 -0.006191854 -0.034374673 -0.06186189 0.058272917 0.081295416 0.046701577 0.022338033 -0.14588787 0.041504644 0.0049779057
' 0.0035608255 0.015103994 0.038315408 -0.01074365 0.014919574 0.006985365 -0.055732165 -0.009057953 -0.055560317 -0.02025069 -0.0006753224 -0.033320908 -0.017640244 0.03715164 -0.06281469 -0.0023947014
편 0.053606868 0.018723346 0.04234471 0.056336354 0.06719499 -0.0032271652 0.04187171 0.009662327 0.020553226 -0.0011267856 0.07802934 0.018638512 0.028651671 -0.059571892 0.0046612527 -0.0072563514
일 -0.037655253 -0.09583917 -0.008223216 0.038026504 0.00069772557 -0.012943242 -0.045806658 0.08003241 0.014197763 -0.027077205 0.025680507 -0.0026983512 -0.019284107 0.10320806 -0.018200245 -0.0016650645
돈 -0.10706056 -0.13582988 -0.044831518 -0.1128265 -0.07961307 -0.08449962 -0.070842415 -0.10977957 0.10867505 -0.094695 -0.12634651 0.10478572 -0.04359804 0.13923144 -0.11292504 -0.10000208
이게 -0.013844046 -0.050134204 0.0063880323 -0.022804715 -0.046437684 0.012245788 -0.035826545 -0.048987918 -0.0037135151 -0.0026160784 -0.08097922 0.040644925 -0.10682519 -0.019057326 0.0034306047 -0.00054776215
성 -0.010705056 0.016898565 -0.028900137 -0.008654517 -0.020229261 0.012981704 -0.07804169 -0.025326919 0.016966773 -0.02834049 -0.027377335 -0.0052287793 0.010017633 -0.0368746 0.009797917 0.016175639
느낌 0.038422633 -0.042183932 0.012495019 -0.024682958 -0.0050278595 0.032765836 0.044925295 -0.048183545 0.0053083543 -0.06391413 -0.006120344 0.06830563 -0.071436405 0.10375456 0.00818274 0.005508872
시 0.012341555 0.045603435 -0.04301395 0.036064986 -0.04815649 -0.0048988597 0.042313863 -0.0062175114 0.03303938 0.023026126 -0.014189521 -0.028424269 0.029529413 -0.014740762 -0.016375605 -0.0151249245
이야기 -0.015865114 0.041929636 0.031249486 0.012178645 0.04049108 0.054215167 -0.016072853 -0.017218377 -0.08630312 -0.0057220194 0.007484858 -0.006677289 0.033106197 0.013965047 -0.0063752 0.048186313
최악 -0.35728085 -0.19239886 -0.49581107 -0.39893457 -0.30159867 -0.40433913 -0.33321077 -0.46179345 0.30453444 -0.3647483 -0.3946169 0.32118434 -0.2056747 0.17413603 -0.41002336 -0.3556189
된 -0.026010582 0.04624344 -0.011659039 -0.03343675 0.06527198 0.02633645 -0.028908132 -0.034489065 -0.03445626 -0.0040994813 -0.00075627153 -0.056731805 0.051119983 -0.09462062 0.07631633 -0.008318762
봐도 0.05264 0.07970469 0.044678945 0.055313986 0.0028764051 0.026368251 0.113517486 0.0047205607 -0.01164445 0.06416495 0.088675074 -0.07883779 0.02404262 0.055971228 -0.060952324 0.09026793
님 0.04085794 0.0152801825 -0.046054773 0.018365469 0.0046070265 0.062239192 0.08474584 0.02701986 0.035913542 0.023547288 0.048033647 0.025002751 0.06479639 -0.07268635 0.104867615 -0.026764717
어서 0.05116787 -0.014844142 0.030210098 0.039646503 0.013010165 -0.02520633 0.019318203 0.01538644 0.05848125 0.01010631 -0.028630918 0.019678462 -0.023115575 0.10147085 -0.037599754 -0.028111383
애 -0.05203561 -0.022091864 -0.06551892 -0.0012200822 -0.0825023 -0.014943751 -0.0051411134 -0.0069661755 0.02574175 0.0037422257 -0.055054132 0.046455864 -0.015758723 0.004082691 0.04290855 -0.00443887
전 0.061820794 -0.053595845 0.014639295 0.011156513 0.07284767 0.04112521 0.05815542 0.03050249 0.06421216 0.028154764 -0.041874774 -0.023935173 -0.015030729 -0.0018682865 0.04327357 -0.026157923
넘 0.04560767 0.08075108 0.02243586 -0.036186848 0.026484853 0.049699184 0.006780278 -0.026750227 -0.0005662461 0.0051929373 0.0074785696 -0.0036281687 0.022430114 -0.035168957 0.011497595 0.046660412
ㅠㅠ 0.05913897 0.052098908 -0.009870333 0.044514608 0.020819087 0.037128657 0.087367065 0.01680013 0.0020029 0.041964613 -0.013233424 -0.019843124 0.06017205 -0.02110249 0.05499523 0.050629914
인데 -0.0024405257 -0.057744138 0.06569116 -0.023252994 0.016769603 -0.017186752 -0.04201663 0.0045839944 -0.015265228 -0.040434636 0.018705253 -0.013086393 -0.08382274 0.071869366 -0.08901184 -0.027039573
다고 -0.019121632 -0.19754797 -0.12355835 -0.016193967 -0.054443892 -0.036804292 -0.070948 0.07826153 -0.03559968 -0.01680927 -0.08165451 -0.0035128752 -0.100008816 -0.01947951 0.02780165 0.0015291092
이해 0.027985299 0.0023791476 -0.0016721664 -0.003701334 0.05098155 -0.012091847 -0.0032461323 -0.018901203 0.0020953426 -0.017426362 0.057418622 0.013582917 0.019774387 -0.06192351 0.05043687 0.048789468
별로 -0.17460799 -0.31582493 -0.11595225 -0.11522533 -0.13579327 -0.22376327 -0.15436931 -0.14037974 0.15714687 -0.17738867 -0.18468693 0.09369803 -0.30228806 0.30497614 -0.2254326 -0.15610717
그리고 0.043203223 0.089867614 -0.011998898 -0.03225896 -0.023113454 0.07180293 0.00045961438 0.013405712 -0.07931019 0.056533433 0.07068196 -0.053513743 0.064952336 -0.16616549 0.017387645 0.008204362
명작 0.12715524 0.10705713 0.097401306 0.15136524 0.11925026 0.13257772 0.18068048 0.08997336 -0.13469975 0.1898586 0.10504968 -0.12669498 0.098059714 -0.1574027 0.20118852 0.16303189
여자 -0.064023376 -0.046998467 -0.01445468 -0.07977066 0.0139607005 -0.0039200475 0.039520588 -0.05923055 -0.0038848107 -0.049603507 -0.06660731 0.0039357073 -0.021024384 -0.038555138 0.0054017087 -0.015583708
^^ 0.09356061 0.024349496 0.012477646 0.046920918 0.06056842 0.057582814 0.062004637 0.03180732 -0.035746638 0.018940749 0.023602804 -0.05871428 0.010235939 -0.08295362 0.019798921 0.08531947
역시 0.0018703565 0.07024394 0.041364778 0.0196584 -0.002451211 0.076140784 0.024620514 -0.001371883 -0.07512364 0.09342073 0.036619082 -0.051130842 0.0931835 -0.12522039 0.049084537 0.06742005
난 0.07477746 -0.032813583 0.09354909 0.08220677 0.054578193 0.025595635 0.031478748 0.06430245 -0.009975706 -0.0005753645 -0.01346231 -0.06311147 -0.073963195 0.061982978 0.016487576 -0.009801907
이상 0.024329014 -0.032360595 0.055046543 0.017645182 -0.042165738 0.031989925 -0.008138807 -0.021371502 -0.007014444 -0.009709581 0.046173796 0.0055897105 -0.04825162 0.03595869 -0.013984658 -0.009973609
또 -0.0038995685 0.06291257 0.044746075 0.037740488 0.053280767 0.045843367 0.059115525 0.024608387 -0.06693594 0.05033368 -0.013326831 -0.04701079 0.013037505 0.011729263 0.05318431 0.0807971
걸 -0.020052738 -0.04681697 0.00711197 -0.049640972 0.019159475 -0.050213885 0.01586926 -0.022362268 -0.040166274 -0.015074904 -0.022985207 0.035881095 0.023998594 0.0066553275 0.016103402 -0.0828537
한국 0.027506964 0.014421696 -0.017225299 0.058494553 0.026071854 0.038969483 0.09926642 0.04192015 0.0067791045 -0.03445244 -0.033730406 -0.0134301605 -0.046201687 0.05177149 0.08157397 0.035984136
는지 0.011772403 -0.07670828 -0.039387137 -0.058837857 -0.011709722 -0.06844432 -0.0028762522 -0.026009703 0.028506912 -0.044535458 -0.06485784 0.013916154 -0.02893489 0.0427241 -0.06719619 -0.043555193
많이 -0.023267766 -0.0030247427 0.0074126166 -0.019607054 -0.028593903 0.040483054 -0.030633068 -0.046550144 0.00937717 0.04893327 -0.015132407 -0.01990971 0.028823793 -0.050415166 0.03980042 -0.01367739
에게 0.018798303 0.028239198 0.04104452 0.011638434 0.009153525 0.031244125 0.061719876 -0.050740283 -0.023117937 0.010715907 0.017390689 0.018205395 -0.0011163882 0.008386014 0.018800495 0.04300002
부터 -0.06748982 -0.04137171 -0.025364125 -0.045046084 -0.032019623 0.019702531 -0.0020853162 0.039121754 -0.023509333 0.0138166705 -0.029152809 -0.009053478 -0.05687788 0.101307616 -0.059713103 -0.038948845
만든 -0.0019945279 0.024855651 -0.00053531525 -0.007277226 0.0044909487 0.048431914 -0.020036155 -0.00546106 0.018389545 0.027590578 0.02439982 0.033121873 0.0027655358 -0.051882673 0.04071193 -0.03125247
주인공 -0.045991212 -0.032868907 -0.034250464 0.022216484 -0.034168176 -0.007927164 0.007203626 -0.072963655 -0.018278208 0.03828969 -0.032981854 -0.022016883 -0.046386816 -0.008217834 -0.011763524 -0.045797367
받 -0.016614722 0.025132177 -0.009060311 0.0022468267 -0.039990768 -0.004765009 -0.0023624038 0.03912268 -0.05687772 -0.001597865 0.060816325 -0.01593406 -0.010582917 0.005379351 -0.04008166 0.015986132
합니다 0.056007344 0.017939609 0.068636015 0.08048081 0.024824783 -0.024119373 -0.021761931 0.042401128 -0.07582487 0.028826825 -0.02669251 -0.009805243 0.02912313 -0.014720159 0.053351086 0.0419059
우리 0.06681043 -0.015899923 0.12568933 0.041672602 0.053242538 0.07851226 0.08789591 0.061516248 -0.030500555 0.055218745 -0.027106233 -0.11303423 -0.0061697476 0.0148822665 0.10702767 0.012472556
두 -0.0048101535 -0.036946487 -0.019955045 0.02141295 0.02483022 -0.011200872 -0.012876483 0.052546628 -0.0049148635 0.0563924 -0.018900048 -0.06462711 -0.011080494 -0.03456136 0.021827029 0.0025947792
살 0.03593356 0.08251978 -0.012983487 -0.0054825675 -0.026151199 -0.018598396 -0.03503815 -0.039538376 -0.047875255 0.012443782 0.08573678 -0.025098003 0.112886295 -0.071336776 0.043644883 0.00072583056
!! -0.031632505 0.022848692 -0.12153545 -0.0041898354 0.00089042285 -0.0009065677 0.011874506 -0.042986915 -0.027397705 0.032595694 0.06750073 0.0012248149 0.012696459 -0.0032745567 0.054411646 -0.01826888
길 0.03193383 0.015441155 0.017706793 -0.043454234 -0.039193638 -0.048694834 0.017658828 -0.001435378 -0.0025532874 0.010595293 -0.02908323 0.034785856 -0.011004623 -0.036168482 0.07674948 0.018947471
엔 -0.012299166 -0.05124975 0.0020294073 0.017826444 0.049556483 0.024637923 0.03867541 0.038544055 0.080747575 -0.012475039 -0.06597999 -0.019415276 -0.056512747 0.12960444 0.00021422777 -0.06851498
괜찮 0.06474736 0.14434397 0.07298865 0.03412954 0.051172934 0.06506458 0.054084428 0.105867736 -0.09263172 0.076759905 0.094449975 -0.0647849 0.12970862 -0.10752014 0.1155031 0.08165423
기억 0.00944365 0.080648564 -0.0061443406 0.05073593 0.068130255 -0.00087817095 -0.008646734 0.021801505 -0.04067565 0.08508402 0.078625314 -0.061272264 0.05571666 -0.06550779 0.049587548 0.013323264
연출 0.039515905 -0.023004312 0.02717635 -0.0020568008 -0.01637814 0.008042758 -0.0062327827 -0.06313856 0.07714578 -0.01651967 -0.04281304 -0.012017727 -0.033644088 0.04563064 0.07550499 0.023741573
한다 0.024312222 -0.057456188 0.027945297 0.011243875 0.024558023 0.03454688 0.040067565 0.003921597 0.026872711 -0.010382268 0.0071752337 -0.0219051 -0.02052668 0.0105860485 -0.0200474 0.09096487
때문 -0.029880611 0.013749048 -0.018399421 -0.029691938 0.045837063 0.024449993 0.021569448 -0.04253391 0.0047362973 0.018976333 0.044853713 -0.017086439 0.05930809 -0.05246596 0.016281208 -0.035144236
이나 -0.00522793 -0.04548809 0.030647703 -0.044165853 0.0315987 0.0043864907 0.022634408 -0.041468177 0.06299541 -0.039673254 -0.066474944 0.055617474 -0.05858324 0.05080524 0.04180151 -0.081355326
ㅎㅎ 0.05630074 0.0334778 0.019263055 0.06119282 0.12248615 0.11548599 0.13466415 0.00016434185 0.010301288 0.120707236 0.08192798 -0.013960708 0.04085796 -0.07743637 0.06922796 0.061303314
요 -0.004025236 0.08570696 0.044697344 -0.005878217 0.043363098 0.0422486 0.042305287 -0.005931856 -0.0091060735 0.014006868 -0.0016188363 -0.024307784 0.04400612 -0.048316468 0.016221968 0.0056076115
저 0.05336279 -0.03473296 0.02534945 0.041565 0.016218347 -0.019843176 0.04074895 0.11878296 0.014884587 -0.033746276 -0.0012813892 -0.065652676 -0.08042126 0.08211761 -0.05305569 0.021291068
재 0.04407648 0.09850139 0.028922204 0.09456049 0.031694863 0.025742862 0.12238782 0.024365604 -0.033626445 0.049776584 0.03556518 -0.048475206 0.037843585 -0.030187342 0.019244257 0.019627465
꼭 0.12861827 0.05246613 0.06497291 0.12829779 0.061678786 0.08160612 0.097307205 0.082764484 -0.09562775 0.03499505 0.09079778 -0.057461713 0.09148111 -0.07607431 0.030449538 0.082673214
랑 -0.05675509 -0.0067029735 -0.053601984 -0.051467936 0.0028190005 -0.028888434 -0.010002622 0.019089136 -0.038185116 0.002499512 0.03224579 0.05391636 0.029679105 -0.070230715 -0.010676937 -0.03188244
며 -0.011693693 0.0032191344 -0.01445336 -0.018943518 0.057668187 -0.0070708683 1.3742174e-05 -0.038045857 -0.075258724 0.06400031 0.029443268 0.03525407 0.04985455 0.027286772 0.04273038 0.02369333
현실 0.09548096 -0.0078020785 0.05939957 0.10466015 0.09418447 0.08477383 0.05495008 0.05788719 -0.069227055 0.041466866 0.020475948 -0.045697816 -0.019741526 -0.058414947 0.04246946 0.045804307
긴 -0.043238554 -0.1441826 -0.0049613877 0.019520048 -0.020808276 0.005713678 -0.10562958 0.019117968 0.01267202 0.03396235 -0.09395036 -0.016048165 -0.1026451 0.115527794 0.029196758 -0.02792416
ㅡㅡ -0.03628961 -0.07576569 0.062014487 -0.11663266 -0.053486343 -0.1072923 -0.063575335 -0.08221173 0.12341365 -0.114524916 -0.07569873 0.09047951 -0.062757954 0.07761653 -0.101652965 -0.07838628
무슨 -0.045857795 -0.053291287 -0.10175292 -0.04730388 -0.07880032 -0.09364579 -0.09768271 -0.092623346 0.029074945 -0.11054936 -0.10073507 0.12249366 -0.034553636 0.07614345 -0.07524749 -0.029937526
내내 0.012108404 0.08596478 0.01584956 -0.055302944 0.014701901 -0.034369007 -0.015887441 0.016839076 -0.04027477 0.031784292 0.029924197 0.013114898 -0.001316306 0.017508846 -0.0020861244 0.02543144
결말 0.023696862 -0.029172562 0.09225802 0.04582714 0.017048173 0.022031106 -0.0139075015 -0.01118929 0.049466625 -0.05515443 0.023767533 -0.012270034 -0.037458014 0.035343464 0.010085084 0.017777732
죽 -0.03691331 0.021563979 -0.026959486 0.044287838 -0.010742674 0.0070196157 0.066358075 -0.004232056 -0.0004946423 -0.044196215 -0.015449616 -0.024038142 0.010661125 -0.037766475 0.05230033 -0.024213117
남자 -0.026670337 0.025820179 0.030811585 0.03148533 -0.016988935 0.037898682 -0.015771901 -0.018782249 -0.016041335 -0.032518514 -0.020301739 -0.05944456 -0.005183306 -0.06316571 0.041437548 0.0010062166
세요 -0.0013100407 -0.029153964 0.02014129 -0.029613106 0.044767827 0.0050939647 0.014469806 0.0143213095 0.04026896 0.002457686 -0.04995146 -0.047410417 -0.028613254 -0.037240345 0.022405053 0.032794137
전개 -0.08716965 -0.036410592 -0.07125837 -0.01870719 -0.044607945 -0.055959597 -0.08477833 -0.025772374 0.036039814 0.0029763193 -0.0013828444 0.028080683 0.015495792 -0.03343709 -0.06292773 -0.043174155
마음 0.07555845 0.06754042 0.13975334 0.10080215 0.026645757 0.06069274 0.10600604 0.038431473 -0.10800373 0.0051086736 0.032232765 -0.06339875 0.009020427 -0.020939868 0.014434618 0.039045658
소재 -0.09002854 -0.054154254 -0.06446214 -0.05195699 -0.057287473 -0.037333474 -0.11517797 -0.02699036 -0.01982109 -0.0533755 -0.050370354 0.06419261 -0.030281032 0.09808262 -0.076371394 -0.02855281
속 -0.025841188 -0.012430271 0.009178794 -0.010366631 0.041561503 -0.024806138 0.014399381 -0.037758436 0.048449975 0.026535101 -0.042310357 -0.05680158 -0.0054852827 0.00330683 0.04831933 0.030508384
공포 0.019208813 0.0013928929 -0.02110419 -0.03142464 0.026276082 -0.06777154 -0.059165597 -0.07894095 0.03567836 -0.040793292 -0.0028884541 0.023455298 -0.0174994 0.05679403 0.046081863 -0.06243352
아서 -0.023221351 -0.030529203 0.04879743 0.014782769 0.048644617 -0.0525955 -0.017276173 -0.012338715 -0.026696933 0.013744362 0.022183357 0.027566941 -0.014990938 0.06699468 -0.052580874 -0.027689554
다른 -0.021238275 0.0008599881 0.067818746 -0.009155703 0.010931165 0.016620727 -0.013311683 -0.016636165 -0.06552287 -0.020750923 0.027111884 0.0062516388 -0.016343905 0.0056173047 -0.038008798 0.0070781177
씨 -0.026128123 0.0031697217 0.058258966 -0.03386723 -0.016559599 0.037325058 0.008247555 -0.0769805 0.04654037 -0.04734548 0.023247687 -0.0024044882 0.0394046 0.0076601105 -0.046468765 -0.022070969
인생 0.021599947 0.011994763 0.0936421 0.052363336 0.0010573355 0.04344178 0.012682646 0.12618431 -0.02484631 0.12058301 0.019432543 -0.05478274 0.026431948 -0.027154041 0.040689968 0.08986751
~~ -0.015175632 0.049383968 -0.03689622 0.0047176983 -0.015367693 0.060498036 0.06270859 -0.017468462 -0.023311844 0.057169277 -0.035373144 0.018074451 0.009758489 -0.011321917 0.04710404 0.032330718
짜증 -0.13942522 -0.09185298 -0.13822448 -0.13633813 -0.086801685 -0.13917594 -0.124507874 -0.18450873 0.09705282 -0.10898232 -0.17141306 0.1051841 -0.114753485 0.14395705 -0.14651522 -0.14521788
짱 0.11918207 0.19207974 0.06772313 0.031891372 0.08549032 0.12986237 0.1321989 0.03746055 -0.075985834 0.14611799 0.0782063 -0.059293807 0.100505695 -0.15703315 0.17120016 0.12126008
뿐 -0.036057863 -0.03317864 -0.025995666 -0.0013758661 -0.10565991 -0.01736696 -0.056961074 -0.014801782 0.057389818 -0.03688523 -0.06643782 0.0847303 -0.035990484 0.059125356 -0.10067444 -0.07552105
은데 0.024187153 -0.0031848827 -0.045320395 -0.038646568 0.03071023 -0.022441586 -0.05190656 0.06935218 -0.05008769 0.0077068848 0.04150413 0.031944346 0.048829358 0.0077618933 0.025797496 0.014628216
별 -0.014723367 -0.029762639 0.012231983 0.017053053 0.019590136 -0.041130118 -0.029061219 -0.0010335838 0.044880677 -0.0702529 0.000109611574 0.061557434 -0.097518586 0.098580964 -0.00014866522 0.0120926555
아요 0.061686434 0.015094488 0.005922341 0.053509 -0.004256403 0.056403838 0.059117917 0.032541595 -0.045574408 0.048350863 -0.007012834 -0.005629299 -0.02697262 -0.037864253 0.05617434 0.026170453
유치 -0.13808483 -0.20005862 -0.10633803 -0.13093483 -0.07110878 -0.11799309 -0.116222024 -0.042224977 0.1273805 -0.1570725 -0.11121903 0.12915546 -0.14251214 0.23456442 -0.16796562 -0.07218961
가장 -0.00935237 0.02500795 0.09132218 0.03815842 0.03653542 0.024463031 -0.004326537 -0.0064517404 0.046810698 -0.055552587 -0.036857985 -0.011290866 -0.02534834 0.092476845 -0.054544054 -0.012788661
필요 0.050800636 0.058736388 0.13219598 0.132223 -0.009495598 0.11182738 0.14182334 0.098965675 -0.17969017 0.11889732 0.103480674 -0.07170151 0.18894789 -0.08480881 -0.0012438563 0.097922266
음악 0.07597065 0.019632638 0.081160694 0.038947523 0.056351863 0.037073907 -0.009897309 0.064012095 -0.052934214 0.094696105 -0.008679157 -0.05031137 -0.013774468 0.0623029 0.049351025 0.017724875
) 0.0075414274 0.0016376642 0.022147505 0.024607854 0.057571538 -0.029961884 0.06056666 -0.0156849 -0.023869945 0.0019654126 0.018201359 -0.037560485 0.073464066 0.0101053575 0.072226614 -0.03321501
일본 0.020162163 -0.04963645 0.031914227 -0.05494573 0.023544399 -0.03171108 -0.009625928 -0.0520883 0.048824765 -0.058479026 -0.06549613 -0.00053793716 -0.06995277 0.09902631 0.030276516 -0.014880195
낮 0.12056467 0.0018792466 0.18757394 0.13024388 0.071949884 0.109289974 0.12311233 0.13960643 -0.054490466 0.14163424 0.050209805 -0.12664863 0.05683251 -0.05935171 0.09201665 0.14906502
아이 0.00529124 0.0037368662 -0.016966233 0.050543763 -0.032131523 0.006154387 0.083276235 0.024267111 0.011718705 0.003112394 0.038229924 -0.024644794 0.07826845 -0.007815845 0.010511071 -0.029255774
;; -0.03219069 0.0105111245 0.018257227 -0.011970855 -0.04669099 -0.040774636 0.0032861298 0.017449241 0.065578274 -0.052448906 -0.04562321 0.02228202 -0.038140953 0.0219133 -0.014133788 -0.052720554
오 0.01941735 0.028559068 0.07041623 0.034177072 0.047451574 -0.017312175 0.06745749 -0.018263787 0.03247315 0.009777682 -0.020026358 -0.0051056957 0.043072797 -0.0023914268 0.01799197 0.028801747
반전 0.004120703 -0.006458073 0.05323314 0.033968575 0.017312815 0.03682679 0.027210005 -0.012635532 -0.09357109 0.035861343 0.036971994 0.017048372 0.05913868 -0.038479913 0.06370129 -0.0024901105
수준 -0.090102166 -0.07981435 -0.08241253 -0.082317986 -0.1022723 -0.09271455 -0.103447445 -0.0735862 0.06144334 -0.07098037 -0.07137788 0.07940968 -0.0510377 0.02239501 -0.05184562 -0.08669139
다니 0.04928793 -0.015931932 0.034663003 -0.01671802 -0.03615189 0.0069704126 0.018763967 0.05583811 -0.02683506 -0.021097494 6.28992e-07 0.039105594 -0.009427972 0.001752495 -0.0449425 -0.035935067
웃 0.061654825 0.050593227 -0.010857776 0.07057918 0.057744198 0.071550064 0.03411264 -0.022579586 0.027079245 -0.006241946 0.038807437 -0.020301314 -0.03984684 0.00088305096 0.026311923 0.053530343
매력 0.019257756 0.0740117 0.027618976 0.04956481 0.13236876 0.061114684 -0.029251274 0.034886234 -0.053250577 0.08125736 0.05567929 -0.101476185 0.08275311 -0.19477272 0.13600454 0.070208445
맞 -0.03534696 0.019190067 -0.09055203 -0.088705175 -0.012178403 -0.071780816 -0.045344103 -0.006064586 -0.012323696 -0.01873574 -0.036506444 0.0636917 0.001246157 -0.08714913 0.031106194 -0.027129252
인지 -0.041012194 -0.0002845269 0.025867226 -0.037571497 -0.039567847 -0.039766002 0.03704982 0.011576827 0.08349229 -0.009363058 -0.034995902 0.0096138865 -0.0431587 0.021229897 -0.06992047 -0.06727572
가슴 0.03239195 0.1475537 0.06682123 0.09438101 0.037110373 0.06329103 0.053731017 0.044105332 -0.018436776 0.0944111 0.037754297 -0.09908272 0.09604483 -0.04633705 0.07623136 0.122133635
없이 -0.02410997 -0.16570169 -0.018037785 0.016172986 0.052645873 -0.030584788 -0.027167695 0.053505667 -0.026967848 0.013622026 -0.029618714 -0.025337055 -0.16121545 0.080375634 0.033237595 0.042760648
원작 -0.0068710167 -0.07467979 -0.036779016 -0.03530231 -0.020395283 -0.010788595 -0.0038184044 -0.045260016 0.117723785 -0.037151825 -0.11759563 0.015089979 -0.13333614 0.056118116 -0.05739334 -0.07019936
ㄷ 0.028262237 -0.035168655 0.027758297 0.001196925 0.0028779153 0.0042876974 0.056698993 0.042776365 -0.041436996 0.038351174 0.042723045 0.019299787 -0.041990876 0.050566934 -0.0042088386 0.04738925
인간 0.024322247 -0.06781412 0.07235107 0.062156282 0.00027499994 0.08366396 0.028625607 0.0783083 -0.069791175 0.042704407 0.04235082 -0.08234043 -0.014878779 0.039785918 0.02670527 0.022725508
데 -0.01607938 0.012471393 0.014877927 -0.040612713 -0.055502873 -0.01236884 -0.05451095 0.022835353 0.000942991 0.04491485 -0.003137854 0.008448379 -0.006403411 -0.06556911 -0.00767994 0.017620927
굿 0.12954444 0.08584551 0.146539 0.18525068 0.0720659 0.119306244 0.13944367 0.13907275 -0.100550845 0.18981364 0.090268515 -0.18379855 0.13217653 -0.060161408 0.1895294 0.14514504
ㅠ 0.003753097 0.036984615 0.039965395 0.008323588 -0.010041504 -0.016411418 0.004437018 -0.025587285 -0.032564852 0.03747281 0.0276853 -0.055321597 0.051190905 -0.024796205 0.03507906 0.03684152
높 -0.08467291 -0.07432533 -0.05664198 -0.099220954 -0.10426939 -0.013083578 -0.12521505 -0.0197337 0.066299245 -0.08574657 -0.016088111 0.08921769 -0.034510978 -0.016940234 -0.011003737 -0.10640737
밋 0.09651534 -0.0013946004 0.04411248 0.08800825 0.02265552 0.046691623 0.014654164 0.10756582 -0.08008929 0.040756 0.09092428 -0.09285368 -0.018753316 0.01832437 -0.028307812 0.073054425
( -0.019730281 0.019260202 -0.0043919827 0.016802862 0.03225864 -0.0048527108 0.045723684 -0.05334148 0.073399246 -0.05010487 -0.08201497 0.028689055 -0.056031015 0.044282865 0.03113005 -0.017990364
만드 -0.017455606 0.0010043305 -0.029823901 -0.0006348181 0.004579853 0.0043210257 -0.044841424 -0.04722707 -0.010434143 -0.028723517 0.0006219211 0.051542155 -0.018781288 0.026725022 0.0070010917 0.050868973
급 0.012065349 -0.04849654 0.043234248 -0.028386403 -0.04850223 0.010914646 0.0121780485 0.0004902282 0.057542007 0.020938633 -0.0007676597 0.03234338 -0.02308521 0.12511083 -0.033415396 0.013297038
눈물 0.09847467 0.18196753 0.13645001 0.12746432 0.11903503 0.14734139 0.10425331 0.06712356 -0.13065644 0.07517302 0.07184487 -0.07378766 0.1626766 -0.17009732 0.118007205 0.15049419
보여 -0.004327688 -0.00054548576 0.0054589356 -0.014881365 -0.01324485 0.03464388 -0.00032630883 0.0021377476 -0.037802424 -0.017300438 0.031859573 0.014957341 -0.047918763 0.029134803 -0.007936262 0.03591194
준 0.0016258523 0.03687957 -0.05060908 0.0047872504 0.007212621 0.0052423864 0.023621377 0.037508078 0.05045812 0.019391334 0.007196694 -0.0074616764 0.047551583 -0.015296678 0.021360554 -0.008938055
찍 -0.03671284 0.03662492 -0.0078773 -0.066134386 -0.013990389 -0.026025146 -0.07762878 -0.10703124 0.04765793 -0.070801966 -0.072437696 0.025003988 0.008250746 -0.033006486 0.0019988231 -0.07620578
인가 0.020271696 -0.064520694 0.0018963668 0.03252559 -0.025045533 -0.017678564 -0.036879912 -0.0191127 -0.0033396287 -0.0025312265 -0.045353543 0.023743637 -0.04936494 0.011781798 -0.025032926 0.016226064
노 -0.22226638 -0.1392931 -0.20582438 -0.17073016 -0.2211905 -0.20846836 -0.20024718 -0.18875605 0.24367039 -0.18619761 -0.22666211 0.17765832 -0.15542445 0.13446756 -0.120538175 -0.22801377
을까 -0.03213199 -0.03812729 -0.05543923 -0.036650598 0.03523065 -0.020312702 -0.024656793 -0.052916538 -0.028761243 -0.018342083 -0.011793757 0.012421173 0.046908602 -0.052010443 0.0012900871 -0.0006147159
용 -0.027306557 0.04345474 -0.019538999 -0.012551874 -0.011857691 -0.011652454 -0.044774357 -0.033838473 0.06043447 0.015576134 -0.04691982 0.00021388219 -0.058736116 0.013888233 0.03679324 -0.017015407
코미디 -0.028619198 -0.023109091 -0.011738869 -0.029762808 -2.777456e-05 0.02042172 -0.012736408 0.00424946 0.050588004 -0.06707077 -0.0062571904 0.02653612 0.017484052 0.04002918 0.0060431184 -0.03465926
마 -0.068979494 -0.09217543 0.040237863 -0.019953052 -0.044842817 0.010933519 -0.014011982 -0.028944 0.004810735 -0.055405192 -0.022491826 0.06984095 -0.026723607 0.070996925 -0.018659584 -0.036294818
화 -0.031566538 0.033706006 0.00026247976 -0.044540394 -0.056585502 -0.008366683 0.018531973 -0.012815355 -0.001860987 -0.050563347 -0.05957853 0.0336844 -0.07781836 0.0069601457 -0.0052077076 0.023926113
신 -0.025622638 0.046664126 0.018818984 -0.03364669 -0.02929159 0.035951633 0.06678703 0.01977787 -0.030750144 0.026014095 0.006546979 0.037582938 0.09039913 -0.081890866 0.08514126 0.009199248
모든 0.05748364 0.019104306 0.019720927 0.02597296 0.070490345 0.036223873 0.07480649 0.047098454 0.0038115194 0.048910245 -0.0012478651 -0.004688319 0.045725603 0.015955763 0.053539064 0.050881453
쓰 -0.03575871 -0.00131516 0.0010161996 0.0062520523 0.013261761 -0.07230147 -0.017909657 -0.007137096 0.06630038 0.013369428 -0.015534628 0.066707335 0.013718247 -0.006419975 -0.019374639 -0.09171879
여 0.016761927 -0.00078993966 0.08067828 -0.03696268 -0.031577386 -0.005865047 0.01566827 0.003392862 -0.055622015 0.023990523 -0.00025707818 0.013194889 -0.02114129 0.030895114 0.02295508 0.0042296466
5 0.034890078 0.063150436 0.026602298 -0.02959674 0.038215008 0.07313628 0.09035836 -0.048693508 -0.009212283 0.065896995 0.04805672 -0.00013513591 0.033649772 -0.024029732 0.074041575 0.017607624
아직 0.024320621 0.057035785 -0.041371897 -0.037391905 0.008712452 0.063039176 0.050068185 0.045107756 -0.044592183 0.08496568 0.09850406 0.025796922 0.05829082 -0.10312168 0.046762995 0.013042722
추천 0.0393128 0.11742402 0.005879395 0.031744953 0.099317886 0.028361855 0.05486729 0.048660364 -0.028071044 0.07595251 0.0915196 -0.08571241 0.10248384 -0.09223463 0.14545353 0.115759976
처럼 -0.018851608 0.019271744 -0.030774117 -0.029187359 0.049587596 -0.027410567 -0.04850379 0.062418737 0.035336982 0.056776214 0.03852944 -0.017362516 -0.012544219 -0.06674832 0.029141199 0.0018653573
눈 0.04162181 -0.029014762 0.06261596 -0.031004267 -0.0033167007 0.010912144 -0.030559639 -0.020894216 -0.005421195 -0.056696728 -0.034588818 -0.0524788 -0.04758568 0.047068764 -0.10929047 -0.040090293
아닌 -0.0164891 -0.12885313 -0.05266703 -0.052322157 -0.09266562 -0.031422652 -0.12283962 -0.0065323436 0.0314631 -0.04512619 -0.06885767 0.020638993 -0.12616244 0.118656404 -0.08454624 -0.068732984
자체 -0.043583125 0.003728683 -0.05636597 0.031413864 -0.020590149 -0.021188919 0.0034002226 0.0019558286 0.051952027 -0.011013982 -0.0196258 -0.013932648 -0.0025535745 0.06716571 0.035188746 0.001032422
울 0.12884568 0.111623004 0.07583594 0.105098315 0.09044871 0.08435573 0.10110799 0.03211737 -0.0779445 0.117591746 0.08808936 -0.06199726 0.08709416 -0.09708266 0.090942234 0.0793484
몰입 0.0061227055 0.12766908 -0.023998028 0.074110754 0.09616594 0.012926349 0.01685008 0.07242915 -0.022536146 0.092288 0.03276438 0.0023004117 0.045108583 -0.083976574 0.03726989 0.09462733
4 0.008157381 -0.076006666 0.01879061 0.022516204 -0.055464834 -0.060585972 -0.0087772915 -0.035933003 0.07867614 -0.06336213 -0.04125335 0.003621811 -0.08098166 0.116003275 -0.0865545 -0.04422821
대박 0.09696094 0.11815047 0.13575517 0.060903028 0.04505859 0.046054862 0.08106132 0.13085999 -0.1272445 0.03443527 0.0966244 -0.09405631 0.078853585 -0.01997245 0.026232151 0.09621082
몇 -0.00529994 0.09892235 -0.027188113 -0.015487943 0.034904122 0.0026529238 0.019700011 -0.009221661 -0.0915103 0.06990647 0.09534801 0.0097358525 0.09863855 -0.051677614 0.024891505 -0.008523582
스럽 -0.023140552 -0.009816783 0.07007649 0.047619704 0.011800892 0.06606444 -0.024665758 0.018147185 0.059170395 0.056207813 -0.042750597 -0.020778766 -0.10509762 0.12530945 0.060409527 0.029062651
실망 -0.14936693 -0.16491699 -0.10627497 -0.09050593 -0.17347358 -0.16746338 -0.15999727 -0.157289 0.12260122 -0.23206556 -0.13469084 0.10885361 -0.17135416 0.22596148 -0.16648148 -0.1867531
는다 -0.007860816 -0.06361006 0.074664906 0.053727895 -0.013321085 -0.047716577 -0.04476768 -0.005643915 -0.01856007 -0.04146443 -0.00397707 -0.022465894 0.02021041 0.036088996 -0.044638097 0.036410447
대한 0.026773602 0.058807127 0.07163681 0.054526184 -0.0018378492 0.019246222 0.016235733 -0.011860532 0.0057200813 -0.007809701 0.09130962 -0.002429942 0.098241456 -0.07992622 0.086997755 -0.016273681
죠 0.00034855478 -0.03202309 0.023905199 0.07200521 0.0062959157 0.06619336 0.045289416 0.04041261 -0.009263804 -0.0149666015 0.044293378 -0.039570194 0.044146623 -0.05075191 -0.00027561802 0.07043891
란 0.03721559 -0.015462169 0.037532877 0.04456848 0.027310232 -0.041480444 0.052549765 -0.03667566 -0.0054563005 -0.04252125 0.02263162 0.030071307 -0.03319072 0.08038817 0.026248135 -0.038347058
그런 0.015595086 -0.043300997 0.06253984 0.037203483 0.041194927 0.038367417 0.04073858 -0.040249433 0.05525545 -0.058192458 -0.059040062 0.019142048 -0.08707139 0.13460034 -0.058489867 0.03534706
솔직히 -0.03691605 -0.042879213 0.003893204 0.0032980994 -0.0008694418 -0.0010304686 -0.03846159 -0.04612454 -0.022451423 -0.020732129 -0.039490357 0.03882543 -0.06378204 0.050394587 -0.036116663 -0.049848206
캐릭터 0.020967927 0.08071924 -0.052895613 -0.07554138 0.035956264 0.021452019 -0.061620835 -0.062006824 -0.048537638 0.05019325 -0.005858938 0.07365373 0.07641228 -0.081987076 -0.012399585 0.015525598
ㅎ 0.09376325 0.01633897 -0.09474372 0.07236405 0.06828276 0.099964276 0.09619317 -0.07279694 0.07412086 0.09073518 -0.002342221 -0.042759016 -0.01371353 -0.061386354 0.098924875 0.022083769
모두 0.035882037 0.053418882 0.0014048204 0.05578081 0.056272548 -0.020946998 -0.017090676 0.06374401 -0.096171476 0.031154338 0.048615243 -0.038270492 0.030575035 -0.008115073 0.033892922 0.08331188
아주 0.0066868053 -0.017023789 -0.0014723759 0.058012515 0.021917557 0.0045038266 -0.008780516 0.02041553 -0.020955447 0.05892067 -0.007328362 -0.055508547 0.027217008 -0.014352165 0.0050867535 0.0020531318
- 0.023982856 0.0065311533 -0.02074111 0.006777528 0.016799748 -0.030649561 0.043487296 0.053567782 -0.01904911 0.030036774 -0.022805505 -0.0031820172 -0.043646447 -0.0044855275 0.039247535 -0.032527693
가족 -0.0022205608 0.14265262 -0.03010483 0.0006818047 0.02073107 0.025516564 0.029570255 -0.008737764 -0.08109054 0.07014686 0.09271265 -0.054693155 0.09054072 -0.08649086 0.061039355 0.07500255
여운 0.175434 0.25754696 0.15340512 0.12970829 0.15283398 0.20086354 0.119099304 0.11601203 -0.24943338 0.15356769 0.2672601 -0.12904112 0.24545161 -0.25527152 0.13929832 0.19875142
건지 -0.059073534 -0.05724385 0.029336974 -0.038083367 -0.047791034 -0.010574214 -0.015981434 -0.05619347 0.078813374 -0.071132526 -0.07350444 0.036997654 -0.06404692 0.011751172 -0.05825087 -0.030309571
전혀 -0.014066502 -0.08596793 -0.0739018 -0.036400344 -0.0836988 -0.046992652 -0.07954486 0.004095413 0.0075472896 -0.042597927 0.016883846 0.06839045 -0.0710334 0.045623183 -0.03924753 -0.017257283
연기력 -0.0031961054 0.023649225 0.06023965 0.048248317 0.02810177 -0.01155592 -0.038402878 0.00875912 -0.051255412 0.020093394 -0.03800468 -0.032854997 -0.028437443 0.02740632 -0.012070933 0.023059707
나라 0.027173026 -0.0748926 -0.001559152 -0.024529483 0.037000317 0.045332234 0.009100217 0.027960388 0.050781347 -0.0070311567 -0.011513038 0.019546548 -0.0847459 0.06613942 -0.041814905 -0.039613776
후 0.037420984 -0.12754977 -0.0249141 -0.029034521 0.025408318 -0.02969434 -0.05123124 -0.034331266 0.08164268 0.017302793 -0.072885245 -0.044509344 -0.0902582 0.15116215 -0.06221255 0.022807801
될 0.010415091 -0.05905154 -0.005041477 -0.027366107 0.039847445 -0.0069518164 0.012761067 -0.000773984 0.028405553 -0.014502073 -0.039280843 0.057024024 -0.026886325 0.047131322 -0.011814604 -0.018777741
다면 -0.04864715 -0.0020136687 0.013942391 0.023885554 -0.02699596 -0.036741674 -0.02402238 0.031895924 0.05224079 -0.0002609811 -0.04289304 0.022161262 -0.05485632 0.006781986 -0.02335128 0.03221576
뭔가 0.013830945 0.034680445 0.0071106986 0.011273242 0.03055174 0.007959314 0.025388129 -0.013209707 -0.088342786 0.026310848 0.030890377 0.02089868 0.060342588 0.0067535527 0.013462364 0.04663568
그래도 0.048720192 0.042260244 -0.067306526 0.019382037 -0.0259107 0.058980033 -0.039885476 -0.010042895 -0.06829831 0.048925456 0.043314736 0.021225614 0.1420445 -0.15328605 0.06162971 -0.0020407832
; 0.008687303 -0.03495218 -0.0015735871 0.026283463 -0.06505786 -0.05247729 -0.07900106 0.07000066 0.021998316 0.00033830942 0.023828836 0.012399833 -0.0929018 -0.007007061 -0.08972148 -0.06018538
시리즈 0.011764962 -0.028388968 0.039612148 0.03708784 0.0775429 0.019458167 0.06300696 0.04213019 0.02520532 0.025909822 -0.018127948 -0.06958592 -0.05291726 0.023161259 0.016000042 0.05107543
근데 0.0645154 0.110693574 0.022626823 0.023026722 0.03409094 0.08958193 0.057005573 0.0707599 -0.043166842 0.07282898 0.049360942 -0.0064145424 0.032344308 -0.010859081 -0.00047253387 0.0024247146
작 -0.030147072 -0.076909125 0.06590591 -0.028710667 0.020209167 -0.020119298 -0.013380416 -0.012428731 0.027724376 0.013172551 0.041963715 0.008782726 -0.09869651 0.06978356 -0.08116369 0.0004663666
표현 0.04648023 0.088085026 0.023004938 0.092626415 0.029425975 0.045691233 0.038044464 0.10491906 -0.04109218 0.090227 0.09047492 -0.05973693 0.043602314 -0.095345154 0.073596306 0.024146834
모습 0.009546502 0.018254304 -0.024834849 0.023142304 0.035919257 0.06482582 0.010169382 0.02687024 -0.064353175 0.07617703 0.031608336 -0.06353755 0.026959512 -0.06279813 0.08640229 0.05997788
공감 -0.021331355 0.15659708 -0.056625213 -0.09551554 0.024038438 0.06495956 -0.027077414 -0.027405417 -0.058491353 0.027055647 0.02315073 0.062396027 0.10273785 -0.11592773 0.12322229 -0.030720431
계속 0.020263547 0.17099273 0.014639365 -0.0012428836 0.019008966 0.06463093 -0.04874837 -0.003176984 -0.1229896 0.0032158876 0.088684425 0.03457365 0.059926644 -0.1745543 0.075706124 0.013044328
먹 0.009778239 -0.059573386 -0.03345427 -0.053321432 -0.027429236 -0.05240766 -0.04942634 0.025829896 0.006029697 -0.009246585 -0.031344216 -0.0010298965 -0.04325087 0.013348706 -0.03025551 -0.00489819
"" 0.020535462 0.013869139 -0.026501156 -0.041528225 -0.049535487 -0.011728786 -0.020766472 0.017721388 -0.009693857 -0.039931864 0.0006248675 0.021687437 -0.0015924153 -0.021041093 0.0002123352 -0.03671215
제목 -0.029187623 -0.069428906 -0.0034080658 0.031161876 0.04652404 0.01658523 0.035306275 -0.030462032 0.02162784 -0.055519592 0.011278111 0.023116559 -0.08708072 0.027382381 -0.0030654469 0.011514152
7 0.032714292 0.021886991 0.04075708 0.048119854 -0.01856082 0.05179431 -0.020634351 0.042324 -0.061381083 0.05302174 0.089607485 0.011445509 -0.01785736 0.05471153 0.030082013 0.026288684
이랑 -0.020411883 -0.08685287 0.039011993 -0.05082595 -0.0016384795 -0.0716891 0.0068754028 0.038049065 0.041112266 -0.03657079 -0.08714315 -0.011485357 -0.065320425 0.11097817 -0.08264593 0.011980065
극장 -0.021184668 -0.013857493 -0.011404571 -0.072579645 -0.024864292 -0.029346721 -0.07238761 0.0073520117 0.016035382 0.0040946472 -0.014183226 0.06941745 -0.07444386 0.08968437 -0.089340225 -0.044929825
치 -0.06757412 0.023023734 0.027501667 -0.033332657 -0.040783957 -0.021163043 -0.009322588 -0.042661753 0.038160898 -0.016329894 -0.0049520736 0.06409953 -0.020770023 0.07484911 -0.09004189 -0.023796342
비 -0.045927357 -0.053280007 -0.051195588 -0.04389166 0.007758751 -0.05274765 -0.03219658 0.0088539375 0.072783634 -0.055915955 -0.052105974 0.010216677 -0.0074186046 0.10534792 -0.038472656 -0.06536063
이걸 -0.08253819 -0.16734119 -0.051798616 -0.095928036 -0.011017857 -0.069519356 -0.013964101 -0.050410066 0.11474402 -0.08473016 -0.055659007 0.09366017 -0.18003891 0.20347603 -0.055559967 -0.050863612
진 -0.035628404 -0.0114099 -0.086311534 -0.0126253925 0.0012299255 -0.010805224 -0.07913777 0.008144226 0.0009134923 0.015380797 0.035892602 -0.03861124 -0.037311953 -0.022021197 -0.021949982 -0.009006855
바 -0.0841658 0.041003637 -0.08721654 -0.13155572 -0.11181962 -0.07884513 -0.11324571 -0.08496987 0.115582675 -0.09848181 -0.047125604 0.11032363 -0.038951535 0.020506484 -0.01331299 -0.13761032
대사 -0.010768701 0.02027108 0.0031366402 -0.024021188 -0.0074160155 -0.03208299 -0.016347239 -0.03800889 0.008277177 -0.042660013 -0.007958883 -0.03591026 0.07468608 -0.039006263 -0.044844087 -0.028598957
부분 -0.049553707 0.016418038 -0.034122895 -0.03943594 -0.052118395 0.04378758 0.014898476 0.013865433 0.0057364595 -0.00816571 0.025397792 -0.022912176 0.023125958 0.012894755 -0.0075451816 -0.014863828
그렇 -0.016786981 -0.13025533 -0.04021031 -0.07434061 -0.08451939 -0.061802693 -0.03572277 -0.005839196 0.03746266 -0.059619892 -0.059794437 0.026606498 -0.13609496 0.10988124 -0.04508284 -0.053986944
개봉 -0.012300782 -0.009863002 -0.015214695 -0.048542652 -0.055600632 -0.046628214 0.008740157 -0.059807852 0.046327025 -0.006345842 -0.012109625 0.012764565 -0.025525818 0.06065282 -0.02687324 -0.007773074
0 -0.13461207 0.12438431 -0.20994931 -0.180312 -0.08291067 -0.08594214 -0.032646026 -0.14970711 0.026768839 -0.0865727 -0.094561026 0.09339975 0.064497836 -0.1804922 0.039163776 -0.10216601
OO -0.08311985 -0.12708862 -0.018262917 -0.038047697 -0.01579354 -0.027787475 -0.08272531 0.03482739 0.016769804 -0.06292183 -0.062224735 0.046071593 -0.06179659 0.1039395 -0.033059753 -0.059063174
대단 0.07799579 -0.0073213554 0.05528502 0.05553556 0.06592795 0.08216867 0.04846251 0.07719702 -0.08320157 0.03858517 0.009354582 -0.073388025 0.06946643 -0.07862931 0.11586208 0.049351662
어디 -0.038527828 -0.068762794 0.030251348 0.029738091 -0.012143804 0.0033724408 0.0384572 -0.022056531 -0.027872873 -0.0031737066 0.0062990803 -0.0032100466 -0.0252929 0.009667153 0.014077979 -0.058981527
작가 -0.022552215 0.033459026 -0.013629341 -0.013700657 -0.0034941775 -0.033851214 -0.027882027 -0.015132009 0.041307747 -0.09161223 -0.049492344 0.04160101 -0.009723942 0.02298472 0.020648805 -0.03242768
된다 0.041440897 -0.00892339 0.14313994 0.04136428 0.05063835 0.033876415 0.063194916 0.03323499 0.00078942196 -0.028226312 0.06591247 -0.021642733 -0.051095914 0.10387825 -0.07507036 0.037158906
아쉽 0.09303865 0.018937005 0.044715557 0.021373224 -0.001125267 0.019581608 0.05491989 0.116465576 0.011636831 -0.00478819 -0.0049574347 -0.05039047 -0.052308556 0.03998391 0.0029573536 0.034393303
기분 -0.041001827 -0.012060341 0.026832245 -0.011409295 -0.03177815 -0.011758124 0.039242476 -0.05046776 0.08103848 -0.056494534 -0.039522912 0.05045015 0.016766187 0.051651035 -0.0018718244 -0.05249005
제 0.0032283235 -0.045818795 0.032765646 -0.017812606 0.03839613 0.022263868 0.03367571 0.019922176 0.044376496 -0.039850064 -0.01632801 0.04555357 -0.06626985 0.06710265 -0.012030835 -0.0028937734
진심 -0.034767088 -0.027956733 0.01282436 0.0019075663 -0.010193394 -0.022106625 0.03493949 -0.025622217 -0.030209614 -0.0154613415 -0.043142855 0.049107127 0.026917808 -0.012885745 0.02285161 -0.0024098658
타임 -0.015589776 -0.064265326 0.023389123 0.06683169 0.024891129 -0.0013486203 0.05515471 -0.02506767 0.045501847 -0.027114239 0.022741165 0.020219093 -0.03095587 0.07979663 -0.06475732 0.031527933
/ -0.028542362 -0.0019436415 -0.01867446 0.010721087 -0.038266476 -0.023569535 -0.012892375 -0.015474629 -0.020549368 -0.03437336 -0.01166558 -0.0056315833 0.052993342 -0.034238126 0.009272718 0.045649093
웃기 -0.052760284 0.0583459 -0.021096284 -0.05480541 0.029425563 0.0046661757 0.008838278 0.03935316 0.019623943 0.0010036724 -0.017387323 -0.029775184 0.03407972 -0.08676688 0.012653048 0.0060300957
보이 -0.030723305 0.035653405 -0.04923679 0.011633168 0.027613612 0.00012819377 -0.06492791 -0.006791527 -0.0025227421 -0.025564268 0.05890004 0.02151433 0.04950864 -0.07438552 0.0405125 -0.00807508
놓 -0.051701497 -0.13099366 0.030836059 -0.03541736 0.024917355 -0.034212314 -0.03553445 0.04861454 0.073457085 0.005448879 -0.037338413 0.010317132 -0.10282889 0.06942608 -0.049187183 0.018243954
해도 -0.039206907 0.003979994 -0.051564917 -0.032411896 -0.053979483 -0.008509693 -0.10097244 -0.0035723702 0.01816317 -0.017791955 -0.030232422 0.023752194 -0.0027565274 -0.0900042 0.05231724 -0.059516028
이제 -0.047381457 0.12151653 -0.06979621 -0.09120702 -0.08865028 -0.032991692 -0.057142563 0.0006300705 0.011933714 0.016413549 -0.0007708451 0.087751724 0.07706162 -0.045508586 -0.06764441 -0.03504061
물 0.014847337 -0.10351954 0.013573937 0.03121571 -0.021136321 -0.019849852 -0.038855914 0.021764029 0.01604668 -0.048338637 0.014389731 0.039079912 -0.090386234 0.10516831 -0.011471578 0.0057067466
봐야 0.012265856 0.016879912 0.07032098 0.08190787 0.08023519 0.09861006 0.06629498 0.0154525 -0.08060963 0.075458154 0.0809878 -0.06577437 0.10167035 -0.01863029 0.06483148 0.055844106
막장 -0.10691558 -0.19419323 -0.023288995 -0.06695323 -0.09520648 -0.15420757 -0.099976584 -0.091401674 0.15650322 -0.0639408 -0.1549187 0.03941339 -0.11435925 0.14409798 -0.060762186 -0.11803374
삶 0.11049467 -0.004985484 0.05327183 0.038289804 0.056281246 0.087961756 0.057373933 0.123673484 -0.10526598 0.046685807 0.034716446 -0.064157605 0.00046869917 -0.04931347 0.07668152 0.07418314
친구 0.0257084 -0.008278998 -0.04579014 -0.029878194 0.036521878 -0.04418129 -0.018682173 0.025851568 -0.029339924 -0.008922145 0.03728934 0.027086241 0.0135214245 -0.036317468 0.006327247 0.032749016
잔잔 0.076163456 -0.013591926 0.050800283 0.032436647 0.006517877 0.034847613 0.037125237 0.034780554 -0.092431195 -0.002351859 0.05882467 -0.082652375 -0.0035363368 -0.018185236 0.00839016 0.06886229
조금 0.038116537 -0.08996835 0.10117889 0.014076328 0.040432926 0.028163513 0.034052707 0.06307551 0.057306383 0.027201599 -0.0017928118 -0.029042367 0.0009268966 0.035254434 -0.03423169 0.065245196
씬 0.01386896 0.09372732 -0.00097562565 0.0040226267 0.036271285 -0.011736949 0.01758923 0.033259455 -0.025131643 0.067150824 -0.027331218 -0.03636004 0.012100167 -0.07123666 0.025397152 0.032980308
딱 -0.07895618 0.020426704 -0.050752062 -0.0863263 0.014806133 -0.01877347 -0.09520676 -0.008173952 -0.021514663 -0.025291108 -0.02348314 0.06925142 -0.02632962 -0.055193365 0.012248767 -0.043298252
영상 -0.064197235 0.0045634103 -0.05039696 -0.03894338 0.010232983 0.004424747 0.031847373 -0.008744815 0.04080742 0.03511254 0.02594142 0.03628423 0.047046553 -0.034367543 0.067742586 -0.013690027
억지 -0.13109866 -0.20383048 -0.048749853 -0.0690596 -0.06454161 -0.150733 -0.11380325 -0.0653321 0.15161487 -0.14764301 -0.16074598 0.08815386 -0.15693933 0.2828084 -0.11938995 -0.11224558
찾 0.009830728 -0.023810623 -0.030555777 -0.015058945 -0.044434 -0.044721387 -0.033241674 0.008074161 -0.019274823 -0.016907549 0.023402892 -0.032617882 -0.08645505 0.029140165 -0.036676746 0.042129926
요즘 0.12866423 0.11620459 0.07241497 0.1482682 0.07237669 0.09104086 0.11294191 0.11565058 -0.03105873 0.10671213 0.08656574 -0.04987571 0.11926295 -0.01945471 0.003977656 0.09752122
같이 -0.0155748585 -0.039801855 -0.005940722 -0.047842562 0.0493941 0.015037145 0.008101889 -0.008716462 -0.0020424076 -0.046722487 0.041625883 0.03139874 -0.006484555 -0.0060521686 0.01491779 -0.01300657
중간 -0.0750643 -0.1409419 0.037283204 -0.011969643 -0.040711563 -0.016162314 -0.0070047122 0.012336288 0.07796635 -0.0687469 -0.061131433 -0.011837892 -0.10563824 0.19131531 -0.11075582 -0.05298579
" 0.0009603882 0.012921375 0.007660059 0.0376058 0.0023777885 0.01878423 0.019309366 -0.026960634 0.0035013952 -0.013384077 0.039344527 -0.016272064 0.05983511 -0.026969602 0.019922059 0.035807706
구 -0.0074522845 0.049492728 -0.01313655 -0.034089044 0.028453832 0.027114501 0.042871077 0.016910464 0.0017794346 -0.026520155 0.08206615 -0.020274961 0.033092566 0.018064873 -0.048265975 0.01728371
라도 -0.027780624 0.012211059 -0.049855236 -0.08367779 0.015851334 -0.033295076 -0.023884192 -2.0876905e-05 -0.05265698 -0.06529169 0.02642645 0.07058582 -0.016995661 0.014819345 -0.05696889 0.024239765
스릴러 -0.018657189 -0.0057084817 -0.02619771 -0.002612913 -0.0019498776 0.021359233 0.022180872 0.007685142 0.007315327 -0.008095497 0.061002452 -0.04314269 -0.03270191 -0.018066272 0.0019951996 -0.03181965
가지 0.005087555 0.10207583 -0.012341408 0.035720196 -0.0036056943 -0.02876509 0.014500673 0.013452721 -0.06337873 -3.8309012e-05 -0.0025262358 0.0077527016 0.061446022 -0.054951794 -0.007617575 -0.01035067
8 0.08276424 0.041517936 0.031330608 0.0943044 0.048438217 0.052714232 0.023173291 0.060375933 -0.025243867 0.11515101 0.0646766 -0.10326148 0.06475664 -0.034902975 0.0005538454 0.04535298
믿 0.085894965 0.05610803 0.02580539 0.00074595585 -0.0053123506 0.07665856 0.062144857 0.015857568 -0.022613484 -0.01636207 0.02989997 0.0033938158 0.03576597 -0.088992685 0.047480512 -0.0010438666
싫 -0.055781085 -0.22401275 -0.03919918 -0.03753225 -0.08687069 -0.073490106 -0.15159994 -0.06906791 0.11393806 -0.07041629 -0.10673855 0.04673128 -0.18324542 0.18877065 -0.07322298 -0.087312154
.... -0.003585612 -0.0675276 -0.010706377 0.030205652 -0.030762583 -0.035379812 0.012717887 -0.069866836 0.03088787 -0.075347096 -0.024664547 0.055371128 -0.06316028 -0.012093059 -0.020146204 -0.03879513
나왔 0.011813659 -0.002142847 -0.0058060335 -0.057732403 0.0062240846 -0.008496096 -0.028435163 -0.067129396 0.022196224 0.0046483753 0.00096209557 0.025152361 0.041147202 -0.019533018 -0.046482082 -0.00408018
아까운 -0.059854016 -0.098631874 -0.106131166 -0.16748314 -0.08978524 -0.11083645 -0.0893441 -0.12333693 0.09726272 -0.12833008 -0.14029463 0.13356754 -0.062472958 0.079038344 -0.12074868 -0.13422896
긴장감 0.06915902 0.06252089 -0.023243435 -0.025938224 0.046166405 0.0010766179 -0.03973855 -0.0041377516 -0.060947265 0.07012427 0.062940456 -0.027355233 0.06152513 -0.05094558 0.07436849 0.083395615
점수 0.010676068 -0.08672946 -0.02563168 -0.022007441 -0.0061835954 -0.025851978 -0.05561553 0.04131859 0.06811523 -0.07687272 -0.0019599092 -0.0204465 -0.03308957 0.09568378 0.015591822 -0.01983786
개인 0.008685455 -0.042597104 0.0025617143 -0.02166267 0.040734533 -0.044700485 0.030241946 -0.0006388298 0.054201182 -0.02347613 -0.06555039 -0.028637702 -0.043448366 0.07698233 -0.048881117 0.04581508
제대로 -0.020811213 0.08882617 -0.014144683 -0.0026512041 -0.053529583 0.047009457 -0.029057104 -0.049321134 -0.011409441 -0.027871909 0.008943479 -0.03086625 0.03547993 -0.09725558 0.07163098 0.03794231
부족 -0.07488464 -0.07555185 0.013929999 -0.029247351 -0.09883378 -0.1091577 -0.093280055 -0.09218753 0.029948516 -0.04736991 -0.076476 0.100398146 -0.06962765 0.09425375 -0.118933626 -0.019839073
이유 -0.04011471 -0.007432599 0.005308673 -0.032940935 0.04434654 -0.044150792 -0.040106647 -0.023534935 0.0729866 -0.022835493 -0.011651838 0.059408847 -0.028522609 0.008967195 -0.046340186 -0.0022755498
노래 0.030033538 0.0031437753 -0.012482244 -0.015262609 0.04299707 0.056865633 0.04187917 0.012681167 -0.019139392 -0.017982889 0.032381367 -0.023517203 -0.030216103 0.027617827 -0.023114474 0.042960122
만큼 -0.0031176629 -0.051429067 -0.0035232967 0.08026561 0.0343036 0.025193995 0.017434645 0.03291893 -0.046729345 0.08017719 0.05803417 -0.08643456 -0.037649002 -1.899391e-05 0.0070256977 0.027122617
라면 0.024445593 -0.010777876 0.032800112 -0.022988532 0.024829123 0.031021597 0.00093670626 -0.026470363 0.016184798 -0.004563156 -0.027987586 -0.039448064 0.015691422 -0.00079921394 0.0032632786 0.04100952
시작 0.05661039 0.011018906 -0.06534601 0.0022328582 0.009690181 0.058282316 0.011544588 -0.048266694 0.059179455 0.07513821 -0.0016423397 -0.007591766 0.002545174 0.022409989 0.0135518005 -0.0055494634
구나 0.0001556213 -0.06500055 0.032071866 -0.015934668 0.019206027 -0.0014263631 -0.05848884 -0.02521244 -0.01879655 -0.06293424 -0.039921246 0.04174179 0.011266943 -0.016787795 -0.010763969 0.03725192
잇 0.0277085 0.018419748 -0.020337455 -0.01477827 0.047501907 0.05464155 0.018514935 0.018716482 -0.0711689 0.044503454 0.030853579 -0.002955546 0.08335545 -0.15537979 0.017166235 0.038904916
특히 0.039565578 0.06760969 0.07004336 0.068539664 0.07207954 0.0069767064 0.14854969 0.038777597 -0.02324629 -0.013594506 -0.008129169 -0.01626544 -0.02877429 0.094372876 -0.01967207 0.11104833
한테 -0.05678336 0.010873727 -0.029378237 0.013765754 0.007130912 -0.011574278 -0.07074128 0.0228033 -0.040766645 0.03953029 0.016723834 0.060781974 0.024409933 -0.005645147 0.01764907 -0.045592815
날 -0.04491862 -0.040883347 0.06028766 0.013402087 0.0035104374 -0.038961213 0.031994645 0.04666988 -0.037385292 0.01561661 0.049737334 -0.036383078 -0.05094211 0.06051819 -0.00924251 0.046278846
려고 -0.067589864 -0.05513048 -0.08718 -0.051862713 0.013049628 -0.002448194 -0.033841256 -0.041468866 0.04606304 0.008112865 -0.038372982 0.017369596 -0.081112854 0.019932942 0.013952568 -0.07523169
제일 -0.030050883 0.027414085 0.025617184 0.015234743 0.029331233 0.021957971 0.008410255 -0.0001865391 0.049505804 -0.039207134 0.021715205 -0.015844101 -0.065941915 0.056914493 0.034799132 0.03537297
아름다운 0.027756521 0.09245349 0.032707702 0.027270662 0.061617285 0.11086603 0.04697326 0.029449508 -0.10236247 0.11800004 0.11028061 -0.07091182 0.13590892 -0.16129848 0.074859075 0.0777914
시대 0.026512882 -0.02534853 -0.01030498 0.048823126 0.027193302 0.013134561 -0.073530614 0.02208721 0.038785562 -0.008498449 -0.031036818 -0.034017194 -0.019918883 0.03054204 0.0026874149 -0.0004896403
ㅜㅜ -0.034412645 0.09494953 -0.05662176 0.022172837 -0.025259707 0.0029754776 0.013594585 -0.031659346 0.027752897 0.04276354 0.0004934517 0.028324708 0.06679135 -0.053417817 -0.023524914 0.03206591
어떻게 0.019342063 -0.041926354 0.015786104 0.02629714 -0.018543378 0.020122245 0.012324957 -0.000754211 0.037670434 -0.019487407 -0.036975168 0.03626162 -0.04535669 0.018375717 -0.019138003 -0.033371165
엔딩 0.025581488 -0.036544174 0.090944886 0.034337904 -0.020830678 0.03892202 0.028148888 -0.015018463 -0.032859445 0.0075402204 0.02818943 0.013976978 -0.043801554 0.069484994 0.019427106 0.005292543
당시 -0.0007221233 -0.083289556 0.06421128 0.06816069 -0.03167029 0.009787259 -0.027091984 -0.03683732 0.044722803 0.01903423 -0.050656352 0.028356168 -0.07885498 0.1349076 -0.05234693 0.052544594
하지만 0.0653462 -0.068070956 -0.013949098 0.075653754 -0.009633752 0.06557474 -0.013894611 0.016783964 -0.07059134 0.07280028 0.0072986553 -0.035444673 -0.026464444 0.012997718 0.003605722 -0.026450917
나름 -0.010357922 0.12661847 -0.049941752 -0.02728159 -0.019418178 0.062978834 0.014736383 0.015424865 -0.05929716 0.03962912 0.04263719 -0.004944351 0.13473496 -0.17683837 0.10179268 0.035698418
봐 -0.028462194 0.04892151 -0.06310891 -0.051018946 -0.011093873 -0.043862946 -0.010762386 0.028983619 -0.014973487 0.0050267456 -0.047529045 0.05631202 -0.002623917 -0.015727263 -0.0036256912 -0.014266938
무섭 -0.011544002 0.018768108 0.033449136 -0.020266877 0.009603931 0.040067587 -0.009184443 -0.02367352 0.04082707 0.005328312 0.013593257 0.028774086 -0.012862904 -0.061576676 0.006273419 0.0120838275
나온 -0.0057183993 -0.08279677 0.016456328 0.0716347 -0.02305795 0.007847886 0.074664354 0.024721527 0.06375589 0.0038969498 -0.0280424 -0.007718611 -0.08361652 0.071162574 -0.009248904 -0.00467932
명 -0.009371895 -0.0943593 -0.0012195016 -0.07969445 -0.017909553 -0.07746475 -0.0881832 -0.0116646765 0.008563108 -0.0137604205 -0.036052 0.04692318 -0.069647305 0.10464232 -0.044873808 -0.024008945
사 0.010376927 0.052954365 0.008363832 0.00460115 0.02654857 0.08052371 -0.01791196 0.06599633 -0.09975515 0.0375114 0.019571293 0.007671941 0.09564502 -0.037070222 -0.018187597 0.041315626
니까 0.016143098 -0.016964864 0.034059953 0.010703686 0.00923367 0.085987926 -0.029326163 0.08267002 0.024879197 0.014162339 0.05927264 -0.08109458 0.025216436 0.023187289 0.02835757 0.04064416
오랜만 0.07525798 0.026700148 0.066661134 0.049355734 0.007138841 0.078407794 0.037736937 0.109001935 -0.09773291 0.06839572 0.08810212 -0.10689241 -0.010135871 -0.023753745 0.0126485545 0.1257335
이것 -0.0016144238 0.08435048 -0.05205251 -0.1063332 -0.062408984 0.0033775736 0.024275828 -0.09566891 -0.055883978 -0.06687423 0.050728723 0.0533547 0.077198386 -0.12011815 -0.0166295 -0.009547662
해요 -0.0024100905 0.0342537 -0.07458541 0.03720605 -0.02680644 0.022636225 0.08880846 -0.024238173 -0.039823692 -0.039351407 0.025667349 -0.0025272064 0.07978401 -0.05228805 -0.017750662 0.048332635
9 0.07390912 0.11164988 0.04930104 0.03411826 0.12009674 0.053682636 0.05246032 0.13702917 -0.093851775 0.13077682 0.13953185 -0.116847105 0.097598225 -0.1309319 0.14142369 0.03735653
팬 -0.039262306 0.048150305 -0.035096966 -0.073692605 -0.050846428 0.032776203 -0.07474007 0.010401891 -0.038251612 -0.0008891205 0.037097637 -0.0022798646 -0.0058611054 -0.052566092 -0.031697135 -0.0656548
차라리 -0.22219406 -0.22475998 -0.2413124 -0.26661432 -0.26627526 -0.24822335 -0.2078132 -0.24796076 0.29521012 -0.24078922 -0.32758972 0.19302589 -0.20051399 0.1473979 -0.2626893 -0.29399112
절대 -0.013089461 -0.01003638 0.018206425 0.011875657 -0.017007353 -0.02835324 -0.028516944 0.012471621 0.017225562 0.004001817 -0.018756332 0.060129587 0.008597083 -0.015503063 -0.03945044 -0.068907246
세상 0.031530283 -0.03358862 0.075299054 0.03664116 0.024753604 0.044068895 0.084661044 0.03514962 -0.06175478 0.04394632 0.044989116 -0.0077918656 -0.050341733 0.099243015 0.047176633 0.02144941
세 0.0014584484 0.0045610834 0.035900816 0.00975037 -0.058253836 -0.04906471 -0.018354362 0.008608585 -0.0571913 -0.04903594 0.024467934 -0.023735698 -0.012453202 0.031025263 0.002336803 0.029754667
못하 -0.013545506 -0.14093517 -0.0068684043 -0.07497783 -0.06816856 -0.04804697 -0.04325283 -0.028126676 0.11708625 -0.085924335 -0.124462955 0.07019091 -0.09448247 0.15164635 -0.12833126 -0.07669098
의미 0.021624522 0.02070851 0.050237108 0.035923544 0.02004009 0.054492425 -0.056710415 0.027218888 -0.09635406 0.0008187579 -0.012339527 -0.020092282 0.07520792 -0.016658293 -0.018822687 -0.02587307
던데 0.015167699 -0.018255433 0.01888723 0.03190615 0.03107605 0.057597745 0.15075125 0.019999357 -0.01935021 0.0451682 0.06645761 -0.024561167 0.03919536 0.057663973 -0.024936674 0.008921817
봄 0.014974176 0.014660656 0.03470019 0.0133668715 0.035688147 -0.015431906 0.018885838 -0.016086766 0.06828293 0.044278838 0.050860856 0.0012795674 0.01894842 0.042971868 0.00065701874 0.05643429
욕 -0.12667567 -0.1816144 -0.060764287 -0.08240877 -0.11410761 -0.0717259 -0.040715523 -0.041246194 0.1499424 -0.105329484 -0.051253878 0.13265781 -0.10184488 0.12058494 -0.062908314 -0.055596944
훌륭 0.13355482 0.09564286 0.06565465 0.082460314 0.08804919 0.07199895 0.106024995 0.07549006 -0.08772351 0.12989679 0.09849026 -0.1034644 0.0970925 -0.11040602 0.19017145 0.06884855
너무나 0.0077701123 -0.00026758816 0.06466688 0.012216966 -0.0048351423 0.055641666 0.009616881 0.04048226 -0.0042621326 0.052394863 0.048249315 -0.07648737 0.016554551 -0.0021219663 0.016890028 0.0891585
강추 0.104842454 0.09026713 0.085341066 0.12961331 0.1161257 0.080753036 0.07166967 0.09657934 -0.036783278 0.1005693 0.026165275 -0.14297186 0.021604508 -0.062535025 0.06543708 0.063162446
감 0.071073756 0.0067196684 0.011906494 0.048133865 0.00495136 -0.020959144 0.018773975 0.034019597 0.028151046 -0.00660924 -0.030353354 -0.0061137825 -0.022849457 -0.0058198133 0.06517622 -0.022569738
됨 -0.0035798606 -0.02294395 -0.0028773367 0.004422023 0.080477774 0.0045924373 0.09374338 0.0729385 0.044870976 0.045495287 0.06343389 -0.065703854 0.023875568 -0.020468956 0.10751484 0.039946314
ㅡ 0.022395436 0.012555683 -0.059477836 -0.07366736 0.0072990013 -0.0062676514 -0.040481314 -0.0013553775 0.058108333 -0.0027188612 -0.021424487 0.040236767 -0.0094636325 0.06709274 0.043168396 -0.023947457
따뜻 0.13608935 0.08296303 0.14695129 0.13655524 0.14765696 0.103482254 0.11796986 0.114957415 -0.106073014 0.12934405 0.14818043 -0.080819435 0.14467783 -0.13794217 0.15182984 0.090836585
빼 0.008624983 -0.03198005 -0.04990031 -0.03803143 0.03336945 -0.018935239 -0.03721483 -0.03405824 0.008727791 -0.01426365 -0.061722662 0.07219147 0.010485829 -0.06470264 0.042687442 -0.056826558
느끼 0.062435996 0.014506182 0.033279967 0.001969928 0.028887138 0.08317767 0.043879494 0.032380227 -0.028663907 0.01659486 0.029493093 -0.039325513 0.054145403 -0.030859925 -0.0030498505 0.04698879
해야 0.016442612 -0.027606908 0.061084684 -0.0067207823 0.06684705 -0.017044904 -0.036016114 0.03309896 -0.0045593157 0.01394203 0.028789885 0.021086268 -0.009249788 0.0598499 -0.0051788855 -0.0070422087
드 0.0030107726 0.09328381 0.01762146 -0.005336146 0.024782429 0.0018860989 0.057703614 -0.08449277 -0.0057972996 -0.03160327 0.020186312 -0.00961244 0.008778212 0.031797867 -0.035874706 0.036351044
도대체 -0.093871765 -0.02616806 -0.1102248 -0.059086308 -0.080950335 -0.09674407 -0.037033465 -0.08735602 0.07535223 -0.065564044 -0.060014654 0.065554954 -0.0258869 -0.03979426 -0.054090094 -0.102868214
어야 -0.08384662 -0.005558608 -0.082733795 -0.021822551 -0.025153095 -0.0060859984 0.007530665 -0.047228593 0.021437239 -0.015979884 -0.011035531 0.037905686 -0.0073464448 0.011528878 0.028029155 -0.028053613
답답 -0.03536669 -0.20200086 -0.041500047 -0.100589134 -0.06563396 -0.07257507 -0.11879989 -0.103681326 0.16543593 -0.10198332 -0.09376994 0.0845493 -0.20581768 0.17595154 -0.073915735 -0.12226157
마다 -0.043902516 0.09326991 -0.037799515 0.02435088 -0.01516595 0.004578723 -0.03404049 0.01402436 -0.05588989 0.002800092 -0.0072351927 -0.0038436907 0.01061501 -0.05745419 0.05413909 0.026857052
준다 0.027674602 0.0027811527 -0.009153961 0.03414 0.0037361772 0.02109698 0.09261422 -0.033677977 0.046983913 -0.0534814 0.033785954 -0.019330023 -0.052510686 0.048780225 0.018000377 -0.06457085
글 0.023145717 -0.0903286 0.05444962 -0.052871972 -0.042600945 -0.017473774 -0.010765404 -0.035277173 0.04806337 -0.022141246 -0.0361145 0.011785531 -0.047105957 0.085480064 0.0129068615 -0.04928259
전쟁 0.08693249 -0.14053176 0.10091951 0.0649635 -0.017431334 -0.047143385 0.05305508 0.011348081 -0.0024891153 -0.020887982 0.013102807 -0.033698805 -0.035378493 0.1086294 -0.0641768 0.051623736
놈 0.009369129 -0.07936224 -0.00059696875 -0.03358428 0.013590495 0.027328223 -0.011887572 0.022162136 -0.005267736 0.022689113 -0.016263437 -0.0086689815 -0.069875285 -0.032618098 -0.013927567 -0.023191703
설정 -0.024537494 0.009511467 -0.016179053 -0.12074632 -0.08556002 -0.035360098 -0.04504678 -0.09977663 0.007141558 -0.04754888 -0.040529534 0.09014434 0.06896978 -0.07381755 -0.028765647 0.012084782
무엇 -0.0071507087 0.049483847 0.06755384 0.07339542 0.01463969 -0.02347833 0.093780935 -0.025439331 -0.0019127717 0.05150349 0.07311964 -0.061476506 0.0026514928 -0.047227435 -0.04923909 0.05176545
수작 0.17583399 0.21762472 0.25311118 0.18182912 0.16341312 0.1965251 0.24911787 0.21109669 -0.1843081 0.23562291 0.21159849 -0.18716535 0.20748061 -0.14403307 0.18304841 0.20810546
만화 -0.053188633 0.0845776 -0.07897271 -0.062457975 0.022086168 -0.03872871 -0.061278637 -0.04477577 0.031942468 0.061216243 -0.019187726 0.04881908 0.014267859 -0.12373079 0.011161954 -0.009964823
흥미 -0.010709659 -0.009737757 -0.017485688 -0.074638344 0.014054374 0.018158484 -0.100539066 0.010137861 0.023882978 0.034077577 0.0032191784 0.017989857 0.04367338 -0.078943454 -0.041537955 0.029462006
그저 -0.023388844 -0.1667784 0.009019867 0.005416162 -0.010103918 0.00059724494 0.00629875 0.0076533663 0.06171969 -0.079418905 -0.06334266 0.03067978 -0.1680665 0.31209373 -0.10350481 0.0006611772
감정 0.067068376 0.056831967 0.09149435 0.03673939 -0.00021493569 0.02863693 0.04092291 0.017835453 -0.029154306 0.07094547 0.007950586 -0.044108674 0.08238825 -0.04264242 0.08381254 0.046342216
미국 0.043516155 -0.07927611 0.056624398 0.010632994 0.026279286 0.009857937 -0.018274628 0.04907241 0.012775208 0.037583422 -0.04761571 -0.0037535802 -0.09526156 0.095266074 0.0047610668 -0.03384543
신선 0.04773613 0.050531037 0.023584453 0.027169645 0.07632908 0.103365764 0.03914347 0.08414255 -0.03576059 0.06920674 0.03096779 -0.10499902 0.107895926 -0.12477213 0.07521888 0.070600525
행복 0.057124678 0.075904384 0.08438516 0.044747077 0.047908112 0.11471077 0.11798284 0.12956625 -0.10968823 0.043679852 0.04443214 -0.04291055 0.13494141 -0.11199701 0.06460991 0.11482467
뻔 -0.043093733 -0.100544356 0.025354898 -0.010529268 -0.009179279 -0.07890394 -0.09438064 0.0050577857 0.06743832 -0.05087098 -0.0021716566 -0.012589706 -0.07186912 0.09873318 -0.09871271 -0.048812427
형 -0.016562108 0.010109476 0.01053703 0.0029266851 0.06461544 0.0020566736 0.0632556 0.022515206 0.020472942 0.010265479 0.035774965 0.0077656526 0.05832164 -0.074809894 0.04254285 0.0043052295
앞 -0.009518568 0.0608119 -0.04704267 0.043849535 -0.018949674 0.043712825 0.037292622 -0.007972698 -0.01931659 0.00046303737 0.06737827 -0.009542863 0.04119149 -0.08161577 0.03088573 0.0026329097
허접 -0.18069285 -0.19071537 -0.1498427 -0.18136585 -0.21036549 -0.19775394 -0.11619137 -0.23240805 0.2037549 -0.18116844 -0.14423218 0.20675431 -0.15673512 0.12239868 -0.17600304 -0.14525205
어도 -0.014412308 0.034692492 -0.047488384 -0.0031475865 0.044628296 0.035337944 0.0064297207 0.013792724 0.074041836 0.024576804 -0.01602821 0.019083856 0.014137502 0.023255497 0.014753594 -0.04258598
군 -0.025375802 -0.026077494 0.0103138415 -0.030007027 -0.08467778 -0.025581134 -0.04462771 0.04537773 0.013014544 -0.0219849 -0.036931273 0.07569044 -0.02329779 -0.015014508 -0.055701513 -0.03705758
시절 -0.0095976945 0.0036399553 0.023510419 0.014917185 0.014970112 0.041873407 0.018115828 -0.036755793 -0.059494104 0.06578324 -0.014782896 -0.012699158 0.03377836 -0.008505814 0.019476922 0.010730599
관객 -0.050157502 -0.10678564 -0.10130832 -0.075836435 -0.083943464 -0.034519263 -0.047059417 -0.024251128 0.08302967 -0.04373273 -0.10512829 0.02213508 -0.05827849 0.07013572 -0.06783899 -0.07889079
배경 0.0201625 -0.016637545 0.0092447 0.009407926 0.0067729955 0.020934561 -0.03687647 0.03147718 0.006359644 0.01740093 0.041892458 0.012824627 -0.011249111 -0.02804176 -0.029427176 0.021305626
6 0.067279354 -0.03257177 -0.0011151198 0.027678562 -0.0024847942 0.03746224 -0.04001759 0.010044598 -0.036544345 -0.0071267276 0.05469002 -0.061897285 0.02975168 -0.045444436 -0.052104134 -0.009419954
초반 -0.05169761 -0.04807059 -0.018133774 -0.025786245 -0.029019732 -0.04361001 0.03511494 0.038795926 0.06384676 0.01679953 0.021423353 0.014639091 -0.10325508 0.08106895 -0.039055243 -0.071712926
사실 0.056725252 0.06590065 0.020307515 0.007654269 0.077654704 0.09921004 0.053650197 0.12222272 -0.02673177 0.100439206 0.07512662 -0.033345137 0.027413135 -0.07958835 0.026549155 0.028771337
웃음 -0.0020029242 -0.020117078 0.04663337 -0.029966816 0.054087147 -0.004044181 0.00028047094 0.0009703563 0.02128601 0.038038284 0.024408463 -0.033799846 -0.058015067 0.037481014 -0.000359701 0.010892478
답 -0.03382274 -0.026233815 -0.00996913 -0.029759021 0.0072379094 -0.07359636 -0.011573432 -0.011891009 -0.032564156 -0.03500289 -0.036194257 -0.005570861 -0.004022176 -0.04429797 0.024099896 -0.0085925525
엄청 -0.0065308106 0.048764333 0.008414272 -0.015705291 0.013050521 -0.037780605 0.04716775 0.034863565 -0.010790788 0.01674424 0.033124004 -0.02586327 -0.009986354 0.06522735 -0.028212626 0.044302665
더라 -0.06622323 -0.045205157 0.11410151 0.035169195 -0.028129105 -0.047003493 -0.022478309 0.012468686 -0.048173595 -0.026205974 0.0046516377 -0.039070893 0.019873172 0.02270283 -0.044530526 0.015264963
라니 0.021503266 -0.0805472 0.14902097 0.024082046 -0.01692428 0.029100914 -0.023829507 0.071222626 0.03215985 -0.049990296 0.04976517 -0.092687406 -0.03723368 0.07625575 -0.061723333 0.030065974
질 -0.060331102 -0.059701864 -0.019104123 -0.0067921244 -0.089173034 -0.021679206 -0.039410584 -0.05797215 0.10620991 -0.08146935 -0.0034740465 0.009247278 -0.073251314 0.12456279 -0.086809166 -0.020601058
자신 0.025346195 0.017584572 0.035724197 0.043443855 0.036429446 0.0073992545 0.030005196 0.014663264 0.015906023 -0.046239734 -0.03209131 -0.05284716 -0.043461896 0.04913921 0.00031316344 0.054639664
추억 0.039612506 0.13023576 -0.00315422 -0.0031703156 0.060471315 0.073350176 0.048235614 0.004307565 -0.081534445 0.07548215 0.0723725 -0.07382624 0.07720042 -0.1514873 0.07466201 0.033377476
캐스팅 -0.017899528 0.0022331343 -0.046557136 -0.038386337 -0.0038314771 -0.045074183 -0.06358586 -0.015321827 0.0971763 -0.068320915 -0.058622845 0.08260305 -0.0075039933 0.0110324975 0.013040724 -0.0789954
첨 -0.03441234 -0.13890213 0.028993264 0.04883176 -0.03977602 -0.033554003 0.04322778 -0.018196777 0.056126885 -0.06915174 -0.01223341 0.040685404 -0.06901005 0.09203333 -0.044322398 -0.038381666
멋있 0.13013798 0.11649914 0.10221653 0.07076342 0.06463732 0.063730866 0.14257668 0.10191487 -0.05575722 0.055321857 0.09997226 -0.1389175 0.08180496 -0.10099026 0.05093568 0.09026532
류 -0.033925727 -0.03375138 -0.06694958 -0.104989216 -0.11205516 -0.036553625 -0.059128955 -0.040626958 0.017812053 -0.022538552 -0.030373773 0.037587285 -0.02276247 0.06212216 -0.08821705 -0.046344243
어색 -0.10207431 -0.008037843 -0.083022594 -0.13208106 -0.1618835 -0.10135872 -0.12335868 -0.15025735 0.12229947 -0.15656106 -0.09892996 0.09826866 -0.047509894 0.11655657 -0.16502877 -0.12686628
시나리오 -0.06741214 -0.055373024 -0.045865078 -0.11592952 -0.10423792 -0.051188145 -0.09914935 -0.09345818 0.03552732 -0.022321275 0.011812328 0.05861157 0.01460557 0.038505483 -0.07444051 -0.088671796
머 -0.041789312 -0.010168365 0.0050750314 -0.067550704 -0.03984027 -0.030600265 0.013155043 -0.059655983 0.050023384 -0.07879562 -0.029703522 0.04004752 -0.01836778 0.031209577 -0.05234544 -0.014962214
밖에 -0.02146216 0.013874559 -0.038101636 0.0031287381 0.028240185 0.056788426 -0.0397731 0.034641143 -0.06327334 0.09113938 0.06577953 -0.062800705 0.07649367 -0.07832428 0.043421473 0.060706966
OOO -0.09927036 -0.16574608 -0.012196875 -0.08641062 -0.096348 -0.07585946 -0.14088885 -0.091304 0.069977246 -0.13506624 -0.049366686 0.10667574 -0.14385298 0.15027976 -0.19634372 -0.0865646
슬프 0.1049674 0.03133158 0.19907424 0.16824704 0.08744156 0.05309208 0.085209064 0.1545654 -0.0026502768 0.105550565 0.008653787 -0.13237926 0.027735675 0.03414387 0.07455863 0.108807355
정신 -0.079833254 -0.020885762 -0.040709566 -0.04253568 -0.052403256 -0.014616888 -0.07244834 -0.09391471 0.011030539 -0.015989013 -0.0009328553 0.0505544 -0.021727102 -0.021694504 -0.03064843 -0.05449217
분위기 -0.021191364 0.08473157 0.0077928454 0.025553958 -0.0027310979 -0.02703005 0.021280782 0.016679078 0.0043656193 -0.0016371255 0.0011015158 -0.006672302 0.03346417 -0.09869379 0.0136164 0.03587199
소름 0.1177632 0.15920997 0.09316206 0.12201947 0.13005427 0.1553364 0.071780786 0.11310714 -0.123126835 0.08387744 0.0498993 -0.053120818 0.07833533 -0.06515504 0.1425394 0.14635652
멋진 0.10028582 0.11871087 0.12615742 0.10955669 0.09013529 0.101782784 0.11821155 0.057578947 -0.0808816 0.098206855 0.14104716 -0.05293404 0.09146623 -0.14034626 0.092664964 0.07802134
힘들 0.034463033 -0.06169069 0.065245554 -0.024960289 -0.09156202 -0.021941382 -0.033141572 -0.04724715 0.09013463 -0.079772264 -0.048685417 0.03915426 -0.1399113 0.09932707 -0.037760977 -0.051243912
오늘 -0.011217966 0.058596857 0.026026674 0.077770084 -0.015153769 0.01167186 0.06686342 -0.0042892494 -0.013074044 0.029730832 -0.011636286 0.017463973 0.007648199 0.03624412 0.04415084 0.044698
어이없 -0.1488554 -0.16919903 -0.2191407 -0.14157553 -0.20309441 -0.15801251 -0.16818637 -0.189753 0.14899799 -0.14672028 -0.12739812 0.21388434 -0.14907232 0.09757413 -0.13351123 -0.1163406
봐서 0.048880886 -0.0148159275 -0.007636448 0.026406428 0.032435156 -0.015454704 0.040399298 0.0753406 0.026577586 0.028193118 -0.039001387 -0.026045632 -0.002556219 -0.00011431209 0.020345872 0.031152748
잡 -0.007880388 0.017913796 0.008023185 0.06638001 -0.012811432 -0.046190336 -0.007775667 0.01549812 -0.042968176 -0.037903804 -0.023978075 -0.036186658 -0.04651344 0.021043006 -0.04723288 0.035299465
구성 -0.009229952 0.020973932 -0.0043334 0.06778508 -0.026146678 0.030227182 -0.035530817 0.031663857 -0.03639138 -0.015586364 0.054757673 -0.0049481946 -0.029398862 0.05524282 -0.05724388 0.037426203
엄마 0.026756827 0.03466013 0.005535052 0.073423006 0.00023986874 0.06972054 -0.010274359 0.035003953 -0.05670041 0.036953308 0.092115484 -0.055248044 0.06053253 -0.05176371 0.03571375 0.050155424
함께 0.009399169 0.10572625 0.05888313 0.022552045 0.056504104 0.016642958 0.0044033513 0.012604818 -0.05455761 0.034520585 0.056766957 -0.020994103 0.045640916 -0.0024013927 -0.005491226 0.030008804
문제 -0.0015166904 -0.06587308 -0.032674238 -0.058440596 -0.068633996 -0.09208497 -0.04478267 -0.047720194 0.001616841 -0.00018073065 -0.062207043 0.049852435 -0.038077164 -0.04243341 -0.013342124 -0.020856872
위해 -0.01890111 0.0074707456 -0.0587038 -0.005842414 -0.004491488 -0.0023512708 -0.09859323 -0.042794462 0.02043629 0.0067686513 -0.010587641 0.02083271 0.0013071884 -0.048660964 -0.053249102 -0.07743561
졸작 -0.15578882 -0.26236182 -0.22395284 -0.15120226 -0.18158998 -0.22491932 -0.2148599 -0.14364706 0.16874751 -0.22160219 -0.258048 0.15345696 -0.2958361 0.26130223 -0.16925119 -0.20036131
잊 0.10346858 0.12857263 0.08862185 0.026725587 0.09544707 0.12520133 0.13777323 0.07288457 -0.07743796 0.1412548 0.09635562 -0.12378009 0.10594968 -0.12068134 0.083288945 0.122178905
이딴 -0.2286341 -0.192665 -0.2604222 -0.30153644 -0.2960481 -0.24566261 -0.2763481 -0.26496547 0.21041052 -0.24575622 -0.32906342 0.26724312 -0.17651235 0.1814841 -0.20165771 -0.20851696
등 0.04959486 0.053786457 -0.018673941 0.010104582 0.059051402 0.07076702 0.00886698 0.06693854 -0.08177353 0.05643228 0.07950232 0.0143032735 0.08669113 -0.10769773 0.020297715 -0.022344954
집 0.024626425 -0.005009596 -0.0028275843 -0.020168642 -0.03052447 0.036335133 -0.0110480245 0.050926123 -0.0020816366 -0.024565408 -0.06349307 -0.016005656 -0.072058916 0.021023745 0.0319745 -0.022869747
유쾌 0.10893988 0.15136856 0.13670574 0.07150348 0.08228435 0.135323 0.022707222 0.11120922 -0.10627354 0.08706946 0.098767385 -0.0925551 0.120401 -0.11012024 0.12833539 0.060303226
뻔한 -0.07517457 -0.16615155 -0.028264478 -0.088742465 -0.08736951 -0.08697271 -0.12135196 -0.09462552 0.17806849 -0.05732809 -0.08571091 0.10783534 -0.13481192 0.21208857 -0.09380667 -0.09313113
킬링 -0.013693711 -0.015314819 0.046913773 -0.0053745112 -0.007514989 0.043780785 -0.014027214 0.016546115 0.018022606 -0.0052754097 0.027889248 -0.046585105 -0.019772908 -0.013095886 -0.02441096 0.010095984
스러운 -0.00045878664 0.056909163 0.049853902 0.0074898493 -0.00037376632 0.008998863 0.060891762 0.04456724 -0.0035496212 -0.0092013255 0.039092813 -0.039961822 0.08015655 -0.017560493 0.035782803 0.086154245
결국 -0.060236 -0.011637554 0.008345583 -0.019637147 0.01466412 -0.005260046 -0.044811856 -0.009522172 -0.04298703 -0.034913663 -0.0214792 0.00016538794 0.017340958 0.02204879 -0.034281 -0.053604186
낫 0.020331647 0.03364499 0.027748808 -0.02672841 -0.0070064873 -0.022280851 -0.014411425 -0.00093515194 -0.034133885 0.0129819205 -0.018482985 -0.0024502876 -0.009336003 -0.045256622 0.050850984 0.025018282
