9996 16
. 0.029376958 -0.040321402 0.01719322 -0.033651102 -0.008359304 0.026162831 0.021806713 -0.058403663 -0.053197622 0.021257961 -0.03581422 -0.020512732 0.03180671 0.0055849883 0.038882032 -0.026135283
영화 -0.0144032715 -0.035162464 -0.054719336 -0.06569109 -0.033975877 -0.008536102 0.008180117 -0.039868794 -0.0066819233 -0.012482858 0.03606316 -0.03915994 0.060142905 -0.006188001 0.04331287 -0.07160387
다 -0.016988084 0.014526003 0.06588325 -0.049491793 0.013458414 0.04926518 -0.0434145 -0.056647856 0.050451923 0.02759553 -0.05048366 -0.031962417 0.038935017 -0.0811896 0.040540885 -0.055444613
고 0.02793259 -0.012268118 0.02011622 -0.010535725 0.050953686 -0.020247856 -0.0048972084 0.070161924 0.04918343 -0.07890862 0.019248994 -0.03282488 0.04368768 0.026018068 0.0070575653 -0.007362647
하 -0.020702053 0.021119822 -0.065104805 0.010717951 0.03632654 -0.011742519 -0.047260895 -0.0062053115 -0.07462882 -0.031002544 0.043348864 0.04573838 -0.046963245 0.00069696223 -0.013883575 0.025321672
을 0.029820208 0.03725284 0.027632266 0.042180132 -0.0017862013 0.0059736893 0.008023105 -0.04648378 -0.006475019 -0.085719705 0.024084864 -0.0025660992 -0.030558204 -0.027656438 -0.023956448 0.016108055
보 -0.027864 0.0225017 -0.018680422 -0.0746235 0.004630691 -0.0010652906 -0.0073167467 -0.028467886 0.02512344 -0.0038530203 -0.00794117 -0.021136282 0.022175582 -0.020461498 -0.0054071518 -0.007165814
.. -0.067856826 0.053660918 -0.0035204524 0.002163826 0.043681454 0.07033758 0.07107828 -0.014717414 0.011588596 0.006208104 0.015202567 -0.035700355 -0.023720818 0.020585464 -0.0555702 0.053734742
게 -0.03332259 -0.025062243 0.020946313 -0.065220416 0.019896105 -0.030703539 -0.045497186 -0.0004284664 0.02481156 -0.027748113 0.0075261 -0.05436123 0.034711685 0.04658684 0.004290242 -0.016248709
, 0.0016617405 -0.021407738 -0.020844199 0.011267084 -0.010418532 0.019010678 -0.032891367 0.008813353 -0.03436455 0.021608692 0.040603258 -0.05472456 -0.012843066 -0.017948458 -0.007935087 -0.015260375
! 0.015651288 0.02030549 0.06523385 -0.103606395 -0.053808633 -0.034533713 -0.014123651 -0.05137408 0.05025923 0.007829209 0.021559449 0.022753868 -0.0019310444 0.029258076 0.076575525 0.018914577
지 -0.0020053317 0.095338814 0.010102095 0.006441416 0.072347 -0.004236074 0.05812242 -0.061306085 -0.12543912 -0.030841056 0.023113076 0.06984145 -0.06900274 0.031657666 0.05753919 -0.0056119645
있 -0.03890603 -0.005917251 0.043974094 0.01962977 0.025510333 0.005152935 0.026823292 0.07114941 0.016182194 0.084139295 0.12940626 -0.02544404 0.012205721 0.054841593 0.0098852 -0.04092386
없 0.056756932 -0.06633643 -0.034597512 0.08140907 0.013243158 0.0029256686 0.11364138 -0.09110272 -0.17604621 -0.011923093 -0.048171867 -0.020890083 -0.13681985 -0.012547987 0.02888412 0.10918032
? 0.04689193 0.02718935 0.015740993 0.091837056 0.08695472 0.015900034 0.06949053 -0.048804402 -0.016589373 0.023197979 -0.021162279 0.028776718 -0.03158206 0.030566704 -0.03588357 0.119560674
좋 -0.05899604 0.044367522 0.09862747 -0.12495122 -0.020854937 -0.046594888 -0.031327356 0.048917584 0.07345357 0.07822064 0.10583848 0.011318048 0.0680493 0.086456254 0.08602826 -0.035610028
나 -0.048321903 -0.0074175517 0.07037873 0.005951844 0.05000084 -0.014333957 0.050749756 0.016532097 -0.026944958 0.002205112 -0.07006577 0.02696981 0.0012122297 0.113871485 -0.03666037 0.03908342
었 -0.026969431 -0.02547049 0.057967786 -0.059917152 0.0007408167 -0.034109674 -0.013664839 -0.016807104 0.017179828 0.0010202487 0.051921673 -0.04476682 -0.011854685 -0.015195477 0.02574816 -0.08527325
만 0.034189567 -0.018685836 0.031352043 0.06948422 0.033586793 0.019512186 0.05471597 -0.01530197 0.0008250931 -0.082133725 -0.07035149 -0.018335672 0.0071530165 -0.038182635 -0.019120323 0.07753455
는데 -0.05239782 0.074542865 0.09729603 0.005965565 0.09718651 -0.009333982 -0.053468306 0.025116116 0.003898586 -0.043656603 -0.03775255 0.042557813 0.02237008 0.02595214 -0.024203649 0.02716769
너무 -0.02410779 0.07162992 0.07483287 -0.101046845 0.05871725 -0.0041917954 0.048441365 -0.03882186 -0.018225474 0.038889617 -0.06831891 -0.17613372 -0.06319083 0.029097278 -0.08212514 -0.13040052
봤 -0.02776087 0.05896248 0.054990634 -0.044694062 -0.00091173465 0.056303013 0.012715095 0.03511619 -0.0007053423 0.009359167 0.026850354 -0.038284313 0.017483015 0.023570098 0.0769297 -0.0055435197
적 -0.070277706 -0.005637355 -0.04486031 -0.057980668 -0.05449495 0.029313449 -0.08191566 -0.019611275 0.01344703 0.06258829 0.016705165 0.0006118064 0.052707125 -0.03179029 -0.044519205 -0.009581263
안 -0.018010678 -0.057014495 -0.03342546 0.16323783 -0.035072953 0.06211917 0.047209952 -0.018301437 -0.013024929 -0.017801942 -0.010416632 0.14173411 0.003947775 -0.12976007 -0.0754647 0.017168656
정말 -0.0057350243 0.01207134 0.142422 -0.022269642 0.013058051 -0.031212155 -0.030080628 0.0070333807 -0.0111377165 0.007610068 -0.034497306 -0.030100556 0.0014134834 0.015053056 -0.012918272 -0.09332971
로 0.016333675 0.0015236406 -0.017839396 -0.00979597 0.048709158 0.07829578 0.02073334 0.0041463496 -0.020674478 -0.004089327 -0.00066368375 0.02841704 0.009635957 0.008392784 -0.011761107 -0.06594086
음 -0.018489266 0.008299404 0.02750305 -0.08725758 -0.061607305 -0.037344813 -0.04450603 -0.037618615 0.0038919784 -0.047116827 -0.019623963 -0.12158935 0.057246774 -0.018849524 0.031206483 -0.045439966
것 -0.056669228 -0.0019163188 0.03841322 0.012985664 0.033380948 0.028745456 0.08656703 -0.045185346 -0.020893864 0.056124464 0.023076601 0.08288687 -0.0050913403 -0.046560656 -0.014227544 -0.01148594
아 -0.03646325 -0.009033892 0.03696793 0.011553419 0.0019951311 0.0025151302 0.024461955 -0.031011427 -0.04765097 0.017189214 0.004818663 -0.053485047 0.02224657 0.008038407 -0.026797049 -0.013645117
네요 0.03388721 0.017807715 0.058475543 -0.060767595 0.007472376 0.0055543496 -0.09866732 -0.009603033 -0.019151447 0.0036212376 -0.0041688657 -0.03379416 0.07158437 0.04390973 0.042050574 -0.00025263036
재밌 -0.16867445 0.17068225 0.14690687 -0.08082554 -0.031513527 -0.031777136 -0.121306635 0.10575199 0.13273549 0.13922477 0.03152643 -0.03912846 0.091163844 0.13905726 0.017756604 -0.14710447
어 -0.08526206 -0.008527118 0.07827425 -0.008545163 0.065352924 -0.03491703 -0.052292738 0.083902754 -0.005262175 0.04041478 -0.10111681 -0.048789937 -0.0116772745 -0.038086962 -0.010750893 -0.00553183
같 0.010486091 -0.01701199 0.013691981 -0.024980007 0.0315965 0.045136187 -0.02883217 -0.037370548 0.0784677 -0.010326507 0.015722075 -0.026475172 -0.017059932 -0.044829443 -0.03671146 0.025151612
점 0.09563474 -0.02382608 -0.03851175 0.054666482 0.009445807 -0.09369515 -0.02273818 0.0046827677 0.10796044 0.034571126 -0.09241673 0.04517709 -0.038311094 -0.13007048 0.04143107 0.01614808
지만 -0.0700234 0.020139467 0.113764465 0.05146919 0.09748832 -0.100563765 -0.043461923 0.06570277 0.0008152389 0.03673872 0.020721521 0.018650925 -0.011878071 0.12420415 -0.11564962 0.021050796
진짜 -0.047876183 0.0422682 0.032442193 -0.00031439867 0.05632967 0.033608742 -0.021803334 0.026808413 0.0014857271 0.020154253 0.012339248 0.04632559 -0.027783083 0.050768487 -0.051502675 -0.107999675
했 -0.04069235 0.0013529933 -0.016342165 0.029511843 0.05157571 0.03865178 0.005337231 -0.07900536 0.031248929 0.02243288 -0.0029553713 0.040033545 -0.028427558 0.008366545 0.0069957813 -0.035600778
에서 -0.069528945 0.012201386 0.011760804 -0.032297242 0.024644086 0.014097367 0.04096943 0.03711173 -0.020668205 -0.03308099 0.06528111 -0.009748642 0.010908465 -0.006910024 0.05741272 0.007766658
기 0.06482107 0.008576369 -0.0738236 -0.02996635 -0.050848234 -0.037937716 -0.05005048 0.016353229 -0.1073001 -0.07869639 0.011188686 -0.017186694 0.021423772 0.007239125 -0.036510546 -0.028867196
네 -0.11296746 -0.005568778 0.039616346 -0.05488276 -0.076260425 0.079737306 -0.11164439 -0.025868954 -0.010075968 0.012228613 0.0202658 -0.021588597 -0.01650822 -0.008621919 -0.037939593 -0.033870503
않 0.031145817 0.09073262 0.021726962 0.13923557 0.18091947 -0.17363128 -0.019700665 -0.0011044372 -0.019959614 0.028145703 -0.013587799 0.08473671 -0.08673448 -0.014372505 -0.028999874 0.019331137
거 -0.0180457 0.027658483 0.063088134 -0.07482345 0.039843485 0.01425781 -0.08580793 0.008026736 -0.07089124 -0.085049294 0.024564352 0.0614389 -0.013753249 -0.007887101 -0.005983952 0.023389895
았 0.0115854 0.026952423 0.09516603 -0.04186632 -0.028321132 0.043257143 0.02036973 -0.018558176 0.0077245175 -0.005673166 -0.030782303 0.0003049017 -0.04286757 -0.035647627 0.046282895 -0.012459195
수 0.0053809066 -0.03193001 -0.020772023 0.07502562 0.026675314 -0.041622065 -0.072697416 0.0067404755 0.025705883 0.006361843 0.045605265 0.0910462 0.0046718135 -0.042027503 -0.00010959676 0.012296641
되 0.07094836 0.028036464 -0.04418454 -0.0049597663 0.0725758 -0.0011206168 -0.059878424 0.0011914265 0.04182925 0.07708062 0.040981866 0.054183394 -0.035485014 -0.008857176 0.020918489 -0.09187771
면 0.017091662 -0.010726665 -0.030351399 -0.0012532243 -0.09031419 0.04188457 0.02605615 0.027438395 0.06295601 -0.023092296 -0.0036340992 -0.046777938 0.013067986 -0.012962668 -0.04631186 0.015063129
ㅋㅋ 0.039624855 0.03830249 -0.025236763 -0.011487395 -0.012997396 0.038858905 0.025808085 -0.0038914909 0.036413662 0.026882226 -0.057571925 -0.0071827276 0.0157078 -0.03585254 0.029694399 -0.051499825
말 -0.036940932 0.0027320876 -0.04660829 -0.060552564 0.0068508433 -0.093831554 -0.020733194 -0.036978427 -0.042641252 0.00812114 0.036296 0.09214446 -0.1161596 -0.019684263 0.014454915 -0.056250576
연기 -0.020198226 -0.012839694 0.122235335 0.034929074 0.04302144 -0.046259884 0.027508281 0.0783718 -0.03909771 0.042496383 0.022362184 0.0063500497 0.024685534 0.03388608 0.0148670105 0.018816847
인 0.061386716 -0.0066635744 0.033441644 0.034247506 0.03629146 0.037854236 0.01608873 0.042899154 0.0017947691 -0.033737797 0.049613547 -0.071610145 0.08318995 0.0007505844 0.0049271765 -0.01743091
주 6.565098e-05 -0.033642408 0.0042271623 -0.10674348 0.0044308132 -0.015954738 0.005017388 0.06786523 0.06389039 0.0035348446 0.021754008 -0.07713343 0.058259156 0.07464727 -0.015095665 -0.038178395
내 0.048647862 -0.07714801 -0.0016943436 0.061134525 0.027145764 -0.01654229 -0.0055121267 -0.011727828 -0.058467854 -0.031354535 -0.04017454 -0.024429308 0.023607483 0.08778326 -0.07175637 -0.10749193
최고 -0.04578984 0.12156699 0.04245742 -0.07829209 -0.0909976 -0.20692177 -0.081114575 0.11877057 0.13662377 0.09853093 0.12580936 -0.08519671 0.12431516 0.13266993 0.14371413 -0.14945905
~ 0.022558441 -0.03336134 0.035208035 0.028995156 -0.028240083 0.011336183 0.02172314 -0.050523568 0.05651424 0.09476646 0.024902118 -0.019148493 0.0086772945 0.015630703 -0.008574066 0.023965409
평점 0.11878006 0.07233021 -0.028795846 0.040389095 0.045579385 -0.10582477 0.028820392 0.048483573 0.094741285 -0.02033413 0.042131074 -0.002052717 -0.054382153 0.021590466 0.010301683 0.077787034
이런 0.006715166 0.0038884324 -0.05810432 -0.0355507 -0.033599187 -0.08370744 0.049198866 0.013731757 -0.09884253 -0.060467146 -0.0030818812 -0.13209464 0.024147103 -0.0092444895 0.04505523 0.03944328
던 -0.020979172 -0.00036721243 0.058452517 -0.05218428 -0.011730283 0.005753993 0.054627392 0.013550085 -0.023188723 0.044579934 -0.027475359 0.020341923 -0.008094412 -0.00029625444 0.008317774 -0.008483671
어요 -0.068505466 0.019022454 -0.01146461 -0.11233914 -0.10810936 -0.10204122 -0.121015675 -0.13746038 0.047208525 0.06657785 0.0149467755 -0.0155815985 0.09847455 -0.017805198 0.07965475 0.016815297
할 0.024635602 -0.010370986 0.035082467 -0.012759961 0.021245372 -0.0492544 0.016052827 -0.012646266 -0.01723165 0.047433745 -0.019908708 0.12418113 -0.07645365 0.0038721948 0.03269908 0.082684666
왜 0.017609708 0.06737332 -0.081896484 0.18754095 0.018636947 -0.11085612 0.11907876 0.042845927 0.026812112 0.007209153 0.014510364 0.02847759 -0.0010339441 -0.011034515 0.018068984 0.030789196
겠 0.03597287 -0.042208537 -0.03059477 0.02497282 0.04418383 0.026237018 0.04309266 -0.07744192 -0.011426743 0.0014486376 -0.009963959 -0.020101601 -0.08855212 -0.06667941 -0.038305614 0.105989866
1 0.009545612 -0.12331297 0.016186252 0.071773894 0.042694554 -0.010451866 0.052996498 0.003945598 -0.06889173 -0.065816626 -0.037452623 -0.012406622 -0.078382835 -0.07366865 -0.09019958 -0.048835553
스토리 -0.03405456 -0.09542372 0.042528797 0.013292072 0.019141434 -0.024926858 -0.05692138 -0.07588586 -0.014372571 -0.062992975 -0.052346334 -0.14691009 -0.08893485 -0.060213044 0.015887957 0.031046938
해 0.02813236 -0.034290224 0.016859109 0.052058358 0.041998133 -0.08780754 0.07400604 -0.023627179 -0.0060035796 0.04328547 0.003063421 0.034212664 -0.0116262445 0.028267277 0.038809296 0.036446273
습니다 -0.05961793 0.027118154 0.0562533 -0.04108678 -0.07846071 -0.054083604 -0.011817471 -0.051345408 0.038949363 0.0028990407 0.0527932 -0.030024065 0.080308914 -0.028186496 0.013977795 -0.018755332
ㅋㅋㅋ 0.02530778 -0.0427898 -0.007146127 -0.08301136 -0.0021545938 0.041259713 0.002617303 0.01717859 0.07164319 -0.043716352 0.0056614378 -0.02638072 -0.013699935 -0.021788482 0.0593296 0.030600099
... -0.054841813 0.107880145 0.07921401 -0.08081083 0.0012880221 -0.016433641 0.06373639 -0.054739945 -0.0008329148 -0.0647262 -0.011237606 -0.046187073 0.02018597 -0.029208723 -0.015804771 0.053935084
드라마 0.042773943 -0.04846847 0.09009921 -0.061806854 -0.07148054 -0.019455686 -0.007042486 0.03233036 0.066571616 0.029261263 0.014218972 -0.035360485 0.020041546 0.0028583873 0.07536343 0.029601485
생각 -0.11909485 -0.045130838 0.112010434 0.08771468 -0.08907329 0.06484906 -0.038454685 -0.0119954655 0.04566002 -0.009969156 0.04445182 0.07844469 0.06854747 0.012413228 0.08182903 -0.07074932
아니 -0.004086922 -0.043487284 -0.0102811605 0.22034617 -0.0039056242 -0.10303366 0.01931239 -0.058124993 -0.05497898 -0.044305425 -0.0009259678 0.06539518 -0.02319814 -0.05098899 -0.05345491 0.079985105
더 0.046768457 0.027653629 0.03903095 0.0139278285 -0.0013659383 0.011129189 0.10490926 0.016552864 -0.012779202 -0.048992507 0.0054858606 0.06788252 0.05257976 -0.021216724 0.10653889 -0.004423815
그 -0.06389202 0.036196474 -0.067372605 0.030644588 -0.0047374917 -0.029423514 -0.11658276 -0.057067797 0.039266802 0.02376543 0.017251197 -0.011247664 0.006673886 0.0020610786 0.011047 0.061871357
싶 -0.12089609 -0.096683756 0.06075706 -0.044560213 -0.10862934 -0.064464 0.056873623 0.0819306 -0.0006149848 -0.0002514067 -0.008295426 0.017779874 -0.08806909 -0.026757266 -0.031533454 0.06517142
사람 -0.021164767 -0.025741685 -0.03133537 0.082594715 -0.0007443403 -0.004482828 -0.054705378 0.09039311 -0.010092612 0.026030676 -0.02483109 0.07836967 0.031241003 0.0016668304 -0.020719124 -0.05799888
듯 0.036624424 -0.026692558 -0.025112953 -0.07843289 0.041595876 -0.03409802 -0.020727227 -0.0381931 0.06178291 0.007020801 -0.061227586 -0.025306934 0.002135041 -0.0018925098 -0.04313978 -0.024883183
때 0.0023574994 0.045233518 -0.0670983 -0.022733975 -0.040451925 0.0027331773 -0.014918423 -0.017881826 0.0746837 -0.03362512 0.019936047 0.05605696 0.006084211 0.043969553 0.0026360762 -0.08965752
감동 -0.089855224 0.09359887 0.19352466 -0.113252275 -0.03268668 -0.028275192 -0.004340342 0.024831742 0.11807113 0.047167297 0.0925034 0.036946945 0.06540817 0.14131531 0.05883713 -0.08538088
함 -0.030935861 0.036882423 -0.05378332 0.026750745 -0.004761709 0.00040574744 0.048190124 -0.05362318 0.05016454 0.02799674 0.08369182 -0.078363575 -0.0031827202 0.049219303 0.066250905 -0.0746806
배우 -0.030011505 0.025413362 -0.012912413 -0.004659513 0.1088109 0.02243484 0.106820546 0.04745538 -0.029281685 0.07086127 -0.049007233 -0.030253585 0.018590394 -0.06485265 0.011298781 -0.0010526306
본 -0.06349725 -0.0020915247 -0.017145025 0.013925811 0.005202329 -0.02274141 0.0114313355 0.081741385 0.012007115 0.07765431 0.06171574 -0.031413577 -0.082066886 -0.04734079 -0.019692417 0.018397313
까지 -0.00021056105 -0.017206527 -0.025210764 -0.012393428 0.03489573 0.038453627 0.01963901 -0.016712278 -0.059755802 0.07818938 0.058415428 0.028024146 -0.0018923164 -0.058876544 0.053505126 -0.037949827
뭐 0.11069833 -0.012050285 -0.031083154 0.117252484 0.00071299507 0.067192145 0.034165025 -0.03855997 0.06072767 -0.02107518 -0.021036167 0.062287323 -0.016848633 -0.023775857 0.021839367 0.0013381122
알 -0.04070762 0.05168503 -0.011199505 0.0010897343 0.030853545 -0.009411282 0.03205753 0.03931825 -0.10677788 -0.02662906 0.01879312 -0.051651996 -0.027857697 0.0067747263 -0.04241269 -0.0028752428
만들 -0.034341212 -0.049827397 0.052968245 -0.12680629 0.06332041 0.06432373 -0.003341291 0.014900462 -0.005685817 -0.037984606 0.0022094129 -0.06467957 0.038221557 0.04315047 0.02344862 -0.09097159
내용 -0.011282411 0.043086715 -0.050251633 -0.010114826 0.06603599 0.10301822 0.04972733 -0.051841006 -0.006801266 -0.0149519695 0.03617392 -0.016375696 -0.100817524 -0.013117468 -0.014848508 -0.02068515
볼 0.010579387 0.101485245 0.07076919 -0.028738288 0.008228247 0.052865196 -0.07399649 0.02869153 0.028690986 0.00695565 -0.009164822 0.0388328 0.1437162 0.104998745 0.09081482 0.09054704
감독 0.07076056 -0.009300651 0.03286099 -0.04371129 0.038802214 0.05423077 0.09450574 -0.0403261 -0.08004286 -0.070302844 -0.04019987 -0.032588344 -0.075284496 -0.047302064 -0.066693 0.030820927
보다 0.014820893 0.03488852 -0.06499094 -0.006117882 0.013780568 -0.048685182 0.033307623 0.013164043 0.05611285 0.03814974 0.018324334 0.009161839 -0.025721736 0.11378599 -0.0463489 -0.08031399
라 -0.01069298 0.025186624 -0.073924124 0.092118464 0.026690563 0.02894355 0.048822425 0.0059321118 -0.11569882 0.08591937 0.028427942 -0.06650607 0.04470364 0.06526884 -0.016709605 -0.025030639
그냥 -0.039653387 -0.03165977 0.07336446 -0.07735514 0.045990508 0.064921625 -0.022367178 0.057744086 -0.003899829 -0.05330209 -0.05588531 -0.1393535 -0.043579992 -0.009734849 -0.0012356301 0.025007593
재미 0.05166745 0.071790785 0.08035971 -0.09727899 0.054243933 -0.06859341 0.048132844 -0.038526196 -0.02418683 0.14130136 -0.033866443 -0.07565557 0.010564337 0.057239667 0.0015250562 -0.14828652
시간 0.021145139 0.004587943 -0.049844723 0.04377234 0.010165535 0.061209116 -0.014238633 -0.017279243 -0.061528336 -0.044785243 -0.079320736 -0.1055728 -0.035385124 -0.07241179 -0.022373354 -0.018041534
지루 0.011865391 -0.02295422 -0.06525249 0.13598396 0.039422028 -0.008646193 -0.02464082 -0.12708801 -0.12724446 -0.14614658 -0.07051653 0.17801844 -0.11101652 -0.08612496 -0.046892047 0.119610764
중 0.0758556 -0.049238432 0.024624867 0.014286867 -0.040435247 -0.0815423 0.002253661 0.009544575 0.025990887 0.005202226 0.04135435 -0.03405662 -0.008151659 0.02497375 0.050588556 -0.022759855
재미있 -0.113379724 0.13803513 0.049283456 -0.11130951 -0.07184323 -0.030417562 -0.069197774 0.07414354 0.09752091 0.101532385 0.08685237 -0.06232721 0.12188638 0.13658407 0.050660715 -0.11609147
년 -0.057946127 0.040631406 -0.02996875 0.07938731 -0.020088002 -0.07801236 -0.011024955 -0.09394872 0.034983184 -0.016610725 0.08415807 0.126395 0.015407229 0.015084499 -0.071058474 0.019852186
10 -0.07087707 0.05323022 0.005011453 -0.19053376 -0.091177516 -0.039287873 -0.13367341 0.063189894 0.09087559 0.099282674 0.06579554 -0.008098032 0.14183371 0.021450683 0.12592976 0.049581565
였 -0.02447941 0.014741041 0.030535642 -0.011857698 0.010774835 -0.017531827 -0.036046788 -0.0061663124 -0.05040184 0.09067297 0.05339834 0.04271027 0.058658205 -0.06911709 -0.013371848 -0.0124216555
잼 -0.05903572 0.10754725 0.09421005 -0.12079349 0.040886164 -0.14002444 -0.07232149 0.06468371 0.03280917 0.04555181 0.01725863 -0.063499466 0.1071392 0.11924336 0.034057137 -0.16590372
사랑 0.0041545974 0.055762812 -0.044450417 -0.056707688 0.014557164 -0.08012767 -0.07003695 0.042152572 0.09309783 0.05167028 0.06127924 -0.04033693 0.1029076 0.09905292 0.051630747 -0.05802888
못 0.07767971 0.06391877 -0.08146227 0.15457785 0.016810723 0.0066400105 0.06511473 -0.076389216 -0.088404626 -0.034949522 0.01480163 0.069516234 -0.0027732754 -0.061376635 -0.012230641 -0.0067233117
냐 0.015200382 -0.06276278 -0.035436407 0.111148015 -0.023916189 0.11417344 0.07145939 -0.0029246388 -0.041265342 -0.053482104 -0.07411561 -0.0895674 -0.11475142 0.03110074 -0.09212562 -0.0346583
재미없 0.08043835 -0.08698848 -0.07778366 0.13487007 0.02141439 0.019545006 0.14139307 -0.0839506 -0.026539758 -0.05691219 -0.07581633 0.20954554 -0.09082412 -0.10749215 -0.038900327 0.15752031
쓰레기 0.072429284 -0.0663646 -0.033677112 0.11036735 0.073563054 0.02914063 0.03128944 -0.15850474 -0.12279863 -0.1198941 -0.15219094 0.038994025 0.013736883 -0.14926271 -0.056721997 0.15054685
서 0.054309297 0.021282967 0.033095766 0.069169536 0.03131252 0.04126217 -0.022116326 -0.019901503 -0.021736184 -0.03860321 0.075007915 0.026153423 0.0030926766 0.07474281 -0.000105985746 0.024496786
2 -0.0101178475 -0.02610139 -0.028619068 0.0032511326 -0.009353007 0.030584937 -0.02418731 -0.0037695146 0.018310236 -0.06122565 0.017313225 -0.08349908 -0.09372234 -0.06453335 0.01414394 -0.05637561
라고 0.031443566 0.011768382 0.023557276 0.14616728 0.05614598 0.05827502 -0.037569907 0.13009934 0.037887916 -0.04983723 0.0069687404 -0.06913797 0.016451811 -0.02235334 -0.13391341 -0.040264457
야 -0.0157407 -0.05700823 -0.06346217 0.010488035 0.019497132 -0.031286757 -0.08484813 0.062164433 0.032555576 0.009407991 -0.02384196 -0.0144921895 0.041632764 -0.08288768 0.007921713 -0.012455803
니 0.028363641 -0.065511376 -0.054539856 0.042416297 0.051559214 -0.051208694 0.0020718835 -0.0006143392 -0.062255442 0.047066595 0.028611958 0.010262053 0.015487308 -0.036541753 -0.0042463206 -0.06331907
면서 0.006725946 0.039314978 0.025222804 -0.020934185 -0.034079347 0.0044659497 0.04698549 0.08147823 0.123961076 0.032727502 -0.019237127 -0.034334864 -0.07391784 0.0151359495 -0.027235098 -0.007682822
번 -0.037984215 -0.029611835 0.01750448 -0.027187893 -0.053914376 0.00057419826 -0.05865486 0.028732324 -0.028061775 0.076355524 0.09216349 0.033627 0.046928868 0.03360351 0.057530656 0.015829137
다시 -0.004882572 0.046731878 0.07454858 0.06936815 0.07071378 -0.09135194 -0.010786367 0.030605633 0.063681334 0.024287598 0.03997142 0.004479095 0.046339683 0.03980712 0.12086825 -0.05106468
나오 0.105614014 -0.0013244363 0.014233216 0.0565016 0.030579379 -0.043306503 -0.008209985 -0.012597479 0.03471921 -0.032540187 0.0416695 0.024370657 -0.04712761 -0.019733503 0.06391207 0.019471927
작품 -0.035153028 -0.04000535 0.035634067 0.024841785 -0.038147714 0.035583448 -0.03359115 0.00886826 0.012382354 -0.087596305 0.1459249 -0.047264542 0.006688037 0.07307061 0.026668163 0.0040223985
이거 0.0281049 0.0063718418 0.018400049 0.037940703 0.011171894 0.006254972 -0.07283874 0.02387726 -0.04966158 -0.0047848695 -0.03811486 -0.016700657 -0.05646756 -0.018457592 -0.037008774 0.01734097
하나 0.0017462799 -0.03825652 -0.06678653 0.013404123 0.0077893813 0.002766687 0.021791134 -0.084583715 -0.012703092 0.030156258 0.028184503 -0.063681215 -0.056661 -0.0017313566 0.015817363 -0.0016903321
줄 -0.033137478 0.032422584 -0.0025871852 -0.05840433 -0.0030990008 -0.015311266 0.1433872 0.0001285983 -0.01214142 0.035740647 -0.02953191 -0.004078237 -0.055509403 0.023008049 -0.04194475 -0.019535562
해서 0.035706926 -0.06913157 -0.039967347 -0.026765699 0.011690556 -0.03525767 -0.003196783 -0.006321838 -0.06039132 0.051194552 -0.06759355 0.096142575 0.1169587 0.02349439 -0.08063831 -0.049965765
개 0.05551274 0.104515664 -0.090212986 -0.054238167 0.058817916 -0.008114048 -0.002829694 0.030334342 0.051353533 -0.052197117 -0.1012632 0.024606032 -0.00111013 0.014300461 -0.048663758 -0.011632243
남 0.03278839 0.008647552 -0.018617421 0.0036482029 0.010993139 0.020862339 0.07931037 -0.020145968 0.08948537 -0.02841756 0.013853236 -0.020260686 0.09339646 0.07618214 0.061808765 0.037265893
정도 -0.05130703 -0.03790659 -0.0019153297 -0.02785997 -0.016624467 -0.03342389 0.02671674 -0.028460132 0.09193578 -0.062460613 -0.03371698 -0.038157217 -0.033204045 -0.03131073 -0.021117361 0.010909169
마지막 -0.13150522 0.032327127 0.02014009 -0.09672332 -0.05228059 -0.021100018 -0.036225464 0.006298615 0.0009696403 0.01821692 0.025761165 0.02291586 0.002639225 0.016111746 0.08207016 -0.111434676
끝 -0.025298374 -0.11612106 0.07930076 -0.023423547 -0.015299078 -0.020721434 0.020104997 -0.10424427 -0.013955301 -0.030699883 -0.06222141 -0.019875344 -0.07147702 -0.073045224 0.0040955115 0.089050174
이건 0.0016955981 -0.09411067 0.035222724 -0.008319011 0.08060487 0.046236232 0.027114818 -0.021447692 -0.08680633 -0.0135737 -0.075924546 -0.122593805 -0.09471721 0.015162292 -0.04535876 -0.008147052
액션 0.024955558 0.035047673 0.12414227 -0.05768807 -0.025878685 -0.012980172 0.010953159 0.044139028 0.08439219 0.02755373 0.060889658 -0.025766952 0.038024455 0.017315956 0.054987736 -0.057444654
임 -0.07577804 -0.008621293 0.036769897 -0.01515218 -0.024410795 -0.0267042 0.068654165 0.009465155 0.049005616 0.03939586 0.07792825 -0.12581502 0.023570243 0.040203042 0.04977091 0.028451245
ㅋ -0.0089244535 0.019444617 0.030300176 0.029612228 -0.03301578 -0.01365082 -0.08028688 0.0006398632 -0.033567447 -0.067788534 0.038303528 0.016847169 0.014663919 -0.069197945 -0.02405276 0.0039431048
3 -0.06688277 -0.0048210206 0.06775766 0.03441213 -0.003632393 0.068457454 -0.0098361205 -0.041584775 -0.023797186 -0.017144898 -0.03562494 -0.03550601 -0.086266786 -0.07478072 -0.0688024 -0.07447808
기대 0.08748231 0.044999957 0.02915639 -0.07157535 0.09334405 -0.024673687 -0.04444342 -0.05253331 -0.06807231 0.021010123 -0.027464885 0.13504775 -0.005087782 0.05499284 0.035891112 0.057764236
입니다 0.014624758 0.022971464 0.13202526 -0.034934934 -0.074108325 -0.015992567 -0.17352296 -0.17981963 -0.017697211 0.04487912 0.10203026 -0.0707619 0.0016150414 0.062498886 0.059026513 -0.04397288
건 -0.05241096 -0.045228794 0.021791723 -0.028413875 -0.021896644 -0.0071075913 -0.038338386 0.0058558863 -0.050096974 -0.06090043 -0.08949943 0.05989385 0.011604294 0.042280525 -0.120783634 0.0047863186
라는 0.042070664 -0.06928496 -0.0003836874 0.030658148 -0.054424997 -0.043494765 -0.047796544 -0.074687354 -0.06734791 -0.046345394 -0.06533514 0.054106504 -0.0011576151 -0.021225616 0.04375846 0.012334712
분 -0.014121307 -0.09664874 -0.09181795 0.060723707 0.05447707 0.054833 0.043237094 -0.045497555 -0.116482235 0.054185603 0.024920197 0.024412084 0.016094523 -0.05988185 -0.021223381 0.009367094
완전 -0.04731812 0.06691208 0.04170926 -0.031938046 0.04409584 0.011374825 0.02924363 -0.022122523 -0.055054735 0.052814595 -0.012506619 -0.13557686 -0.11934363 0.09740586 -0.030184792 -0.14535944
다는 0.015087182 0.022619465 0.0043535377 0.08646096 -0.012316742 -0.08499794 0.11378111 -0.014776018 -0.011785918 -0.003975479 0.031637926 0.069977336 -0.029961698 -0.025997657 -0.102168 0.034339737
참 0.025045509 -0.019985422 0.052110583 -0.08709036 0.06690775 -0.013061809 -0.06521885 -0.0070578028 -0.04606316 -0.075728014 0.066925146 -0.08201225 -0.052935213 -0.039830845 0.03956379 -0.09720412
많 -0.01957149 0.06540212 -0.03952401 0.11692282 -0.09949139 -0.103552334 -0.003113768 -0.046395652 0.017426861 0.024846537 -0.00236165 -0.0450957 0.027427034 -0.047156792 0.07890562 0.005077168
처음 0.029373368 -0.048943132 0.02805844 0.051716022 -0.07441846 0.011813241 0.009356548 0.105541795 0.005207098 -0.041200545 -0.0431045 0.09696044 -0.039260533 -0.013505946 -0.022110963 0.07782052
장면 -0.031675957 0.003837621 -0.008722231 -0.008968973 -0.0022875343 -0.0034331386 -0.045176096 -0.0051313974 -0.012935768 -0.03276892 -0.044987798 -0.0051810257 0.008854892 0.06985558 -0.08375431 -0.020829417
대 0.023483688 -0.048106197 0.088351496 -0.0007593508 -0.022560062 -0.04944113 0.055565894 -0.024506917 -0.004024103 0.11426066 0.002459038 0.05784697 0.0017237904 0.052482866 -0.032574717 -0.058787495
아깝 0.084610805 0.02030659 -0.070196904 -0.026467763 -0.055818662 0.08084993 -0.11755734 -0.0561348 -0.2436682 -0.106078014 -0.020747207 0.11358839 -0.07476273 -0.00037916566 -0.0033019814 0.07359983
다가 0.039143525 -0.05341298 0.016397826 -0.0056695426 0.098305985 -0.000983612 0.040798455 0.012206456 -0.040434208 -0.07142041 -0.0019124487 -0.048142746 -0.030464735 -0.014556308 -0.03917666 -0.07450898
으면 -0.04513371 -0.023709513 -0.030123582 0.084099494 -0.021491323 0.03232646 0.007948251 0.02765025 0.015339839 0.034064546 -0.01385482 0.15142785 -0.08052286 0.030574663 -0.019554205 0.07090112
지금 -0.090909116 0.042876963 0.0135300215 0.08876165 0.03462809 -0.11657221 0.09209811 0.08944722 -0.0024014055 0.08129167 -0.0395078 0.056378324 -0.021793704 -0.015409109 0.028333602 -0.0023335065
모르 -0.043449268 0.048151474 0.015211152 -0.068050034 0.029391589 -0.10257237 -0.07362072 0.039856844 0.048893224 -0.007499394 0.042227216 -0.014066172 -0.046748675 0.055766866 0.028130708 -0.09271506
이렇게 -0.039002787 -0.0059180055 0.13865042 -0.009635203 0.052204523 0.018305935 0.14825842 -0.049556933 -0.12660445 0.061483495 -0.060520437 -0.05325999 -0.021208137 0.07858427 -0.013497931 -0.036402736
' -0.021375012 -0.0027296606 -0.10283813 -0.003342647 -0.011795298 0.05049247 0.005831929 0.10092641 0.015327965 -0.0023396118 -0.005610084 0.115197495 -0.05026407 -0.03328352 -0.05781317 0.0048682364
편 0.041587073 0.011327291 -0.014834253 -0.038619507 -0.07590652 -0.0042841383 -0.004887615 -0.026042616 0.11116007 0.053690523 0.057630356 0.07365674 0.0009492962 -0.05436841 0.01460061 -0.064009495
일 -0.027238313 -0.035957545 0.017434338 0.11133971 0.034145206 0.057857983 0.017302066 0.08787751 -0.0061831726 -0.062526315 -0.03537692 0.055030573 0.008072768 -0.0053253477 -0.053318664 0.00018005416
돈 -0.017405372 -0.06537663 -0.014359536 -0.028888896 0.026296567 0.020240998 -0.059205618 -0.05741662 -0.11264804 -0.14848511 -0.08838171 0.0125329485 -0.027166227 -0.11826933 -0.036306214 0.17112945
이게 0.011772302 0.04291779 0.010857849 0.14215909 0.031531278 0.0002988226 0.007900889 0.019267846 -0.107496105 -0.0047637895 0.06999883 0.19546904 0.0008318189 -0.07369556 -0.06633966 0.0018040596
성 0.012477269 -0.07558149 -0.105769284 0.008341846 0.028548237 0.032097295 0.01716849 -0.04550294 0.025277244 0.03317033 0.026851663 -0.095279016 -0.02123792 0.03675593 -0.10624434 0.034109645
느낌 0.011383702 -0.0034358073 -0.041556697 -0.044830997 0.037611987 -0.033015348 0.019602658 -0.0074149105 0.0049596652 -0.016230894 -0.03835099 -0.026738493 -0.047810502 -0.06616962 -0.045815215 -0.066218026
시 -0.044477776 0.01682615 -0.03460172 0.004576826 -0.0479834 0.015841808 -0.02188589 -0.04438141 0.043225355 -0.0098127425 0.0372861 0.06108601 -0.08453455 -0.103385866 0.0003523186 0.09766252
이야기 -0.015220988 0.024353942 0.050031178 -0.083798766 -0.0075449497 -0.057216335 0.08439208 0.034081466 -0.007194741 0.04544347 -0.03238411 0.03390299 0.027875764 0.009039593 0.00829305 0.029039811
최악 0.21440254 -0.143825 -0.079002224 -0.20836721 0.096892804 0.22770539 0.08384429 -0.2267585 -0.18185468 -0.18648621 -0.103103265 -0.16740075 -0.055233978 -0.15930212 -0.21892098 0.19763847
된 0.0013495977 0.043365635 -0.043677613 0.030956332 0.051692463 -0.07574767 -0.05147191 0.063279256 -0.010864595 -0.032952774 -0.027134173 -0.038495827 0.006641109 0.079606734 -0.041547 -0.005004007
봐도 -0.13096175 0.05861832 0.051591404 -0.036763873 -0.031697206 -0.11687402 -0.12710796 -0.056482118 0.06312575 0.026265148 0.052592464 -0.05228183 0.131753 0.01611737 0.0011365707 -0.14047776
님 0.050064698 -0.0224566 0.07711479 -0.030530555 0.02641896 0.007987743 -0.037636865 0.10310077 0.04011806 0.008346893 0.053220697 0.10966165 0.006808481 0.0841525 0.024723254 -0.016372455
어서 -0.0468979 -0.00642681 -0.012719019 -0.020698454 0.06978168 0.005055185 0.03547816 -0.021227991 0.0861488 0.017181879 0.028211229 -0.02817756 0.027980765 -0.09227087 -0.020064112 -0.010193932
애 -0.018403372 -0.037954908 -0.05954319 0.105407454 0.053687956 0.015533492 0.110386364 -0.0800659 0.0074643055 0.031089783 0.006205789 -0.11086464 -0.047865156 -0.035719752 0.013007885 0.08746582
전 -0.09188901 0.022177046 0.050218675 -0.08796287 0.043207724 -0.019401342 0.025402632 -0.025626538 0.08817527 0.061414488 -0.016005782 -0.07797582 -0.0026015579 0.000730998 0.06091087 -0.009100171
넘 -0.032140214 0.06823977 0.18649596 -0.04622315 0.05217554 -0.06719513 0.029264482 -0.0016843323 0.0109830005 0.045847073 0.042524174 -0.19952747 0.02636669 0.08537075 -0.022256633 -0.08999077
ㅠㅠ 0.032795466 0.018976223 -0.011872293 0.024815246 -0.06468256 -0.023455776 0.07955776 -0.04955883 0.01439212 0.06748671 -0.007556652 0.07545117 0.08578749 0.011353154 0.07020861 -0.024229202
인데 0.033756778 0.025478939 0.031022185 0.0017297901 0.024783101 -0.06703264 0.080126174 0.024089295 -0.017506827 0.004903504 -0.016820105 -0.053777788 0.0031181788 -0.02225675 -0.0074091605 0.08535003
다고 -0.020378547 0.10774541 -0.06738439 0.11640273 -0.06162472 -0.013801525 0.17592748 0.13904646 -0.113204435 0.03499103 0.08744475 0.11382086 -0.0905305 -0.005668251 -0.11896067 0.05016125
이해 -0.009309745 -0.030693129 0.015400913 0.0910236 0.0426808 -0.0032045958 -0.021212118 0.023966052 0.01754223 0.00729141 -0.01625905 0.14472286 -0.03820921 0.062273342 -0.098321825 0.038631577
별로 0.092914104 -0.15452121 -0.14429207 0.13967465 0.06699028 0.060912747 0.07292898 -0.12893872 -0.14980645 -0.04942906 -0.11025997 -0.046077296 -0.03089334 -0.048602697 -0.016998235 0.075750396
그리고 -0.06544678 0.018631874 0.14476655 0.012878365 -0.005035356 -0.03174948 -0.023509974 -0.022089815 0.016844772 0.060053628 0.059034 0.029970739 0.079709105 0.14921047 0.058888257 0.04525282
명작 -0.121251814 0.17007226 0.13496019 -0.024373716 -0.046106704 -0.1177562 -0.15960898 0.08884095 0.068103835 0.16329825 0.16387148 -0.067928195 0.098462746 0.07997145 0.103253566 -0.018986316
여자 -0.006003806 -0.045074143 -0.041232664 0.04187239 -0.03077893 0.044375874 0.076275654 -0.041051578 -0.00586115 0.014776782 -0.028662248 -0.019518819 -0.002959657 0.012412589 -0.06981781 0.13675803
^^ 0.006688804 0.09985956 -0.003449875 0.0766596 -0.019949405 -0.08193802 -0.08917488 -0.00082390115 0.081804834 0.08348301 0.14885946 -0.062417433 0.16514258 0.043696903 0.014201719 -0.011159498
역시 -0.056228254 0.029146468 0.07245669 -0.08862435 0.0015519076 -0.06950486 -0.034569196 -0.020425072 0.03000624 0.029106278 0.10010517 0.065027654 0.0137834465 0.039098326 0.012400053 -0.114625305
난 -0.08064348 0.04579726 0.09681377 0.011115029 -0.010505623 -0.078094855 0.00078775076 -0.116113305 0.013590426 0.044754293 -0.030732417 0.0050280206 -0.05591244 0.10531944 0.013485832 -0.116169795
이상 -0.022044912 -0.011673436 -0.0363778 0.00021553657 0.024174409 -0.05277291 0.033194207 -0.11942302 -0.0686507 0.074050605 -0.023670606 -0.10202291 -0.056070622 -0.12398066 -0.04124199 -0.04259207
또 -0.06373743 -0.04288732 0.104896225 0.0329467 -0.06693691 -0.035637993 0.016544854 -0.04772155 0.0028993795 0.020287141 0.09659294 0.042181462 0.022161731 -0.03670973 0.11287509 -0.000985804
걸 -0.0444724 -0.0039597237 0.081322275 -0.016582474 0.036473934 0.088396214 0.11300067 -0.0830322 -0.0033663048 -0.018017143 -0.022150563 0.018215109 0.124489866 0.03437457 -0.028670622 -0.08390008
한국 0.025171436 0.063429475 0.07179263 0.025425348 -0.06380152 -0.0040532295 0.0032319443 -0.010937996 0.036544185 0.019536166 -0.07610344 0.13843314 0.019848712 -0.070420384 -0.039753832 0.038885433
는지 0.0072029214 -0.09531453 -0.06039946 0.005017033 0.16256973 0.05814618 0.050259862 -0.018178623 0.035556566 -0.014941903 -0.016580245 -0.007916946 -0.025267867 0.013338359 -0.04814603 -0.05528061
많이 -0.026677303 0.0072500375 0.034746967 -0.055489622 -0.009140735 -0.024659911 0.03407411 -0.0149776945 -0.006903411 -0.03684987 -0.028118439 -0.10089037 -0.023944926 -0.06956898 -0.0054857484 -0.0022457696
에게 -0.045734897 0.027199453 0.031288877 -0.0898848 0.0048445407 -0.013139694 0.06515047 -0.0032760552 -0.03551067 0.011109378 0.05607768 -0.03989277 -0.008650965 0.049986973 -0.062135585 -0.019950483
부터 -0.06115948 0.0039628036 -0.00966334 -0.015273721 0.010545118 0.10943275 0.16307783 -0.044221308 -0.014068757 -0.04104478 0.029995004 0.06587779 0.08236759 0.014416525 -0.05800492 -0.069072716
만든 0.021271745 -0.0073135095 0.088085964 -0.037349954 -0.08811773 0.06767432 0.017955368 0.10558945 0.010843859 -0.014917161 0.019219648 0.010281036 -0.06357894 0.14177884 -0.008785502 -0.106046826
주인공 -0.029507237 -0.0054587107 0.072786056 -0.00012926177 0.044784874 0.06320391 -0.040027227 0.04112578 -0.010174114 -0.04859286 -0.024091436 0.001558743 -0.055592597 -0.06653087 -0.056047495 0.020567521
받 0.018099027 0.05407479 -0.020375183 -0.06992315 -0.039919257 -0.022733657 -0.05340469 -0.121589676 -0.0041773207 0.032663733 0.028966619 0.060821872 0.04051407 -0.002208621 0.09629276 -0.08831096
합니다 0.026219755 0.05753249 -0.0014133718 -0.015925523 -0.023797471 -0.021018548 0.03549876 -0.038874067 0.034840867 0.027286189 0.110473335 -0.015496351 0.0030676331 0.07298432 0.01654559 0.09409138
우리 -0.14474985 -0.008378682 0.05284219 0.013372173 -0.025624363 -0.07141258 0.04715414 -0.01736436 0.012170372 0.17598927 -0.0070251026 0.1230785 0.08394705 0.08906623 -0.07038494 -0.08428715
두 -0.013684617 0.015365944 -0.020826466 -0.039892036 -0.0298889 -0.069162995 0.06895065 -0.022782382 0.004408991 -0.028932182 -0.019649869 0.079655536 0.09098185 -0.0053002625 0.02965932 -0.11754595
살 0.037512448 0.02029924 0.028805315 0.048093066 -0.09335492 -0.023987323 0.051528066 0.038284063 -0.03579959 0.04992546 -0.03793832 0.03875639 -0.014465551 0.09521462 0.0011934044 0.10997352
!! -0.026030444 0.06370414 -0.07581 -0.07155992 0.10667383 0.07437867 -0.032041967 -0.10044493 -0.03706146 0.1256996 -0.05364057 0.0101256715 0.015010655 -0.020166062 0.027632201 0.05091315
길 -0.012911728 -0.026049705 0.008295204 0.02703962 -0.016500074 -0.020510789 -0.049947508 -0.056574192 -0.020893259 0.048955884 -0.026569365 0.004345665 0.001490481 -0.06253351 0.09834839 0.07331239
엔 -0.050113056 -0.067661285 0.056808747 0.035300914 0.015626619 -0.08703893 0.060125723 -0.0060160467 -0.020744001 0.028393256 -0.028991109 0.16272102 -0.028239215 -0.08492244 -0.01081906 0.02540936
괜찮 0.04758625 0.10278096 0.002698693 -0.10609687 -0.06410787 -0.057435762 -0.08770867 0.10234269 0.1273062 0.031358894 0.11575118 -0.057217624 0.017137224 0.114336975 0.017273942 -0.16380739
기억 0.011587216 0.018975165 0.046604883 0.005089514 -0.01623515 -0.077027254 -0.08372423 0.068746515 -0.019474499 0.03064088 0.07702386 -0.026692677 0.08849031 0.0106524825 0.097501926 -0.11235946
연출 0.00452104 0.06715813 -0.06271594 0.015080724 0.11184827 0.06761166 -0.07615564 -0.013011208 0.020140138 -0.041386984 -0.06331259 -0.02475814 -0.023914548 0.03403964 -0.07675348 0.09387776
한다 -0.00024240644 -0.037649717 0.040947683 0.076286174 0.0379139 -0.06867842 -0.034989033 0.027564464 0.02617088 0.03998332 -0.0063727614 -0.03821629 -0.010820553 -0.03140652 0.014006416 -0.02880322
때문 -0.044762973 -0.035782915 0.010364312 -0.0663065 0.05565608 0.03832736 0.080930874 0.009360588 0.01723382 0.058623604 -0.052759353 -0.017745303 0.12848094 0.004210594 -0.07113352 -0.08470027
이나 0.042832308 -0.0734545 -0.10723324 0.036744904 0.019300638 0.07283245 -0.007756355 -0.02064023 -0.0803269 -0.046038494 -0.018291816 -0.0060562813 -0.013160812 -0.012190296 -0.023938125 0.0023703561
ㅎㅎ -0.069220215 0.08456532 0.06320356 -0.016259933 0.0059850416 0.008924242 -0.113315776 0.027329981 0.1048379 0.056406185 0.12818027 -0.015368633 0.09253782 0.10716749 0.05888993 -0.038691495
요 0.035821404 -0.05907865 -0.006423626 -0.085157186 -0.035689183 -0.04438804 0.023771409 -0.028013369 0.14131744 0.02108862 0.060726363 0.041019145 0.022390444 0.044791903 -0.02915512 -0.060377456
저 0.016939167 -0.0014172617 0.11041233 0.009444353 -0.0022648978 -0.026149455 -0.05087086 -0.06417037 0.019292805 0.0010789708 -0.08176923 -0.035075374 0.030951515 0.10661482 0.04654721 -0.07477224
재 -0.06868924 0.063988365 0.11849081 -0.01859601 -0.009136639 -0.019139128 0.01715688 -0.034777753 0.09989808 -0.017130535 0.07967163 0.00772804 0.0107170725 0.112045445 0.15262258 -0.0077706003
꼭 -0.030555127 0.18146537 0.121547185 -0.05309624 -0.10320283 -0.07914794 -0.03400377 -0.007571364 0.11952734 0.10921321 0.075204045 -0.031001301 0.018728944 0.0010652394 0.08804098 -0.061472196
랑 0.035757106 -0.0050375583 0.053282 -0.009946464 0.05987059 -0.039830007 0.034039836 -0.031569637 -0.093756 -0.032154247 0.034509547 0.013311477 -0.006425634 -0.016841143 -0.056409724 0.01774643
며 0.047068715 0.014724104 0.10125905 -0.057007525 -0.004867652 -0.041506737 0.033836346 -0.06499185 -0.008893045 0.0691717 -0.021398107 0.08841468 -0.072714224 -0.04182606 -0.0110214995 -0.04133506
현실 -0.07822375 0.0985455 0.052592337 0.076633185 -0.07617417 -0.120167956 -0.008695773 -0.049438693 0.08316277 -0.025041932 0.039769277 -0.075372286 0.029465742 -0.063625716 0.03577451 -0.039223943
긴 -0.00020457551 -0.011064294 -0.074479975 0.11349552 0.015431998 0.04752719 0.0929858 -0.0211062 -0.03757827 0.014570428 -0.07830393 0.065607145 -0.092682235 -0.036393825 0.06196825 0.030223552
ㅡㅡ 0.064566195 -0.13480437 -0.07613608 -0.0052592717 -0.020159703 0.11405904 -0.06706253 -0.05611472 -0.026485931 -0.006006694 0.036468588 0.033076514 -0.019451376 0.012963369 -0.028392546 0.0012859676
무슨 0.062145907 -0.09097774 -0.052699048 0.075649664 0.075894974 0.12852111 -0.11359072 -0.072614335 -0.083282165 -0.09740635 -0.05283027 -0.16350973 0.053505756 -0.062923454 -0.00073304214 0.002264888
내내 -0.0072959866 0.007816324 -0.030281998 0.025512293 0.030825773 0.020098671 0.02670088 -0.049177248 0.08924866 0.016954212 -0.0052517434 -0.04383602 -0.041294806 0.020042596 -0.04374728 0.008328148
결말 -0.027603257 0.003663879 -0.028334482 0.058613032 -0.09146657 0.046463117 0.034605406 0.066391654 -0.04460927 0.03238013 0.0045793867 0.085492596 -0.04669113 -0.042666454 0.07451068 -0.07310352
죽 0.06892404 0.006262473 -0.06315994 0.014936064 -0.04790626 0.02975917 -0.030789236 -0.07647784 -0.04929683 0.00255578 0.032136366 0.08128935 -0.05061738 -0.036451742 -0.06504417 0.0007271178
남자 0.011402224 0.042302556 0.112755775 -0.06961653 -0.014680921 -0.025380056 -0.049112763 -0.06532108 0.016596885 -0.098055966 0.01331667 -0.07631144 -0.027854994 0.04585702 -0.028455343 -0.102308966
세요 0.028425537 -0.04516543 0.094562195 0.012481326 -0.03330352 -0.03219349 0.0043127704 -0.025753476 0.0016417347 -0.014031821 -0.046261974 -0.073237106 0.06546687 -0.04178336 0.014084985 -0.01867808
전개 -0.067648314 -0.013236074 0.014006468 0.042800717 0.05099729 0.07623847 -0.011039241 0.023226518 -0.025741281 -0.04432705 -0.05445051 -0.097129054 -0.17223236 -0.026946869 -0.12116708 0.03730459
마음 -0.045079615 0.1268439 0.13036852 0.011770755 -0.012267001 -0.057949647 -0.008566207 0.10208348 -0.013299992 0.057523664 0.0553737 -0.024967121 0.052319497 -0.006474182 0.12814438 -0.07375645
소재 0.06044818 0.045050178 -0.048159402 0.035924133 0.030133173 0.08202281 0.14169627 -0.07851707 -0.028079614 -0.10888782 0.0060875863 0.06586424 0.036783315 0.031572223 -0.009462297 0.07698407
속 0.030703912 -0.028607069 -0.019033244 -0.0028412214 0.03455594 0.012081441 -0.041983265 -0.0356497 0.02122116 -0.009522919 -0.10053817 0.017446412 0.002463667 -0.0591255 0.016505715 -0.013025235
공포 0.07116894 -0.087953515 0.02658429 -0.041300997 0.013498029 0.053392544 0.05380436 0.013644208 0.01147626 -0.027189333 -0.012922014 -0.012373108 -0.024464292 0.010487983 -0.05044594 -0.009391648
아서 -0.0812965 -0.048328195 0.107415885 -0.032054193 0.03545274 -0.02164785 0.05128982 -0.06620654 -0.048871864 0.017852856 -0.045842674 0.01650531 -0.0037992299 0.023871563 0.0059233895 0.0660475
다른 -0.013647656 -0.037928943 0.008948257 0.06614301 -0.05831336 0.06620689 0.023641123 -0.024671225 0.030697564 -0.012507691 -0.043515723 0.03893953 -0.02141216 0.058983658 -0.0038578762 0.015964773
씨 0.01152828 -0.01886558 0.10050726 0.06775724 -0.13444549 0.046998903 0.036165006 -0.06599528 -0.032808196 -0.051158775 0.0063608205 -0.04707997 -0.062243585 0.046143714 -0.025588622 0.073431864
인생 -0.09082322 0.021238074 0.030954083 0.025784625 -0.09159375 -0.003966976 -0.021939592 0.04053502 0.07413546 0.023295138 0.043327685 0.047056895 0.06607343 0.02802167 0.098554544 -0.09888908
~~ -0.07260022 -0.09193826 0.041486923 -0.09700267 0.019557668 -0.09095892 -0.053772565 -0.01953305 0.009059912 0.097765654 0.02362599 -0.015673552 0.07117842 0.039908502 -0.019546518 -0.05191926
짜증 0.11050592 -0.010822613 -0.09179265 -0.04774771 0.08577788 0.058277342 -0.0011721461 -0.087707676 -0.016166324 -0.12903394 -0.09759131 0.066916995 -0.14431132 -0.08673531 -0.02064255 0.07535347
짱 -0.049411837 0.09780342 0.021295255 -0.13131532 -0.035899144 -0.101435766 -0.101140305 0.07768857 0.13610986 0.14840043 0.08506557 -0.052728284 0.043613255 0.11034206 0.07767081 -0.24188057
뿐 0.08029829 -0.100096084 -0.03750944 0.05111532 -0.018732034 0.07735696 -0.042435434 -0.05239771 -0.008322552 -0.032753736 -0.06806254 0.0378216 -0.064536564 -0.012658932 -0.033890232 0.037418228
은데 -0.07180422 0.031944897 -0.07227947 -0.03599266 0.02961243 0.027253006 -0.04830766 0.0032877538 0.06558595 -0.024300383 0.0064885444 0.0012158086 0.060516156 0.02305706 -0.059431843 -0.0072318157
별 -0.024790563 -0.053560104 -0.1367375 0.04081411 0.036872882 0.038742196 -0.060991827 -0.015638933 0.04690137 0.024067286 0.032582264 -0.087867424 -0.17400356 -0.091626704 -0.055457186 -0.0761881
아요 0.095591724 -0.037941985 0.07813458 -0.018199505 -0.08490313 -0.1403894 -0.019162511 0.016720466 0.049752295 -0.08337888 0.05691284 -0.08307471 0.034102958 -0.006114526 0.103686884 -0.17593692
유치 0.0127116 -0.17574379 -0.06285853 0.01746825 0.09034936 0.11502103 0.04183092 -0.049391128 -0.09468449 -0.06815384 -0.071131885 -0.04324431 -0.11941822 -0.12317642 -0.033851173 0.05250053
가장 0.045608312 -0.037511334 0.076076806 -0.013941804 -0.021142047 -0.05642805 -0.117838115 0.019138703 -0.05693899 -0.0066816625 -0.024164777 -0.11100924 0.010442032 0.081444465 0.010167135 -0.11960004
필요 -0.081685655 -0.08445921 0.08578236 0.09520304 -0.052987926 -0.044297207 -0.008821186 0.049629863 0.07821019 0.18197933 0.063027844 0.21936461 0.16424705 -0.07421013 0.094105996 0.07888581
음악 -0.036487337 0.054021437 -0.15172239 -0.120535605 -0.05084397 -0.05562048 -0.038634043 0.10560617 0.074593805 -0.06490401 0.009967068 0.06318017 0.08500858 0.041756358 0.061754942 -0.038367465
) 0.06867135 -0.07613684 0.029957362 0.025841838 -0.031895638 -0.03103142 0.06966714 0.059591584 -0.0028596972 0.021284124 -0.023787446 0.07936289 -0.058898848 -0.0067940047 0.017891372 -0.011819349
일본 0.0087390905 -0.023633981 0.01672446 0.04729615 -0.021509329 0.10892879 0.020416385 -0.11378395 -0.013273899 -0.07484216 -0.005180043 0.00822974 0.060681175 -0.009129266 -0.026066203 -0.022264771
낮 -0.077995144 -0.02545233 0.11067047 0.11549617 -0.04156093 -0.112656154 -0.011173402 0.07489528 0.06616646 0.17591242 0.096628815 0.015157584 0.1391631 0.0876025 0.15211178 -0.087484196
아이 -0.06614273 0.035887264 -0.030948494 0.023175672 0.047652964 0.068621345 -0.047655325 -0.022692475 0.01997977 -0.03248809 0.04510804 -0.07366126 -0.023945607 -0.052150507 0.041971575 -0.04841038
;; 0.010725569 -0.11000799 -0.044231083 0.06988325 0.0036214944 0.08731372 -0.026700908 -0.036652967 -0.03762678 -0.025978558 0.0460107 -0.0016512857 -0.02199611 0.06853555 0.02213708 -0.09009188
오 0.022284083 0.010671388 -0.02547551 -0.04210018 -0.07620955 0.010191577 -0.039283767 -0.06548097 -0.02588035 0.008856095 0.09456178 0.106797546 -0.033984017 -0.02148736 0.034381468 -0.16155492
반전 0.033518836 0.028298922 0.021122947 -0.013474097 0.033228636 -0.024496479 0.027306693 -0.0075123664 -0.00044078432 0.02962977 0.039331317 -0.0039259163 -0.0624837 0.10875199 0.04224098 -0.052532773
수준 0.06789735 -0.12098424 0.012582853 0.069303416 0.073793106 -0.04425363 -0.03251949 -0.025820954 -0.07268673 -0.057363514 -0.049278855 0.028308267 -0.07964193 -0.10028516 -0.045207843 0.06252882
다니 -0.00806885 -0.02324103 0.059327092 -0.033933453 -0.061558146 -0.02262941 -0.07787603 0.024717333 0.017168691 0.0117896525 -0.05806767 -0.034782488 -0.18569061 0.06065932 0.11335492 0.014082795
웃 -0.054465763 0.06640234 -0.023836028 0.017381383 -0.038807873 0.041267537 -0.010391802 0.021594731 0.029102687 0.09758239 -0.032903396 0.071924634 0.00025722806 0.021968529 0.060743928 -0.04344779
매력 -0.12393403 0.006332158 0.0835726 -0.002698753 -0.0036457027 -0.0084280865 -0.100705385 0.05261551 0.07105236 0.032530334 0.07723993 -0.04955098 0.014928776 0.1038325 0.037358753 -0.13336836
맞 -0.017514993 -0.04936165 0.011966448 -0.016450614 0.050376713 0.0031124798 0.010666493 -0.057815515 -0.0020628693 -0.042534053 -0.07333051 -0.15384461 -0.02573819 0.05907815 -0.0961424 0.07229168
인지 -0.011859573 -0.0061462913 -0.04904016 -0.010000922 0.116723135 0.09297643 0.08279451 -0.08546318 0.022497362 -0.029587738 -0.05141279 0.027751742 0.04492074 -0.104094304 -0.006086851 -0.004214562
가슴 -0.099307336 0.17859899 0.023296606 -0.028733807 -0.06363002 -0.11483563 -0.12930427 -0.0064040096 0.13577898 0.12309219 0.079270236 -0.1266666 0.035825863 0.029729264 0.14750436 -0.07882
없이 0.003436023 -0.049121935 0.1754915 0.10865887 0.015086757 -0.021689609 0.08942577 -0.05842786 -0.091046914 0.035417184 -0.07050373 0.07380355 -0.08597829 -0.1264393 -0.020959476 -0.07695643
원작 0.059154898 0.016400388 -0.070807725 -0.06713907 0.09286269 -0.041691992 -0.025901528 -0.098971754 -0.08157002 -0.07123835 -0.02940276 0.101164125 -0.02096749 -0.0801514 0.07731496 0.06945811
ㄷ -0.072797075 -0.029087845 0.023002166 0.049199745 -0.050419383 -0.02680751 0.05105851 0.02512363 -0.02108046 0.03818751 0.0675182 0.063081145 0.07030939 0.019826345 0.02396048 0.017302217
인간 -0.014348783 0.017176896 0.06464465 0.037631266 -0.039182965 -0.1296418 0.010009572 0.07514582 0.060236923 0.02689636 0.00014419615 0.10603673 0.008477581 0.0035702954 -0.008922133 -0.053759255
데 0.03485642 0.027860858 -0.027096435 -0.04071539 -0.059577096 -0.029118264 0.093157455 -0.017964788 0.0023938352 0.05230066 -0.09128327 -0.032191362 -0.019316142 0.03968001 -0.014058988 0.06148194
굿 -0.114273146 0.09365092 0.17817086 0.0064441105 -0.094547406 -0.12512635 -0.064485855 0.10249838 0.056409862 0.10380702 0.12000875 -0.012521478 0.0667513 0.080950126 0.10296364 -0.19706774
ㅠ 0.049618214 -0.028093167 0.06369973 0.044450257 -0.08081398 -0.05938391 0.099952936 0.06499824 0.028262753 -0.05963634 0.05734088 0.036921963 -0.01625407 -0.026020339 -0.026516514 -0.00558764
높 0.0053634453 -0.09675556 0.00833434 -0.1268299 0.011817836 0.031063994 0.062357176 -0.03761395 -0.088983774 0.01426791 -0.046238225 0.07246193 -0.11005954 -0.10275192 0.021753415 0.045751482
밋 -0.13230273 0.048156407 0.12315651 -0.0437602 -0.10709948 -0.17855278 -0.07041108 0.058241148 0.06333753 0.1966848 -0.06471207 -0.10966338 0.00027675868 0.0018951861 0.017739031 -0.020804226
( 0.042706754 -0.019421047 0.026158975 -0.0011092931 0.026478147 -0.018314708 0.06710177 -0.029182563 0.03621489 0.07844484 -0.054616857 -0.009960835 -0.03777032 -0.073601134 -0.00070810475 0.04075952
만드 -0.05613187 -0.036575276 -0.014189612 -0.048406 0.066930495 0.115481295 -0.028260892 -0.016319048 0.0519281 0.012824398 0.011074073 -0.041186284 -0.15331848 0.14129937 -0.036950022 -0.004015004
급 -0.01943975 -0.0849561 0.012875219 0.0020190217 -0.019788653 -0.019632697 0.050141893 0.039624404 -0.06695336 0.0069879685 -0.008211373 -0.013735915 -0.018443884 0.048997495 0.033001553 -0.077735685
눈물 -0.008726316 0.07620691 0.041570682 -0.0863116 -0.12077296 -0.12807089 -0.048908535 0.056563023 0.12411335 -0.011036257 0.11913407 0.02468068 0.12322853 -0.007902072 0.10370159 -0.060757156
보여 -0.0716766 0.0048718406 0.02135361 -0.045123238 0.0077024787 -0.023798898 -0.073294535 -0.07857557 -0.06299045 -0.06884431 0.059583377 0.009089975 0.06428667 0.0046658022 0.036970105 0.0756068
준 0.004348841 -0.005948599 0.08862064 -0.1585196 -0.0813946 -0.0059246784 0.015881596 0.025079355 0.016617239 -0.036286224 0.042648483 0.05206863 -0.0039602295 0.01595084 0.06735954 -0.033836763
찍 0.051740512 0.023332125 -0.011029494 -0.096459396 0.008263443 -0.0004391059 -0.14310752 0.117299885 -0.09366122 -0.10028672 0.03889333 -0.044527445 0.017201854 -0.08853407 -0.0916974 -0.048617315
인가 0.006962426 -0.060443383 -0.088577576 0.026801296 -0.037895173 0.028056022 -0.10865662 -0.056835458 0.016483005 -0.039019253 -0.056839306 -0.009972682 0.0029111037 0.031088997 -0.0032939482 0.0047118664
노 0.12808616 -0.102742404 -0.10660344 0.028810259 0.091731064 0.15154603 0.078738734 0.010644303 -0.15354477 -0.11549358 -0.12938619 0.18154113 -0.051463958 -0.12895946 -0.035346225 0.12236727
을까 0.0003510317 -0.019545425 0.02767454 0.044893615 0.044300653 0.0018822785 0.030509576 -0.123126 -0.0026027353 -0.025864154 0.049367618 0.12682895 -0.040823378 0.018262954 -0.030595407 0.026803799
용 0.032196093 -0.09322054 0.008138042 0.026969446 0.054252308 -0.0033158977 0.010702418 0.04582521 0.037458748 -0.0072110575 -0.019374946 0.085981466 0.0010698441 -0.030534636 -0.036822345 0.036580928
코미디 0.0734988 -0.04413629 0.01810138 0.08408489 -0.008554672 0.00040681803 -0.05674831 -0.0059105647 -0.06704568 -0.033923056 -0.05951473 0.0035606774 0.003029766 -0.04307169 0.06371144 -0.07906664
마 -0.0028283724 -0.06849535 -0.058185093 -0.017999152 -0.028163867 -0.022225792 -0.19108675 0.026491163 -0.00967201 -0.0017890121 -0.050297346 0.0696102 -0.06459301 -0.0049241534 -0.09085257 0.03541422
화 0.018083254 -0.035126626 -0.05136814 0.02336585 -0.014311183 0.013122307 -0.07374321 -0.066196136 -0.049239043 -0.05674099 0.03332338 -0.11322815 -0.03574726 -0.038257375 -0.050434645 0.022590408
신 -0.005013336 0.06458146 0.034958944 -0.041013107 0.03359097 0.076766886 -0.096947715 0.14004537 0.040233485 0.061587717 -0.033273783 0.08686305 -0.039434876 0.10042149 0.011225874 0.011530157
모든 -0.07092059 0.03460251 0.0643907 -0.11179354 -0.12661646 -0.01581541 -0.09923429 -0.033130683 0.050440162 0.068170495 -0.054119375 0.04956271 0.012800405 0.045592118 0.031329192 -0.091192715
쓰 0.10608429 -0.049882308 0.0042582625 -0.04405559 0.01291333 0.06937692 -0.053701986 0.012632512 0.09775473 -0.03235611 -0.008807938 -0.073117934 0.013265976 0.0176739 0.010523701 0.09250345
여 -0.023301477 0.01851253 -0.022343328 0.012713673 -0.056157976 0.022235699 -0.01169242 0.0008028303 0.056729257 0.013532494 0.022624096 -0.08551974 0.017731676 -0.05152651 -0.02169798 0.03992796
5 -0.083579466 0.017998928 0.019148909 -0.10689267 -0.041300304 -0.040854733 -0.12850039 0.099473454 -0.048244264 -0.00807596 -0.011885703 0.085055195 -0.022290628 0.063231185 -0.0012497716 -0.03069016
아직 -0.03865336 0.08370954 -0.032568242 -0.023874754 0.0009875203 -0.024971666 0.015335665 -0.024840407 0.07466653 0.14445247 0.08288213 0.00897304 0.060099166 0.124032825 -0.07045143 -0.07531893
추천 -0.08957714 -0.0054398137 0.18171503 -0.08954049 -0.006296621 -0.04925519 -0.13168621 -0.001054385 0.18327351 0.061880186 0.01951652 0.014776981 0.07134674 0.19340958 0.08438121 -0.14387408
처럼 0.0056010666 -0.01372649 0.07810581 -0.06320937 -0.014293342 -0.028373562 0.0032678847 0.001378607 0.020026349 0.040154636 -0.0664029 -0.042454895 -0.044707816 -0.0011399096 0.010893676 0.0050881347
눈 -0.0017090548 -0.014061656 -0.05798032 -0.019166552 -0.007048432 -0.1069457 0.023855507 0.07841524 0.041121554 -0.03646759 -0.07951634 -0.03160667 0.022663958 0.03001514 -0.057526544 0.08852502
아닌 0.0011952387 0.021279145 -0.025395663 0.071637556 0.105806336 0.051290486 0.1022544 -0.047700513 0.006513903 -0.019416876 -0.03174911 -0.02434451 -0.1607051 -0.02032297 0.13982542 0.0072334222
자체 0.02105155 -0.0872477 0.006936771 0.065800734 0.056993783 -0.020590933 0.09179992 -0.05667848 -0.056853782 -0.04022221 -0.0851667 -0.013871359 -0.054792814 0.01464751 0.045601472 -0.0024191777
울 -0.095267095 0.11356778 0.09654719 0.0177313 -0.11913555 -0.081884556 -0.11150998 -0.028214483 0.1312054 0.08331206 0.041826464 -0.04188869 0.0085564 0.12822999 0.1347022 -0.045311596
몰입 -0.017106993 0.14588454 0.04159808 0.019439613 0.0074637663 -0.07091909 -0.009548061 -0.0090995515 0.04888505 0.12638986 0.029058285 -0.123486646 0.07835318 0.036743466 0.051807515 -0.05266428
4 0.043608293 -0.06379363 -0.027222494 -0.028670287 0.034918632 0.009581726 -0.02807982 -0.040754024 -0.052543294 -0.05390901 -0.058526292 -0.1143421 0.021583036 -0.035139054 0.051690426 -0.05842919
대박 -0.08852266 0.18568704 0.16050598 -0.036677506 -0.05898347 -0.072443 -0.055928353 0.12308775 0.046303086 0.09436626 0.09961153 -0.018641742 0.1549472 0.078719296 0.0063470714 -0.20163533
몇 0.016451087 -0.0047703027 -0.015397323 0.0078462465 -0.052629583 0.057382952 -0.041989468 -0.012625365 0.14622238 0.1050764 -0.013253224 -0.012966959 -0.005377036 0.07562422 0.055225573 -0.044083267
스럽 -0.035098836 0.009803446 0.029676985 -0.032861337 0.04163374 -0.04473285 -0.024052821 -0.10037633 0.014460293 -0.04797051 -0.033883575 0.035727423 0.042086083 0.024022698 0.0802119 -0.0037190102
실망 0.089282915 -0.0695605 -0.062970296 -0.02736485 0.04706772 0.033508584 0.06350841 -0.07449967 -0.11449659 -0.17823754 -0.04667905 0.17857175 -0.17910938 -0.07142942 -0.06281209 0.10089542
는다 -0.050006498 -0.028892798 0.09626897 0.032153647 -0.06257761 -0.025775718 -0.04490144 -0.038161308 0.056522556 0.0125635965 -0.08390837 -0.06724697 0.07106656 0.035781913 -0.005457691 -0.016779814
대한 -0.023310376 0.06240568 0.0045102173 -0.14594945 -0.16324323 -0.020877587 -0.03483945 0.025729448 0.050375104 0.043838996 -0.015146561 0.0005009015 -0.018988656 0.002011115 0.031120831 -0.037538294
죠 -0.08843032 0.051880233 -0.074981906 -0.011084499 -0.056208767 -0.026663173 0.059808623 -0.080116816 0.101093486 0.0841795 0.06654896 0.04106685 -0.060703695 0.046451505 -0.058484428 0.03452048
란 -0.10250945 -0.03922618 -0.036553536 0.051017925 0.035583124 -0.008419995 0.085966185 0.003904024 -0.01112943 0.008437494 0.01603227 0.14701945 0.025669526 -0.0542014 -0.037657302 0.014809927
그런 0.058788475 -0.019889323 0.0046838135 0.12350248 0.018975832 0.04872006 -0.0040108506 -0.0010467225 0.038087178 -0.008302952 0.0015248505 0.023890588 -0.010022136 0.050174396 -0.022473821 0.08362945
솔직히 0.041206583 0.0041622855 -0.009463428 -0.06121213 0.049281456 0.0452079 0.036012005 0.22616954 -0.056061573 0.007106257 -0.12010505 0.04099104 -0.016944347 -0.06677972 -0.0002790019 -0.06658208
캐릭터 0.012159698 -0.026961163 0.021698382 -0.05021869 0.037133086 0.0014018156 0.06513047 -0.006218906 0.056764174 0.0071454826 0.01108213 0.03686421 0.08102414 -0.010336344 -0.022771874 0.12302999
ㅎ 0.027056582 -0.016682452 -0.025763066 0.06764078 0.02567545 -0.041319706 -0.080385216 -0.090232514 -0.00874269 0.04806437 0.0106906295 -0.0521295 -0.017106881 -0.048954047 -0.03362344 0.005927156
모두 -0.002494832 0.06771286 0.08701287 -0.12458082 -0.0402336 -0.11118404 -0.12761892 0.08461209 0.05108822 0.07142379 -0.047429606 -0.15322492 0.019097833 0.09714567 0.0083508445 -0.12335358
아주 0.010474352 0.032299824 -0.022476023 -0.024037058 -0.063872695 0.0044780225 -0.016413078 0.037745275 0.038974132 0.022361822 0.083504125 -0.15789124 0.028563736 0.0345252 0.014102455 -0.076855816
- -0.005670483 -0.020437604 -0.02571352 0.091451295 0.0007706536 -0.003380245 -0.02485183 -0.016383588 -0.0779343 -0.0215215 0.006719766 0.055117264 0.12075243 -0.08402014 0.07495802 -0.0030467173
가족 -0.019529466 0.011971174 -0.04464614 0.096211836 -0.09846355 -0.047150355 -0.012545969 0.027367128 0.03944299 0.09588624 0.06324584 0.08764424 0.009843128 0.010832782 0.0039844792 0.0279808
여운 -0.18337935 0.17071919 0.17568651 -0.07750764 -0.08161935 -0.19290204 -0.06106004 0.16937466 0.1588017 0.13877422 0.15274508 0.026168982 0.13550232 0.23658109 0.18367827 -0.21719319
건지 0.024686465 -0.027914943 -0.067035824 0.035419278 0.0384898 -0.0055905096 0.06290945 0.03538749 -0.021950139 -0.065858 -0.10926044 0.024271056 -0.05420678 0.008689821 -0.07876751 0.05676919
전혀 -0.06841103 -0.09966913 0.14012747 -0.06440011 0.030197678 -0.009708871 -0.11207351 -0.05237318 -0.015028716 -0.1663096 -0.027131082 0.17933133 0.064311184 -0.08507379 -0.048962746 0.09398885
연기력 0.01023723 0.044373203 -0.012370446 -0.054171592 -0.026746446 -0.12727737 0.03443215 -0.013884874 0.020730255 -0.046396066 0.025406027 -0.06961095 -0.018371725 0.05298867 0.046246313 0.03293292
나라 0.06826727 -0.004840546 0.005345565 0.009005225 -0.031397194 -0.009340064 -0.062939 0.20190555 0.009650954 0.013322226 -0.012903069 0.099479675 -0.033135414 -0.064967856 -0.030574718 -0.035479113
후 -0.050729636 -0.05355685 -0.10200855 0.1229233 0.053190272 0.07888219 0.098075725 -0.022945343 0.028808508 0.041669883 -0.016623722 0.102844834 0.008571564 -0.09421021 -0.06631774 0.011758696
될 0.0061971126 -0.073984616 -0.12526383 -0.032316327 0.013894682 0.030145533 0.033429977 -0.036629938 0.048084572 -0.038723234 -0.012382046 0.10426045 0.025928738 -0.0677955 -0.04986001 0.0441512
다면 0.0074343323 0.03288451 0.026218385 0.16946924 0.015669294 -0.038724545 0.049437653 0.033177324 0.024225408 0.0501837 -0.047841582 0.115072355 -0.00892213 -0.020901427 0.05208877 0.10738205
뭔가 -0.0371598 -0.0052211457 0.04263196 -0.07524894 -0.04558355 -0.061933674 -0.030175688 -0.00045449368 -0.027132692 0.02025788 0.02095012 -0.027804019 -0.02631187 -0.05344122 0.032817286 -0.03970623
그래도 0.06176579 0.061705843 0.08766702 0.021089133 0.0068280143 -0.038843784 -0.10422736 0.15756072 0.0012575535 0.014685861 -0.057847656 -0.095823735 0.007547428 -0.027964031 -0.0044193277 -0.013831611
; -0.02912885 0.012626362 -0.012010246 -0.02397279 0.03444923 0.003187778 0.04854592 0.12937735 -0.059751492 -0.111290164 -0.03752869 -0.050044697 -0.049332086 0.013887032 -0.023382444 0.090860166
시리즈 0.011514278 0.016204396 0.01394628 0.08997589 -0.009323433 0.006139488 -0.017057206 -0.058233373 -0.033350043 0.021326317 -0.010725647 0.016994994 0.05165287 0.026684254 0.10986174 -0.025016075
근데 -0.05340322 0.0033935872 0.00791798 0.10362479 -0.025360929 -0.076886885 0.02573262 -0.03033516 0.029777212 0.0854841 0.03364703 -0.06948711 0.05793101 0.029453812 0.048234794 0.036259208
작 0.0004767748 -0.033296682 0.05367279 0.060787335 -0.088454425 0.008627595 -0.11138122 -0.08356794 0.0134258075 -0.10831895 0.00014809557 -0.025994835 -0.034737866 -0.015692439 -0.011309363 -0.018443963
표현 0.02040486 0.10529952 0.11406229 0.007398905 -0.0851557 -0.07138859 -0.0234676 -0.01691452 0.039534822 0.041765835 -0.0051172315 0.07675077 0.084044576 -0.002360396 0.0789056 -0.0154417865
모습 -0.047910564 0.07249939 -0.055544756 -0.046442226 -0.06360585 -0.028646177 -0.082900956 0.09510918 0.025056556 -0.032621097 0.12697636 -0.060396608 0.011707176 -0.062191315 0.03233114 -0.13410436
공감 0.006225977 0.10767849 0.04810476 -0.014473457 0.09444274 0.024086315 -0.048373476 0.03473726 -0.02223455 0.15209594 -0.021400461 -0.10396407 0.09237417 0.043607254 0.0082308985 0.04180516
계속 -0.09092623 0.1279442 0.014038727 -0.13804574 -0.081263475 0.006501397 -0.022359438 -0.017739177 0.083201684 0.05751999 0.13568452 -0.042358704 -0.012480025 0.033701077 0.05588748 -0.04976098
먹 -0.013575078 0.0018258069 -0.04695281 -6.185577e-05 -0.072263084 0.023751915 0.028007256 0.051619384 -0.08143585 -0.0037556153 -0.054501384 0.13039935 -0.009456691 -0.02726508 -0.085625894 0.014728357
"" 0.016910145 0.045489255 0.056726348 -0.013058997 -0.05093625 0.03794061 -0.009593281 0.03065074 0.06560295 -0.020420216 0.0025566914 0.052660927 0.0031571793 0.021414587 -0.020615203 0.041288096
제목 -0.014293432 0.10342726 -0.14539638 -0.009363248 0.06806668 0.01917065 -0.033303414 0.08691239 -0.029074376 -0.060153633 -0.015002657 -0.0337769 0.009646207 -0.07398485 -0.04705708 -0.0035764372
7 0.05676844 0.04582964 -0.036902748 0.023605332 -0.06728446 0.03754365 -0.10562171 0.027859576 0.009820036 0.0029846143 0.052415475 0.01048368 0.050430212 -0.0040979786 0.11045432 0.010181747
이랑 0.07718848 0.073584 0.019741254 -0.04673663 -0.024824826 0.10626754 0.029835748 0.09421108 -0.043942645 0.0063561485 -0.069472596 0.027306722 -0.05315766 -0.07432108 0.03048205 -0.015676241
극장 -0.031205537 -0.009415076 -0.09202313 0.0048888205 0.026806368 0.08625357 0.032354064 0.022248233 -0.07687726 0.087771475 0.0033158583 0.047257144 -0.049911182 -0.1311142 -0.03699829 0.047300234
치 0.07965498 0.016335394 -0.094035305 -0.02152419 0.047132656 -0.024105512 0.08056481 -0.009396587 -0.051382028 0.0026205662 -0.072380744 -0.034571264 -0.07512348 -0.05346498 0.052528568 0.049484346
비 -0.0635151 -0.11184354 0.020728227 0.007078376 -0.07764135 0.049417555 -0.09095206 -0.05768431 -0.03697363 -0.11451196 -0.07585767 -0.0008054202 -0.059039883 -0.0063416213 0.06186675 0.026848454
이걸 0.02337388 -0.020999277 -0.09675646 -0.046249185 0.103862666 0.11132505 0.14620212 0.0007320038 -0.014822429 0.0038956217 -0.047365192 0.08389741 -0.05658037 -0.050023016 0.014576845 0.059005648
진 -0.025886575 -0.0034684495 0.06802127 -0.0144984685 0.048567373 -0.062270746 0.07252202 0.025105827 -0.0385992 0.16297837 -0.039159283 0.0022257986 0.047073517 0.06565174 -0.08028815 -0.039631728
바 0.11224016 -0.06024544 -0.022031847 0.08942068 0.058641396 0.058352355 -0.025381848 -0.119053096 -0.056245446 -0.052440673 -0.10198911 0.068827525 -0.04062356 -0.042054374 -0.13109988 0.120759144
대사 -0.021262221 -0.047800656 -0.032338336 -0.0042575537 0.04341915 -0.06360227 0.041979652 -0.06362216 0.0030468875 -0.003236667 -0.10804081 0.013915326 -0.08425922 0.004848185 0.049991213 0.018784843
부분 0.0133893825 -0.05442635 -0.0059864135 -0.016371578 0.004041484 0.010302814 -0.09050727 0.11120096 -0.016013058 0.017798634 0.010759128 0.02887348 0.09819239 -0.10397852 -0.010361188 0.13523364
그렇 -0.016282769 0.018995002 -0.06668538 0.008999445 -0.047697842 0.020031314 -0.002630435 0.019826747 -0.12509176 -0.16055535 -0.075816885 -0.013096669 -0.001156191 -0.03945094 -0.025046626 0.1028218
개봉 0.045528445 0.0450141 -0.20394671 0.10621227 0.0016360182 0.08634491 0.02744202 0.034793865 -0.0059933914 0.011680334 -0.09855289 -0.16538973 -0.059553467 -0.020883407 0.01653898 0.040922407
0 -0.028144378 -0.106055595 0.03161147 0.11582953 0.021975365 0.09454813 -0.09019339 -0.016403211 -0.0220207 -0.06054979 -0.13089982 -0.002575982 -0.024314845 -0.0744449 -0.22727157 -0.05040239
OO 0.056149773 -0.0023956802 -0.058825903 0.062008034 0.09471447 -0.08632229 0.07596934 -0.04701038 -0.032121122 0.015888251 -0.06300298 -0.03631964 -0.0506094 -0.04896179 0.020055087 0.052031174
대단 -0.03085072 0.016400835 -0.012279447 0.059753597 -0.03699981 -0.045037996 -0.06242574 0.06434204 -0.0020896145 0.04790932 0.07450165 0.02559402 0.008936448 0.089822754 0.044335347 0.06099111
어디 0.00638706 -0.022632653 -0.032465305 0.08069282 -0.072929196 0.011483422 0.030245772 -0.059280075 -0.08859149 -0.054676414 -0.04834066 0.071157716 -0.018273443 0.011557574 0.06108104 0.080941
작가 0.075152405 -0.016505145 -0.094224826 -0.018429874 0.085811205 0.06604469 -0.01662415 -0.093668364 -0.04180632 -0.039090674 0.006392639 -0.04954226 -0.018839024 -0.06183897 -0.036452785 0.056661915
된다 -0.02240529 0.05541121 0.071655415 0.01132848 -0.05484079 -0.084652044 -0.030848565 0.03417996 0.08893068 0.01951526 0.052715108 -0.015991662 0.058076233 -0.049315147 -0.014259077 0.0036994987
아쉽 -0.029443195 0.0049544307 -0.040822286 0.10769089 -0.12279848 -0.07284522 -0.042659372 0.07715017 0.061767306 0.047299273 -0.0010442622 0.14903903 0.021091105 -0.028943889 0.14653489 0.008620629
기분 -0.014166336 -0.0013667578 -0.03316035 -0.08021972 0.08229859 0.0049058083 -0.04858894 -0.015192508 0.014612425 -0.094939075 -0.0093969405 -0.014356574 -0.06934401 0.07289541 -0.09032239 0.02803761
제 0.042651772 -0.03674469 0.038162556 0.10652455 0.11155611 -0.054037 0.040881824 0.05875715 -0.117580906 -0.011554932 0.099343605 -0.09539102 -0.024681287 0.033621088 -0.029543534 -0.022603733
진심 -0.011665149 -0.0650438 -0.028319 0.0757459 -0.019170273 -0.024161823 -0.008942295 -0.022740578 0.07223026 0.05753064 -0.09576083 -0.15912667 -0.054648258 -0.061495956 -0.118526086 0.039455187
타임 -0.039521605 0.07503165 -0.025166947 0.047418725 -0.071433745 -0.030291125 0.12081981 -0.029313626 0.02374487 -0.007104993 0.060822908 -0.025487948 -0.049136225 -0.014911237 0.12731448 -0.059821445
/ -0.026510928 -0.029856723 0.009296267 0.039225776 -0.007927472 0.05719318 -0.02725639 0.0079131145 -0.008076893 0.03489752 0.035249148 -0.025279796 -0.005483732 -0.044746794 0.012077639 0.031039335
웃기 -0.06725269 0.07319599 0.097846925 -0.118673965 -0.016740492 -0.0887915 0.019027406 0.022061178 0.06048845 0.010996695 -0.028113382 -0.09896036 0.0696337 0.07899567 0.012225868 0.03903445
보이 0.06804087 0.08261072 -0.045075938 -0.0157269 0.06389218 0.025554331 0.09304965 0.05643925 0.08676749 0.056232374 0.06522776 -0.050684456 0.006098045 -0.021891436 -0.014373072 0.033375427
놓 0.072837345 -0.023875162 -0.04649003 -0.025829116 -0.07814854 -0.045087047 -0.015384214 -0.012775859 -0.07855796 -0.01893875 0.013579347 -0.03856317 0.007424358 0.013769185 -0.09413116 -0.01513044
해도 0.07540356 -0.03743257 -0.05494656 -0.05246368 -0.05021463 0.005188925 0.10786467 -0.009629329 -0.029047765 -0.022372406 0.00828805 -0.08271341 -0.104936756 0.012360398 0.036033772 0.07093004
이제 0.010278109 0.010006849 -0.028655093 0.006114425 0.049746674 -0.07607137 0.058815278 0.059068646 0.02163316 -0.033239044 -0.025124308 -0.0444323 -0.08635235 -0.049758393 0.0072116307 0.07900399
물 -0.008004591 -0.08686259 0.05502228 0.051619176 -0.05210361 0.101379104 0.032059103 0.06083926 -0.041369103 -0.014602525 -0.037610732 0.008467998 0.11149307 -0.06223583 -0.049218297 -0.040591694
봐야 -0.05914788 0.07315834 0.16080457 -0.018242866 -0.022657039 -0.05757998 -0.014745416 -0.020392863 0.08034817 -0.013411834 0.07355415 0.036886733 0.086678006 0.020556685 0.1573271 0.10485643
막장 0.0332588 -0.09441412 -0.12528001 -0.009331231 0.1368248 0.068418294 -0.056467365 0.033034828 -0.06305343 -0.042776864 -0.09143522 -0.014604693 -0.022878107 0.015725348 -0.08082022 0.10334285
삶 -0.05972455 0.004121909 -0.06503518 -0.048807576 -0.17597274 -0.08133873 0.010741437 0.054498542 0.07335456 0.04943982 0.080960035 0.03707575 0.1377119 0.015290326 0.08217345 -0.086682424
친구 0.016846092 0.0060239127 -0.025273953 -0.0724219 -0.015994329 0.01985717 0.0099336365 0.08786883 0.09836061 -0.04132405 0.044799436 0.040046025 0.039708115 2.9814131e-05 -0.09687846 0.005789889
잔잔 -0.00818787 0.040119603 0.0770613 0.16469184 -0.06331266 -0.10722328 0.02301103 0.06030339 -0.034478143 -0.027582832 0.052541118 0.06080646 0.01742986 0.020788757 -0.0036909925 0.015878452
조금 -0.058261953 -0.111427955 -0.0005871337 0.12822856 -0.01956123 0.033794764 0.014131349 0.060503684 0.019243782 0.04208354 0.13042623 0.060402926 -0.0077439877 0.017085893 0.07777807 0.07388832
씬 0.0062959986 0.044230875 0.03441096 -0.059386186 -0.015703112 0.008549671 -0.01178646 0.00870556 0.017348824 0.019052649 0.13370307 0.052776348 -0.039205395 0.023504699 0.006439697 -0.030730562
딱 -0.006190971 -0.05614562 -0.021113928 -0.06144545 0.006163403 0.09224817 0.06897398 -0.05417043 -0.02983615 0.023597939 -0.073100045 -0.12879696 0.04469515 -0.038521092 0.030943226 -0.110053256
영상 -0.032834776 -0.04311164 -0.051814314 -0.07250709 -0.039694298 0.0051747775 0.06213201 0.031053275 -0.02826433 -0.104738936 0.061033405 0.004663042 -0.08445386 0.014904555 0.0660275 0.027609985
억지 0.044099037 -0.05633568 -0.11390574 0.13573821 0.024536222 -0.016843896 0.07374152 0.015542409 -0.12553643 -0.07750104 -0.05927428 0.07547165 -0.1224335 -0.08047587 0.0054491675 0.047530994
찾 -0.09466908 -0.0013105944 0.010209411 -0.018321842 -0.0068287887 -0.0331552 0.050851904 0.044095162 -0.05363971 -0.09442692 0.073488094 0.17439178 -0.004245514 -0.079196066 -0.011778474 -0.11964552
요즘 -0.11075174 0.03988864 0.08859549 -0.049273722 -0.073022656 -0.009570276 -0.051165864 0.056245122 0.11024757 -0.07445696 0.029605262 0.0922274 0.04924359 0.11320649 0.08397949 -0.06911101
같이 -0.105173476 0.006568019 -0.013405945 -0.051219765 0.025689667 0.010840756 0.1605482 0.1068362 -0.10316186 0.038092595 0.010124264 -0.09899974 -0.027121665 0.066293694 0.07892678 0.0019095679
중간 -0.042636715 -0.029145163 -0.15199901 0.15757275 0.11317994 0.038207993 -0.03388 -0.011668342 -0.12004165 0.0653412 0.0005892679 0.10130189 -0.08784387 -0.10629797 0.105284125 0.041622497
" -0.006682071 -0.04828398 0.053634938 0.014864546 -0.06023101 0.061483927 0.094454326 -0.07185841 -0.009675671 0.026304536 0.009888905 -0.036924627 0.038569815 -0.034852464 -0.047965694 0.045306817
구 -0.05511255 0.064375676 -0.0018374682 -0.08072412 -0.003047892 -0.04200233 -0.094891354 -0.022011723 0.10098276 -0.014100268 0.07472228 -0.01213705 0.009519043 -0.019245887 0.05400126 0.05117854
라도 -0.079029225 -0.07874844 0.04765587 -0.061869 0.0040099146 0.025150623 -0.06618773 0.0691749 -0.011200107 -0.0059811547 -0.08995703 0.08834832 -0.06595005 -0.022341698 -0.083574265 0.05571598
스릴러 -0.09588436 0.008312872 0.024223952 -0.10526704 -0.04148969 -0.03359957 0.0032688207 -0.03824845 -0.0055433763 0.038151674 0.026503757 -0.09722495 -0.05973449 -0.0729774 -0.06456565 -0.12364157
가지 0.04925407 -0.0016561048 0.123068556 -0.0909079 0.04993591 0.044671103 -0.053961232 0.0008792787 0.1112472 0.11708293 0.001988414 0.03382557 0.018450871 -0.018202648 0.011179237 0.0007492169
8 -0.015666895 -0.029832283 0.039516803 0.016816575 -0.042994644 -0.0779167 -0.109302565 0.08870217 -0.02007869 0.14497434 0.061368488 0.02237235 0.025430286 -0.10485548 0.14029501 0.017348101
믿 -0.10538446 0.013467357 -0.047523864 -0.15035267 -0.061271027 -0.07015107 -0.01996909 -0.012668638 0.0019558324 0.026545256 -0.02425472 0.047169037 0.116105154 -0.04470857 0.021044284 -0.040523916
싫 0.034441788 -0.039365336 -0.05865518 0.12502924 -0.08095081 0.06276499 -0.040469367 -0.06534734 -0.03324718 -0.10279422 -0.06171573 0.017047055 -0.11297374 -0.01225802 0.090118974 -0.005441561
.... 0.071749106 -0.074432194 -0.039510224 0.025364589 0.055479582 0.023330884 0.05685799 -0.044460554 -0.0040032743 0.0750062 -0.066245526 -0.10442238 -0.017788067 -0.09059575 -0.072380275 0.088022046
나왔 -0.037463218 -0.12406135 -0.0066857208 0.024777014 -0.08376504 0.018348223 -0.0440158 -0.020247465 -0.031169778 -0.11225494 -0.0026220297 -0.0032324004 0.0069477884 -0.025195917 -0.085435934 0.07444319
아까운 0.13800263 -0.050530724 -0.09682721 -0.022392107 0.017412983 0.09828132 -0.15132095 -0.1311602 -0.023757333 -0.080912575 -0.042482343 -0.24822952 -0.063105196 -0.013485687 -0.095299624 -0.050827358
긴장감 0.029049007 0.0836823 0.10491197 -0.073314145 0.0460101 -0.10694294 -0.028835423 0.03466381 0.06410607 0.10499123 -0.0031823958 -0.13071226 -0.036711544 0.15711299 -0.047996562 -0.14305969
점수 -0.0573315 -0.014696885 -0.09016742 0.023235092 -0.028114997 0.07523686 0.11682578 -0.03844324 0.04665214 -0.018431272 -0.029221091 0.015370142 -0.0465631 0.03966558 0.05970804 0.06724126
개인 -0.01614085 0.024955498 -0.01207079 0.04099672 0.0018614884 0.014327669 0.0128565105 -0.08923202 -0.06093618 0.016246857 0.068292804 0.020987874 0.034217145 0.064203575 0.05076178 0.004398696
제대로 -0.01588439 -0.011654614 0.026657924 -0.08196527 0.01020393 -0.055242464 -0.02662717 0.039401013 0.03831053 0.06283726 -0.04080011 -0.0013117094 -0.07885239 -0.029896215 -0.044512127 0.07147645
부족 0.0765001 -0.05270701 -0.09934401 0.0022089193 -0.006212531 -0.010113232 -0.019987995 -0.06569438 -0.105730005 -0.041570727 -0.021655241 -0.07831479 -0.094498485 -0.12915653 -0.113408566 0.086701855
이유 0.01905692 -0.08350202 -0.011924733 0.0758629 0.030725405 0.07048218 0.13305557 -0.004595045 -0.015759638 -0.02462584 -0.07548153 0.004559608 -0.12784842 -0.01228687 0.044401307 0.053384956
노래 -0.05787396 -0.029068314 0.089402735 0.085710526 -0.011919265 0.06116503 -0.02524406 0.05071996 -0.07502188 0.022460913 -0.00043864895 0.19464606 0.008302966 0.04737479 -0.010338158 0.0035890639
만큼 -0.0060705403 0.054086957 0.04145891 -0.082893506 -0.0169957 -0.025682013 -0.012835003 0.045599803 0.002983394 0.1057528 0.08968589 0.055108935 0.050149318 0.065206416 -0.018346133 -0.026129998
라면 -0.014980459 -0.009768466 0.04070273 0.008554739 -0.029833408 0.005392796 0.029004674 -0.055393174 -0.002103005 0.020416172 -0.066786155 0.08276188 0.020977443 0.025009707 -0.09326244 -0.04148027
시작 -0.008621123 -0.025725879 0.017365705 0.058348086 0.00013794683 -0.0021157374 -0.044223797 -0.06151083 -0.15279102 0.06631677 -0.06029954 0.09955153 0.0153065445 -0.043159842 0.0052525247 0.072892554
구나 0.040282253 -0.048929114 -0.09867742 -0.02046724 0.054876015 0.09140751 0.021887984 0.050907124 0.006045943 -0.03955397 0.077214755 0.08829137 -0.013825445 -0.09325652 -0.0015846628 -0.003429683
잇 -0.014676536 0.086934455 -0.00075885735 -0.16993521 -0.013277381 0.02250723 -0.029892927 0.003283183 0.110413834 0.018305903 0.012849771 -0.012399712 -0.033103194 0.07835106 0.07122624 -0.0069324914
특히 -0.14829093 -0.034885753 -0.00958186 0.10902846 -0.09835693 -0.055312242 0.100863494 0.062891684 -0.015227102 0.12406547 -0.017084941 -0.04217555 0.113816306 0.00656533 -0.009400815 -0.08575185
한테 0.012358981 -0.023920227 -0.004048165 -0.09874449 -0.026496684 0.024026556 0.054275442 0.018138155 -0.07632082 0.028350389 -0.032725163 -0.04478324 -0.03864614 0.00036041075 -0.09281303 -0.059616204
날 0.02647466 0.0693043 0.045265686 0.1313661 -0.10132084 -0.0060899695 0.007983235 0.0681619 0.076101564 0.016924184 -0.046383984 0.0859053 -0.049202643 -0.02689851 -0.0034301095 0.046109006
려고 0.10133413 -0.010966845 -0.018953633 -0.046066597 0.02510079 0.031429216 0.07137994 -0.05852776 -0.02068536 -0.050713614 -0.029913928 0.004709128 0.020191971 -0.097679265 -0.058169536 -0.020181729
제일 0.09471164 -0.0025325976 0.027654707 -0.04582022 -0.0020631913 -0.0031621289 -0.08246789 0.0261746 0.04344045 -0.021303372 -0.044300422 -0.09863572 -0.011490764 0.06129406 -0.049805295 -0.09021235
아름다운 -0.20960405 0.13922533 0.108228885 -0.123865224 0.021073986 -0.057569366 -0.053433824 0.08561358 0.093830824 0.1693438 0.111919254 0.043507963 -0.010254418 0.039781023 0.04014972 -0.104561076
시대 -0.11418667 -0.019163143 0.042473067 -0.024580285 0.08782515 0.010344871 0.120872445 -0.041456122 -0.05158233 -0.02621707 -0.025900707 -0.017193044 -0.016936293 -0.05884207 0.04770509 -0.049075022
ㅜㅜ 0.016909568 0.07760495 0.16297054 -0.0642643 -0.0040368065 0.030462265 -0.08123243 0.05995087 0.053167365 0.10891105 0.052649464 -0.08791509 -0.020891424 0.13630308 -0.04039063 -0.0060373377
어떻게 0.04388178 0.00038282154 -0.08210412 -0.024851479 0.029723283 0.004413201 0.028859805 0.028420629 -0.014850816 0.019754026 -0.015601983 0.06964731 -0.008772892 0.0042227283 0.0016525935 0.08545783
엔딩 0.045925584 -0.041910715 0.04800748 0.010958397 -0.012482604 -0.03757871 -0.018407805 0.03210498 0.008843829 0.0267976 0.026833672 -0.040648732 -0.06894001 -0.046579275 0.03277157 0.011458475
당시 -0.10631517 0.034742314 -0.055852454 -0.04054863 0.102639675 -0.04195215 -0.07069252 -0.039855976 0.07595683 0.041768923 0.055827413 0.021630926 0.0013235327 -0.02761902 0.0021337294 0.035589613
하지만 -0.010145646 0.018791296 0.2034539 -0.055501707 0.006905862 -0.09122652 0.019759964 0.041905966 -0.014579287 0.13179678 -0.038892638 -0.091926254 -0.0049077948 0.062326357 0.07833467 -0.12560864
나름 0.012649903 0.11458532 0.0798634 0.06788763 -0.03124106 0.0043816753 -0.048836738 0.029081935 -0.054723755 -0.035182353 0.023428125 0.018651184 -0.031301845 0.10151083 0.013829295 0.04464973
봐 0.033285126 -0.12711558 0.11004148 0.03396986 -0.013695665 0.009084251 -0.047939584 -0.00796641 0.059205137 0.012760736 -0.050637633 -0.008936405 0.02721927 -0.0015595526 0.01023748 0.017931558
무섭 0.07925538 -0.053454313 0.07123063 -0.06992438 0.006527032 -0.012510541 0.030292934 0.031919375 0.05967049 -0.056509133 -0.05718738 -0.024245884 0.11974969 0.011792777 0.07013907 0.039053906
나온 0.028616847 -0.010744146 -0.062485307 0.052019536 -0.039730325 0.03907422 -0.0032906027 -0.050482914 -0.06303043 -0.072273485 -0.049386367 -0.089233376 0.054848257 0.032063253 0.002269214 0.006028733
명 0.008981535 -0.04763946 0.118615486 -0.01427499 -0.04966504 0.0247247 0.012124248 0.016573308 -0.005509517 -0.1056256 -0.0033863762 -0.0065915566 0.019396963 -0.09043845 -0.04162695 0.08348713
사 -0.09250235 0.042050537 0.11344618 0.09088307 -0.011698771 0.016425807 -0.04820237 0.15054202 0.08334177 -0.0011534316 -0.0068251425 0.026538767 -0.00022070877 0.08276503 -0.03525682 0.0115697915
니까 -0.01470332 0.025201207 -0.034797985 0.04336824 0.020860396 -0.017687855 0.04536444 0.0825024 0.0436808 0.0179804 0.051543534 0.06983381 -0.06426716 -0.021423452 0.03512653 -0.09982608
오랜만 -0.07547359 0.08025803 0.12020593 0.10223819 -0.006390834 -0.06117684 -0.03868998 -0.0656127 -0.021389805 0.065592594 0.02897991 0.0953434 0.0012074008 0.17663349 0.040560514 -0.020924266
이것 -0.026654035 0.058437366 0.033800334 0.009101491 0.08575058 0.014453087 0.0015491397 -0.02124061 -0.09164372 -0.0028766866 -0.0406833 -0.055091724 0.024393002 0.03519688 -0.026822263 0.11100631
해요 -0.024767062 0.097878605 0.011846713 0.014675545 -0.09191964 -0.033022385 -0.07866731 -0.026414711 -0.0018061398 0.03858866 0.111459926 -0.16493662 0.018247792 0.0748122 0.1651243 -0.09837074
9 -0.09279353 -0.0542658 0.0055066883 -0.03672993 -0.06804518 0.036331877 -0.11978682 0.031404585 0.04283306 0.13770454 0.07120414 0.112642504 0.06666416 0.076107726 0.07954579 0.03271847
팬 -0.0017476579 0.023263153 -0.03474022 -0.00029781077 0.033561897 0.054039665 -0.04724617 -0.022124164 0.0062092124 0.07343433 0.022982586 -0.05441605 0.04824862 0.07162702 0.048967473 -0.0882423
차라리 0.098857515 -0.16565256 -0.15449397 0.026402872 0.100195736 0.06662425 0.044227082 -0.08435474 -0.0077612 -0.11378313 -0.02877457 0.056307055 -0.12266687 -0.12170588 -0.07081325 0.1424543
절대 0.0690458 0.057751086 -0.086981 0.022074172 -0.05084628 0.0903033 -0.041428696 0.016544824 -0.033157054 -0.006597394 0.001509907 0.0436595 7.038427e-05 0.054013614 0.03106862 0.022426002
세상 -0.11075957 -0.020793688 0.003472333 0.022376034 -0.06094785 -0.06529587 0.031490456 -0.06099825 -0.02923874 0.10306849 0.059017815 -0.012284434 0.06700536 -0.07708709 -0.08455195 -0.16461779
세 -0.019957595 0.066245176 -0.04289068 -0.05058602 0.057091083 -0.02356835 -0.10655739 -0.04802505 0.040614564 0.019545188 -0.107123815 0.04491483 0.019072175 0.025378138 -0.007679088 -0.003673149
못하 0.025601072 -0.05633887 0.007982351 0.09323825 -0.021552911 0.033467345 0.099130675 0.07827884 -0.10809841 0.0065849917 -0.10441151 0.033373706 -0.053714056 -0.0015349966 -0.036048062 0.109094866
의미 -0.08841631 0.05124105 0.012084327 0.0009375313 0.05775941 -0.052328993 -0.031111557 -0.113417074 -0.048312046 -0.0012360242 -0.008994402 0.014729226 0.039684787 -0.11092246 0.021980949 0.077429235
던데 0.0041924478 -0.015416843 0.07883844 -0.070870526 0.043645613 -0.0584645 -0.08868393 0.015893364 0.02031603 0.014245874 0.027013747 -0.025165422 0.110767506 -0.035634615 0.2111381 0.003855778
봄 -0.062830605 -0.02176163 -0.013847245 0.06651366 -0.11551597 0.038096696 0.039766327 -0.050142866 0.05624053 0.11110406 0.02473381 0.034117322 -0.018116195 0.039744034 -0.036202718 0.05191256
욕 0.09128303 -0.07144429 -0.14922495 0.06925747 -0.027167458 0.053386413 0.09706344 -0.041044127 -0.05083015 -0.03592147 -0.07307156 0.15236269 -0.007792987 0.010254513 -0.054201603 0.1014068
훌륭 0.021914452 0.053348236 0.11080438 -0.115118325 -0.15265694 -0.09325045 -0.094006896 0.030731732 0.15876755 0.19752188 0.04360745 -0.027092358 0.156793 0.12667328 0.14103952 -0.0918273
너무나 -0.094395965 0.031715043 0.16433105 -0.031381097 0.022387685 -0.011462799 0.021900041 -0.10251319 -0.014155282 0.057255387 0.016245542 -0.13646062 -0.005366927 -0.011140156 -0.082583904 -0.19286714
강추 -0.06570811 0.060411327 0.028572513 -0.12520345 -0.042071808 -0.11610596 -0.09784994 0.10906125 0.097603925 0.053865623 0.07502245 0.010718494 0.12259237 0.091622375 0.13063127 -0.16151603
감 -0.061571907 0.004877767 0.043578483 0.053023797 -0.05643474 -0.021367328 0.017417483 -0.037535977 -0.026736178 -0.008210086 -0.12353827 -0.0597861 -0.087113895 -0.027262347 -0.05772651 0.018558392
됨 -0.0030513199 0.13528602 -0.06125558 -0.032517485 0.01017651 0.028968468 -0.02676589 -0.019753227 0.037562735 -0.017859073 -0.0019108445 0.080447756 0.042299464 0.023480311 0.066047445 -0.13191687
ㅡ 0.05759285 0.022873519 -0.086815186 0.035947133 0.06267937 -0.023111774 0.041910373 -0.025156714 -0.0697278 -0.041024785 -0.02300768 0.026491292 0.05466511 -0.05230405 0.08216355 0.017147724
따뜻 -0.08791747 0.10861253 0.15484989 -0.15310216 -0.14231983 -0.17835355 -0.095844224 0.033263877 0.06051084 0.13021022 -0.055357594 0.044938695 0.1293928 0.08712025 0.060237445 -0.024992865
빼 0.044056986 -0.032251853 0.006928461 0.011120648 0.1500352 0.038431462 0.18260507 0.023363056 -0.11138818 0.030455984 0.099504955 -0.2137292 -0.017557882 -0.0030393281 -0.03654566 0.07843582
느끼 -0.09553608 0.046830546 -0.036427148 0.02227245 -0.0049872 0.009295374 -0.015199515 0.037812516 -0.06411126 0.02215814 -0.045429792 0.08971721 0.057637475 0.06548314 0.012015197 -0.028686346
해야 0.02681165 -0.03263964 -0.01179127 0.11206164 -0.052743435 0.024942068 0.034182265 -0.020705089 -0.023234723 0.13145375 0.12026131 0.06199712 0.047516175 0.022744244 0.05760106 -0.061696474
드 -0.034140002 -0.124687165 0.02579626 -0.08793184 0.027667534 0.046287008 -0.0032099902 -0.07213078 0.060829934 0.08967863 0.06941018 0.025536427 -0.01157846 0.030902507 0.087557174 -0.075172156
도대체 0.06969509 -0.025707914 -0.016559051 -0.108494475 0.031279337 0.052996483 -0.008939471 -0.015285665 -0.00040135687 -0.008686627 -0.030311532 -0.052213125 0.055945862 -0.03164809 -0.06390052 0.03474032
어야 0.073095225 0.003580991 0.06635708 0.05879966 0.0078374725 0.06890434 0.10308041 -0.114290416 -0.05501995 -0.093033284 -0.08671748 0.026286364 0.033779494 0.0027688304 -0.04918258 0.11449164
답답 0.08765038 -0.08902559 -0.097656995 0.07729374 0.111004874 0.077111505 0.015348779 -0.044773754 -0.051010225 -0.0355505 -0.10815781 0.058356866 0.041301284 -0.025060635 0.0272903 0.07562113
마다 0.020743642 0.032201845 -0.0007324825 -0.013356467 0.014245287 -0.04220395 0.024387147 -0.050454114 0.049012672 0.102157384 0.07879529 -0.116790146 0.04230348 0.13890907 0.059748348 -0.10363283
준다 -0.011942548 -0.021384537 0.026945509 0.02330544 -0.048317436 0.052100595 -0.04181418 -0.0050235633 -0.1415947 -0.06346823 0.09513431 0.011596328 0.16028248 -0.057576522 -0.026870137 0.024093391
글 -0.008334578 0.047353517 0.11457905 -0.008854993 -0.032543227 0.038900584 0.08498627 0.082463324 -0.08667611 -0.00471459 0.026464835 -0.11364377 -0.046963044 0.10902967 -0.10155079 -0.116196394
전쟁 -0.035109088 0.004996859 -0.033318352 0.08164129 -0.0020923368 -0.00044251385 -0.053800426 -0.04174385 0.09326621 0.100098796 0.08951229 -0.13591811 0.033580277 -0.03395792 0.12090623 -0.12750708
놈 -0.0040145135 0.04323028 -0.055799343 0.07574969 0.07331778 0.018891787 0.067105964 0.14260042 -0.051172853 -0.031737614 0.039356235 0.12378478 -0.020730047 0.023726113 -0.014051398 0.020486154
설정 0.1352674 -0.02570973 -0.061066303 0.024343476 0.071637735 0.024555022 0.057433583 -0.13421597 -0.111970626 -0.06140269 0.03495046 -0.17952344 0.0031744053 -0.07225418 -0.031591795 0.10121926
무엇 -0.06521301 -0.016319336 0.06477141 0.037430916 -0.06262466 0.05769914 -0.038842887 -0.017416287 -0.054793153 -0.00643573 0.08361467 -0.036145166 0.16190898 -0.038065895 0.050399564 0.022027353
수작 -0.21331549 0.19771394 0.12350396 0.08044529 -0.18266116 -0.17080876 -0.07596052 0.23408309 0.13656767 0.19562396 0.115297906 0.04991509 0.11121724 0.1518763 0.1345558 -0.17788327
만화 -0.045493353 -0.054194074 -0.05719141 0.028361745 0.04929003 -0.01130187 -0.031539764 -0.008227866 0.004453982 -0.016238162 0.04685915 0.11102846 -0.106199816 -0.01188621 -0.1537791 0.14486718
흥미 -0.06557543 0.009874792 0.06490949 -0.11016812 0.038443286 0.03152861 -0.05388702 0.006233401 0.04452777 0.04930232 0.022563959 -0.023196561 0.084349126 0.05518872 0.045545574 -0.11114725
그저 0.07018837 -0.051120136 -0.007901469 0.046395727 -0.03069491 0.07453313 0.035113916 -0.06305648 -0.02934247 -0.024232129 -0.10388729 0.06305576 -0.042886067 -0.028410083 -0.002169288 -0.10505189
감정 0.0066378694 0.08445961 -0.014342783 0.07862276 -0.02343407 -0.12158728 0.050978925 -0.009087549 -0.12614512 0.006231588 0.028607668 0.010786363 0.029013708 0.048133187 0.021367475 -0.047056645
미국 -0.008256445 0.011052925 -0.042870227 0.12780122 0.0064203674 0.01607807 0.026274672 0.032161664 0.019493667 -0.05349394 0.04439497 0.13411567 0.036165435 0.05410065 -0.04370666 0.024047384
신선 0.05318461 0.006498435 0.011523172 0.036469843 -0.12518229 -0.08973915 -0.12221732 0.036475632 0.052539688 0.07426159 0.012657778 0.09265255 0.112923555 -0.015576979 0.052048866 -0.059460126
행복 -0.036219727 0.1329593 0.01865947 0.11403807 -0.06178185 -0.062060114 -0.04754955 0.06870766 0.04002084 0.15830432 0.07499678 0.06525192 0.05809872 -0.044404887 0.05071586 -0.0024186466
뻔 0.08244953 -0.018076481 -0.026396932 0.06986842 -0.03384008 0.0062656677 -0.043961372 -0.13665412 0.0054799994 -0.11550226 -0.039662275 0.14151263 -0.05272234 -0.049549703 0.068423755 0.055480607
형 -0.01741612 0.061718162 0.058107685 0.011331541 -0.0031651072 0.06231349 0.08086138 0.036911618 0.0052169235 0.07853668 -0.049692456 -0.024321217 0.041413456 0.08251596 0.05032058 -0.06924721
앞 -0.004815635 0.03223034 0.0037589725 0.056361627 -0.058396645 -0.037792932 0.055239227 -0.04859013 0.02566815 -0.059858315 0.037982423 -0.021736111 0.041823074 0.03107499 0.051660053 0.057514608
허접 0.10817494 -0.091495864 -0.13755065 -0.1260873 0.07784996 0.082862616 0.17522961 -0.037991405 -0.18402717 -0.10474387 -0.1274306 0.05342162 0.006777468 -0.183146 -0.02200782 0.11023386
어도 0.040133435 0.037339747 0.001404917 0.045721147 0.025262505 0.012662689 0.13367185 0.00084348075 0.0036361243 0.0038463029 0.002972387 -0.0564365 0.008404209 0.084766954 0.009641925 0.034850154
군 0.09972947 0.076618664 -0.06408486 -0.01795203 -0.053733572 0.09704824 0.14707619 -0.03270291 0.0437301 0.08213773 0.0021015266 0.016387044 -0.0019610303 -0.03272301 -0.033776704 -0.043215033
시절 -0.049071956 -0.020045286 0.0175438 0.022982346 0.007328203 -0.060983263 -0.06133402 0.036004268 -0.026854966 0.050990507 0.073648706 -0.007353439 -0.027004164 -0.010125851 0.052159116 -0.016459424
관객 0.042060122 -0.023650724 -0.082320794 0.053987466 0.12826467 0.10894589 0.10181147 -0.16014849 0.015893042 -0.0319278 -0.018907376 -0.12817504 0.017852915 -0.006812657 -0.049614057 0.06565209
배경 0.0331484 -0.05573535 0.095524855 -0.036984943 0.07302456 -0.05444422 0.054997474 0.09712537 -0.05667803 0.11753422 -0.0014231607 0.040936254 -0.083953686 -0.010867147 0.027565546 -0.10157875
6 0.025710383 0.1443943 0.034067195 -0.051064502 0.051730648 -0.079930365 -0.086716115 -0.04663842 -0.015064354 -0.0032563477 -0.067954525 -0.037230417 -0.033951648 0.05058521 -0.01738134 -0.031194108
초반 -0.03430958 -0.060138676 -0.057687122 0.12336744 0.105939284 -0.015383308 -0.0040065367 0.09923932 0.018022342 0.07940292 -0.04953006 0.117754646 -0.111084476 -0.0016132079 -0.0023966574 0.1398694
사실 -0.10947759 -0.0050927685 0.08754222 0.006968502 -0.032617703 -0.041104745 -0.14308494 0.07910764 0.03579462 0.0140007995 0.037596453 -0.016182633 0.025351238 0.060482576 0.01733912 -0.013333675
웃음 -0.08096293 0.007350721 0.1404346 -0.048447486 -0.03705013 -0.026565548 -0.04927442 0.04108695 -0.043146722 -0.045321178 0.047649994 -0.027368953 0.026834726 -0.042407762 0.013533592 -0.14229798
답 0.0388755 0.042142566 -0.09195312 -0.021366272 0.07858335 -0.013963116 0.058089927 0.050179403 0.0017783426 -0.062049266 0.087734886 -0.031089105 -0.034229264 -0.07143815 -0.023288975 0.05591414
엄청 0.012486976 0.008342178 0.10261343 -0.075837545 -0.03209242 -0.043462884 -0.040264156 0.0043321424 -0.058333594 0.089244105 -0.08765194 -0.15788229 -0.039040815 0.010496665 -0.022277499 -0.1397846
더라 0.00018875628 0.017505351 0.041005492 0.00421733 -0.05735022 0.041853037 -0.086459786 -0.10496125 0.028028317 -0.016728982 0.061481383 0.17887436 -0.040882956 -0.10331171 0.061555415 0.08942851
라니 -0.06667786 0.09473546 0.0076291836 0.11979733 -0.0052446825 -0.075371176 0.028430235 -0.061165627 -0.022513019 0.021167312 0.077920526 -0.0890112 -0.09628329 -0.038021076 -0.10460678 -0.08956679
질 0.012928513 -0.06883661 0.00021061837 -0.013821653 0.00049061724 0.074466705 -0.00926772 0.044882707 0.0015037558 -0.064348735 -0.1290508 0.08665107 -0.08293063 -0.0614449 -0.02484955 0.09677613
자신 0.01641494 -0.06501414 0.06915588 -0.07073455 -0.105021596 -0.08116998 -0.038148817 -0.06519072 0.019233549 0.052837472 0.06748658 0.02036345 -0.037545685 -0.08960229 0.017705845 -0.09038202
추억 -0.012922445 0.044251326 -0.09197992 -0.08214074 -0.039611124 0.015400132 -0.0031710258 0.05551527 0.0419908 0.056852534 0.14119469 0.11613546 0.10219904 0.0075586704 0.0055585527 -0.018641364
캐스팅 0.015939688 -0.058691297 -0.1123426 -0.047350902 0.01541032 0.05505277 -0.00907572 0.032875277 0.018351944 -0.10702997 -0.011923436 -0.006173066 0.050232537 0.00030170465 -0.00092117616 0.04228986
첨 -0.0012952109 -0.06713642 -0.001758338 -0.013345021 -0.009584982 -0.08313288 0.02024492 0.006155187 -0.04034862 -0.020953553 -0.040990695 0.14977829 -0.00494849 -0.09490088 0.007278348 -0.011053648
멋있 -0.12601773 0.10356392 0.05494654 -0.009591862 -0.036115505 -0.10737565 -0.11294158 0.06882865 0.02292956 0.1480641 0.041221626 -0.0723001 0.07186334 0.0516955 0.05707579 0.0054578446
류 0.07219697 -0.019114984 -0.017448585 0.036266405 0.021101752 0.034548443 0.11913479 0.010481733 -0.12881154 -0.041077554 0.0022365665 -0.049493287 -0.033840984 -0.08663944 -0.063869506 0.041894063
어색 0.06535628 -0.08551304 -0.04812298 -0.005361379 -0.055144276 0.061132826 0.060228027 -0.059618954 -0.083838746 -0.119856805 -0.061002623 0.023395434 -0.14755948 -0.11812945 -0.13082895 0.015405245
시나리오 0.0252811 -0.059838463 -0.08393499 -0.08774526 -0.019588785 0.09915583 -0.07738124 -0.046313968 0.09135013 -0.05131828 -0.13535455 -0.1496 0.030035835 -0.044001978 -0.019059828 -0.048158277
머 0.06984533 -0.05064826 -0.005557022 0.058564972 0.08062145 0.091620535 0.021711456 -0.028700784 -0.042303316 0.014689455 -0.11869732 -0.011487999 -0.06259597 -0.014207768 0.03190779 0.038860183
밖에 0.046161994 -0.0005370752 -0.030692415 0.054647326 -0.021604568 0.025500348 -0.04246516 0.04047471 -0.007606203 0.049563613 0.008123941 -0.001397969 -0.030744117 0.08287388 0.025595363 0.04573126
OOO 0.075182036 -0.087312154 -0.08122561 0.11389275 -0.07162047 0.01856975 0.20487054 -0.026999228 -0.09613919 -0.063484736 -0.09091066 -0.029573126 -0.020669546 -0.11105204 -0.032330398 -0.0043990347
슬프 -0.1927313 0.14767343 0.066145726 0.025705772 -0.091231726 -0.04632984 -0.036365014 -0.014726378 0.013468476 0.06650425 0.0547719 0.039966512 0.01878053 0.012608276 0.044047356 -0.16503964
정신 0.010384407 -0.06636651 0.043275233 0.06052924 0.04557771 0.073851965 -0.005166387 -0.056040265 0.009193482 -0.063262194 -0.12907319 0.038312666 -0.0020699387 -0.102230325 -0.14841945 0.029282596
분위기 0.0023356318 0.06967434 0.011056677 -0.099637136 -0.08092189 0.03987094 0.05319864 0.07860401 -0.02678273 -0.002641506 -0.019606495 -0.0042973845 0.00016673486 0.08216854 0.07266628 -0.0050048823
소름 -0.053787913 0.07624371 0.06591424 -0.029529193 -0.11610191 -0.017553806 -0.00017655935 0.039468836 0.08702916 0.0049153524 0.08912577 0.15870559 0.13570125 0.04870559 0.05925084 -0.042711157
멋진 0.011562263 0.1511007 0.12153127 -0.099555865 -0.15503907 -0.1161942 -0.05120625 0.08817519 0.07341287 0.045869038 0.07734293 -0.04652551 0.12028499 0.108004935 0.059743393 -0.09892155
힘들 0.034483854 -0.010381027 -0.021873595 0.11234835 -0.010012741 0.010617099 0.0913845 -0.08337544 0.007913477 -0.033379912 -0.028851807 0.0764435 -0.07153419 -0.077428676 0.061600678 0.0023039049
오늘 -0.062113244 -0.015758766 -0.05368502 -0.0007602366 -0.045105066 -0.036367025 -0.043932073 0.044349775 0.08811594 -0.014083433 0.010908193 0.07882866 -0.08006367 -0.067889675 -0.028953541 0.15675002
어이없 0.045241337 -0.032701727 -0.17755511 0.07482458 0.09126539 0.045176826 -0.0044446914 -0.021547094 -0.0643492 -0.1376804 -0.078387946 0.08645998 -0.13107109 -0.024460081 -0.030798668 0.10233487
봐서 0.004602307 -0.008056862 -0.037102044 0.054398295 0.023543669 0.0023297889 -0.055775978 0.030903311 0.038879745 0.030323105 0.09169533 -0.036409635 -0.04043444 -0.10615852 -0.07924182 0.009543465
잡 -0.04012833 0.0010852525 -0.075349495 0.059222307 -0.09489274 -0.05493621 0.11265053 0.068785354 0.0066483053 0.02126182 0.021983027 -0.032389857 -0.04078339 -0.06665002 -0.003937481 0.015227489
구성 -0.012495169 -0.05428403 0.03576561 -0.060485758 -0.017284947 -0.012858073 0.15445365 0.028015008 0.014062019 0.055756398 -0.07544958 -0.064068146 0.041199896 0.06490103 0.087886475 -0.096575186
엄마 -0.08466256 0.045416065 0.08371063 0.106078744 -0.016563369 -0.034235153 -0.042781256 0.035783503 -0.06574999 0.07526238 0.09697755 0.18320885 -0.0033099893 -0.06817056 0.04798356 0.065816805
함께 -0.050284855 0.036674045 -0.0054147593 -0.12666942 0.026078217 -0.07058981 -0.08473203 0.042803057 0.062579736 0.02844857 -0.031608954 0.047268257 0.008175052 -0.039066836 0.054871205 -0.13089412
문제 0.06538903 -0.044560663 0.019474056 0.04335914 0.029853502 0.07594215 0.0343872 -0.01801429 -0.019605426 -0.017721375 -0.043714833 0.10604263 -0.039189335 -0.081225224 -0.047087815 0.1040443
위해 0.08062168 -0.029430097 0.020228075 -0.004392795 0.16396461 0.0603936 -0.028359687 0.043738324 -0.014806055 0.025814293 -0.02801474 -0.003956039 -0.009836999 0.011542259 -0.0065422347 -0.009269395
졸작 0.10689237 -0.177415 -0.096964575 0.16539523 0.100334525 0.14487132 0.087134905 -0.10804227 -0.09656295 -0.059026156 -0.05072327 0.0005653153 -0.19703737 -0.101573065 -0.06632037 0.12168851
잊 -0.018261284 0.04327599 0.099481165 0.10155671 -0.1470775 -0.17408209 -0.06031486 0.0066078347 0.08498521 0.01619064 0.002416663 0.0048829005 0.15201634 -0.076564535 0.06599983 0.1472296
이딴 0.15650721 -0.029427148 -0.036120832 -0.06882611 0.14134257 0.16228032 0.03190519 -0.09011278 -0.21291372 -0.14705391 0.003863087 -0.009226288 0.03303023 -0.14458881 -0.20587045 0.11296719
등 -0.00515797 -0.07180441 0.031004395 -0.13505429 -0.10090584 -0.08781625 -0.016271433 -0.03389032 0.07623815 0.11019372 -0.005655396 0.02685293 0.05875966 -0.03554926 -0.0035098274 -0.084288396
집 -0.059327047 0.029352093 -0.018637454 0.05173305 0.05564839 0.051290445 0.11012878 0.005455181 -0.06758038 -0.046496764 0.06311358 -0.011360601 0.0010331837 0.017528096 -0.09315421 -0.14251311
유쾌 -0.078946136 0.06404573 0.049117215 -0.0011245941 -0.092574 -0.10999983 -0.023829889 0.06391926 0.15157355 0.11573267 0.044608653 0.086294755 0.12612358 0.09094789 0.015324714 -0.00069928763
뻔한 0.03526267 -0.08000714 -0.020260977 0.103839494 0.007855581 0.06424249 0.08311841 -0.026425898 -0.0749361 -0.0998983 -0.19283782 0.028973365 -0.15059161 -0.076392144 -0.052448735 -0.026621984
킬링 0.018263044 -0.012562377 0.09005308 0.043810412 0.00730695 0.085516915 -0.061468028 0.09552906 -0.002864183 -0.051497683 0.032121763 -0.021016536 -0.036585193 -0.027040223 -0.03376825 -0.008006941
스러운 -0.12223013 -0.03805733 -0.05608509 -0.13574582 -0.019282278 -0.07116683 -0.0806561 0.00825727 0.0746278 -0.007214963 -0.025688814 0.11211796 0.09803768 -0.0677329 0.118446715 -0.009517264
결국 0.050074007 0.0052017616 0.028464621 -0.0063384534 0.0368799 0.08762216 0.0010291296 -0.061855808 -0.041911814 -0.0065088924 0.038611744 -0.018732572 -0.09935031 0.062785655 -0.13182104 -0.06797297
낫 -0.08154623 0.08891021 -0.05314445 0.16027337 -0.034217488 -0.04349035 0.1257549 -0.049434938 -0.014357924 0.050128415 0.07541166 -0.009095966 -0.039279632 -0.075701915 0.0061491546 -0.031256437
한데 -0.05422778 0.042498205 -0.022979297 0.021125995 0.045547124 0.031832572 -0.019000383 0.0262474 -0.07228004 0.0016227383 0.055617668 0.08174456 -0.03450071 0.016445072 -0.070630796 0.13219604
나요 -0.017821087 0.072327465 0.06205881 -0.06299507 0.011817337 -0.019398393 -0.09648106 -0.054676924 0.08003311 -0.006646914 -0.04040176 0.0010066726 -0.02341648 0.04007552 -0.0028877656 0.05713113
